"intercept_mod","scal_mod_temp","scal_mod_weight","scal_mod_t_w","p_mod_temp","p_mod_weight","p_mod_t_w","r_sq_con","aic_mod"
0.216669363452907,-0.00355515875531525,0.00090544390882202,-0.00214213284984426,0.162611994246297,0.932280334382484,0.461371484085387,0.367084593998113,-351.633555118309
0.226335874517959,-0.00284318273115593,-0.0179634325521515,0.000411497432925052,0.27838422224639,0.0899920388703615,0.891936450109456,0.530562797002733,-375.779129307108
0.201898545771302,-0.00535628511994757,0.0159455976377077,0.00201907565774853,0.0589364606597951,0.2270497707398,0.539258664579631,0.616258627067871,-369.644512674669
0.211183115137907,-0.00367049727567494,0.000477530817119429,0.000786780608727245,0.209225064390846,0.965362738726083,0.821822294738358,0.382749138070883,-341.201320800409
0.220597608371194,-0.00157124964133846,-0.00417785672392439,-0.00475641477888904,0.549482416219493,0.60571294376304,0.14312260018288,0.480615074781191,-370.310511234122
0.215651445090558,0.000785508079559015,-0.00888560865802786,-0.000841592562345808,0.804713898177596,0.526462416943446,0.802339544522021,0.475550916334186,-366.231815827762
0.21763344139606,-0.000441132509877128,-0.00486557828690103,-0.00174429386879469,0.867051160523921,0.629901340117311,0.54069287410976,0.449506601186577,-347.578483198473
0.209357881447171,-0.00588303577859439,0.00804127566289481,0.00469129264137761,0.0282487699625971,0.317481855282053,0.134937291353546,0.671394916690353,-400.651053596526
0.219206213341168,-0.000911167303552383,-0.00623818167712958,0.00309330152174653,0.75854849146622,0.422354321997712,0.319602162502784,0.589232409444699,-355.395332447945
0.233622282371025,-0.00793195310020476,-0.0195240333547663,0.00332729925671439,0.0330040156899595,0.126052460946461,0.420624753896838,0.446955970480022,-359.148813320287
0.212751602967369,0.000401160497932241,0.00129600224163921,-0.00132668185593298,0.888497210549206,0.849832312497447,0.729455666934297,0.395403085618327,-356.28341212316
0.21354016223693,0.00320648305849782,-0.00219379272970473,-0.0039897211823801,0.385880714443136,0.707913880947381,0.371313454986922,0.382258780015186,-334.110225526828
0.222726992753154,0.00126386028201483,-0.0142327287335871,-0.00520944257279106,0.63370460890688,0.0741805576438213,0.0579472648810515,0.547496969924041,-401.652171671693
0.197510794040068,0.00370397266029318,0.0193455238585766,-0.00173536318053566,0.331666970662328,0.0997711617167021,0.701193412968181,0.668287472275889,-361.306262497131
0.214316995631375,0.00352020716412786,-0.000129824288131607,-0.00163676014342598,0.183791451945812,0.989219834738492,0.568020651540577,0.596316842526377,-355.320536120161
0.219556923391148,-0.00751269233160012,-0.00906130787268349,0.00756310339068331,0.0185927957095039,0.263659661799042,0.0259929376162014,0.587122486769562,-360.004959033858
0.212390286942481,-0.00133791904035712,0.00594480567463771,5.06638294814689e-05,0.616595719643383,0.611898195619995,0.986123512647576,0.507072563017278,-352.592865138758
0.203327021686789,-0.00197936355433095,0.0189524486717813,-0.00196467898692685,0.514927899594256,0.101826817731082,0.565911916009356,0.627927270414312,-370.179616062899
0.224115411788776,0.00189024033181718,-0.0134497071830163,-0.00266714804258878,0.612301033464673,0.231281696001491,0.490424342341039,0.51724969769316,-360.362530034068
0.200000252579915,-0.00104389105384346,0.0150663239883547,0.00342518293301894,0.656893430235892,0.194510988017339,0.240421100655074,0.698642098326704,-370.419254999508
0.218136524749181,-4.36106149040227e-05,-0.00727685463016695,-0.00135347930331187,0.985607499261265,0.513141109104588,0.546274013942756,0.41363249502008,-357.039313681347
0.210233077272016,-0.0055849493574777,0.00871538998844187,0.0022518757301338,0.0611230066476441,0.381834875017035,0.225455826143729,0.478642897606192,-330.015469962214
0.211679077270067,-0.00194559327384186,0.00307929214941694,0.000384775535028308,0.435739513418193,0.76414161233428,0.89131865083635,0.607221043223131,-382.708094445565
0.215726958867801,-0.00928665444186161,-0.00615192542666559,0.00651301484257987,0.0103634900757852,0.615132155209217,0.0918337105961018,0.517241288121629,-369.556160945074
0.220358133823485,-0.000436979635134727,-0.00396510067206881,-0.0037314319047422,0.867345984626446,0.577840933268355,0.177564838263105,0.42331179085244,-351.563725100633
0.21021498628245,-0.0041483130021108,0.00800058706455017,0.00351956251462288,0.2137859905192,0.230792101803664,0.362325546861706,0.607129384536935,-361.473742621885
0.223937610509393,-0.00570363353846305,-0.0117674105839164,0.00315739707076176,0.111748873007473,0.30370217067609,0.351736257090947,0.413137748387112,-364.451043716912
0.223363667716708,-0.00430192516022012,-0.0128030148064207,0.00355062443049144,0.201837789439716,0.280612206492476,0.399555254422854,0.507734276773472,-356.392937551007
0.21405962700547,-0.000446199524518887,-0.00359848134162237,-0.000152473864854452,0.878048477962418,0.672208980606706,0.929700835473876,0.503476923993671,-321.405374012949
0.227404160684475,0.0016334484861678,-0.0168521755471284,-0.00564038511737205,0.615746515105589,0.151308634560795,0.150077747597484,0.461075617962488,-361.02977628492
0.208156698908765,-0.00198542810031836,0.00386730667843568,0.00170755208918435,0.500975396361489,0.590623710479766,0.607608488077327,0.50804480635916,-347.902693062508
0.210689303656679,0.000976550098332799,0.000452284788007044,-0.0036364873313154,0.728278961008212,0.942277852656384,0.334601786434579,0.527968546145608,-348.871201724852
0.21118073737942,-0.00591840132911972,0.00402990854869869,0.00402422705596057,0.0197180973864073,0.685688791980121,0.190143538061774,0.64067511660029,-397.915463550152
0.20968377749448,-0.00428545299751639,0.0050534005380291,0.00397155838854799,0.236808754486303,0.636467314178952,0.365757258453738,0.571556799734864,-355.127894061169
0.227318756646886,0.00514296952242714,-0.0236224683055713,-0.0072283752259465,0.183569265288357,0.00552253602239084,0.074342478840756,0.370430525133994,-356.479599306073
0.211874179762,-0.000755177335913672,-0.000746715097477125,-0.000732074908501128,0.729899442638344,0.938168250976301,0.780299373856283,0.508540316034613,-375.142480972588
0.211008297057004,-0.00454307598823371,0.00376500246203486,0.00180986001583309,0.0966401429313952,0.394280389381859,0.522426163055922,0.561852834636245,-386.402938574008
0.218096401367551,-0.000979994666336595,-0.00527478080553292,-0.000235361165194347,0.751320051632391,0.356000378106441,0.940528778752902,0.431694195314522,-345.696896475332
0.209662510274598,0.00111021422502161,0.0025773780283317,-0.000840433488829704,0.684008582583654,0.735689687249878,0.797792346662797,0.549368978013713,-368.510099262163
0.209866899276763,-0.00301965413295426,0.00259606910473689,0.00147040173423886,0.37888995344826,0.66223447818687,0.701250058097219,0.458755405295551,-347.513472003314
0.217270297358615,0.00209091647881155,-0.00525312753312987,-0.00323311857622634,0.540854921017873,0.724838653116807,0.41849347595695,0.565955776668906,-379.345436078998
0.217907466022947,-0.00514522533360678,-0.00819718712718831,0.00237679336648858,0.0415819999959693,0.238798242914506,0.245005090550926,0.494156375695537,-372.762667116661
0.224267245034363,-0.000721805588537466,-0.00693059476240031,-0.000719472103794814,0.800303320210581,0.507263942962272,0.842781572923937,0.582941914448195,-389.599500968479
0.212058413592949,0.00254772254345789,0.00136638750535616,-0.00053932523485093,0.461751745897456,0.626359790067612,0.899792670689689,0.533049420532551,-354.212618386301
0.212738461681975,-0.00323730004338685,0.000124158884584705,0.00158114397161591,0.363567238415702,0.982205273410571,0.689702388657443,0.461755304233359,-343.037464487
0.218524453452027,-0.00369102706976275,-0.00311302378414086,0.00172235740253156,0.14463520577564,0.701763781866062,0.447435982039633,0.445666135917494,-350.267442523291
0.20839307213035,-0.000937887835186598,0.00653580405488938,-0.000924806775361485,0.735919698236179,0.475216052637845,0.75373130013275,0.589927385963129,-365.527177950205
0.214094234917569,-0.00130779839213887,0.00213492263298879,-1.12984734615271e-05,0.583035387493598,0.844302972322649,0.996005925044118,0.54604209199512,-373.733403935902
0.207604743402296,0.00185680247585647,0.00852043759334268,0.00227183437019374,0.505753824719874,0.57385702314979,0.492478657202833,0.694135826383239,-378.143801217254
0.21905157965525,-0.00249476149094798,-0.00741063916060493,-0.00378115623327015,0.447128717151385,0.195630798675624,0.316880075968502,0.394749109624312,-369.369671450984
0.213316999320553,-0.00216854599516761,0.00514497266799371,0.000550017156543992,0.396407607252719,0.567249330653736,0.831031469548246,0.526141531511234,-359.320252189963
0.208758821912624,-0.00257817708566438,0.00300446863320781,0.00265226326802085,0.3495613056872,0.792408206429183,0.433395329522812,0.603174435546275,-367.989708459367
0.219055469788468,0.000102912958609826,-0.00874566802940326,-0.00253632223956953,0.969338666199976,0.478564172062199,0.316329434960052,0.451749909181007,-355.244678985541
0.218577706098306,0.0032228509875219,-0.0134653108142792,-0.00255800742445243,0.129836806871256,0.0629686161397612,0.228231389757608,0.590341426134243,-388.30290489916
0.206735310959151,-0.0035832655691957,0.00806088986324223,0.00314759750929478,0.16703645473418,0.166474423025937,0.087506471507775,0.563951614912271,-371.752776737453
0.214637400563298,-0.00568646288469191,0.000841456493844889,0.00108831080645065,0.0173367496686159,0.876358488384795,0.626682681326576,0.536512436096165,-396.271149284703
0.228679103008826,-0.00313608726381596,-0.0174286895765531,0.0031448462065095,0.390904445171667,0.155088590036448,0.494059488855463,0.424857048894423,-351.505914923939
0.225899475567159,0.00162278017591556,-0.0213230289947118,-0.00339076064335323,0.630854403131854,0.0170511689725786,0.368532103547726,0.448738430705901,-358.902455521633
0.217474953548565,0.00028571342711386,-0.00730700461473271,-0.000877809689559255,0.903283083860621,0.312210990628888,0.607652103861859,0.475135566581264,-359.952550526672
0.218398525629573,-0.00411566391245799,-0.006890191415465,0.00537603246830029,0.234755474711619,0.629616865692699,0.163487688188441,0.590087381696646,-366.070108767041
0.219747866156355,-0.00508369210694309,-0.0060593789816335,0.00155232839544533,0.077217251846067,0.32886393951333,0.550048088639681,0.381325917915449,-343.755394116836
0.211212003919763,8.79585627940094e-05,-0.00222379817056321,-0.000429862680540837,0.972150530713891,0.539659396883752,0.874193249944533,0.554071907902698,-375.176429476087
0.216370305602144,-0.00204465065249494,0.00521746442243514,-0.00260483307172395,0.622261483138324,0.521420948527283,0.547618410073971,0.493512819471878,-352.932357617179
0.225945094066552,-0.00376746157777496,-0.0170758420035082,0.00106950612146345,0.190107742333038,0.196957973947522,0.735402609723033,0.458613495891453,-378.329801945153
0.22183336080642,-0.00226952612280317,-0.0160918427162811,0.00444099829754873,0.4644680751313,0.243367520553515,0.256719145133538,0.487354512483441,-365.463275137172
0.217860422641342,0.00233935994369617,-0.00386122087902419,-0.00204264485930324,0.471462943682237,0.5393902127371,0.565931620572113,0.491179094832469,-359.629550496524
0.20995566918845,-0.000133475139170145,0.00231278745720168,0.000498232147399692,0.950576883158581,0.707166178895004,0.798418508493267,0.543634019515934,-371.599616450699
0.213406872915834,0.000845418657932164,0.00284782715917232,-0.00196158583729056,0.811633089440262,0.806557828959535,0.639714147609742,0.472676933579931,-350.276955792904
0.210647466254777,0.00252727469616963,0.00377112890773872,-3.62301965755968e-05,0.409608659354175,0.748685768811563,0.991885020384773,0.607689028423505,-357.986894361592
0.230695161048695,-0.00102104033802977,-0.00865546293651846,-0.00452065263267053,0.773471006065336,0.173430141962336,0.277381538624622,0.436183226070506,-361.161812821308
0.212512807290082,0.00249126611920471,-0.00785244230163385,-0.00427556712777083,0.260755742624458,0.300070868625728,0.115392872438094,0.562243836014144,-392.665707396817
0.222866579498988,0.00416698535933871,-0.0217568864791774,-0.00556697405813761,0.2134037053868,0.102733169307757,0.166140874611287,0.49268128847818,-363.00660324706
0.212343805792169,-0.00358316494951977,0.00827418352693367,-0.000537917312143234,0.237375025969846,0.307043328568527,0.888835573878596,0.528919930060967,-359.158048837024
0.211820514004215,-0.0021095735771734,-0.00185745441409587,0.00538976001058444,0.520432029321568,0.886886417387377,0.175308897496742,0.620190962246865,-359.422388977236
0.198840084348202,-0.00236569944852479,0.0158173204038706,0.00241260272262068,0.373828123226371,0.0653184468092118,0.400237423717271,0.621707344469374,-361.670348394777
0.214622325096689,-0.000418057059493691,-0.00307627091453929,-0.000544396426487282,0.884986300136608,0.663546621422979,0.873230423537226,0.517034243645909,-362.580736394632
0.215104251068217,-0.00314738288186172,-0.00328019237541059,0.00122169243032557,0.355821661575214,0.803390542427099,0.737657566767725,0.548172346279421,-377.765344753972
0.213711111246566,-0.00146035686241953,-5.20585666737757e-05,-0.000132954939380909,0.593469239021301,0.991539262604683,0.955780718104517,0.465924218478649,-372.797274419425
0.208215324882683,-0.00728197221468867,0.0130200992830891,0.00280945394839036,0.0124582899533554,0.196405089980423,0.412362369427662,0.596461033317573,-374.23558745127
0.214744670943558,-0.000464048601318153,0.00342840831764338,-0.0012364262620759,0.895091412788414,0.501813731649938,0.774881338567007,0.428791588044865,-319.240723656133
0.213178545253865,-0.00678793372733867,0.00044322844374575,0.00271937604366544,0.0147014344479412,0.964058857086451,0.380103694230404,0.549435634849286,-371.420684028689
0.205285713163967,-0.000514570855364539,0.00667532327881697,0.00140011470720483,0.885946329915643,0.617142706520518,0.729659387834408,0.583154105467187,-375.817043956749
0.214287331554014,0.000746595560003904,-0.00737055993774644,-0.0026120250025311,0.824555075013246,0.164580279801799,0.570603167516842,0.471586328039734,-352.485747688873
0.219180687077724,-0.00115230122778015,-0.00682217170798891,-0.000657606910991218,0.643754672561935,0.472845140770973,0.829723140871412,0.441403279486402,-345.923866530774
0.212291471997444,-0.00426863945587821,0.00517600602726115,0.0064990121501416,0.139536544800672,0.72399428474001,0.103946064555917,0.626949373547318,-365.591985278627
0.217394504588085,0.000505901718920643,-0.00473695313988584,-0.00267265416815108,0.875645860893825,0.754880298179901,0.49301441164469,0.453817788520579,-357.067096103272
0.216475378751369,-0.00512958271915893,-0.00143648823225096,0.00450242608860899,0.0927070007577096,0.705094927452874,0.24227087304695,0.560102860913786,-367.312968862986
0.229414096845138,0.00401246090516815,-0.0175362430602088,-0.00457150282962699,0.15781362816569,0.0885231750797526,0.211402423837005,0.42760472870301,-357.381257403698
0.229050791915228,-0.00195403665856749,-0.0205250799570547,-0.000346273973076088,0.505368743471986,0.139831356999151,0.924955003920683,0.478145122832804,-370.757134300985
0.212420653214844,-0.00283812138444379,-0.0060827467167109,-0.00207339366401507,0.250419479111037,0.398060730537463,0.438412233967441,0.517284792618836,-391.865856315506
0.203947948032831,0.000298831854151941,0.00569758126720621,0.00114641829688909,0.912066912141962,0.547117975286476,0.72003140662208,0.569663163416993,-377.778249806217
0.224140520535967,-0.00357852194452222,-0.014115207964654,0.00294355732510747,0.292044597053382,0.183900235789026,0.495328203058145,0.43887430962195,-370.528850435113
0.21560355940425,-0.0022403970633857,0.00592553555819637,-0.00111822854471326,0.400378719765691,0.623679134664775,0.683130002443834,0.473930720426973,-342.106375466637
0.221764885470632,-0.00163955894386072,-0.00254847973379682,-0.00583044855924248,0.608033816624638,0.599627769967943,0.139321260887433,0.376689090302627,-349.126151806188
0.208148274270622,-0.00161294581944348,0.00420724617521355,0.00207432999498215,0.520400386810461,0.575287734780179,0.455568973582721,0.622815310894571,-362.673602042049
0.211369221266707,-0.0040359538639084,0.000755888533572406,0.00375514742743063,0.129050443493015,0.922346068056225,0.189322184428958,0.636728761420474,-380.335858591298
0.223886664390137,0.00185635481923333,-0.0136351100935794,-0.00199021946257117,0.573602602910314,0.362878111506453,0.619578082613122,0.387489790293605,-338.402426149864
0.218678057655104,-0.000463619536357177,-0.00341089194805334,-0.00122918732557208,0.886150922964058,0.756951561202143,0.756467668101223,0.445640889310647,-345.867890902115
0.225225799573352,-0.0022476370073702,-0.0115284445088907,-0.000913341259820196,0.415301418603428,0.133799010783502,0.752028790918522,0.414652763683871,-352.798524843796
0.22600985290668,-0.000579864106896961,-0.0144398047077072,-0.00149568174015712,0.789063236028053,0.074939111699433,0.44785285387114,0.55917091141749,-385.448292728642
0.208765586239215,0.00119926421707671,0.000138760899622043,-0.000463663070434284,0.700242277668277,0.982928673594225,0.898720011911497,0.507467001747211,-370.726721942318
0.208600748882382,5.93698190211713e-05,0.00306653781572344,0.000391565905201325,0.978413587919217,0.769792866592511,0.857032856150037,0.607562431620603,-363.220230251361
0.221106471674417,-0.00206283368960027,-0.0138909147729875,0.00224429067927798,0.480883225038469,0.0390484346432523,0.470698058082963,0.475268044856466,-357.521464775221
0.210840281538085,-0.00187156828302099,0.00673564511026294,0.000286036732411997,0.471482887329098,0.376140635719779,0.92064078725561,0.609816112504454,-372.468360065195
0.225815962397806,-0.00468146463327563,-0.0115822466410207,-0.0010953408671079,0.154248726291171,0.270512325771801,0.719790322513182,0.318517469517273,-350.405377251126
0.208975320983764,-0.000293069679721841,-0.00160109705685163,0.000615289467371806,0.925637571831131,0.835849139817162,0.868242248665405,0.471017685348351,-356.310445367549
0.210697201335536,-0.000644176537234607,0.00319299135119678,0.00089325515025525,0.828490442729465,0.822445143463332,0.821653167703767,0.582033611698046,-369.189603947196
0.21700309214657,-0.00160857091430071,-0.00694374152725039,-0.00124940269832445,0.624915549697227,0.583777664142357,0.749801594751874,0.455547464179791,-359.690608907475
0.214372863271398,0.00113141485333048,0.000263076952387371,-0.000902145774075315,0.657423039342933,0.968775605256216,0.769503174092148,0.55220753709226,-372.202985537798
0.22162624915899,-0.00172054816191629,-0.00699997418448006,-0.00383110659861416,0.544488955301493,0.278226712271969,0.263635184305416,0.355712764633042,-360.813807583461
0.214835587432465,0.00103059929072776,-0.00949032377452282,0.00219561117401215,0.696747326088974,0.538778912962982,0.537648027460004,0.608815169422449,-364.264492092365
0.21422145763487,-0.00408691892928933,-0.000354259826035697,0.00336806157460615,0.230635044583936,0.909583405287988,0.447673247872024,0.623489626438615,-374.402468564955
0.219907154242853,-0.0061131065173469,-0.0115625621772339,0.0105972954450006,0.0853878079393611,0.429050769117089,0.0129498710852551,0.625934346632963,-376.209988351303
0.221710688481138,-0.00237419876360645,-0.00724457837206085,-3.6660276775126e-05,0.402984104317728,0.382412895801551,0.990811356495007,0.454699440057555,-365.897539076344
0.214103239845295,-0.00101911877425189,-0.00789412147673213,0.000476330469105848,0.684272894509441,0.375858575649357,0.846044818217717,0.547773170194354,-383.533197548426
0.217164004887499,0.00035949110256161,-0.00618023058213094,0.00378773360943968,0.90196031189043,0.496504022863735,0.225721455459148,0.600572384460093,-379.76661921682
0.221321884596704,0.000661056267454055,-0.00948098940325167,-0.0010858806035666,0.842725105007925,0.513042403712891,0.773874916752578,0.483651212776326,-372.342317458353
0.223093724288927,-0.00422787200074353,-0.0104223413798317,-0.00274361735521573,0.156554807890065,0.177851278942635,0.311878812878736,0.397962390035498,-341.526875352152
0.207065340814616,0.0021295114960993,-0.00313346040939497,-0.000774855494109689,0.548172185480659,0.601739702827549,0.844899099547463,0.517754698561562,-366.459139767841
0.21616910852459,-0.00311041863714666,-3.09825310019993e-05,-0.00130591507606153,0.217692433075598,0.997135926058964,0.664289870538281,0.429819776580335,-347.820611120612
0.215391321242009,-0.00210838727718973,8.51244684882482e-05,0.0027131259895378,0.489186583049968,0.990481472227629,0.431415053186151,0.544915523891312,-359.996839312674
0.214797032414898,-0.000183466641926436,-0.00440660356969942,-0.000474514940756735,0.944901664248094,0.67057546163951,0.856015301702007,0.428259572804458,-371.070330092858
0.221302198343677,-0.00338461186969517,-0.00687618523566442,-0.00353591967015195,0.269743755679329,0.368722459070912,0.272237653326437,0.336656534119646,-353.154377949378
0.210053099497238,0.00250158653192982,-0.00237137420025471,-0.00024344194658279,0.370819182257663,0.793085083961786,0.933694148674611,0.593809772426479,-373.985184776215
0.215534343422138,-0.00496600765558616,0.00155697336639672,-5.47720183138065e-05,0.139998755020345,0.798136397435738,0.98847282111565,0.480908768024586,-360.350169433984
0.222618807532673,0.00131197213423792,-0.00466048585207884,-0.0071317351084578,0.658046859093344,0.365429933512994,0.0424757358229554,0.438306258982362,-364.610682835921
0.222325212162992,-0.00303632421133817,-0.0131173791578274,0.00180363579188008,0.290873335847657,0.167656338852793,0.555930091329531,0.516263639187418,-374.966996940166
0.223178579627476,-0.00481374489263207,-0.0165426940473244,0.00447063435594764,0.168537485769246,0.0479311448769884,0.200348667687233,0.465524202255297,-349.106255353534
0.214961463579802,0.00189269630597016,-0.00884752413892042,0.000250013810956024,0.621965544072795,0.434329903378716,0.95248944476979,0.507925961968797,-342.667449710548
0.232330743141966,-0.00801821164296492,-0.0219129206942265,0.00657417784374941,0.0156729534160455,0.0603475344666128,0.0819522033186164,0.50957649852121,-376.234072601512
0.221502013096393,-0.00142514839240491,-0.00614350726823277,-0.00141121932017744,0.658714507613783,0.52644648607827,0.73309692762162,0.535954570246471,-370.076608497872
0.224892702089516,-0.00502404639867728,-0.0115465431280454,0.00196156549520166,0.0572774118595578,0.143748406826281,0.487844283698575,0.514838566956905,-378.260869112933
0.210675241286619,-0.00457714506883208,0.00589483343534843,0.00307179755161133,0.178372835680677,0.479926281278502,0.376925027877357,0.56119596396155,-359.576409944212
0.21333224110693,0.00209005325025141,-0.00373116064381668,-0.00431105582256721,0.509658102720201,0.775676396054235,0.280591607707635,0.337544028456593,-345.377627536012
0.21127035247458,-0.00232850544677003,0.00476991447705862,0.00152405372696132,0.465126173211917,0.730230151830303,0.696492759830162,0.562612207470093,-362.25273108736
0.219725240352573,0.00474946202074356,-0.00858681438802587,-0.00322490336235336,0.0928798433324194,0.303748585122772,0.253988646410756,0.568190713173794,-357.811826866241
0.226523413144834,-0.00468453489399674,-0.00920122312420804,0.00165057138451536,0.157281536023401,0.308591584950509,0.681460370937171,0.473970720308189,-341.249261830705
0.212554224864908,-0.000461969707546319,0.00296670621579777,0.00120799121679101,0.877711498496925,0.760640371731762,0.677804100363257,0.524404527670445,-344.546383916131
0.216617379396622,-0.00214920233969199,-0.00374897799640099,0.00196770500904905,0.549565334962788,0.396977413740601,0.660358048088188,0.474761286513687,-357.281113487966
0.209176150788743,-0.00364985416958694,0.010183205596184,0.00473141840850786,0.367988025264975,0.122240786474992,0.30732454193123,0.614515345284033,-345.757951933351
0.215457518963117,0.000889597277763799,-0.00321820820926633,-0.00015729285676634,0.830155762976049,0.600063838167177,0.975155366402663,0.388663949530344,-341.649500907569
0.213800199307086,0.00136082679773883,-0.0051042849266436,-0.00140268288352007,0.632701047551931,0.569371048661808,0.640010221525426,0.555029362418412,-350.912242454513
0.217982105965725,-0.00494161977141152,-0.0111313087811602,0.00650868757896808,0.166436099444691,0.330362387391056,0.108236124458917,0.447568577631717,-348.69749626573
0.209022807529077,-0.00315248610021235,0.00155055491700105,0.0016698783087061,0.326658077648638,0.781897361804284,0.60145894730824,0.428583939120154,-352.186530399141
0.221145467160313,-0.00507948612093403,-0.0106481611386902,0.0044704126143829,0.0647988578564868,0.38618279235609,0.217926774407271,0.512207055115505,-371.580793056892
0.21653766375062,-0.00542043120581568,-0.00687748102248854,0.00750983113410988,0.122153182092768,0.606667936167249,0.0699414402684572,0.556378060659846,-361.225666952933
0.209562486972776,-0.000525186001083821,0.00387427083275658,-0.000591615037886852,0.820964487744381,0.676516943684608,0.82904781461848,0.490211181352874,-365.618250164606
0.212323813605933,-0.00436202851167023,0.00501039334280763,0.00273315308192613,0.178264768958536,0.74296680590455,0.51371065543962,0.609880441713868,-376.859535286532
0.204653770047375,-0.00306277619182054,0.0143887301689125,-0.000543311465963052,0.257336081653919,0.152427748325432,0.871542417320839,0.604757517608676,-371.587165722103
0.209643551337902,-0.0013230244797702,0.00481751196803806,-0.000502974557680832,0.710648975727064,0.727486162664424,0.906297126996632,0.454992883917618,-355.539234443602
0.213574359381842,-4.09156967743694e-05,0.00538499247959366,-0.0026517347500972,0.986371242711257,0.439198204472753,0.226023705571279,0.467099077228755,-346.689582844702
0.217712050831228,0.00175263710096666,-0.00175036473054241,-0.0070276201651292,0.578523647584776,0.896594575317449,0.0952461447204523,0.401096613006725,-339.797964619517
0.216333759327736,-0.00242256009960443,-0.00224772019357707,-5.66747767185457e-05,0.380857236663032,0.686968518548457,0.984329634436567,0.47365150881876,-344.253491949118
0.217929799798345,-0.0031526493939602,-0.00471707865411905,0.00173236650585989,0.283692815781264,0.663464700951491,0.550950364990914,0.470064249673297,-364.393537543174
0.219130331425086,0.000245665556219976,-0.0124154410582385,-0.00304238117433805,0.919792901965577,0.110583754132138,0.14172677276297,0.413065101981992,-359.296564834951
0.202634435168616,-0.00626057449529316,0.0209518676643113,0.00634139685127388,0.0932190508405968,0.169706541727717,0.177063777592726,0.70042793518741,-357.285991933427
0.217387452594533,-0.00288041607633604,-0.00838022173286266,0.00382408375276438,0.300794957441098,0.282192839655338,0.24488101532363,0.552608196148336,-358.946732136705
0.212156689716905,0.0028907181970826,0.000259133578032955,0.00188543818663766,0.163377977642775,0.970188210350812,0.394093514165053,0.670705682770291,-384.696332891305
0.202200219552322,-0.00684057919071754,0.014914329807679,0.00799611930842018,0.00686419412514943,0.0877326637681188,0.00575343439835878,0.69946668493251,-365.482410713544
0.212387070281848,-0.00187545653435799,-0.00317560792715278,0.00313918403102838,0.503192271746137,0.829655638453274,0.375872641129619,0.585292612103104,-364.197660078178
0.209686951974308,0.000108845821956794,-0.000171506027363143,-0.00138192707841878,0.973923966637217,0.99034069728554,0.735316102001131,0.548013204491908,-356.987648037577
0.212239480791924,-0.00338386123374689,0.00323236363194005,0.00174853917873158,0.286929170258925,0.766237319424286,0.643011094309624,0.489920698824136,-360.773108618911
0.212161532958448,-0.00208631796039793,0.00242244459765575,-0.000185823276241431,0.508982322461231,0.444477539906481,0.961485301534646,0.479411484613028,-359.163401443987
0.209422776011814,-0.00221646694695567,0.0116650241089845,-0.000253359366327518,0.43689494593623,0.371414393475202,0.939435599436282,0.635910587199573,-379.230819997207
0.218163463169569,0.00132759694143688,-0.0045935999477448,-0.00229499669734396,0.624844165481404,0.563812874583441,0.442128622915084,0.506509380827149,-368.707253364084
0.224979220368474,-0.000248561243015068,-0.0143455929625995,-0.0025747150887632,0.919041983020829,0.0834840156564902,0.294619521457447,0.444842760997759,-386.347383789432
0.208284736534816,-0.00318494354495232,0.0064101601070809,0.00434083269826785,0.26629532350544,0.587952689622707,0.195072082875543,0.604071801295471,-373.332216135382
0.20936219347067,-0.00143345011558479,0.0087834353833633,-0.000584766220712437,0.687475422015055,0.527535164712017,0.87090348510216,0.442157919181721,-342.441450648815
0.21679180002706,-0.00244561250163504,0.000193723520367672,-0.00268605624081034,0.364105601183656,0.978325551451786,0.3847617729675,0.483106292572126,-394.33657203993
0.20556138631266,-0.00187546361422751,0.0134768772566715,0.00340622538226303,0.467837547856625,0.165333421493602,0.275281313831085,0.614241463836192,-366.460186693804
0.21541030938083,-0.00132574304176771,-0.00239177653003174,-0.00051543457302761,0.680716677073888,0.850175351834552,0.885833640165574,0.570434227896626,-368.215245704591
0.214040372003349,-0.00266224340798478,-0.0031470963505138,-0.00142504002665477,0.327622594707032,0.682190920803234,0.686402737505738,0.512891743324438,-369.370419844986
0.215395076635618,-0.00255714004429787,-0.0033740670656751,0.000203299484609536,0.366190574189544,0.560398015235011,0.947609038031595,0.517918189801399,-378.174819199649
0.210387243091842,-0.000582430895498346,0.00207072494235527,0.00239991174055332,0.8585246660461,0.870619699835793,0.515985040987976,0.50390820178859,-338.39935042788
0.219823161250268,0.00140016621048873,-0.00430221470720182,-0.00666641572319998,0.656419870218908,0.754122815811075,0.0880630075220788,0.458751343231812,-378.978256097704
0.215672904054643,-0.00263281832480248,-0.00356652478403062,0.000938080849555189,0.350899743142318,0.747339080273012,0.660063125015989,0.566869086235861,-346.093510862194
0.213713034619853,-0.00196552587335377,0.000251325924580348,0.000773197682600664,0.564546856043247,0.978693227779551,0.80492641765491,0.476701307413291,-341.656471144394
0.217427049470596,-0.00150577451871557,-0.00927545228262824,-0.00239994876290551,0.575748956894116,0.443284696023792,0.478141329154004,0.520942763845204,-385.722362440977
0.211681943209826,-0.00222625550397025,4.26437009824442e-05,-0.000785187635211122,0.446964280917973,0.995574820468712,0.807484948131342,0.521636282932394,-374.552890014509
0.201159259979286,-0.00124616254429042,0.0141595316183374,0.00196942768121364,0.688507692925492,0.218749560264611,0.623741579736471,0.516180722558274,-346.206826949983
0.215373069764828,0.00208625342675168,-0.00455379338721574,-0.00266068510680135,0.500377132467171,0.675449406287929,0.367119679552679,0.446311877692535,-351.96103349317
0.219935886304628,-8.24835058761608e-05,-0.00572693806041016,-0.00188394804229327,0.973607339519638,0.44948752496507,0.433866070935986,0.471120134636502,-349.066718435318
0.230105264696161,-0.00181728268078849,-0.0212079097605413,-0.000662430313237741,0.624729375738243,0.159094756265556,0.878028108440112,0.421102275834792,-355.330310365685
0.208436449500787,-0.00129018795360082,0.000682083892808598,0.00092319793252793,0.627069140669462,0.918640239837645,0.786052208417002,0.542246941542217,-364.37687058401
0.201833522428863,-0.000864944865353549,0.0161906511408928,0.00107176334294363,0.800435962391641,0.194942152219864,0.788872632196951,0.580685903564457,-356.052738892949
0.195100396692154,-0.00732079152800289,0.0241302955605796,0.00820884106952434,0.0037814065826487,0.0258262625991347,0.0136180726246617,0.719633769243102,-375.555543313499
0.223729037884802,-0.00519791924655067,-0.00512413953791323,-0.00432384381367905,0.0531799878954807,0.292017031981347,0.137895084952391,0.452747832663233,-375.499068397651
0.213370677550719,0.00391270913815214,-0.00249512438554865,-0.00298376239786694,0.101838158377459,0.725661830205361,0.315527943915275,0.56194575009999,-374.831716861604
0.210271621000392,-0.0065840316937081,0.00671229731523413,0.00542311415259914,0.0212526683633017,0.40575024377233,0.119211039446623,0.536085403997448,-343.980548028649
0.210808975541608,0.000104319573019068,0.00114353972753459,-0.00284221494368833,0.972155303179225,0.770416578278726,0.456468683848536,0.575456717237251,-368.764941144879
0.219601561712225,0.00153141661631021,-0.0111765092384913,0.00164420547636629,0.684005589043794,0.343846941662579,0.718187234084494,0.499337787497647,-358.227784247059
0.20758889031952,-0.00550712661870891,0.00447059678587023,0.00361814012791549,0.0718730560836273,0.420821262942899,0.268924295034056,0.597522651170122,-371.629794280846
0.21037017009763,-0.00297884361474011,0.00289400322056456,-0.0001973119945424,0.349668427225222,0.748653797699653,0.955416247388706,0.456844279410209,-372.677455288661
0.217833740976412,-0.0016784633352859,-0.00733853382671847,-0.00112007388609205,0.516714553296093,0.200193159308109,0.725066679738032,0.480618278525441,-388.572043307457
0.228451466790252,0.000883636451359924,-0.0157610140191822,-0.00484735280391795,0.772741530080127,0.0516601018677824,0.118297787644122,0.373290778381438,-333.981686228755
0.22428949472379,-0.000834548238131873,-0.0121468267608086,-0.00151910860582066,0.79176459800945,0.411554240016109,0.712074015699611,0.475266293262796,-353.777242176074
0.214486684720096,0.00097304062191651,0.00281199877791097,-0.00387330271498211,0.709065101195817,0.822620066196191,0.224060281902409,0.501028781771398,-359.674505800858
0.215907689132203,0.00413377057545802,-0.00232005065298068,-0.00379652322634653,0.204989479556013,0.686878457338047,0.219381063768414,0.544762474442756,-358.939201309515
0.210174915581436,0.000597044952339435,0.00160061877447008,-0.000468641677629755,0.828555389156106,0.882508748560123,0.87736652589615,0.54986883566832,-349.700981328297
0.215902125517871,0.000593941941261957,-0.00180884690604392,-0.00222131338821367,0.820133527521277,0.716188256565579,0.486951821583778,0.578168157053728,-379.858683625022
0.20436663879444,-0.0050186193956215,0.0135757964834334,0.00187936067809788,0.0828930768068227,0.221588889435678,0.570802925040955,0.631332219065157,-381.79926358186
0.210353658548731,-0.00349353398490281,0.00370272246425715,0.00264262211617191,0.237408209967381,0.570094477546876,0.445433862802268,0.533650806151059,-369.601381285667
0.222572604975012,-0.0012597560956619,-0.00440098164934329,-0.00186661498779544,0.61626076318356,0.678668594931603,0.470991602433236,0.49404564976035,-352.326366422601
0.215479592014722,-0.00285475356576728,-0.00469874997239941,0.000999735954102116,0.376451845010147,0.502127490687979,0.805971728273069,0.498911913120959,-373.905314024025
0.217875479453983,0.000729678399685014,-0.00468397111604492,-0.00066532956143117,0.78116904379299,0.557208415118736,0.826500652465529,0.520543682721956,-365.913337779611
0.223140105879011,-0.00443994524788178,-0.00872326140865432,0.0026913324454421,0.191385276527824,0.489857931826421,0.434411869726262,0.520321390131405,-364.232889901483
0.224293703358504,-0.000139161349089598,-0.0122718520811158,-0.00186300840938657,0.956377520620346,0.156599579295448,0.472295484061692,0.463282325110356,-383.19160137109
0.209277208117227,-9.10491878943503e-05,0.00131122152958736,0.0013515541497179,0.976542454244682,0.871780540420171,0.525774782161334,0.531602389642178,-348.027477462981
0.207144477614173,-0.00135211468467596,0.00775884884213278,0.00414773452218644,0.609010393175859,0.306338951324182,0.25854613846582,0.577889309273002,-355.007560231791
0.214813221612746,-0.00205276233894153,0.000317168115707583,0.00171074205748655,0.353288233160989,0.941402240134564,0.400525797307105,0.625476738907266,-393.685247131427
0.218630121901292,0.00235364700541147,-0.00763357468338803,-0.00325870928407993,0.384244934410772,0.579583738105257,0.334688264517184,0.512970101510198,-386.166960727236
0.221177441642773,0.00583775520248649,-0.0111820878643394,-0.00692339080768857,0.103410217514506,0.224632305414892,0.0905104208121639,0.405806864277746,-356.404498082513
0.209542117994575,-0.00135592070738449,0.00921218076741281,-0.000163669217040494,0.617312261103307,0.372525436391871,0.957957235357165,0.597434616058169,-374.707375769895
0.216398926944837,-0.00504745745457263,0.00391899535303354,0.00286262049709686,0.0628394974708024,0.515963620351707,0.246654843151377,0.501435384490253,-358.725734909478
0.214338787000059,-0.000255479851351488,0.00112262422922144,0.00121138362406796,0.933088695172139,0.890912124058107,0.694735461447578,0.565439843006958,-356.253444477807
0.214863143009921,-0.000935413636188383,-0.00223802285527381,0.000843719901414265,0.752795328096814,0.633962774693379,0.814720703455491,0.55072885795064,-363.077611601151
0.22094247815393,-0.00289116885636231,-0.00543658941202628,-0.000453430022771006,0.321814704754834,0.696095863934654,0.896472280577391,0.476402422779259,-363.697342073402
0.222816388211268,-0.00770375484509324,-0.0081573025421392,0.00428235969514251,0.0427462857136422,0.448523005220699,0.213319982734968,0.407492404427503,-318.94995392461
0.222569340594994,0.00196166296441733,-0.0202384224349926,0.000380524286689976,0.587922353200372,0.143544778942106,0.933977852124093,0.474808893386049,-351.485044507989
0.205190013053858,0.000363255376076262,0.0080631278303279,-0.00219486717546551,0.891806438777036,0.36828393258439,0.487625409611359,0.562829863562749,-362.667425070595
0.219429619212911,-0.00565381267161233,-0.00572092430632406,0.00387272836455079,0.0470148582267904,0.661879984905547,0.21663179914587,0.52535278734139,-375.354554200025
0.216816996518405,-0.00234979799642039,0.0015955875895379,-0.00011021778727879,0.451098527650791,0.8465888268549,0.974781973522223,0.47264658252818,-342.939071356803
0.220946809159084,-0.00109445130333753,-0.00855161993000407,0.00157569566417131,0.69301260566679,0.51827156667945,0.672304164247857,0.583598190499435,-369.442814814723
0.210633873435971,-0.000768830636476017,0.000354946811309088,0.00258785378505085,0.744119883143483,0.938172686500613,0.275634492113266,0.654859260161855,-390.34939433788
0.225619290974007,-0.0023971885136438,-0.00842556931198536,-0.00259948531251623,0.522772605096388,0.51841011024351,0.562112875778673,0.370934877603903,-365.398633905054
0.211019830409941,0.00276123047179965,0.00490599019842398,-0.000460726452858077,0.348834699212075,0.697952469830444,0.899497059535114,0.568487094211207,-341.629196224431
0.217877608567435,0.00260495302356082,-0.000985051321271357,-0.00201086675229228,0.496845442129446,0.952956973940657,0.621639230862191,0.492710591503403,-355.060148171524
0.206546205103193,0.000421777324532376,0.00321931431992017,0.00279433358008181,0.876823189756502,0.570760633212002,0.288790195027961,0.662569865447805,-379.061573340355
0.220908893386553,-0.00515315140281875,-0.0140925227731031,0.00380757670097883,0.0863471637814685,0.339291679850471,0.344119531618972,0.584524325816278,-379.77243646565
0.212550370022839,-0.00181769600597552,0.00122822837766018,1.42594026159818e-05,0.478714948103512,0.882768121655797,0.99635202502738,0.609102577926949,-388.960621879476
0.220998193858024,-0.00114095161357571,-0.0119154311025166,-0.00352410687911595,0.701426058512168,0.0645858516328557,0.229400215193014,0.402680544803433,-363.957158333507
0.210315294860034,-0.00307262976382727,0.00476548834024213,0.0011423155843619,0.22029073863041,0.61989979562732,0.689235964553639,0.589471372657091,-378.403585065026
0.222925045312252,-0.00259323107751334,-0.0157969727269064,-3.83558967900799e-05,0.320138033729627,0.236331517043919,0.990321053229415,0.506993056414804,-384.250389561087
0.218167478819897,-0.00295616520893381,-0.00393377831415236,-0.00322688905918522,0.385509993759307,0.460602748626565,0.375827129541834,0.414499952518259,-359.645303248914
0.216828942446436,-0.00184009045526716,-0.0025229186855534,0.000937272925267744,0.589416481478184,0.759954994415353,0.823362179182778,0.455523808196094,-348.951078153955
0.228166794314705,-0.00142887315413963,-0.0156676209525893,-0.00126578267181586,0.639254327367873,0.0656278880515897,0.67500861494733,0.379447152081984,-354.506655662809
0.208967492811596,-0.000563660745727974,0.00754746109925682,-0.00288744416469983,0.835550297277024,0.371087518299076,0.412691601438415,0.470342952514897,-357.096661574558
0.210073028269837,-0.00098305502473673,0.00638756811568905,-0.00106323539626009,0.741544034656006,0.631880629817172,0.742704894496902,0.422199966441896,-321.370744817438
0.198852355581749,-0.00399826262284564,0.00846151920118171,0.00929799726273863,0.171398955974822,0.0625766265291567,0.0158176263311318,0.741021711495993,-382.4167021536
0.216719416035023,0.00133230959656486,-0.00835434557994736,0.0011807735543157,0.648849586935005,0.427563690751312,0.739326388483887,0.662219374549338,-387.403451368329
0.223099017652507,-0.00377610984003325,-0.00456418911663337,0.00062634086262652,0.224036334771794,0.428895402844391,0.833234814483829,0.470817917029153,-354.392357051343
0.214880799097475,0.000792252239961914,-0.0036547799098419,-0.00284918562582059,0.834005461703527,0.625931022518129,0.457916344373606,0.393302701955308,-337.002120119202
0.206957665809505,0.00179439798865254,0.00297534323526719,-0.00441137614653405,0.539985347020971,0.579486890374014,0.230802602012505,0.525978020886856,-370.072537064079
0.20074884991725,-0.00532916339837251,0.014065363729581,0.00472945969595154,0.0641618292947986,0.0553094919199234,0.0698637961606218,0.66281774967088,-375.42137259968
0.21626913248612,-0.00236724711246312,0.0026307336795867,-0.000108763671739829,0.348919049356017,0.656128588960263,0.965648759079074,0.483968649118391,-357.528805835424
0.218994195549125,0.00213429460262264,0.000699880175659256,-0.00312743553602563,0.472172435081954,0.944176987594986,0.340494222418715,0.459443095000836,-344.291017427766
0.215202478902068,0.00347413916166065,-0.00448124602286458,-0.00618056577626952,0.212067779007476,0.329509786152712,0.0435078618592449,0.48918437432395,-389.19034312639
0.223659094709928,-0.00299187676522775,-0.00895464749045022,-0.00298023619623566,0.226958867207082,0.373462638126242,0.172765424676374,0.398403842771535,-364.582527349362
0.216135274674847,0.0013822303880919,0.000468596457642706,-0.00136533409846492,0.662993964384634,0.966160082663123,0.693125129019651,0.544095475417931,-368.008582770548
0.205967664751042,-0.00503063972047764,0.00569731770816775,0.00254148290883918,0.0727091907624842,0.168616348147318,0.493037389952849,0.573476068868811,-365.299507188755
0.213462040989544,-0.00417369348465625,-0.00422760483065758,0.00572942934441035,0.167564018326776,0.216248229438191,0.133636215418958,0.639399604040932,-379.988745833606
0.215529637269775,-0.00693011197567359,-0.00601814275395308,0.00559149843375318,0.0145042613036081,0.56614920882055,0.0556633164760227,0.571818524063315,-371.450612039779
0.214115232976455,-0.00298024446974306,-0.00647307370738199,0.00483001735267266,0.307632109483102,0.452008828356878,0.212544180726287,0.585520831791345,-380.117758875126
0.223208788040578,-0.0050371295921272,-0.00669077768826196,-0.00143761911515064,0.111282273801922,0.1751193575762,0.672697824936053,0.404608134153122,-351.446554537591
0.206442559123134,-0.00023394935430444,0.0100106894005493,-0.00143839808905199,0.931361153535642,0.446210050739465,0.666948629063687,0.620773452906071,-379.77493835784
0.214664841043721,-0.00220188958292271,0.00287454119834345,-0.000859438527688536,0.388897516614619,0.642553373132216,0.743943983086024,0.418642227211427,-338.80064094355
0.229304615303665,0.00333310484968176,-0.0208089758154959,-0.00297249291131173,0.392922144414214,0.150091895397665,0.520459872910486,0.433141326563166,-341.03444449981
0.213874527524923,-0.00398393715867475,-0.00166208525582109,0.00382475685307028,0.165732170404009,0.828666570235498,0.231679552461602,0.597642967225696,-363.156139523129
0.21516826851487,0.00261291711289374,-0.00548799589530965,-0.00138113303170056,0.450152680196181,0.606043417181315,0.730783172054441,0.551167825365665,-349.945698621978
0.210231229983146,-0.0030410206583722,0.00567515766828476,-0.00182537677229956,0.362807047454627,0.476799822834395,0.618806110513528,0.494714567362726,-358.838611538004
0.21112797647675,-0.00150636530726981,0.000877127755018729,-0.000558267897206803,0.53760713822454,0.936794749569821,0.854043714921407,0.523818853785055,-392.936565150927
0.215319439810157,-0.000747086915876376,0.00823074202246833,-0.00879035051128109,0.830842221831628,0.479753205574936,0.0436145318812909,0.471262735653039,-358.873531743554
0.225425474622499,-0.00100411326879135,-0.0073358955757192,-0.00134338689379891,0.690446009445229,0.519748205384195,0.652385580873463,0.418504526204917,-371.546372646886
0.222042088475587,-0.00108379991954974,-0.0108534711145909,-0.00127327069973644,0.691033622586936,0.210743752962313,0.681770835994842,0.301629979900796,-356.805058264505
0.228241628403443,-0.00494273893206555,-0.0171988536530656,0.000217980118229107,0.0498797019648102,0.195666964517911,0.947820302648696,0.5367283825545,-391.170483530006
0.211550560671019,-0.00208855333416722,-0.000569525473387863,0.00212835969347047,0.423213515172711,0.928556165089493,0.564232475579101,0.464249828671369,-371.052953718796
0.217414383220499,0.000154489887317386,-0.00449889231283219,-0.00182613010493869,0.957975090772648,0.508899542552719,0.597820834367099,0.380037228162596,-352.654379354212
0.2128789391206,-0.00406469169844461,0.00610488125842372,-0.00081878309710434,0.174486945564202,0.622177476721472,0.80081076864935,0.530482171304919,-370.500260355892
0.224824186661094,-0.00229241094998725,-0.0200638050895187,0.000545262279409865,0.444942235531093,0.181228229863656,0.882491014209505,0.524642343844413,-359.376024569175
0.219595722447146,-0.0034568590069598,-0.00838678731652081,0.00316534598522303,0.20714820082937,0.172403654845883,0.282864841327691,0.573127088866552,-390.356165229747
0.212911237674994,-0.00283195302578311,0.0028829069703301,-0.000331894737777162,0.245315369383515,0.778899056851283,0.909101126314653,0.462424694563139,-360.610527058203
0.238179180991557,-0.00393975135330977,-0.0297321738683746,0.00250086731002828,0.223528453442464,0.0217509846158081,0.47986332686122,0.550536817888216,-369.780044008878
0.2123719614451,-0.00223649290335008,0.00386099743250728,0.00467639064574098,0.485382555827045,0.743139071436423,0.142814037656333,0.597434188422797,-348.324121375149
0.212168288080868,-0.00661671470987736,0.00348222144959576,0.004321329964924,0.0206413752564163,0.430583405034551,0.199213702541569,0.552664339103287,-374.451353605933
0.218907599355724,-0.00275956099017304,-0.00598716117579545,-0.00259623619394935,0.282127225388305,0.458193053943331,0.354652016732556,0.435739448923538,-365.220979621623
0.222818041310023,5.82452303822227e-05,-0.0116399106704592,-0.00311980944416939,0.982971747061247,0.108527182194568,0.275734790562868,0.467352287620459,-380.627114641573
0.221249597852219,-0.00762850157050405,-0.00617622450951722,0.00230630611874166,0.028333617515185,0.487993214242827,0.531270718811851,0.422793568547113,-365.508313706982
0.212642541433898,0.00580641965562273,-0.000780107799317387,-0.00440968551521696,0.0715579978285126,0.915929459955491,0.286685602667653,0.550869516905858,-358.32454741233
0.209513322400092,-0.00291996906549718,0.0124786614048784,0.00749440548039831,0.421775545961114,0.383461037547758,0.122027592140956,0.670575985359294,-363.364085426429
0.216692898318785,-0.00293666100484069,-0.00254084486954707,-0.00097355907416827,0.287969587407123,0.793160228285886,0.777261080633539,0.443911879913654,-363.032994812869
0.217829266321632,-0.00055992809498135,-0.00351682380033492,-0.00177032118711142,0.824887475076754,0.730206300864734,0.503951293563389,0.582221406491716,-374.220009002918
0.226461264461766,-0.00518229643131943,-0.010865072906631,0.000391465076919973,0.154246873166241,0.384136373945358,0.920666229265494,0.46394380976476,-364.840527881002
0.210845901942564,-0.0016074245230388,0.00774090494919694,0.000879545600137978,0.602523856336848,0.484004268094706,0.823744037158709,0.556621943307033,-353.364665345441
0.214504822303969,-0.00193730425776598,-0.0051211605522195,-0.000124790906467838,0.482236687554401,0.472351089053089,0.963699700816334,0.446489267869907,-357.902904034518
0.218615207151258,0.00308455687938549,-0.0120396980363735,-0.00401525002375469,0.217307288067914,0.227674292445858,0.103899887472811,0.415997373488314,-345.391312289107
0.210847552444174,-0.00157703743968604,0.00155126104902761,0.000870611877821892,0.534522283787753,0.851572022539954,0.673463412295621,0.477720518786016,-367.392272484646
0.206063700519918,-0.00263596873206772,0.00983452746729534,0.000250064970574136,0.347885541153337,0.408476311908462,0.939767948423085,0.583121653965932,-370.466965519894
0.217491869552987,-0.000162648323114204,-0.00489533035303715,-0.00306376307641182,0.95673480865449,0.674612522884025,0.405270879585102,0.464837862137325,-357.117476712802
0.20422570022015,-0.00207586335191129,0.0169015698014284,0.00196088584958202,0.471149172754675,0.0819747629898286,0.559302700627283,0.613566510525631,-345.710093400519
0.213617877764178,0.000402017649634545,-0.001028125556554,-0.00159000557480513,0.880152310388123,0.886833022410494,0.649904293341129,0.502056351132013,-365.175681558183
0.212292189339759,0.00499088404674617,0.000885215336019948,-0.00280668951423857,0.147459524601567,0.823810375614449,0.498453526405658,0.531098112506931,-345.50324320377
0.223424477357741,-4.16139675326001e-05,-0.0122247105182636,-0.000858446179126934,0.98936077788026,0.353509740808059,0.814847368807196,0.473073095639537,-359.740185453057
0.219367541074686,-0.00345870869211866,-0.0148232582027306,0.00501712804271525,0.284795416224808,0.182141880679833,0.226072168102188,0.545013188144365,-365.525398486631
0.204989130691376,0.00110533518416768,0.0104547625046327,0.00294911080377435,0.691800316668256,0.28820897447529,0.243911181834013,0.643668510356727,-349.270071358645
0.219061852156883,0.00373208532122005,-0.0113126427796577,-0.00360458211560276,0.177643634606575,0.236555956056131,0.29464892917573,0.532980704308816,-361.782406973439
0.219307066108081,0.00127795756894222,-0.00852735486810166,-0.00210857996254101,0.667229467509115,0.523299895408825,0.591829880590305,0.477838591734151,-360.179516438652
0.209063408194296,-0.00175281814479442,0.00563169136886988,0.00334683547056868,0.516534512190448,0.51781104039724,0.187915351404944,0.553262082625669,-343.024098986555
0.215117921535238,-8.1219012946153e-05,-0.000203325515898595,-0.00205603813464021,0.97357199589228,0.982232251124963,0.406946831789315,0.492297621511356,-352.619498004667
0.211573128529086,-0.00099733842492813,0.00262436683169525,0.00106398150325611,0.679275091151383,0.675291217629447,0.682182609932019,0.583501402124302,-373.747341648273
0.214587780246724,-0.00169800326931356,0.00115596785072147,0.000347143874208176,0.420697516087828,0.897788134137774,0.879957721434419,0.531806678473089,-386.105439787979
0.210688456132427,-0.00418754778740885,0.00647934468739083,0.000708955623433216,0.171009021475139,0.476517092009809,0.828968351777734,0.461229188934671,-358.427125596859
0.215386457111912,0.000980775942764171,-0.00050409791727788,-0.00171158556093623,0.716220378837925,0.919719486827787,0.651350493800594,0.446575329551635,-361.860328699268
0.222584781051199,-0.00258515608077516,-0.00537692045854176,-0.000177049421250522,0.441432924989718,0.687406853827587,0.962441608652178,0.44291952388641,-358.269719636795
0.219504484045886,-0.00339412655473964,-0.00330741004154793,-0.00227866351286735,0.240854459121328,0.670505037582391,0.469209957310893,0.507645405426662,-361.303360018489
0.214035623899522,0.00124732232826399,-0.00337613016155686,0.000540637096607167,0.676548379273093,0.690601214000182,0.855785016779009,0.579917565870083,-368.507029778348
0.216420261569513,0.00144904276757602,-0.000228455538144948,-0.00057526809376038,0.59485788049416,0.978270790590674,0.866542187355774,0.528364784250831,-339.446925797773
0.214218259905883,-0.000606889800426043,-0.00042311075365015,-0.00203166908792567,0.843950876477958,0.968096407103725,0.559549251148922,0.52334420212846,-368.545429413915
0.239641658943955,-0.00167787873588046,-0.0321818614280543,0.000285310549718513,0.567588750219544,0.0081489982512339,0.924403893362575,0.485243714332871,-352.970278985593
0.225331153400939,-0.000121321503947692,-0.00923802067067148,-0.00629009451836483,0.967999308360753,0.284385646404621,0.0833020030992881,0.400750196057378,-339.043012391027
0.228230663892706,-0.00966329937870868,-0.0142175690740233,0.00357535319224514,0.000740625743498634,0.227412192790955,0.213144064742027,0.534562445712565,-378.927793569801
0.218269378287286,-0.00417705374588704,0.00014905633571975,0.0021668532112253,0.269898030758232,0.97523371977082,0.639122670690451,0.46678029645549,-344.084791429899
0.216944865586649,-0.00203727067974125,-0.00279798103131935,-0.0026781489159698,0.594332144129488,0.642292266794036,0.531981437467951,0.422845951925446,-339.378381212384
0.216782972157793,0.000643187005644793,-0.00169244360689806,0.00069647641115682,0.841631223619809,0.839266906512743,0.853807914041596,0.553416189205255,-369.074230476597
0.213689154328874,-0.00796910340683492,0.00210468446679153,0.00294546125163182,0.0061954129344126,0.826906753981516,0.416280579938496,0.501678089574509,-371.621273625673
0.220347302936223,-0.0037190630162546,-0.00471615372813498,-0.000526927967784359,0.183800593817067,0.630211584244084,0.850073651633811,0.463428269568554,-367.179073386206
0.222740301944165,-0.00502454685438095,-0.0078099155453555,-0.000252743495664904,0.0895975368897502,0.341013335891572,0.930874948083882,0.473392060923852,-361.99048591802
0.209396049107127,-0.00154857695349837,0.0096746235007112,0.00188430085141016,0.467036248631922,0.0789433171205984,0.129348070486109,0.588475373691663,-351.839414166928
0.220719076774669,-0.00145770274304527,-0.00950007333983104,-0.0026930405744901,0.514430707106831,0.237118987174603,0.203372379309668,0.593349911959371,-371.004494896506
0.202578062089412,0.00170352933126415,0.0119063478267548,-6.5863523495745e-05,0.572316329255678,0.214124066319538,0.985113753526743,0.597275002798833,-371.431409244895
0.207631459970612,-0.00421798636787885,0.0147622949526129,0.00515446751117964,0.174368457599596,0.133489668509656,0.0733324565037569,0.599122155206213,-351.010885136642
0.214997985093933,0.00336335405612291,-0.000846006127758492,-0.00450699937323189,0.252459385740186,0.914710618299516,0.175379748792576,0.582030532163059,-372.184392567848
0.222315962570447,-0.00467771007952223,-0.00685531169292648,-0.000461433014427794,0.0871193350600508,0.406940973366086,0.858734700155552,0.32372237611788,-345.398019127028
0.217473065619993,-0.00109003518331751,-0.0153694151104023,-0.000368837880736714,0.786041355714998,0.311756478318459,0.937995599020501,0.431032107610174,-363.825835826967
0.214081515149838,-0.00303326953138366,0.00282328830045017,0.00251072381706038,0.205299117594352,0.727176205745105,0.309202220478997,0.589988244484648,-381.023525006445
0.215223188138191,-2.99148100808464e-05,0.00196352992060812,0.000277275728093789,0.991293006631347,0.836456034314286,0.937341511466065,0.57039354879648,-355.834702280688
0.217501106332717,0.00173060812807726,-0.00623393913327345,-0.00315855384320161,0.575318881056073,0.588790390702049,0.379853875465953,0.481087327354747,-371.434500837267
0.196490615087657,0.00587474137897994,0.019953815292802,-0.00509185012988636,0.0616197787959316,0.0982180176856816,0.172864329133484,0.630574743823938,-377.849382676689
0.219725922365133,0.002597146118641,-0.00721666977271156,-0.0054123500910658,0.443198465813096,0.665779126565144,0.199048348244237,0.445963684818603,-336.887886622211
0.219422754600329,0.00109931683762675,-0.00481392323631455,-0.000949599569404269,0.771399305883357,0.587687230072761,0.79541396721084,0.40543047369818,-345.167969866264
0.214819916484195,-0.00124425628829808,-0.00113770410958237,0.000214440868549725,0.646961977951344,0.922027178992542,0.948356068868704,0.478297778013717,-342.967899139909
0.237120726850295,-0.00653660887378496,-0.027910663984097,0.00209057346849259,0.0200796419623416,0.0222771446226008,0.52100162483879,0.435370837947163,-371.734461737519
0.230427041691078,0.00345090966312219,-0.0158623128690348,-0.00446279435794924,0.308217194460052,0.190107514533679,0.223429573609952,0.456198088801158,-361.269201786881
0.212124125926156,-0.00486645951260697,0.00939213774666993,0.00139990817694271,0.0997754032937708,0.271332555036083,0.640393908555618,0.502787466664284,-338.206581181404
0.215068763656946,-0.00105447628989074,0.00156350058949288,0.000595782598000938,0.648198773149504,0.823380567226031,0.792786733695085,0.615676416981814,-385.545923794896
0.209645627382908,-0.00212521699589845,0.00398487018426056,-0.00110761277037191,0.528340954879913,0.546273340615675,0.778460564399394,0.434943482108573,-339.741389712076
0.207670394138189,0.000803365005361318,-0.00226568886909289,0.000189479406443146,0.778496651361308,0.734524502668705,0.955792015368182,0.599117027367324,-381.51607439994
0.204480190849025,-0.00140225530582,0.00754098218450291,0.000670563342151674,0.601807704396624,0.391224437470538,0.824394453549308,0.533511906024792,-354.182489787569
0.216377554016646,-0.00279908116101746,0.00408180192228786,0.000653620459371495,0.37045074196487,0.699227143455009,0.848191093572451,0.533925265951191,-358.790087967244
0.21687690266295,0.00028688604582983,-0.00224527181463435,-0.00108796793538843,0.90428967700829,0.835129258784676,0.696484897951881,0.452786484321323,-351.596112617959
0.214757415308254,-0.00134223381915705,-0.00445227002791117,0.00327837857423631,0.627154131881055,0.751340020341392,0.337827605079053,0.613864770863547,-368.093734949382
0.218425121585857,-0.00191519167274104,-0.00917664936048512,0.000519706135129577,0.439880733112051,0.262801218984235,0.882721452219037,0.587153342635481,-402.119466479218
0.226712213357664,0.00109853815017734,-0.0168976027003424,-0.00276007956727344,0.696176133824086,0.157649460923793,0.41152941772529,0.481889382683637,-385.651401729478
0.204686867669429,-0.000403083786425235,0.00626297206284739,-0.000264007817371447,0.860366567021527,0.551327967297064,0.92777164925485,0.625127904622227,-402.383706762262
0.233409072920851,-0.00818178082550209,-0.0299129145618586,0.00611877087527458,0.0105353667698404,0.0474052150250304,0.0794489584614457,0.447319803076324,-355.967346236049
0.211331216359378,-0.00697090570077137,0.00653976884520292,0.00338356189396206,0.0414370135501052,0.570912477993951,0.426190685576218,0.490633682359937,-358.53153111079
0.217990398507059,0.00101283595194877,-0.00846060509711392,-0.00255374821791732,0.698058885848347,0.244495666479704,0.317208952119869,0.501629730618801,-380.368573261162
0.214717905089031,-0.000852114662601962,-0.00531850697757535,-0.000796190647661968,0.744857103732797,0.608793906605594,0.750654847194731,0.493396704493266,-352.701863785502
0.221335282672678,0.0012815945370625,-0.00506325057241974,-0.00405868911213787,0.719614770718829,0.615288778861793,0.340867729022986,0.37000564746332,-343.0279737604
0.209730663324299,0.00031347638573986,0.00149667800101443,-0.00088660756304309,0.907218507051677,0.824643932784777,0.755757862580193,0.540448104340934,-356.783766243791
0.214881747405514,0.000332848163548464,0.000518166331588507,0.00139319845206674,0.918628587044005,0.963475818603942,0.715643749912954,0.538005222162077,-363.453805020412
0.220441469168447,-0.00303867164306504,-0.0114709252007792,0.00274235242242194,0.345611025754214,0.282624142258354,0.388100954793492,0.55691966473568,-371.11266644022
0.211574028668636,0.000608969270787808,-0.00165717757748206,-0.00125818447923666,0.811770488831,0.815495259900638,0.681309052793745,0.55031047348604,-361.448006419237
0.212189832858894,0.000723487905322218,-0.00197527175537208,-0.00131974668009454,0.797461960560852,0.876770550048937,0.722353389223556,0.630401699239983,-390.219716196891
0.210289700085869,-0.00307389717710016,0.0020759410131114,0.00316088116500173,0.292993610380855,0.819442491937569,0.353790540842048,0.484490823022097,-358.809827493596
0.209035051317841,0.00315131081712412,-0.0038018493799713,-0.000997201953171978,0.273922339948563,0.659490530953663,0.729433737667608,0.509476833659404,-359.068827516723
0.20491757009494,-0.00105075557355587,0.00894313670567909,0.000239740792556194,0.721274113718658,0.0473617806001272,0.948975610675241,0.563184907607626,-365.815317070537
0.223896238596456,-0.00425985747715498,-0.0162627368456301,0.00180208313880137,0.149050279936764,0.266272150263436,0.587244669290173,0.49923055842399,-369.312323751369
0.220318272419411,-0.00502516076744433,-0.014039625146462,0.0050052956074146,0.152493958676846,0.290118452750351,0.225978985296947,0.450531132657571,-356.581094542871
0.207004376996995,-0.00228942788465034,0.0059595554032007,0.00357907159245279,0.430003806059751,0.514181857748238,0.30758093643451,0.705728819298738,-383.847557699651
0.231640414008695,0.00363583244428192,-0.0193529419097788,-0.00512434637121602,0.251894163399506,0.0387732906983032,0.117317335155942,0.381608527372028,-346.926562324428
0.218219385333158,-0.000552110562533595,-0.00167947622059607,0.00147575273446363,0.893903406924094,0.786732515073683,0.74319843451547,0.50793296718639,-343.278000367594
0.213099240418436,-0.00580133979468312,-0.00147000811585894,0.00482979582637344,0.0677859585526004,0.888874119193161,0.185055565471654,0.419520036648869,-354.270231753662
0.224475928012089,0.00175645797944427,-0.0157900873162372,-0.00367857905029982,0.609390220223546,0.135210183620765,0.332098468194728,0.503580627218307,-362.594499993828
0.214459293970273,0.00153221602923406,-0.00541473051744865,-0.00194565416173818,0.603542366209771,0.670239412300858,0.583325286451838,0.497648228312937,-363.965021182302
0.207982769322157,0.00193519348550171,0.00531545572179931,-0.00091270911085125,0.559883808667471,0.336578028177122,0.837463727156492,0.602703385415134,-354.32962041747
0.21493743462278,-0.00396893944916611,-0.00138445712917665,0.00166736529165808,0.161716123293196,0.607181857210533,0.665718567134155,0.501282902329735,-383.783329612581
0.212244361099811,-0.00206039597136089,-0.000204127062742517,0.00110827879816695,0.42743142582358,0.983970951605835,0.68579878658139,0.462380102853498,-338.269968971651
0.216364725749464,0.00157644489967602,-0.00826214933242099,0.0014773277795378,0.58590706120862,0.470321409759162,0.664057881965908,0.540320602101997,-359.316302117626
0.208903042621831,0.00190383036318855,0.00693172134183783,-0.000393045790718643,0.483827441854366,0.305600957796763,0.905628486900761,0.54077273986332,-363.285205423801
0.225529772132455,0.00160502833168941,-0.0145376814371167,-0.00353613852465666,0.549480181511293,0.10548200424983,0.226306701727233,0.496104310633864,-358.590395106049
0.20479301491266,-0.000361749000626016,0.00560601220563536,0.00153034412117029,0.900800862954279,0.637924821297865,0.694332389867435,0.571480867606476,-364.275091618845
0.214791605725256,-0.00315059497699451,-0.0038195747246651,-0.00159498209337977,0.265028682770924,0.692778831450203,0.634686446941908,0.485695075783997,-380.113118300636
0.201840078226802,-0.000773285736870339,0.0139615179098639,0.00402893826263108,0.788616728410413,0.114969658980712,0.275836862117254,0.64687363918891,-359.745748475543
0.227514162806801,-0.00331217522791624,-0.00827284525090103,0.00100821995084123,0.36010255764586,0.517263247129204,0.79388911270283,0.499150794297121,-353.21172619408
0.213670695751075,-0.0040362029333657,0.000367723555093167,0.000788466749978154,0.159861563448405,0.965718477038594,0.767869337628227,0.46378006670878,-365.816338726623
0.21104937566209,-0.00457646763845656,0.00977014438230115,0.00191329187528605,0.05410745047472,0.373278523490988,0.458392160890703,0.58292491365477,-362.395300292152
0.21352826440609,-0.000938580483834187,0.00375749326562042,-0.000110524593734062,0.727482509241191,0.640537959757821,0.968586473833002,0.551549717957013,-344.656264154555
0.216780590222876,-0.000530106724791904,-0.00564958235037399,-0.0020320631320417,0.822150578914656,0.370047924073983,0.438020219684173,0.555063329488026,-383.627808533556
0.224418363264457,-0.000469335930609141,-0.0152312109557231,-0.00211783417276492,0.884704369842104,0.216093376583981,0.557319013843029,0.422115721486929,-353.525612114908
0.219534025195438,-0.00234821276365212,-0.00584979280586655,-0.000333869351278322,0.455452876139256,0.252193512345573,0.926945552480845,0.470407789156896,-372.829488235939
0.207339525675064,0.00014115419819318,0.00445357426363943,0.00188148204326388,0.961291357170298,0.630172237275801,0.548948304943116,0.551855145276807,-363.461080681255
0.216278676504086,0.00330835220624744,-0.00711035273017421,-0.00180958447505491,0.317850044668692,0.346910179139541,0.603455621824183,0.490627522320512,-349.232085510518
0.207131497440184,0.000852839958944299,0.00412391670733121,-0.00177013476758123,0.780386053864361,0.709642662971696,0.592417324590517,0.493999665082724,-355.207645964823
0.220461931285148,0.000858232547274163,-0.00735014433772119,-0.00484116869707614,0.803983678841832,0.621199272505033,0.248123937610963,0.343437994992171,-337.033463211452
0.227600556784947,-0.00635396271586493,-0.0119213369651895,0.00298540044745112,0.0405815602428376,0.30563889932076,0.423236290580163,0.48453412053217,-357.81334124523
0.224520161073786,-0.000337719689140483,-0.0138939066376239,-0.00128198053329107,0.919463282602495,0.182105997122218,0.720141592391063,0.419572738610939,-350.827922845613
0.213916201235533,-0.00199062464417154,0.00169072844546242,0.000734107935649952,0.550741633511884,0.908768533474875,0.853071195280981,0.495787619968235,-363.98605890108
0.213416285805982,0.00125929750820432,0.00145312021218562,-0.00439469195992086,0.680756734571289,0.786031127467048,0.204677261592103,0.381739069231874,-363.008622346889
0.208337851180199,0.000669431729188031,-0.00323468870873078,-0.000349985012472835,0.797668757435759,0.71692919919627,0.899184014769205,0.567544277129781,-383.397940869416
0.224519628529203,-0.00139048620993197,-0.00829370260224348,-0.00584837654756736,0.638390897887015,0.382196645994646,0.10483744286845,0.451342905580033,-356.64116285012
0.220713102077379,-0.00386840485500111,-0.00924775072244387,0.00134866177664321,0.097149586345669,0.39104264634773,0.638006392790679,0.572006618921741,-392.844537681416
0.201888029393667,-0.00810784177643735,0.013559136500753,0.00633355519264694,0.00485655168372913,0.0871805915753854,0.0476342884532455,0.655030734341792,-368.251266917438
0.217099201377961,-0.00386037172310677,-0.00250650623318445,-0.000607613574787528,0.277281162380491,0.843334413302192,0.889767427753066,0.49011310547632,-352.240853287055
0.212521233116545,0.000708911169748541,0.00359424619606012,-0.000281028239863794,0.788317129380197,0.603826912243274,0.925012472014263,0.540440835506917,-356.034733723669
0.220133040895775,-0.000288592853199446,-0.00241846954490259,-0.00611023389206094,0.917531969723478,0.852704193607111,0.123699132089791,0.434027354256322,-390.583050518762
0.216441956220978,-0.00140181849173752,-0.00152907713887466,-0.0018217154934126,0.642701044201238,0.872495618035754,0.566606441854499,0.48668898928599,-370.689575548411
0.213526944878714,-0.00222059576147482,-0.00111963550964141,-0.000649219774292901,0.404456481947387,0.903502652298422,0.797675722526868,0.458552198377771,-351.437247878655
0.219195982201215,-0.00320199156861652,0.00190560319707144,-0.0010861943986734,0.213681674073423,0.746495161786743,0.691265478438852,0.51265363473678,-369.880715566515
0.210137589505678,-0.00319853575999925,0.00458775476068262,0.00227385687389497,0.257019509838768,0.52094301485295,0.470896018534567,0.561872450397152,-360.764644485065
0.21566311493024,-0.00348006020103356,0.00131099986897285,-0.000956167687778248,0.18483062875971,0.900442526339211,0.737454552729111,0.556532506042545,-352.10392606236
0.207241525252885,-0.00540399772348652,0.0047029523109265,0.00616256964453058,0.0816473483465671,0.640990661959446,0.111692405807616,0.615110157619792,-357.524858301819
0.219155952175845,-0.000850489420381614,-0.00568300174695381,0.000389823960759099,0.755009254318049,0.509487631480243,0.882417400877101,0.541583996131386,-362.971217479189
0.212729745825075,-0.00162070552055235,0.00179989569296124,0.00190706810691645,0.602025291277497,0.822651769737288,0.615655932388986,0.561992028218258,-351.54122261229
0.215731201889197,-0.00424284175744182,-0.00245488192057415,0.00250755046696238,0.173223954671949,0.769034863804118,0.441819721263057,0.520904269490636,-376.757632758014
0.216717967880216,0.00318240418575344,-0.0109317928327572,-0.00369803907007527,0.39359904991752,0.285745172081161,0.4151714571176,0.534636980473312,-372.571267371328
0.207305818696051,-0.00266565664973433,0.00525709179354829,0.00285668792652676,0.289199522037205,0.352358729830307,0.388655612376899,0.589251727652775,-367.275922930616
0.219546291913553,-0.00120485106994819,-0.010704900784323,-0.000346906533623748,0.688542419485905,0.341583252135461,0.923901794613182,0.551563306437688,-369.468478059367
0.221458830844317,-0.00331425846428168,-0.0115616421508739,-0.0004187696427455,0.147808020134625,0.13747385195791,0.857210309850645,0.491148599273719,-381.912740607685
0.213127218335244,-0.00555949624148116,0.00415928816290543,0.00279218733815338,0.067167125056433,0.327517791909071,0.463825801571909,0.539551549057978,-363.170372810856
0.227225356026383,0.00113277847916851,-0.015019692908536,-0.00572475111630886,0.694404630363536,0.275798158897702,0.157594674073564,0.383110441492595,-367.491855644365
0.233161181340383,-0.00299428450769367,-0.0216534225034119,0.00111792778870044,0.430159941486122,0.123608009925868,0.806007387036957,0.447043966084602,-363.894584451316
0.21680517904324,0.000978676617257077,-0.000516544321292796,-0.00360543718679267,0.769151620541442,0.945820880600327,0.390266485700602,0.481310612059323,-351.165817090202
0.215733595927386,-0.00515896938335905,0.000525535720470637,0.00113272820009969,0.0913828715387443,0.838275267438917,0.79348911166899,0.523761662983739,-350.298102782334
0.214152535684261,-0.00420701516224394,-0.00373319597557627,0.00194498263374045,0.0692080566700521,0.563275064693992,0.505051476682275,0.497015337120909,-368.505936938918
0.211805599081103,0.00213363898105368,-0.000118385400593912,0.0011238989789019,0.46849442944251,0.991169504549355,0.702558091633376,0.516854239866094,-341.868405222419
0.220563754598767,-0.00288520753418068,-0.00957257798208125,-0.00108013557712158,0.292481781442994,0.446545924683756,0.75639767868935,0.494941604695406,-376.307534005818
0.215825493496241,-0.00252341531097641,0.00281851661455025,-0.000743935716337963,0.446967795375423,0.753884929123617,0.834781859639537,0.428987744985325,-351.870266936681
0.226043748151239,0.00247100620005494,-0.008553246946879,-0.00653600841266462,0.359977047617342,0.449668894404991,0.0514381953309467,0.482490739940875,-360.906069544137
0.219330208902949,-0.00205891225453235,-0.0107919243938313,0.0048049123749166,0.501759176214256,0.285125043038438,0.200278152108105,0.618197682402206,-380.843976761615
0.210678060283652,-0.000448913882138807,-0.00043805811013998,0.0023703431447294,0.877756301470649,0.953180729721847,0.45097906888372,0.5481681512901,-371.102851933279
0.218607471082142,-0.00798782468872686,-0.00592940852045187,0.00419469817667705,0.00943191433261315,0.594771684992237,0.204108917906387,0.506398463993707,-364.766456831628
0.220266181858189,0.000606270640918326,-0.0105077989289598,-0.000148411319024077,0.838181061362754,0.206754218186882,0.963528329495881,0.460805224127387,-346.898081838994
0.211270878352002,0.00150720002253672,-0.00395205088834115,0.000359155659510467,0.57440891081055,0.357461924749818,0.906301038516001,0.530471489422787,-367.50047809161
0.219816424858864,0.00819148019869352,-0.00448345099335456,-0.0102875782175649,0.00860835412078768,0.687156500964261,0.0033356532276899,0.51109567884379,-366.022353846216
0.224782845084186,-0.00101304948596049,-0.0131527728861812,0.00133380899063901,0.714203609424401,0.371630555730606,0.703876721606798,0.576392894047949,-353.073628125003
0.213702807398622,-0.00010902813051033,0.000554665846405284,0.00141503145157888,0.969384210275543,0.927663041638391,0.694504002084444,0.594358936175494,-372.154418187575
0.21756796427503,-0.00364850120546247,-0.00631486042367445,0.00147119530690916,0.137027753432104,0.486794275666623,0.646139924789062,0.510896018026741,-379.262572777611
0.213850939470391,-0.00149027842153604,0.00304864163736891,-0.000894086740165228,0.573406658136706,0.70170522468425,0.73769351873144,0.434715578070965,-350.575234639685
0.209632834525907,-0.00260320460534859,0.00582832195458259,-0.00115147699368618,0.297477618737964,0.667604755534616,0.70578470235395,0.487068142051298,-379.927860456167
0.219963157712023,-0.00558514675126123,-0.0026135312425032,5.20982739786567e-05,0.0658918144640697,0.801302899651019,0.984114442198289,0.472741932237796,-372.356169064993
0.208750034532335,-0.00189068358821235,0.00513693612051954,0.0019387119076119,0.491451113054039,0.571953318257328,0.569470618578399,0.560814079855412,-353.023969477966
0.217404322930205,-0.00348813094934889,-0.000350193506246213,0.001954212127906,0.223678713699728,0.963879695229522,0.537868521286829,0.474014538122766,-364.89389687337
0.208053410894478,-0.000398639613214285,0.00194624920236446,-0.00109803122938008,0.875697850898581,0.795092099638284,0.586831008864782,0.563678754053087,-367.476252818227
0.211133052457393,-0.000636185772478833,0.00483660699819491,-0.00150064931639496,0.776144420065162,0.42239660608118,0.512111580464245,0.528848619941609,-383.654484145422
0.210165598980971,-0.00191344197299283,-8.15165952608513e-05,-0.000533004188371656,0.482260281151814,0.993379437021203,0.818582292983286,0.440288873584721,-365.300397644033
0.206514979424797,-0.0011749390050843,0.0041372610907804,0.00220474430596791,0.627729135968468,0.691490949004317,0.377253011777093,0.620732713929753,-381.500031278953
0.226015220470112,-0.00416424136256051,-0.00875683571114388,-5.69791019487234e-05,0.124132270759048,0.32372765979485,0.983621222334181,0.410671710939808,-348.283060692148
0.21440664320212,0.00119846459394039,-0.00262753204466492,-0.00103070527303308,0.669899488988568,0.814425771343368,0.755144964647345,0.533520497817339,-356.35713793023
0.219885111652193,-0.00141212036043228,-0.00721953773586195,3.83016187956438e-05,0.5958506505571,0.335067785503988,0.989609429449778,0.488786322892171,-355.597653459957
0.226259984193949,-0.00405065179292737,-0.0155205970075848,0.0040379488111611,0.239217413719872,0.203328110304293,0.255383012241661,0.498908027063708,-354.092179461044
0.204603643973146,-0.00294655899141328,0.00258148770698732,0.00250967186984503,0.263485776400518,0.679155050054984,0.346712723081829,0.614752223320507,-393.505390051084
0.219279248186943,0.000128703993772928,-0.00499519360619613,-0.00281913547504585,0.968627871469249,0.49720935891071,0.454563597102389,0.558560659533909,-378.417700179522
0.209913187532497,-0.000179131341145051,-8.64214997662374e-05,-0.00186833141052265,0.935659724007325,0.989230524403741,0.415346756892098,0.522004737399225,-374.025938830482
0.21195416516892,-0.00599385618984073,0.00909086842069604,-0.000517510588443404,0.0582764247894946,0.297714445146511,0.883173927897587,0.537092210822686,-387.894539203596
0.214707003158144,0.0021652685040586,4.59839427992798e-05,0.000385549701091912,0.506046086191636,0.996681676524645,0.918555768124722,0.499021106932321,-344.881622337005
0.217948191265664,-0.00257331669573551,-0.00233999472640317,-0.000908131399919943,0.309332590327377,0.811944225434822,0.758684859841276,0.554450348982545,-372.961093135983
0.21228740126874,0.00235643802506525,0.00349941106601156,-0.00270794542238983,0.453157127976522,0.773323713695519,0.483074724943767,0.515617427354583,-356.937398262448
0.211873492963129,-0.00775172501658883,0.00212345891807648,0.00455234139244458,0.0123674726169788,0.797387311215489,0.1375704982969,0.600290257028133,-366.557637746484
0.216766588980066,0.00124316173012098,-0.00115326276517662,-0.00459274944792063,0.672986510927151,0.879049469681347,0.0970609689578228,0.548004306789289,-362.887237773621
0.235100980843924,-0.00347776447675718,-0.0251595577967581,0.000490523232693706,0.274537898841996,0.0611996420698025,0.903982778296747,0.470046445058278,-379.791103362659
0.217097678749938,-0.00217142279984114,0.000496950978616207,0.00175928626532848,0.508745517753317,0.971751933525766,0.634543470053132,0.528073712919938,-344.860152823949
0.215257964425243,0.00106657956178463,-0.00705469645469157,0.000295222226085429,0.764750529739435,0.179086799090068,0.941145621694137,0.511568785827532,-366.234492963397
0.21584061573502,-0.00318095721105796,-0.00530237203509573,0.0016108257979942,0.358252095411623,0.477968982539103,0.718104896929593,0.46470588988305,-341.249463777451
0.211701487660251,-0.00136356770470035,0.00304804133388391,-0.00106990269886363,0.659257451459608,0.58597079617399,0.785153920976291,0.519885168095323,-372.097068184792
0.214563852160126,-0.00219456320319911,0.0020256399597673,0.000226819024155697,0.472219169007284,0.603585688529705,0.950367313597693,0.569307895255353,-352.980582266899
0.214637332716112,0.00219586458979767,0.00165711230356923,-0.00264603024032489,0.436219411006575,0.852633562434945,0.464446330931796,0.535753666817834,-363.609297159284
0.228983374640834,-0.00194542822978272,-0.0208009173288403,0.00354752625658628,0.443918747792625,0.0203398474703194,0.123042342520159,0.537914897161068,-388.074998317166
0.220667569258425,-0.00311016481273711,-0.00877190173866511,0.00163653985346888,0.352860253717194,0.534133073204992,0.673380531633051,0.471432830831298,-363.609715143728
0.214821855913796,-0.00310008814101037,0.000371138090711155,0.00180578002590089,0.243509542107422,0.961088701637337,0.518335526607621,0.551290255467579,-369.228574385504
0.213297202803917,0.00226329327089138,0.00164720046458187,-0.00595933688432212,0.532799649971645,0.913718823090006,0.173553125896182,0.44679820785408,-358.240337450167
0.219407886960895,-0.0029027983433168,-0.00473347833086498,0.00134768663561385,0.418973342948122,0.315190872874851,0.733249850847319,0.487166131609053,-349.269519794521
0.216424693017622,-0.00377444466879209,0.0041554227913638,0.00108882224430133,0.188503279874131,0.638442665019515,0.754118547873632,0.500426658225457,-365.202777233421
0.214164072341783,-0.00305367183041038,0.00496165717077654,-0.00142773732352173,0.381035325340601,0.629719491264309,0.688874750630832,0.404388394966935,-342.345621722109
0.21271942529429,-0.00352112762387323,0.00105411863944435,-0.000419043206612931,0.2350133737938,0.908033598126788,0.886227642184278,0.438953905400247,-346.570453362605
0.218581509134168,-0.00440572661573796,-0.00582331554108787,0.00598501331565859,0.194569160047334,0.581967590161985,0.148946422023588,0.568611576670239,-346.508813316526
0.220661041568735,-0.00456717806324901,-0.0151144514814148,0.0029482604660953,0.124453945731309,0.104308078912317,0.354423296488208,0.582061903202518,-378.035686388278
0.214054935573968,0.00118872333565786,-0.00107869694092369,-0.00289246912994746,0.759288652030831,0.929733837917738,0.490250224872074,0.421537548969615,-356.809065418763
0.212145203718224,-0.00124919882937069,0.00433048409609911,-0.000982497450199619,0.628727393561358,0.332500517131845,0.76823854742394,0.593521300096523,-380.650187296534
0.216970873735652,-0.00328045282946928,-0.012604173375409,0.00484056560266283,0.313152520387237,0.423045443029052,0.22896255410478,0.503736400594037,-354.535093657109
0.210997548616457,0.000923890559446521,0.00760493054564112,-0.00297097625723882,0.735438638358675,0.154459045120437,0.366592355972279,0.441511958105132,-356.238726687318
0.217327577801481,-0.00421223264236805,-0.0060564078830034,0.00462157435893522,0.167302763508456,0.491475115261751,0.258764649767346,0.580756676398911,-356.94250572297
0.220987892488374,0.00473141373667972,-0.0143449177180101,-0.00442967952991899,0.0692350492259219,0.0533661883069729,0.0902860101342367,0.405893295499407,-342.558340585272
0.228631637732118,-0.000495604242516788,-0.0245935508294669,4.46642712376297e-05,0.886688784511667,0.0619160346864018,0.990729011664101,0.483867304379063,-367.311210964967
0.219659121276384,-0.00303117893940214,-0.00136246838583163,0.000152580234949637,0.420621872614363,0.92856976058689,0.970584225744645,0.529159896547307,-360.408092266832
0.217808788313048,-0.00241736288834197,-0.00176408981501192,-0.00308176324401459,0.405274663727953,0.838774540992135,0.330703241543328,0.417610611619127,-362.019198642021
0.221525132830406,-0.00190896228245355,-0.00466271745597624,-0.00180678064450606,0.514692987597352,0.280338599772218,0.594980835875353,0.369197837786311,-345.442994139904
0.218848490151243,0.00174447733737729,-0.016607854484242,-0.00444139047285597,0.375200042412385,0.0307955831818993,0.0229435917338246,0.529645183324542,-396.0258297886
0.203595092507091,-0.00149143448224636,0.00711606594575535,0.000860498598055432,0.551424977566731,0.411744702822551,0.751588062891695,0.569516669843558,-377.154090087317
0.226894756143502,-0.00250025229720436,-0.0159484713141128,-0.00124816994158729,0.438031483391071,0.09590607755832,0.745085692247031,0.459949559653102,-342.002213153177
0.21041431184452,-0.00389493719791458,0.00401182975514649,0.00312749904350688,0.110029692290723,0.699255976393582,0.272539438589905,0.58920940318757,-365.539456160583
0.216717784730023,-0.00339759521341373,0.000400569903215764,-2.42761663469417e-05,0.254607027218193,0.977406817752891,0.995595575327948,0.517874200055472,-362.967455688704
0.210377652152923,-0.00599168000930915,0.00751785918129538,0.000843325769148502,0.0132113514965417,0.28914814078482,0.722888386463468,0.524376020070599,-377.880087178138
0.217417030344834,-0.00266270188867008,0.00149233108779629,0.00101753324937509,0.294766044535938,0.603231062712665,0.691725670438289,0.483356198132117,-362.068365309735
0.211393233449478,0.000153701424278061,-0.00126686334182106,-0.000453832037477928,0.965515691624565,0.935552287254865,0.919027214241457,0.429222081640601,-343.582712110795
0.209358462112988,-0.00460938445427779,0.002296597619778,0.00227503866811266,0.151760203516798,0.761645893356864,0.520993500385253,0.509795924634609,-362.148781196632
0.212350623586634,-0.00092493334212247,0.00503166243946288,0.00193883342522101,0.765872937884754,0.680393653053272,0.591337619749523,0.524840661173708,-337.564186762207
0.222554508950929,0.00531567300392007,-0.0122885597910198,-0.00400922355723676,0.0553471448954372,0.387762088119318,0.200439899330176,0.439285500908823,-334.536894718174
0.213490278954609,0.00470785550151553,0.00183372526887612,-0.00902214799405592,0.179796416315757,0.825184818297341,0.0352799095769895,0.376472573857011,-348.83372600662
0.220936557246227,-0.000281844496466578,-0.0151347577877676,-0.00311611614046148,0.941277432759611,0.182859654114795,0.428794909401264,0.351507371146416,-335.55888950771
0.218654320305772,0.000833060658261504,-0.00723383541791111,-0.000113874185965642,0.752925380936434,0.347759624966589,0.958668922546014,0.499964682144518,-361.087925955361
0.217786477891496,-0.00107932980405798,-0.00377118445669022,-0.00323463115371976,0.683214942013022,0.55528750868944,0.301637154817305,0.452912162244475,-370.362136856651
0.212245903504062,-0.00166136117542652,0.0031023791724823,-0.00143138560194472,0.614735985212504,0.791153841636793,0.701771641313632,0.421046079636645,-351.277643173547
0.209251897420595,0.000898064634097137,0.00269547539598445,-0.00289533200391789,0.752118449799921,0.832102634090679,0.377934504830415,0.473736164687916,-353.750936351622
0.210255621951762,-0.00312129702898427,0.000609941863582928,-6.94931009517761e-05,0.198379687468775,0.900180571353515,0.973470959035079,0.495152426067097,-355.242265578281
0.212224625145587,-0.00550304866925899,0.0021291118499721,0.00529463991833788,0.0553733460970198,0.823817163035497,0.0901665050646663,0.582926836101834,-372.273549784519
0.220645489121935,-0.00222773072364869,-0.00933490802064065,-0.00482230118459313,0.447386544684642,0.197334706932674,0.124275997562166,0.425440987561741,-372.241862581646
0.225207227028432,-0.0016643924791314,-0.0151319852289595,0.00210981444254279,0.629460844584061,0.259707874528828,0.617553846291718,0.467875265137026,-355.943695796331
0.226403742639313,0.000854001953087316,-0.0150845613116242,-0.00364117484203128,0.700465005422088,0.121373171310218,0.113910981972703,0.48043666185906,-367.898571981902
0.217096852201049,0.000790309188877991,-0.00506290205873815,-0.00296945159075895,0.707509004757049,0.406421659018754,0.142105508166043,0.485157653745235,-382.835819795508
0.219880254755786,-0.00350601020538213,-0.00124570335756624,-0.000889755782533212,0.258328592072579,0.684708900000759,0.805322735705035,0.402964389843377,-353.318644063489
0.21070471894925,-0.000427162695709836,0.004077368685486,-0.000790170262514741,0.900598531337208,0.389906743831521,0.837679644400682,0.51545836290796,-368.067956437247
0.216778153526855,-0.000718044836002131,-0.00753765913236936,-0.00306890442864307,0.80857615239394,0.436143553118567,0.313053773870882,0.39488891379519,-337.529090796857
0.212513370348693,0.000206711660733601,0.000558216613724106,-0.00136013562876811,0.94410047307104,0.924854268121506,0.689979896340599,0.53415627737015,-353.771543799199
0.213447790883345,-0.00477044121249625,0.00618572472528879,0.00172731335991365,0.107855238800904,0.509297435486724,0.590304433893208,0.598778234740789,-368.205438663079
0.207699021051554,-0.00706678190572051,0.00856399103137979,0.00113934631136511,0.0049596044337742,0.414989141197162,0.625176115102159,0.509069057906244,-364.188601911087
0.208920178145786,-0.00209349738474969,0.0106302545544882,0.00159510198420987,0.492373511388729,0.162264924436464,0.680737939410661,0.524617430346185,-357.028217697146
0.215942487481995,-0.00221150329644217,0.00386030390741615,-0.000296819433953398,0.387728299316585,0.708517156041468,0.910696624125321,0.532310417436209,-348.393111849964
0.219647999094055,-0.00391813747061904,-0.00495072608387892,-0.000888472353075722,0.187166248387765,0.701353250212405,0.815757813701401,0.485838154002096,-361.010891072028
0.213723745624047,0.00402683532771791,-0.0014365889880994,-0.00323281430313679,0.231811054384797,0.872928138197168,0.370600269917856,0.548848453854398,-340.709185446938
0.213956255260598,-0.00413382770095998,-0.00167938498277365,-0.000107820552793314,0.229044188583016,0.883236346688643,0.977070342078268,0.433520107095061,-359.946363823778
0.218015666088228,0.00022773488102586,-0.00340681880263304,-0.00223531256700618,0.932653841595356,0.678446034136917,0.448416619326032,0.492907937723443,-357.182028752712
0.220717678322837,-0.0024363291515264,-0.0113447380642401,2.51516380243978e-05,0.426204612986326,0.406548169808968,0.994980521169943,0.41376370376341,-360.328424542576
0.218295577588183,-0.000789390105005682,-0.00578265846939015,-0.00372096530429564,0.802715815784485,0.628302582550227,0.285878485990416,0.391201894077048,-341.173587856136
0.21256532195267,-0.00303829318024909,-0.00146742137315442,0.000143170424329327,0.169346669428921,0.84704232671081,0.94459775317973,0.441129984185133,-359.5046809168
0.204026820265805,-0.000964290067790052,0.00711999605043145,0.0019646521187505,0.771478581430785,0.394556118471945,0.61221456311117,0.52371486001571,-348.111997974934
0.202157747340146,0.00281452661712199,0.00963763298090591,0.00154685540219127,0.496748824065956,0.569834195300367,0.753762211743821,0.662606786993591,-359.083951476891
0.210670355708671,-0.00194390338529575,0.000963866025966553,0.00373956527760473,0.552574085594602,0.838634122986227,0.346472716992177,0.593667049893435,-364.56755830871
0.216718149128501,0.000422598072709588,-0.0117636488785856,0.00127017385713865,0.875548197773376,0.288996183582471,0.663209198720727,0.58234681850329,-354.682573492757
0.215893749878811,-0.00186234927628341,-0.00162796074678742,0.00212743097606391,0.619191612795863,0.87769519671504,0.649219248019765,0.554005252570493,-370.903719100603
0.213929025055185,-0.00144958941467296,-0.00631353124002388,0.00140850945525655,0.66004080588501,0.417442541649608,0.660094055038936,0.531425773091675,-370.988226362932
0.224194288156131,0.00139672093663759,-0.0168763376304593,-0.000981117341962683,0.605527918102109,0.0651375089401472,0.703464698748224,0.544675666648783,-386.829890689998
0.22077338955129,-0.0061143062440595,-0.0087431805972607,0.00378288941647746,0.0899988444637311,0.566745696154342,0.385385984802898,0.499733822818333,-360.09061189462
0.213438958603475,0.00268566925270484,-0.00645106125719594,-0.00220856920711992,0.311238844268175,0.61685014471272,0.531948564739523,0.553777482609735,-362.111100113732
0.215496751506144,0.000845885201331854,-0.00320502977819962,-0.000432242086848394,0.793326752672086,0.415424955233169,0.903221408461758,0.560930727363562,-351.310724642137
0.215773449735818,0.00372337021795408,-0.00332083736240575,-0.00451693676854145,0.173042072203851,0.788540822683293,0.17557833403242,0.50336374377821,-372.786171668186
0.217073976643657,-0.00197816305639301,-0.00420201898564326,0.00249588078149108,0.554480607873067,0.648261569463638,0.500735704955752,0.523334883481829,-360.925469616978
0.231593589004319,-0.00570811995407841,-0.0199835377614503,0.00344096828238417,0.152910504354291,0.183181971341978,0.449567689153754,0.366881999851344,-348.092430000796
0.21564833774764,-0.00241310431264112,-0.00738580838972235,0.000551132607940677,0.445641654763235,0.578889071183872,0.887805624211029,0.448299240736474,-369.124254171308
0.221836594573859,0.00460527309943009,-0.0171837810880481,-0.00476836845196169,0.103412938486602,0.0877810575758896,0.10815798438664,0.566337439823281,-363.432966224221
0.217987476621773,-2.16402131940509e-05,-0.00721583937651087,-0.0028622210975968,0.994289514411232,0.523603817521873,0.41689243798922,0.558014258112604,-380.688278527524
0.206118309638815,0.00210305810768441,0.0119085153754903,-0.00527880844219535,0.505214209229808,0.338948469164418,0.1403118905452,0.582781030393639,-365.678432847353
0.210476967493465,-0.00240134193906505,0.00582416140764432,-0.000316710771868786,0.451072892276214,0.648531356269751,0.925587722871143,0.505452144386997,-351.53626321907
0.20873861312423,0.00240204006148814,0.000689869804886084,-0.000358273936991388,0.400477995963974,0.957894732894762,0.91963451305372,0.61875027095243,-364.296666118787
0.219159139766254,-0.000385509821214113,-0.00872315585972375,-0.00247975429671391,0.896630431768155,0.518436219349703,0.474740608709674,0.542258379738817,-385.106965326859
0.215372413476567,-0.00950868849581215,0.00154973893220668,0.00500255956007542,0.00163128716480217,0.892977712083364,0.151848573563012,0.602231157862732,-379.654039157207
0.224994740190223,0.00494647382466737,-0.0167034031432534,-0.00539514418266056,0.131293662491898,0.07906616567831,0.124485881616089,0.410251442991461,-357.960439487773
0.233787046897512,-0.00637463551494198,-0.0148634845419786,-0.00176385778025033,0.0797369279640272,0.258245173084899,0.663779562787353,0.396278953254918,-349.362596778503
0.222409500914977,-0.00499054927159262,-0.00638002534505442,0.00104692757344146,0.0736169048780495,0.527538757799675,0.609138039786948,0.455682781346105,-361.022392712072
0.224450306539059,-0.00538293709960738,-0.0242470872994753,0.00584839176144218,0.0733655861252573,0.090671711476036,0.10895982142101,0.513001058704895,-370.148693731347
0.215767510074759,0.000728807980862318,-0.0114676902364582,-0.000319658219392762,0.823565656897171,0.383689271480703,0.930973179221726,0.478300614041164,-365.841976416806
0.224578960417856,-0.00623974430950237,-0.0179382491906216,0.00757318832068531,0.0672097852450712,0.247091064344946,0.0590957433147465,0.490554889617335,-353.21827639911
0.209507726144371,0.00276954726199151,-0.0029810067683938,2.46851462014577e-07,0.371636882767756,0.844588826787078,0.999943213531684,0.620886573287524,-368.116564154435
0.216099793146372,-0.00544829788693158,0.00192007502731441,0.00405193501820443,0.103364341030864,0.716242328660518,0.267839558067016,0.530919930499645,-344.035817043811
0.210738846989659,-3.1871601837987e-05,0.00427045486320612,5.52677518491884e-05,0.990878810677006,0.34376622057532,0.986482104876769,0.608614138049704,-371.373559135327
0.214330428416033,-0.00267902431695252,0.0018264219314957,-0.000108515448181218,0.366606474144757,0.845260192807314,0.969788946976791,0.456439605160114,-349.02640048211
0.209041694268493,-0.00377550892267914,0.00723719818636702,0.00108812435142048,0.210638765849436,0.205294449384655,0.761974343370245,0.563951335486723,-358.547268168815
0.210240295871818,0.000881012058133299,0.00964405187145521,-0.000913705035819864,0.792792008926481,0.419440572029512,0.796559214991576,0.460890505746965,-339.921549206223
0.213036502198096,0.000127943780789576,0.00465411482275667,0.000586030529314385,0.963496225168017,0.613300794929874,0.856495142122054,0.504015943031887,-331.148080281837
0.226182900029413,0.00054259662696795,-0.0180336819776406,-0.00363967685668708,0.854001406405242,0.179800338040292,0.325945068422933,0.443100423673882,-352.623363682754
0.21772551780856,0.00217522099060343,-0.00427042710879555,-0.00258488072886426,0.525551443617984,0.656029593091127,0.53889587379959,0.524128922702462,-343.162897950285
0.223723248468522,-0.00798679455373872,-0.0114625120687119,0.00712694528393813,0.012372643450532,0.333549245380573,0.0393769297227701,0.524662417957896,-366.694434372031
0.214185312382951,-0.00188251794809852,0.000589800696337259,0.00181039743850463,0.590040425443415,0.912127083204494,0.634423230914904,0.438131759328576,-334.794428994176
0.233319089023657,0.000190680254127922,-0.0292801008943817,1.31669105314948e-05,0.956676920767264,0.00535647484514735,0.997359709293225,0.487620809234562,-359.145576667249
0.216405983239841,-0.00256161813084511,0.00131809196681213,0.00101299619046898,0.307813870967563,0.901630934602728,0.754278422644381,0.486823513923384,-355.283673395077
0.218042842132323,-0.00240838547607898,-0.00629361096094679,0.00151973781506965,0.428496131898389,0.535482421374507,0.692701892555301,0.495609153899433,-359.271576711211
0.202502113175018,-0.00258354452286473,0.0127264940688974,-0.000115407799063923,0.335533755880573,0.325548284922045,0.970728619161125,0.560394278893161,-358.018789753377
0.208668345335747,0.000853732191098318,0.0056751364068045,-4.27869740309713e-05,0.772868787745188,0.318712412709673,0.988044013124911,0.617761129798888,-369.601550139044
0.214126584383204,-0.00601167959130403,-0.000142224392995802,0.00257942528815954,0.00835591564424564,0.982929440887248,0.316073160825045,0.603067496323826,-399.803645908777
0.220497047523316,-0.00554414054905802,-0.00301748809025724,0.000974351960607559,0.0760614805685498,0.712470605241636,0.793307170567408,0.450674737658363,-362.595301911197
0.221648582869024,0.00198300132605262,-0.0125625319125323,-0.0047241179168598,0.541008848733104,0.0866780088243751,0.149251205372709,0.369268233998962,-361.037972970184
0.218039251669844,-0.000399355986723448,-0.0038761642092775,-0.00191441307530032,0.880262891934415,0.703963610407752,0.484315074941176,0.486043369034305,-346.771166617635
0.210095629170088,-0.000936730884033076,0.00287958226027275,-0.00176306475709983,0.756473474339939,0.840653843644803,0.613043848283238,0.553613411907556,-375.245662648199
0.221836492347012,-0.00238754821821963,-0.00934019782634901,0.00226386584380546,0.5300689787419,0.432869818058659,0.587976653185218,0.46764525392616,-358.834279135324
0.213643618150817,-9.28106116263455e-05,-0.00372738548348168,0.00154095275724213,0.972890198225846,0.693861234873746,0.535600944851643,0.518736228364394,-346.707822726781
0.202769471090673,0.00379930376157362,0.0108334829658203,-0.00248808739155792,0.281609596880547,0.461308919435734,0.528502185263278,0.583756932527375,-348.076018376899
0.214533040921303,-0.00194565119067667,-0.00856928045857118,0.00518449804587616,0.594895004145593,0.345354578647161,0.237066796271794,0.499485124970717,-342.79146543331
0.214951473390513,0.000781371297259653,0.00299909985204907,-0.000495053462107639,0.826491085927963,0.684064877764249,0.913613657121107,0.539697139346648,-350.969728770893
0.215412045519763,-0.00254661786665678,-0.00474609133179606,-0.00156552862467901,0.298064625348373,0.65229200558374,0.525432971384623,0.421697244223334,-344.561504166709
0.204349066984521,0.00148089250944633,0.00397160127113734,0.00270396907438881,0.602608276448579,0.519917416804027,0.51592192751144,0.623731555941602,-362.893650675659
0.228528589749908,-0.000536663695926638,-0.0181135685124721,-0.00830651118078436,0.817864791771188,0.0352723652264277,0.0015246189038316,0.435060203541912,-364.777648511792
0.21868480579361,-0.00245280614879816,-0.0055087433847708,0.000457782871692709,0.327248029822114,0.497993024392722,0.875704101937351,0.458644618848267,-381.696902488355
0.211542131102306,-0.0020686247661477,0.00673245006491415,-0.0026888511409849,0.521146124034869,0.513825720121191,0.477351825529445,0.508397374573206,-377.34138425803
0.217157541491406,-0.00223111040654427,-0.00296554352796745,0.00255492240769898,0.502052310771692,0.619996874913588,0.547325344148695,0.407037991635093,-337.584343521432
0.221389790927135,8.13245590998589e-05,-0.00565700874446756,-0.000226116083540783,0.982783551954838,0.619489596471998,0.958011022954668,0.464254468397035,-342.091671866662
0.228400090098591,-0.00616357157855117,-0.0237192266217054,0.00784822222749702,0.0714112824692736,0.0532501744162135,0.02571143951587,0.645322351860255,-380.973281144576
0.226541044732637,-0.00427393342082676,-0.0235928058166179,0.00350946426334015,0.131124255497989,0.116141452467737,0.359402656089471,0.518500237552194,-352.515920800091
0.21713183884127,-0.0017200584863113,-0.00764638629758693,0.00186955900203081,0.433261068597998,0.415926500914792,0.493798872017266,0.577397389146445,-383.701475511242
0.216214518709045,-0.000814162318833133,-0.00216628874490537,-0.00112274638024371,0.815674942615574,0.812307968084643,0.738879712014048,0.429366325721395,-339.954457805739
0.217480932206964,-0.00503850454027494,-0.00744992065597775,0.00562633183934048,0.107991705373263,0.441038290860421,0.122340798040342,0.584851896939238,-366.855208768788
0.215890240314189,0.0011582185086587,-0.00419364369324038,-0.00259698311764037,0.697480015611151,0.660960934485752,0.395232335559472,0.377259149362243,-344.377452268231
0.221893780598646,-0.00459678495786426,-0.0111708560842358,0.000657645253436065,0.0900060338166481,0.300834748629145,0.772863358303092,0.480690401017257,-358.471334395522
0.220138759695962,0.0043274930780449,-0.0103239451866696,-0.00496690258897228,0.166752498187298,0.242036785739326,0.178431859635027,0.474260779977128,-351.487647424702
0.231311176895714,-0.00469852937916088,-0.0135663945779443,-0.00501397613252004,0.0856630174492656,0.0984463989619175,0.0981177321472139,0.438711224217024,-363.080292570078
0.208464805252551,-0.00063000820469633,0.00778718599934987,0.00262389822373681,0.80475910023085,0.46101315941999,0.357320559804348,0.588159996831121,-361.681174395803
0.21693140652999,-0.000370526128842126,-0.0087112762665791,0.0019459164109001,0.899064524247431,0.483407655953405,0.537611603091932,0.568852828214214,-362.187471889365
0.201131449020728,0.000903520676780655,0.0111188611929054,-0.000279355169828156,0.814194318099442,0.370806306414553,0.952838517680673,0.565480302911851,-344.32878731464
0.225706234408103,0.00250670478138856,-0.0123766314853754,-0.000932854404848977,0.418814200872214,0.205492464991011,0.761097889433481,0.523962474778842,-348.736415918596
0.217080803664981,-0.006309196881246,-0.0017853015037718,0.00682369581482732,0.0614729101695987,0.872229851576865,0.0812662455433332,0.612300687908678,-366.840594963084
0.219662694070762,-0.00506379133905787,-0.00595201874441865,0.00148422849230705,0.095250908495746,0.559725938238994,0.65392674183749,0.447979748828979,-360.851795861032
