"intercept_mod","scal_mod_temp","scal_mod_weight","scal_mod_t_w","p_mod_temp","p_mod_weight","p_mod_t_w","rsq_mod","adj_rsq_mod","aic_mod"
0.23386830523992,-0.00210564080263474,-0.0205095913953227,-0.00761272737994404,0.522602699854394,0.0136169904570467,0.0415794549349001,0.249571552688522,0.227924578246845,-388.501984623849
0.230526153450625,-0.00166627332327471,-0.0166728160601107,-0.00666761514378857,0.552647361602989,0.00320122911183708,0.0122086896481365,0.198224335629316,0.175096191464777,-367.028184262141
0.223301695313218,0.0020394900647146,-0.00927841611947639,-0.0100008929560954,0.561785118918449,0.200625895693776,0.00628466007693696,0.189496739379186,0.166116837630508,-373.425396494449
0.232968918744105,-0.00206926746431357,-0.0213671028940149,-0.00483445057882987,0.53774979914998,0.00292637239739289,0.182092904566991,0.162354658385315,0.138191811992584,-360.311043526286
0.2274068344132,0.00376234131437879,-0.0175971531026255,-0.0104619223524478,0.206309609699953,0.000147632593569695,9.43069671151386e-05,0.195963375214923,0.17277001103843,-367.566959425597
0.22858585711061,-0.00129668653863435,-0.0154074620227928,-0.00541447306957486,0.669851667772148,0.0415465914893437,0.068762250234152,0.1343121934296,0.109340429778531,-354.228271411763
0.229245045417188,-0.0042605883049695,-0.0136151177796172,-0.00499332193916142,0.180046307195545,0.0743090495025168,0.155145526883915,0.194381222278579,0.171142219075077,-372.937891603371
0.226185909784449,-0.00436424516831931,-0.0189413535299962,-0.00385372973346471,0.101172226427242,0.00554527740708638,0.0454286497028504,0.159372424278632,0.135123551902054,-356.390444399163
0.226581397505973,-0.000124311447607738,-0.0156678160711127,-0.00719120737487788,0.969998293939597,0.0597967195604381,0.0556096084057708,0.164012075966238,0.139897039696034,-374.300094053789
0.229260088035858,-0.00266763691127406,-0.0189148284626689,-0.00583778113974299,0.436267399051568,0.015509727270528,0.0884280750642404,0.194867917343936,0.171642953421166,-370.62438541057
0.229521261699413,0.00082268608745499,-0.0141028168974989,-0.0086161055367249,0.752044789935846,0.00172980002528444,0.000961656125068315,0.207750934585722,0.184897596160311,-382.749834874319
0.235993010094261,-0.00292348384249116,-0.0255105075212017,-0.00527296008620922,0.336395234730292,4.74751535940157e-05,0.0749330723044138,0.23323748611718,0.211119336678252,-381.947670078193
0.227992706465102,0.00586926492618583,-0.012057124432812,-0.0125939491606595,0.0509102868238123,0.00665606521287415,2.16268089020242e-05,0.215763727354025,0.193141527181545,-373.661459713299
0.235080496941487,-0.00539211485900314,-0.0150316693528495,-0.0011502072938146,0.127776214635066,0.0490845207997312,0.760328405994093,0.116317559910067,0.0908267202920883,-344.646265617607
0.233567204575372,0.00389389995981202,-0.0180094892688324,-0.0114700886068925,0.304641771441738,0.0314029351840629,0.00857345286693444,0.174824668480436,0.151021533917371,-354.751465234991
0.229871813936356,-0.00161656511403473,-0.0165719010989147,-0.00380550641896636,0.557034154780416,0.0134227583223629,0.143405696334545,0.125339657978702,0.100109071189626,-379.09149476029
0.228134152500384,-0.00534294365882529,-0.0180910694730335,-0.00256930325677172,0.109953141258943,0.0177824576132177,0.472609832315067,0.197235209196099,0.174078532538294,-385.804231579593
0.227023044920446,-0.0008858076284099,-0.0136592885787748,-0.00649012063052085,0.799807070318179,0.102092362723213,0.0836471234231672,0.178607431958046,0.15491341557222,-383.552943286084
0.229382417863802,-0.00225532101246532,-0.0173217625664903,-0.00532532530089074,0.407094304698503,0.00678061575571278,0.0236890146126757,0.16402812845386,0.139913555236183,-376.988916825153
0.224690395967734,-0.00224698089200616,-0.012951158096369,-0.00484862523751691,0.340701246465922,0.0190547711418131,0.0215473042761641,0.176001135132732,0.152231937107714,-401.385763790681
0.230827907624988,0.00223422159289528,-0.0197183821336879,-0.0104740112103959,0.594198469421987,0.00961832410519522,0.018454722676356,0.243104044988762,0.221270507824976,-371.109280979672
0.220680949093747,-0.00241277395372961,-0.00745494029607006,-0.0083921004606274,0.57045059216175,0.375853165935954,0.0631934853643297,0.232345384221026,0.210201501073555,-379.951995837751
0.227996388129139,-0.00109695192618549,-0.0220528842382008,-0.00584840436227326,0.611635397626307,0.000140185767265955,0.0017526658643255,0.202565504715038,0.179562586581818,-382.541349333723
0.233230105305903,0.00031346921595333,-0.0163865568368293,-0.00940209082787408,0.908887566911336,0.000203276966851093,0.00036591838266987,0.284414227743514,0.263772330466885,-396.57464224851
0.225348060830798,-0.00425530009490419,-0.01714751030173,-0.00295460472514382,0.08507797522117,0.00998997788931922,0.0813211941353083,0.147879052792775,0.123298640854105,-374.542744140304
0.235007261445391,-0.00666726160270394,-0.0154421636186431,-0.00235752039836108,0.109128195258565,0.0770044423348731,0.563497624913522,0.181612066142614,0.158004721896728,-356.701304373747
0.226757193055831,-0.00186210887477321,-0.0147076264074417,-0.00656313058970002,0.64490345918902,0.0791061274589381,0.107987223183475,0.207986780220562,0.185140245034617,-378.058723133073
0.222195330873593,-0.00245134503758638,-0.00988224372350707,-0.00321877338354175,0.202021971964437,0.0538714703435909,0.053871324186583,0.126290389493127,0.101087227651583,-391.332822744819
0.228615972265226,0.00733567171421522,-0.0108614748633002,-0.0145727232085239,0.0527472076173026,0.00986791293974033,0.000104124600298086,0.199538031953757,0.1764477828755,-367.595245920835
0.229757129062431,-0.00466236968829159,-0.0138420203169943,-0.00582636629333347,0.0301673660183075,0.0144775678831044,0.00134717318513077,0.207718588274744,0.18486431678267,-374.827031215496
0.231021548842828,-0.00280399104189087,-0.0176374097373859,-0.00483968967621073,0.272404448123201,0.0141335923646455,0.00445391914857574,0.14118661108006,0.116413147938138,-342.712853206858
0.223162436373244,-0.000731930039029605,-0.0139222323503255,-0.00668044606391045,0.800055788878977,0.0214666166432958,0.0269389250964,0.173901255440058,0.150071483962367,-385.683825021088
0.23316351689994,-0.00382544695372831,-0.0196812158043387,-0.00558568496130005,0.33106282541196,0.034385396274068,0.169498034722414,0.191869152014649,0.16855768524584,-350.596904987628
0.233280251781412,-0.00447171139926324,-0.0200965681641353,-0.00293207816791511,0.212973328166532,0.0252515339301707,0.46857625825939,0.162055537978075,0.137884063112058,-361.43859880242
0.230358844983848,-0.00394160574861732,-0.019272585902235,-0.00321867475584494,0.196464094275114,0.0129257375342195,0.356269264511321,0.176119565444089,0.152353783678053,-382.486264900903
0.229969655306245,-0.00115681565671796,-0.0148234525001963,-0.00737808251458817,0.751994627933716,0.0684236659019352,0.0590851093777151,0.219462362733899,0.196946853966608,-378.919274101067
0.224661066272638,0.000298623214181848,-0.00845026680249194,-0.00709788186713827,0.915686732057776,0.0522076012039312,0.0131675416211715,0.121180410984118,0.0958298459163524,-372.60526569846
0.220210021308782,0.00338484872509195,-0.0112302856892305,-0.0117135105814379,0.246241914065713,0.0157717273068567,0.00014332752826665,0.209165674079814,0.186353145447501,-372.841780166072
0.219535345639558,-0.00382373685242976,-0.00416361803948739,-0.00563698358060353,0.364051193888015,0.605694879993313,0.223371766598532,0.173881542704773,0.150051202590488,-378.219057346321
0.234032659460479,-0.000400541799488923,-0.0223891828542729,-0.00670276702987176,0.916348625402137,0.0138635021520004,0.0968920067752687,0.184306271469235,0.160776644684694,-374.291326734298
0.23385243793412,0.000832308825598245,-0.0196590197655587,-0.00940860351201426,0.790709786042901,0.000830704975382916,0.00219586232524905,0.253537423071597,0.232004848737124,-382.17730070796
0.222390337754925,-0.000488376346035448,-0.00449595347124358,-0.00926511655991942,0.892809918845981,0.503279771487638,0.0141827687300898,0.251397048300858,0.229802732386459,-386.622237058475
0.232171612604931,-0.00259149108544172,-0.0149546203636917,-0.0054746017033852,0.401167803552413,0.0438337014944107,0.072455318567766,0.203201570710745,0.180217000635094,-374.274132711154
0.221337797290468,-0.00116354130586725,-0.00124812883154369,-0.0085582403003301,0.737146639529365,0.871088230657994,0.019560202924001,0.235683999602264,0.213636422667714,-393.225878118589
0.231784595577444,-0.00285409187050081,-0.0166389237684245,-0.0056744431019741,0.387993873387384,0.0231556188593054,0.10774076052779,0.24558676061587,0.22382484024902,-395.451831367152
0.237483254660497,-0.0102276646987792,-0.0191729180380672,-0.00180921686672765,0.00256305050328127,0.00336869252241436,0.542141648621058,0.293909815320075,0.273541829223539,-378.440994003658
0.234641250568156,0.000851443819120602,-0.026629412679961,-0.00820168613877685,0.830075742838706,0.000934200928626539,0.0558806413138221,0.191168371532449,0.167836689942039,-378.73096065522
0.223728693228589,0.00254019260600613,-0.00377297906153869,-0.0116708693100007,0.511455743148392,0.662648609125092,0.00461277769438716,0.206998933812494,0.184123903057086,-376.721973424136
0.229464182373448,-0.000596864977303561,-0.0159406833842293,-0.00600893880405788,0.896520739340248,0.0907267873419502,0.178215966354338,0.170530745545051,0.146603747820389,-375.518447243904
0.23041227490282,-0.00138539330962943,-0.0158059770320498,-0.00941506933099536,0.738386025245286,0.00439972381158009,0.0424929459265488,0.201778730568927,0.178753117027646,-352.753262914054
0.233405261831114,-0.00870510563722575,-0.0212000707293723,5.34530449655316e-05,0.0055642625717357,0.000811126346638885,0.984191529857132,0.259195674189279,0.237826318637047,-393.838963267235
0.223625563151705,-0.0035245490076887,-0.00753483896902535,-0.00457026425113146,0.293914721398303,0.127449897984314,0.134527220129366,0.13964119547509,0.114823153036871,-365.321599393063
0.22346351764744,0.00207001821749077,-0.0102326886915444,-0.0103123642849886,0.504463611284769,0.0119054548293263,0.00189921130760736,0.164541794521959,0.140442038594708,-371.05329945214
0.233548003419335,-0.0019513428080226,-0.0215429166675428,-0.00712610733402484,0.585220963922316,0.0120165636154923,0.059955788266916,0.181820201979962,0.158218861652461,-354.199679240914
0.227049786993699,-0.00445152198734998,-0.0148689815290575,-0.00376180568296072,0.0751016694895201,0.0305742576719547,0.106399537215799,0.162005354396579,0.13783243192725,-377.184931037173
0.231035086056221,-0.00593529392906817,-0.0186710490078294,-0.00381229145250229,0.00710672505767983,0.00121838499762785,0.0124667285072931,0.230862771584786,0.208676120765116,-387.473122544113
0.226222268087819,0.000322965589217062,-0.0111075974865202,-0.00846883817272722,0.933136633880912,0.0781099294114552,0.0314795343766292,0.182894668521559,0.159324322421219,-371.163440768131
0.222322508286564,0.00045799814531534,-0.0121443655666581,-0.00810165913648776,0.897042550453515,0.0587281884576401,0.0243385606647622,0.140353114580541,0.115555608270365,-361.700915490278
0.234494270036953,-0.0034434485890482,-0.0222592166630384,-0.00421833807514369,0.323400361447177,0.00695433121875034,0.240520441169141,0.204685017601508,0.18174323926309,-377.820100984665
0.234191515263994,-0.00611962727829611,-0.0239368845033527,-0.00252207459949608,0.0370298979446329,0.000493475324685855,0.355097503790857,0.233261735981909,0.21114428605831,-371.748714454962
0.240350370166779,-0.006317058440994,-0.0270772110838558,-0.00221601507565708,0.0401142224676324,6.43386411217643e-05,0.424377105618274,0.247556743929265,0.225851650004147,-384.952943007429
0.229783604044559,-0.00605841448811615,-0.0148875046288259,-0.0026546527977332,0.086374311794951,0.031043047849406,0.49296030196737,0.201051336149214,0.178004740076595,-379.079341320192
0.230357508023703,-0.00420687653357087,-0.019376156808417,-0.00438718554583899,0.0543488772456943,0.00172194405672746,0.0254194908284839,0.221550893930348,0.199095631255262,-382.796326127806
0.230157188699872,-0.00202384386550028,-0.014815934443966,-0.00756026290709215,0.519595643626584,0.0458551277672409,0.0145232027068967,0.186463136524447,0.162995727001113,-351.123035763216
0.236758274892781,-0.00353252322964377,-0.0290791214324058,-0.00519526739530251,0.450805395230832,0.00155953465856657,0.308459777870491,0.22879617154769,0.206549907265412,-359.457875836151
0.221390617659768,0.00656919912486168,-0.00851475701255973,-0.0138906287864009,0.0624223053147379,0.281638574059386,0.000321419961137198,0.23297385262484,0.210848098373633,-391.625532790525
0.223426341635572,-0.00364252809967258,-0.0115098337377904,-0.00322034624309221,0.267578463414873,0.119084424144392,0.337096930903357,0.133155575560652,0.108150447932594,-381.722743827301
0.228614469717825,-0.00240828448341736,-0.0195324416485905,-0.00374389575072622,0.257070207477142,0.000177433522711028,0.0258143750387195,0.19154043013447,0.168219481003733,-406.071441110042
0.22852830684035,-0.00224389683156621,-0.00972361896061465,-0.00580055578571576,0.512539459358894,0.227857905630966,0.0959559040709914,0.179881411785434,0.156224144817706,-381.16131368869
0.223779328225749,-0.0027086622210379,-0.0122683325277749,-0.005783105182225,0.348839188194241,0.0305664924423456,0.0320539083551856,0.178957893735805,0.155273986824338,-372.286451721974
0.231113349309653,-0.000106619341573368,-0.0126715040486847,-0.00902342495623532,0.978974301741335,0.127154505065264,0.0444331109228062,0.180283221305212,0.156637544996708,-356.864708606794
0.231396728796811,-0.000561977620280419,-0.0157417499839406,-0.0074088396276175,0.849462986490478,0.0152421930895652,0.019108747583268,0.197609535212674,0.174463656420732,-362.653214570952
0.233784811728434,0.000633457017035184,-0.0179923278433126,-0.00746369184529387,0.802338514475249,0.00263856167797611,0.00216780730377982,0.174561052188403,0.150750313309222,-372.614409666751
0.225734162408639,-0.000544437316754081,-0.0128290794933652,-0.00770668284198524,0.895336070658771,0.0760937334660144,0.0678464662637928,0.183664804748064,0.160116674115797,-366.259150921026
0.235646047758184,-0.00305325184095088,-0.0190505438268527,-0.00839372903351148,0.196069905023512,0.000877494408381058,4.32305977986995e-05,0.288189816942556,0.267656830892822,-381.847839589593
0.233897233915072,-0.00570103859116648,-0.00991715172851902,-0.00480260634879161,0.0383730076214227,0.0189173785791425,0.0324433786825022,0.228942889999125,0.206700857979869,-372.833551411659
0.235592728358784,-0.0035683005039555,-0.019132346636614,-0.00573444433576053,0.246918995271817,0.00419734243300519,0.0285905750366445,0.179086927918622,0.155406743147044,-359.245445977561
0.225361664814932,-0.00460350588299363,-0.0139904789731643,-0.00407933967936026,0.152151066750705,0.0200537142530953,0.165356629019956,0.188073453111644,0.164652495028326,-377.975065847157
0.234095065814927,-8.21334021665649e-05,-0.01901045000599,-0.00705952065904319,0.970040542786876,0.00184699191259614,0.00010940445296851,0.183122822254472,0.159559057511813,-365.03515614921
0.231328858701581,-0.00363464387841591,-0.0143432262267769,-0.00383210541042016,0.0853457472565849,0.0226134268090969,0.0040162153506851,0.165506091372562,0.141434151700617,-362.352349243129
0.233323482569095,-0.00245481980410043,-0.0189823621577639,-0.00741624429581287,0.549934630931422,0.0288703009233637,0.0977476403059788,0.23288971748907,0.210761536262793,-368.610174473628
0.226587028515966,-0.00394897016523959,-0.0104980752588826,-0.00542432264810576,0.133672215943347,0.0409195373619774,0.0285814061616056,0.183502098226987,0.159949274137381,-387.834822672311
0.225111355545994,-0.00136390281542876,-0.0077347152124242,-0.00653252004574471,0.681805329983662,0.242134009152851,0.0394339931138615,0.141385071183409,0.116617332852162,-351.626535921204
0.235920642584973,-0.00347452388314562,-0.0204213191278411,-0.00495135555897859,0.394853235557035,0.0196828786789729,0.238135234747816,0.187814783282588,0.164386363569586,-358.361542211145
0.22683560616349,-0.00507523645834754,-0.00991972507359895,-0.00576243842114143,0.0920540386099164,0.220365376715097,0.0723247293086476,0.309947954681304,0.290042607220188,-392.856640082958
0.22384463054722,-0.00192742576919462,-0.0152297143777751,-0.00563979089554273,0.478813202251363,0.0124369378234737,0.0507061996342952,0.176050900162325,0.152283137667008,-379.802560603223
0.233216776303048,-0.00469533320093131,-0.0195567572087352,-0.0034782604380812,0.153921409965341,0.0178625710201323,0.317528974664864,0.25358675067607,0.232055599253264,-402.448022802374
0.23279051719965,-0.0012655822282875,-0.015284935357724,-0.00721304319255546,0.679022738524447,0.0299434952919412,0.0225629842250661,0.189702357594617,0.166328387140616,-360.454259555335
0.229329513463693,-0.000890047567905553,-0.0174296403810849,-0.00579798924498528,0.720822442236026,0.00234862663496717,0.00392975332346764,0.145585036170526,0.120938450675445,-367.039441812266
0.235175410512631,-0.00565625109876399,-0.0181033161103153,-0.00351323282137027,0.0519125041279137,0.00475730689132589,0.223158258756816,0.28253526889623,0.261839170883622,-401.137257028558
0.237765687287474,-0.00887095445484621,-0.0179009071217918,-0.00210932821570672,0.00382929387223543,0.0240011144108227,0.513076493224055,0.253908922317108,0.232387064307024,-367.311724146478
0.231700698535185,-0.0039021346232699,-0.0162087476471957,-0.00419837916566699,0.152607763298381,0.00479011106624985,0.0550237158280884,0.18332925672534,0.159771446823187,-367.829133112505
0.231491235082164,-0.00578740883113832,-0.0191335166280449,-0.00303269612019087,0.100343142200653,0.0117699659964114,0.418848113599007,0.182325696897628,0.158738938154291,-376.826466276003
0.227707199580825,-0.0055091457473644,-0.00522904514051293,-0.00374528635364641,0.025996011826772,0.353910344622341,0.119143984791957,0.154584959492109,0.130197987169766,-361.468608017043
0.231799909470172,-0.00298066104405851,-0.0180835570059572,-0.0022806862417315,0.252700578749649,0.00452241098028065,0.242924456170494,0.120725761033051,0.0953620810628506,-374.733382072582
0.230643646506998,0.000342282829017805,-0.00902693630472503,-0.00868612137338614,0.920565787028423,0.201067128407068,0.0232420635437216,0.140595542206889,0.115805029001319,-360.523653283796
0.230959480279714,-0.00593524315659283,-0.0126087481753271,-0.00464795252306284,0.023542708035294,0.0532584878374138,0.0551661313542626,0.218998173501796,0.196469274660502,-365.924852220778
0.229348596063694,-0.00422061438635251,-0.0144064794366577,-0.00534592816448456,0.174287697249472,0.0139974911986498,0.0957600203695858,0.198755583874227,0.175642764178292,-364.511922521731
0.227711919298179,-0.00101058937380472,-0.0174683720772281,-0.00867074096912112,0.800510207180756,0.0433902543834331,0.05344036922168,0.235118222307639,0.213054324874206,-379.644919692882
0.235037756684022,-0.004729883313301,-0.0195903465124073,-0.00375612729080237,0.0661669270551131,0.00157101993161052,0.068263863358809,0.207375930621302,0.18451177477384,-370.328242643416
0.226050959755649,-0.00332618283861696,-0.0122654869384246,-0.00492515205417966,0.168861352715822,0.076596472383034,0.0328095394859676,0.158128956558284,0.133844214920542,-362.876238697831
0.232083339197374,-0.0028322824778098,-0.0135903616687868,-0.00798144803371508,0.307921065943087,0.023616677251215,0.00669529956865711,0.195667633997088,0.172465738823927,-358.437525654066
0.225278590564739,-0.000967475483184059,-0.0103809937794845,-0.00694793179924175,0.751107518004621,0.0747319414405396,0.029656064412708,0.159251489444601,0.134999128563195,-376.750398875734
0.227915168659933,-0.00416242347982227,-0.0152519245148184,-0.00273487562476385,0.137590195592286,0.0285727805928508,0.301689296650283,0.16269025364876,0.138537087888628,-366.051854935194
0.23698059178298,-0.00146910576450078,-0.0237657127809143,-0.00486219005605891,0.701759927421689,0.00726324871262011,0.21461764837116,0.186588465801076,0.163124671545338,-378.099788196488
0.224384969231474,0.00174928064043721,-0.0125439286169662,-0.00886702727156425,0.612218516626893,0.0171114553493675,0.0110029061321614,0.160254088281412,0.136030648520299,-383.36456647949
0.233766233010406,-0.00365516428786828,-0.0105022920886388,-0.0049041470634533,0.168115380979652,0.0682146929794537,0.00651530772124031,0.154581030075672,0.130193944404778,-355.660365402687
0.236384128054579,-0.00515472320869014,-0.021506022687855,-0.00242044953119216,0.087028503334946,0.00177027681666762,0.42529715743245,0.184610775206545,0.161089932183657,-373.823520202862
0.229319733448131,-0.000793264535380693,-0.0197131815415543,-0.00854137578427594,0.788424734042282,0.00132507294715196,0.00219365365964883,0.254545555408271,0.233042061814279,-395.921768651919
0.228916560547888,0.000810025898120749,-0.0160295393632435,-0.00684058247453902,0.84827929820305,0.0495990185326218,0.126919872000811,0.121122695826881,0.0957704658988101,-364.050374433069
0.227259467846687,-0.000654516221734374,-0.00570987834362055,-0.00971452139410259,0.857906064115749,0.276012509915115,0.0100191392291265,0.276764820937678,0.255902267695496,-402.582680278001
0.222283697206835,-0.00399822453453761,-0.0027712440396224,-0.00392216316952999,0.340408241993957,0.552485733395389,0.387768761415704,0.137427921594956,0.112546034717887,-365.097133271275
0.229769679656713,0.00145111775004517,-0.0156888934793344,-0.011708412392856,0.647514175476348,0.0197970086932577,0.000313949965295787,0.308317980950042,0.288365615015909,-380.344693582249
0.231677194569047,-0.00159517066171856,-0.0197719285107897,-0.00595678449670828,0.456980004010819,0.00502457065658421,0.00588336810261107,0.192378760537215,0.16908199401425,-380.766429050794
0.23277701499099,-0.00467913612117898,-0.0229812175840035,-0.00256845908091771,0.197354863706339,0.00582243763280374,0.496974236503307,0.175112226070464,0.151317386437881,-368.904499077478
0.219963397190102,-0.000563344866366124,-0.0124554380550751,-0.00743984474380742,0.825025330842121,0.010909330979617,0.00371619301604845,0.174368301831998,0.150552002846383,-379.521265893676
0.233252285985007,0.000494302792785653,-0.0226926560245,-0.00791145188877098,0.883268700951459,0.00599701974397271,0.0418160672443739,0.19879460161134,0.175682907427052,-376.140617392385
0.23743224197111,-0.00215662337801289,-0.0221069836779594,-0.00588309232105489,0.479711816557723,0.00116914042851616,0.0270955635370115,0.192720202504538,0.169433285269092,-359.902048671862
0.238673890764341,-0.0100941233696004,-0.0224024764381979,-0.0009513981088115,0.00119719886440645,0.00125396245177034,0.72112336978736,0.271491893378118,0.250477236456333,-363.921370218487
0.230911318022871,-0.00308539229189281,-0.0178743457926907,-0.0052816070868638,0.327225309707701,0.0100317081558329,0.103385917012339,0.222423686998292,0.19999360104632,-388.397674821526
0.232896589519421,-0.00553430237170557,-0.0174884886134882,-0.00529754881940595,0.103151129547077,0.00976847205770151,0.143608599304811,0.253300291436835,0.231760876766744,-365.218136173468
0.233928217515828,-0.00580021971489459,-0.0166929270345492,-0.00525401026055624,0.0852713260081688,0.0509603828677515,0.161771320836651,0.260917420810938,0.239597731026639,-382.474744350253
0.229405206755226,-0.000415382177219161,-0.0085225758592111,-0.0072806156609367,0.893581611257194,0.0588161337399637,0.0217194988759332,0.151860187198894,0.127394615675785,-364.308419569023
0.223707996275687,0.000619225186870123,-0.00948954539792886,-0.00726759060757905,0.817460344654041,0.0163359815264311,0.00340706484436573,0.140018246027084,0.115211080047096,-375.542798556542
0.22866442105452,-0.00191473042851244,-0.0149804758069996,-0.00704222887509154,0.503257396944553,0.0103258709031187,0.0120915730267575,0.188070585840435,0.16464954504737,-381.134810931275
0.228707961099932,-0.0026284198679686,-0.0130158451030527,-0.00626742057118489,0.34957689628958,0.0451380684441909,0.0372650761426448,0.246655330707199,0.224924234477599,-397.115635971276
0.231346819375691,-0.00089107641319738,-0.0117663821162013,-0.00824229704529506,0.729959331257811,0.0352750492979646,0.00131803861978817,0.232631530398034,0.210495901467208,-370.221502127565
0.218865040307671,-0.00106225824741058,-0.009087986849547,-0.00454406448093826,0.671863890714593,0.0948116256068704,0.106677197641062,0.103765274465839,0.0779123496908148,-395.932498835632
0.227505104635021,0.00628033956850352,-0.02200674376793,-0.0111952739644359,0.12497586874781,0.00698144251431234,0.0126527079746406,0.153090167234974,0.128660075905213,-363.896619176357
0.22104931878151,0.00329912674118074,-0.00829165499903018,-0.0115482810817978,0.346922423566475,0.327290795863568,0.00584819297283561,0.151479424079551,0.127002869004923,-367.538056761236
0.229212573338768,0.00120324035421135,-0.0151005833231049,-0.0126962870791221,0.701111140257193,0.0499296193765087,0.000809354405493204,0.245558575451268,0.223795842050824,-365.819153750326
0.231818764585418,-0.00372555597457344,-0.0164008723842746,-0.00329336089398684,0.224574017224501,0.00797549070359305,0.174947818193684,0.146013966395415,0.121379753887591,-366.986490177916
0.226769473758608,-0.00255231965841117,-0.0149351727288836,-0.00269371694594341,0.398285381305025,0.0811595606934129,0.426081434138405,0.0986631926430795,0.0726630924308607,-357.627964929717
0.226488878547252,-0.00312303754364932,-0.0128401208265859,-0.00536642372498068,0.210369405949082,0.0153478521781409,0.0220775140359163,0.208756979836825,0.185932661947503,-384.230476103888
0.237072886490501,-0.00436642478863765,-0.018751086250055,-0.006545075092852,0.225337096643512,0.0375592863739758,0.11098690671402,0.187274185818208,0.163830171947579,-348.441544087885
0.227059042090205,-0.00256816835065324,-0.00722764563882948,-0.00639070769098127,0.347549279032706,0.151376534435696,0.0131841072415828,0.191884342293809,0.16857331370613,-371.723831730019
0.230457949063486,-0.000266888574038024,-0.0187806555578163,-0.00743599213724367,0.917901328166434,0.020197052880199,0.0158027649274754,0.20805187859902,0.185207221250915,-385.050534532807
0.227244641308549,-0.000155862549439697,-0.0106379549286598,-0.0119886954681063,0.959495935080941,0.117308331822622,0.000550295611134659,0.253933429561128,0.232412278490776,-368.13492887175
0.229197937436467,0.00155424295760904,-0.0149097441456229,-0.00878443781673054,0.614885101443683,0.0160893754399916,0.0034323097124056,0.135416557618073,0.110476650626287,-346.990861270389
0.241423991227543,-0.00319260233990736,-0.0284746821463405,-0.00273202301527041,0.427238421297548,0.00175313759962063,0.551732126509515,0.148700417450989,0.124143698723613,-355.960289946317
0.226528588647633,0.00166721714874624,-0.0147847565707292,-0.00774660843815491,0.580846517351365,0.00219441475755575,0.0128250812949894,0.130303846911996,0.105216457880611,-365.743955299326
0.248060933797231,-0.00485606677199612,-0.03030566644611,-0.00565694405238048,0.18848743274048,0.00100464433789294,0.152941328882349,0.248231659312529,0.22654603410039,-357.530695869831
0.231313763357378,-0.00381101141565362,-0.017219999811277,-0.00429296558173731,0.215278785768131,0.0115032770386927,0.136877372444769,0.211148672385984,0.188393345627887,-397.406243834757
0.224365367675982,-0.00162005747102709,-0.00617641359691141,-0.00722744219081588,0.62756106289029,0.246113722276144,0.0281517676626638,0.205127576218707,0.182198563994246,-372.147344275074
0.230481787057639,-0.00368951484545399,-0.0141560533739377,-0.00345839968992476,0.234609719619971,0.0640744686474472,0.287325446084864,0.210639151923482,0.187869127459736,-390.258958754449
0.226665420064905,-0.000304479532301961,-0.0143318713120968,-0.00902827832209901,0.920645547415824,0.0029636240538819,0.00244127382470064,0.176124384648685,0.152358741898166,-368.731237738675
0.230562262586935,-0.00222783548657137,-0.0211630239158823,-0.00654517926349514,0.472928815338048,0.00049276256283209,0.039765578892961,0.222200475536242,0.199763950792095,-380.125433281413
0.231409297606337,-0.00143249104225528,-0.0170563630590368,-0.00728849485105775,0.584697636202916,0.00622870496647991,0.00334373691427094,0.207914103816748,0.185065472196077,-371.39422411582
0.225451895790893,-0.00612184572409473,-0.00663621740737404,-0.0043117206193637,0.0193462777203605,0.168636883971019,0.0600668648878186,0.19369047988915,0.170431551424414,-359.951852833179
0.224789026563953,0.00153714099438585,-0.00844261595952073,-0.00854233935633129,0.654734594950092,0.179298253427342,0.0291369531929344,0.0997919733069254,0.0738244340753944,-361.384570265145
0.227161641353697,-0.00243903406319221,-0.0166313567992882,-0.00675133122677552,0.504860211505118,0.0383866405314673,0.106068397651923,0.1605661993375,0.136351762779928,-362.807866610476
0.227949254862674,-0.003981719440885,-0.0161603053996403,-0.00631813622721015,0.0379410278939493,0.00328353467874904,0.000211687191983669,0.266263513209819,0.245098037629333,-400.807004407625
0.227173294999083,-0.00135927949481235,-0.0130901798347605,-0.00614672835308237,0.657155949957979,0.0533645110586133,0.058040102347528,0.154418701365698,0.130026933135863,-363.741419396497
0.22892547327038,0.000104007740911686,-0.0180430455283672,-0.00638925903709587,0.975507310763338,0.0321860813140548,0.110106097477409,0.157606192228133,0.133306370850099,-383.171283854744
0.232916628722319,-0.0047330541534625,-0.0187511500336529,-0.00434325781206692,0.201293956317592,0.0406752760219674,0.296190642143654,0.199026587614801,0.175921585334458,-370.15701177563
0.223534066490943,-0.00234675479066964,-0.0120299517747166,-0.00222639696797979,0.446563611210821,0.105289093953387,0.526729660652925,0.0941965273515289,0.0680675810251309,-397.100836324243
0.229699242374488,-0.00325431301246595,-0.0199337836805525,-0.00571568285564477,0.22603167012395,0.00252833225339018,0.0420170541804702,0.21682474627572,0.194233152418289,-386.606914923766
0.223772724637018,0.00476690945124947,-0.00885412882787507,-0.0133275548810462,0.204277208727133,0.278450605908755,0.00209386014611703,0.195889562940592,0.172694069563879,-381.792733308968
0.22613215538766,-0.00287068520326233,-0.0124256398390473,-0.00758589053838853,0.282244882925836,0.00424798859199208,0.00678046244919277,0.222629853579862,0.200205714740819,-378.961629523387
0.232203644091144,-0.00396962185607788,-0.0134284341359997,-0.00526322800949773,0.151411308767854,0.00796871203993709,0.0219953770274861,0.187549335983117,0.164113259136476,-376.899824931859
0.236205883872946,-0.00144698037483752,-0.0239075078336201,-0.0093105792187242,0.58861269404022,0.000427269180796987,0.00327559273687446,0.24932856177793,0.227674577983063,-371.071401943406
0.23033870219078,-0.00145367499543536,-0.0200512200872939,-0.00576914542707275,0.622214774643445,0.00396113129567723,0.0273585674948615,0.153997123628832,0.129593194502741,-365.059915687783
0.236525463771592,-0.00346813130143391,-0.0186385882942486,-0.00614299922663936,0.19769925457473,0.0115194101229443,0.0251557442516992,0.258042155651928,0.236639525526502,-378.757741859175
0.217116341139931,0.00321955262397854,-0.00189710879090472,-0.00973568061722711,0.360668059314787,0.743000791703347,0.0155522547376544,0.107430686780853,0.0816834950533774,-372.945195402084
0.224039877391183,0.000825095754983259,-0.0196515261654325,-0.00654340782186761,0.749545643768466,0.00154507069562755,0.00809635548010469,0.183262007661308,0.159702257882307,-400.776188503463
0.234148830300832,-0.00287434426339534,-0.0213690980897734,-0.00468594296975342,0.178798222370608,0.00166428630377471,0.00218412059632397,0.202677951756642,0.179678277288084,-380.621650473685
0.226325139390515,-0.00189410841026601,-0.0155146155810258,-0.00825438289941845,0.482314853801897,0.000435289784094544,0.00105161456254225,0.253132634438511,0.231588383508852,-392.160868039421
0.231024052810017,-0.00237032450884175,-0.0155280339716765,-0.00487780241450784,0.313009635099063,0.00100173549513341,0.00485409095694514,0.15049155358739,0.125986502248565,-364.63686213305
0.227219871825788,-0.00612158805786219,-0.0189611448670762,-0.000760216424659075,0.0390263994393001,0.00214354439792584,0.79581107846243,0.192033928494712,0.168727214893598,-393.685086441326
0.219033598020765,-0.00161090608999969,-0.0027215031269941,-0.00737452557568519,0.681953260354838,0.378291431672124,0.0934698652528985,0.139823906431898,0.115011134502049,-364.383486344998
0.229714610879052,-0.00113157995191905,-0.0158824218630596,-0.00541007682404818,0.705069758454102,0.00739929514749629,0.0599174813406284,0.142126255819681,0.11737989781448,-360.168894006116
0.223217612209416,0.00381334095416366,-0.0113072245974623,-0.0119664077113524,0.376917314247081,0.19554200275788,0.00874908736998663,0.176020831667525,0.15225220181178,-360.018261494044
0.225593672564491,-0.00236719140010581,-0.00870837085012624,-0.00727212290931088,0.454017507267108,0.0239272117336844,0.0168577342403416,0.223541830962207,0.20114399916304,-384.684002891493
0.229439782244231,-0.000101602393208336,-0.0129360479640352,-0.0100500048253095,0.97147010338012,0.0153004077487101,0.000495261137501356,0.28299804930368,0.262315300725901,-379.284642729204
0.222018650627406,-0.000900960942143152,-0.00593802519293604,-0.0087769721634429,0.798602239326924,0.207461916107918,0.0270112660844544,0.198102360806825,0.174970698137791,-380.094929513065
0.229460727336616,-0.0027626735563719,-0.0176999051698931,-0.0037295126993497,0.295616146088171,0.00282482535003918,0.142655627711868,0.172188708219959,0.148309536341688,-392.868094250405
0.235544676166076,0.00192576350895534,-0.0269106368281746,-0.00894897995467227,0.447280448363514,1.50062134904723e-05,3.0505165360124e-05,0.237537778268422,0.215543675718473,-372.347685076202
0.221720037211662,-0.00251830377255287,0.00196155107021004,-0.0065204537456161,0.512753787388341,0.686042682153101,0.123038721563764,0.115646612275079,0.0901364183983984,-345.690228444867
0.225838652290032,-0.00340002092392106,-0.0146970686292088,-0.00395553400833286,0.204189957754122,0.0121244467834307,0.153660566773415,0.153077025934879,0.128646555529155,-381.274573884894
0.228614807892772,-0.00380669204910175,-0.0117693149883647,-0.00481704597123583,0.164123684124318,0.0250954156544543,0.0243866712384529,0.181783865952163,0.158181477470014,-368.948985449946
0.230176711299571,-0.00296560902231613,-0.016963528717636,-0.00671138338273486,0.347912397147635,0.0547609722613956,0.0682619255638226,0.183708579338824,0.160161711435136,-367.712154491122
0.239645729630598,-0.00445728068373744,-0.0245613980783325,-0.00300076666806894,0.118052681360393,0.000311665860134206,0.249658505876452,0.242614698700207,0.220767045778097,-383.366644095989
0.217970995893607,0.00728740448910321,-0.00388280372275283,-0.0147372638162728,0.0390192691087783,0.621768062685125,7.79612391192425e-05,0.242615068969881,0.220767426728628,-394.422566197973
0.227202394731837,9.43038919963591e-05,-0.00866152397821414,-0.00867953025907142,0.975626817599405,0.0673569153870824,0.00236174529546868,0.175702233392414,0.151924413201811,-370.020690153139
0.22939331235042,-0.00195177473247588,-0.0164739475925379,-0.00603594370967217,0.427847919090431,0.00427305620498823,0.00201639455315601,0.17904494758196,0.155363551839132,-364.881812334407
0.227826057449427,-0.000394401475338155,-0.0132841977071099,-0.00724639819190668,0.852176902803341,0.0297315220898883,0.000258553733391491,0.191782584157206,0.168468620238664,-378.802929573304
0.228278283158788,0.000353045793033852,-0.0160665357484832,-0.0061885780596188,0.879978563680147,0.00482452360457373,0.00127278594905691,0.166888477341966,0.142856414188369,-380.819713740534
0.229619687955793,-0.00519612668191224,-0.0123799890298229,-0.00257152943155448,0.0775782760035962,0.0307956939056637,0.42543550818719,0.176726059791909,0.152977773055137,-377.590103971393
0.228608127482976,-0.000697643263411719,-0.0125509253605239,-0.00909642063995248,0.841297228229169,0.0403070546772351,0.0229523837314216,0.1931090471422,0.169833346578995,-367.768454262877
0.231251947500743,-0.00213283932035081,-0.0143475578566464,-0.00558844232924097,0.573932443041267,0.0549537360101311,0.176348118096171,0.15336566295064,0.128943518612678,-357.200483931023
0.231611063689007,0.00145658115079237,-0.0160184210489823,-0.00978152080753921,0.652666221447747,0.00255705951147346,0.00567215497244739,0.188282712482602,0.164867790727293,-367.318541408711
0.230703527789303,-0.00334950804288662,-0.0142613058845797,-0.00626745304623006,0.210039716493671,0.0245154826537368,0.0181829492482844,0.20912071641771,0.186306890929759,-362.277534748347
0.229392902679614,-0.00338981689722422,-0.0141281660069888,-0.00519106628519124,0.287071035633615,0.0244537737391216,0.0882070270675398,0.184999545024426,0.161489916515515,-378.050701854889
0.236053852501543,-1.15404805350581e-05,-0.0210293879128411,-0.0063913706665616,0.997182015892765,0.00429932746447843,0.0821022199906823,0.146363381822721,0.121739248606069,-359.325069045321
0.227620970369268,-0.0045258080704152,-0.0116100729812587,-0.00327956594988834,0.029498089487781,0.0326843642790806,0.035032833780988,0.183439169975159,0.15988453064752,-386.840077214645
0.224175105773143,-0.00223602876762156,-0.00507633235832825,-0.00706959043645739,0.385181806315173,0.51004479753059,0.00725399404303653,0.199884295721086,0.176804035020733,-361.203708046228
0.224655092603392,-0.00130347974319744,-0.0148235788501793,-0.00575887339670576,0.729659071992444,0.0354831376881405,0.152876271107797,0.109991960924297,0.084318652104806,-356.325129154391
0.223536427614832,-0.00222453813058107,-0.0104381333413869,-0.00567154572779762,0.56150102048034,0.0991885722363299,0.190129023016186,0.131341413072911,0.106283953834629,-361.621575440138
0.229640124500471,-0.00440612233523294,-0.0130398866136527,-0.00462723374459549,0.10621158871505,0.0300135831677031,0.0678740157807632,0.189332778037061,0.165948146634284,-359.481459131813
0.228229338684983,0.00106969823156332,-0.00782453308555266,-0.0110715344231256,0.728951556914978,0.322604065058625,0.00203952645568265,0.194350660330869,0.171110775532722,-367.003378852068
0.23028780830401,-0.00116242338771707,-0.0130217686061853,-0.00612211963704668,0.710503997768616,0.0811566021578086,0.0727386666630141,0.202935708497325,0.179943469319363,-399.291084787666
0.230695453924237,-0.00260019994384982,-0.0217055397993041,-0.00640712360258922,0.336434524512531,0.000474446454879125,0.0102172987915976,0.2521655838908,0.230593437272265,-391.3928962556
0.22330282725386,-0.00192298503594065,-0.00750564265843239,-0.005557338284866,0.546789166914926,0.166080081416058,0.0966244649663218,0.138959862932691,0.114122166671134,-355.441803332332
0.228571401903938,0.00104523056129605,-0.0143616589131524,-0.00692075673161138,0.701052498480065,0.0294630274902378,0.00288833693621709,0.109573517564922,0.0838881382639098,-346.669687659959
0.225760192576796,-0.00210189550264801,-0.0201973612535601,-0.00613610952043149,0.348687798330322,0.000544669394739093,0.00222746393866392,0.242200668922489,0.220341072833715,-388.186388159578
0.219229078531359,0.0030853018032845,-0.00113508253937828,-0.010078918760927,0.376099510219705,0.780970575398177,0.009706616891935,0.107220911053023,0.0814676681026291,-359.311894961231
0.226438302691401,-0.000843556711679123,-0.0132326261296231,-0.00417497370538047,0.810094204660244,0.0749164376605596,0.229321203384932,0.104026015122928,0.0781806117130123,-380.506159236569
0.229881107916182,0.00372924931768073,-0.00919211295926492,-0.0130199200979854,0.276265955444633,0.154334264633416,0.000417667148340986,0.210194668284734,0.187411822177563,-365.237745800046
0.225584284404021,-0.00048760242619449,-0.00699725575715498,-0.00926946678304763,0.87834416466754,0.037895147283461,0.00663977742212003,0.183842687503553,0.160299688104617,-375.390195490649
0.232608545352193,0.00276927712244854,-0.0226531377010075,-0.00976332671856246,0.433364404543519,0.00489569005709915,0.0104563825859334,0.195780886665987,0.172582258396736,-374.54849949022
0.231418444916467,-0.00502919258847146,-0.0177595538892714,-0.00189580845809112,0.102178380370085,0.0319607824319627,0.544490651212088,0.14959371746608,0.125062767008371,-372.218505722028
0.234900336674436,-0.00358483799356165,-0.0205332793600505,-0.00464214060649048,0.242505814829923,0.00104024752400926,0.127906290362187,0.19839801493947,0.175274880755032,-379.019262986293
0.235313188999018,-0.00560441510747865,-0.0260180257198491,-0.00140858507995935,0.23643418884056,0.00359616222447049,0.775217925762701,0.141797162394811,0.117041311310046,-357.746946224531
0.232484216199706,-0.00220852330975561,-0.0189466709349793,-0.0057567330224055,0.47946955659246,0.0235910279730174,0.08493959977401,0.238907360232542,0.216952764854635,-384.182145100333
0.225597485915213,0.000336073315710935,-0.0121736063176202,-0.0105382049276764,0.900760611028762,0.024273689222182,0.000383180582898852,0.22432162343443,0.201946285648885,-379.961328624019
0.228917410812852,0.0014883518711466,-0.0170630867816179,-0.0089692991002949,0.676337847440225,0.0394999638892336,0.0205882780041066,0.197079322859982,0.173918149480943,-369.14608496712
0.22867950965244,0.00513318211562417,-0.0182152011821507,-0.0114448371525782,0.0857826370324326,0.00131654599647858,0.000213532424482032,0.165956983562157,0.14189805039568,-366.107023829076
0.22800455068889,-0.00596222799609997,-0.0136267268681931,-0.00164312231867926,0.13271448481469,0.17629002449792,0.715234108230844,0.127261439638471,0.102086288858812,-358.416022615824
0.229749653014832,-0.00668943691347759,-0.0108311574998836,-0.00109124524146095,0.0424554583839691,0.118890364289198,0.714074114612751,0.149612118070495,0.125081698399451,-360.604337607502
0.230281768281147,-0.0020137423412957,-0.0176121873708126,-0.00632882763720884,0.471112153408561,0.00274463661421744,0.0163639446174915,0.176675328970827,0.152925578844985,-361.048061247421
0.23137336690315,-0.00234762519437618,-0.0166650443768268,-0.00741497305426362,0.536961533947403,0.0429107937785031,0.0540556209509155,0.261602394113677,0.240302463174648,-381.770287555702
0.22901436166084,0.0028351539772291,-0.0163937128731235,-0.00961835164017178,0.368552450197542,0.000829031982051676,0.00128173933344777,0.201695032450705,0.178667004540629,-381.027889052438
0.229223056123143,-0.00180173623795138,-0.0154068225903483,-0.00525232499675211,0.503610274317496,0.0136679251074664,0.0251751846816345,0.161309393996855,0.137116395746764,-372.471762038751
0.231939653401584,-0.00656998974759766,-0.0227737676930295,-0.00197444144186641,0.0663019651731187,0.00258705473700921,0.587384127357615,0.255563136735193,0.234088996448708,-393.530847435128
0.222240643340689,-0.00273769604072754,-0.0133889658660316,-0.00670216580907588,0.373989224466453,0.0537842585820561,0.0526613476648925,0.241581174286003,0.219703708159638,-394.384869212545
0.225681526026799,-0.000515258095711,-0.00872593486331994,-0.00640899762479502,0.894120496791442,0.254465360523772,0.0812367817791543,0.135971095863693,0.111047185167453,-377.314211156374
0.224928616892677,-0.00124239338876176,-0.0140251619093739,-0.00624772737073899,0.661776292379804,0.0036278253968852,0.0165669089163764,0.203357204955335,0.180377124329047,-380.474018241319
0.222307765579942,0.00441855867900804,-0.0069908482953234,-0.00833780597786008,0.298588224082756,0.132882860635328,0.0418873231366039,0.0628278118563578,0.0357939987368299,-347.287318647375
0.23031198037948,-0.00078845142130371,-0.0162898355313039,-0.00705188921388545,0.839289482188599,0.0429184051204844,0.0638511180086978,0.18114662288439,0.15752585239067,-360.748917104806
0.228643626311098,-0.000535068592264718,-0.0176910218944673,-0.00576909819998821,0.874684775999357,0.0258240490191124,0.128824852993561,0.145229012999782,0.120572157605545,-386.702721217491
0.233797842292338,-0.00329959530793585,-0.018623693304462,-0.00776869081111201,0.158734928553626,7.11299119949959e-05,4.47790610872603e-05,0.311256670097573,0.291389074042695,-401.039175384205
0.226563747411569,-0.00101562089350848,-0.0152551305931795,-0.00709886378026471,0.73459030307642,0.0133560401192457,0.0167615037884528,0.204863357619611,0.181926723704792,-380.132025400668
0.230480437200039,0.00138920650666568,-0.00993014079103952,-0.0112145512083878,0.654548845772084,0.226739133929518,0.00160481043349806,0.190441791408894,0.167089150776459,-354.1376749649
0.232983339767466,-0.000948682946485589,-0.0208929780483553,-0.00636291993260458,0.796203517754068,0.0200189233176616,0.130286725024759,0.166526861299145,0.142484366913544,-361.197191159807
0.232555195597481,0.00106881523249803,-0.0137668735767502,-0.00902490135393506,0.72126478808857,0.0582296122738694,0.00637026690862648,0.220393467664306,0.197904817693084,-380.439121887179
0.222261999064757,0.000627016821721535,-0.00676590631259519,-0.0105780119839918,0.870836509320966,0.420080810010916,0.00897351452531172,0.192700147854673,0.169412652119712,-344.931460664342
0.230501743052138,-0.00283901592976025,-0.0186206727817268,-0.00449306496195479,0.246702977497375,0.000914324178045873,0.0144574081676026,0.193322381782711,0.170052835103366,-376.410909624328
0.228339337318641,-0.00379591304320328,-0.00819849818954562,-0.00484481279919642,0.219532447235877,0.133319243097139,0.0886091206710813,0.158431272155184,0.134155251159661,-357.730757604722
0.227519880025032,-0.00168006906175731,-0.0156786212387302,-0.00525318294262265,0.540339970654164,0.0210124737300894,0.0256473235734329,0.155337141393105,0.130971866625598,-365.311964450919
0.22731389581099,-0.00314881192052913,-0.0173844852167394,-0.00239135919736603,0.245405029985012,0.00699886560219651,0.40766772828708,0.148412440411285,0.123847414653918,-392.076066787726
0.22604418167389,0.00179639976791541,-0.00883719782295691,-0.00841255353707421,0.601035523233807,0.0236009136081151,0.00982430586497927,0.154203885710755,0.129805920875489,-378.406383869695
0.223059573004749,0.00024735766437732,-0.00924685136989956,-0.00864311239529883,0.939557924635384,0.119288974827517,0.00813558456346661,0.181858046683067,0.158257798029694,-378.586994824513
0.23102360521335,-0.000838681080840146,-0.0227059579286224,-0.00896786366457215,0.742095889128325,0.000204223414157736,0.000158964292724676,0.256835758099694,0.235398328044878,-372.137589014189
0.227404920978495,-0.000838464685535054,-0.0142277462061061,-0.00722217931454834,0.803367299529741,0.0381613705632415,0.04652882356499,0.166628211774364,0.142588640960163,-348.440079908832
0.229268420141673,-0.00491746710340189,-0.0136855012229619,-0.00309669111239265,0.044534871500686,0.00896839599580478,0.0975115090238635,0.199476374909292,0.176384347262445,-381.175919010817
0.231579422090489,-0.00130941064101212,-0.0162139653664396,-0.0056787804920953,0.711880088781008,0.037462421152577,0.111018926349284,0.150074355294081,0.125557269389103,-365.416025814084
0.225049927087041,-0.00218364302629638,-0.0132673687789126,-0.00507654582863491,0.51505318426945,0.071894247912639,0.162395027324338,0.148143474076849,0.12357068967522,-376.15783835306
0.238421276474885,-0.00520660897361381,-0.0236830064128038,-0.00393099268258628,0.0265380383368179,0.000270311390055702,0.0107087989150206,0.249907958016643,0.228270687574815,-384.267302332634
0.226042866806191,-0.000511985885486979,-0.0115323599571713,-0.00493160250370196,0.87755626372906,0.13346664233474,0.191307187316944,0.0934219784007153,0.0672706893161207,-379.386272651398
0.225266144089852,0.00540294132270893,-0.0121704703554106,-0.0149386174561423,0.125021347508394,0.105460942325194,9.73894770242709e-05,0.287386205027323,0.266830037864649,-368.699377784321
0.227215300842473,-0.000668597373551153,-0.00990281683722571,-0.00904471530561302,0.868678944529313,0.286850846838802,0.0431087786518765,0.207283860127769,0.184417048400685,-372.285293288559
0.229558401002003,4.34819556758587e-05,-0.0149357624273435,-0.00836379336569716,0.987551937424175,0.0130593597368293,0.00334852664285067,0.205350011942826,0.182427416133485,-380.964192540712
0.230392659761387,-0.00360660129250299,-0.0163188146548751,-0.00451975496546322,0.15208038100579,0.0102668203059743,0.0241215510041657,0.159948529301984,0.135716275339542,-363.140596644791
0.226032875969663,-0.0011697176532188,-0.0115888355992894,-0.00913720578527646,0.726199849061782,0.0108252009271089,0.0150345317989957,0.16068955808244,0.136478679950202,-359.377898203182
0.235798466675396,-0.000565199745055841,-0.0259641812559563,-0.00700032771130568,0.850230515072138,0.000635300463621895,0.0330873743597961,0.188190136048782,0.16477254381942,-356.249948687594
0.230712151105473,-0.00471658217342974,-0.021141954860664,-0.0033259449562393,0.119308156176783,0.000236772771995366,0.240203073208374,0.218780384335583,0.196245203114495,-395.964956606005
0.233712128451318,-0.000176435818630392,-0.0191702888079071,-0.00557460111322661,0.958747400706048,0.00933590529913953,0.0929252424226044,0.135139479154731,0.110191579514964,-370.427763937738
0.225580500721969,0.000960885584080659,-0.00583905326823823,-0.00837512704566751,0.807219040869935,0.348069843082608,0.0507018450807401,0.144910596232592,0.120244555739301,-355.530832312404
0.227213852692277,0.000979417010024715,-0.0156612269486773,-0.00983682007997645,0.798042912941715,0.0733431500596535,0.023923263337891,0.195735370013546,0.172535428763937,-368.080966046443
0.233980442620284,-0.00588669307152023,-0.0228038104849122,-0.00215995768777362,0.153561294821939,0.00833835073846726,0.612784458635712,0.191872195768792,0.168560816800584,-367.23445623429
0.233033452530255,-0.00324454715741006,-0.0115266525873492,-0.00603970540965251,0.20614401315888,0.10997454764209,0.017558460386205,0.236167323861466,0.214133688972855,-375.931050712685
0.226324868587476,-0.000886367066402748,-0.0110753835497589,-0.00703306810263347,0.789219438413552,0.112673448467832,0.0505737452412029,0.161253344155059,0.137058729082609,-378.615019132192
0.23252491536521,-0.00365627374376091,-0.0184898462963799,-0.00357522299872691,0.278230512308634,0.00316455913302802,0.286004258560866,0.182098625735321,0.158505316862302,-382.06879530255
0.227772587880899,-0.00216838284788096,-0.0108132769435338,-0.00766401021632228,0.506722526796222,0.166387984575543,0.0336099506842119,0.203754205366416,0.180785576675063,-376.466622869485
0.222173587296831,-0.00492656191377474,-0.00742401366163892,-0.00458562295348646,0.0832385479413269,0.142184743724408,0.120986619825505,0.235876440426595,0.21383441466967,-385.409217063242
0.233855777201942,-0.00724535209272002,-0.0178935801020402,-0.00133773680031959,0.025588304491752,0.0122114691437051,0.61842530253034,0.168586517232493,0.144603435998815,-352.698543161615
0.231824842812107,-0.00122180711797166,-0.0157255179827802,-0.00846853128433165,0.629593039100532,0.00891370078376662,0.00180694857843435,0.237153284140656,0.215148090413944,-380.107976814926
0.227809048056447,-0.00174412560876389,-0.0133543641535964,-0.00237575313211416,0.48861471647486,0.0250880255201696,0.0878603467434953,0.0699645647847964,0.0431366195382041,-361.471107147074
0.231691865426394,0.00115023464351861,-0.016107958361522,-0.0102255100301366,0.756481384137448,0.0604258578900395,0.0101914340677645,0.24286353126961,0.22102305621008,-375.394169422929
0.226868307401384,-0.000435285783876931,-0.0137164021557821,-0.00763523411317777,0.86940286222207,0.0175073706560672,0.00171329032455522,0.177084879148035,0.153346942969613,-368.090114609836
0.233853218619745,-0.00417128158646331,-0.0211394383671533,-0.00357217952422933,0.270936845327438,0.013572802803781,0.397970654734338,0.179561286212597,0.155894784853345,-363.80020491581
0.228735593565988,-0.00549890281246041,-0.0123285744857555,-0.00377092859688063,0.0743130278457675,0.0379973462809499,0.160024314572462,0.189483345216715,0.166103057097967,-372.436320342899
0.23061558331297,-0.000867270860722009,-0.0191654746338945,-0.00879569869475387,0.767939495464795,3.16304173852563e-05,0.00154377145724801,0.211250353665948,0.188497960021697,-366.011881956204
0.227039617904975,-0.00786732051031505,-0.0098844883454754,-0.000791953412492075,0.0242238364152467,0.0867789523762175,0.840121403690766,0.226670460955874,0.204362878098832,-381.364879095683
0.218913543405776,0.0011949141341094,-0.00435434236394611,-0.0100130043901554,0.669082704957711,0.298760792523197,0.000558516984458988,0.236299630596652,0.214269812248478,-404.006949814559
0.22321218023794,0.0019346360567952,-0.00399659197590126,-0.0102510248979174,0.646838041065148,0.649671239993087,0.0244665771810111,0.130767196919925,0.105693173754154,-356.673572717544
0.227626859327783,0.00366681458790184,-0.00620482164167128,-0.0136621350136843,0.297168510025564,0.191252237487598,0.000425640122810875,0.204961125467815,0.182027311779386,-360.111869872957
0.228228026461612,-0.00186824210187523,-0.0110649248564197,-0.00650900970418027,0.460990331545725,0.0219023209113593,0.00907932099756624,0.153933247292843,0.129527475580136,-380.300886819554
0.227344260895421,-0.00226659948469758,-0.0119267890354557,-0.00782608126684469,0.586965381508769,0.194729069031588,0.0887550779315744,0.198566325191824,0.175448046110819,-371.752169611842
0.225151892322296,0.00162459126166998,-0.0115205185545143,-0.0094052089198555,0.670911528321379,0.0611923290680475,0.0167978381255562,0.159413234187748,0.135165539020087,-375.97043799835
0.227833330626074,-0.00411178473867167,-0.0143443257444322,-0.0019199302685255,0.141680691125594,0.0311889709978537,0.324579040070987,0.102644886514206,0.0767596428559623,-362.477917560831
0.225647578420449,0.00159549379816974,-0.0105230552355402,-0.00972152446198781,0.61456582827913,0.165758365334393,0.00571203908599074,0.172317552940847,0.148442097737217,-373.066620801508
0.226093689614157,0.00272723294558522,-0.012286637825002,-0.00992291436667579,0.445790036595532,0.0679914902775205,0.0107876441768147,0.192221900818052,0.168920609495495,-379.911714036422
0.227793176583353,-0.00237466641492371,-0.00734405570104147,-0.00817702909137374,0.569742793604564,0.389403535598368,0.0822980257912349,0.179908203605352,0.156251709478583,-350.859083844104
0.227828805939474,-0.005135429337444,-0.0149513936505021,-0.00116543133138663,0.0887674397785304,0.0145321488301149,0.639541208668059,0.122993831910759,0.0976955770620308,-371.534009874777
0.230183704131503,-0.00152903276713402,-0.0180581731196075,-0.00484891694619333,0.692355202202354,0.0234918577215932,0.175961047228305,0.132780229144949,0.107764274216438,-356.36614365322
0.223748393858853,-0.000356736544313857,-0.00984697251679261,-0.0093962957537234,0.890877820759141,0.0166002262752326,0.000903795033165522,0.275004595471794,0.254091266495019,-400.425230851982
0.231372252969032,-0.0080780763188779,-0.0161110732835186,-0.00149961291099592,0.0267347788564957,0.0441299714529147,0.694746254351699,0.208170706421589,0.185329476799135,-374.195601503164
0.229452424959078,-0.00171298873894341,-0.0162968954043753,-0.00786754952418627,0.594755557813474,0.0542116823367369,0.0358712292435416,0.197866226051703,0.174727751803195,-363.735358253516
0.220340517480076,-0.00115902405900939,-0.0105127240297721,-0.00535551475304065,0.712322447468309,0.125941251284938,0.0985956571948881,0.133474786808304,0.108478867197005,-383.502864853379
0.233296672503246,-0.00204999275997475,-0.0201794470117755,-0.0071140622636417,0.576130933828464,0.00107638282702807,0.0410466434245264,0.164497383103524,0.140396346077665,-359.325417191818
0.230824582103854,-0.00452355187553878,-0.0188038544915913,-0.00381309633026661,0.22360702309107,0.0407887197396543,0.344443549122713,0.180850020133178,0.157220693790866,-359.751517511601
0.2245616661215,-0.00012931403824252,-0.0109506844859009,-0.0105974416994943,0.972259414940032,0.146333156036974,0.00617404317119271,0.249027582221759,0.22736491632431,-367.581153156123
0.227276173308915,-0.00662890151212769,-0.0134365065964303,-0.00108530997012092,0.00816749038258417,0.0217269819490455,0.517741268805516,0.157770299893458,0.133475212390385,-374.507315443674
0.235390660403333,-0.00246000485805837,-0.0233822840134361,-0.00668453190922531,0.523070824237536,0.00971090470001454,0.0974079503511849,0.234316573709415,0.212229551797186,-361.438432009758
0.233003930032902,-0.00457008430118243,-0.0138361380086291,-0.00427225188461973,0.067765805831922,0.0724070506742824,0.0187693494964328,0.150119516521785,0.125603733344529,-344.720641715231
0.225589352130353,-0.00522538111536258,-0.0113555238994679,-0.00390849560724491,0.194331523384836,0.135242667287066,0.34473049362367,0.1923969944147,0.16910075386897,-376.888235618811
0.22583407128284,-0.00123048565413938,-0.0066700409395676,-0.00881912280513468,0.663107647468724,0.18240443404462,0.00336985013793151,0.2020305206843,0.179012170319425,-380.997537481377
0.236143844508083,-0.00125200474585376,-0.0176094818509446,-0.00853342295571343,0.70639932731148,0.0087501090868827,0.0123066026156513,0.218024100592531,0.195467103494239,-363.916212938129
0.226441180279714,0.000354266481948084,-0.0103946162290513,-0.0106815423688151,0.915582231951738,0.0482736784696604,0.0022286845144048,0.207415308692763,0.184552288751208,-365.766467340894
0.223923583333012,0.00110535341411081,-0.0118765666213139,-0.00843321636115963,0.712228993771713,0.00214700811296066,0.00505367284986399,0.195138412473253,0.171921251294597,-386.343584745198
0.226765612538106,-0.00232996397031487,-0.0124008359277173,-0.00495495773308644,0.480166407023784,0.0558010058868209,0.124371160623699,0.158279416987,0.133999015553933,-380.280710353928
0.229992973703689,-0.00577430234381779,-0.015001882435471,-0.00134819421270255,0.0463417189114282,0.0303769638343854,0.570317450486918,0.147634785763725,0.123047327660755,-367.222076155294
0.229893235765736,0.00415510793760582,-0.0134828256182038,-0.011872092772971,0.242099859503579,0.00375765316419943,0.000742130407895693,0.189060330398002,0.165667839928713,-362.801138964823
0.231253321040613,-0.00113978873766125,-0.0239377054948018,-0.00739463985882327,0.626831353882387,0.000333710483413525,5.37729204815397e-05,0.227032092828352,0.20473494165994,-372.44330845264
0.233007608229311,-0.0030304883227178,-0.0222763696147778,-0.00638706566256029,0.16436241459854,0.000299162258734891,0.00112712336876782,0.272813275227339,0.251836735089666,-396.576869223266
0.224984894947074,-0.00556360286035572,-0.0116138809673452,-0.00516278967556175,0.103464379053629,0.0499995149448115,0.167024580365799,0.231497732492605,0.209329397852969,-361.454444410253
0.229540673038979,-0.00404329959868167,-0.0146281722531567,-0.00548758635213035,0.152318630374351,0.0131265387265781,0.0614311398024517,0.249503748575307,0.227854818245749,-386.923702031454
0.224635768186548,0.00138211419273441,-0.00769128068846599,-0.00975068413529559,0.709344702872753,0.238016728864212,0.0126570155130957,0.173515482298183,0.149674582749092,-380.884011075264
0.230104347002494,-0.00433908963681744,-0.00813166748980219,-0.00504923916821858,0.186831133848784,0.138477734337069,0.155920928654824,0.163853307585244,0.139733691457895,-367.441733192717
0.225338489261348,-0.00320071889937135,-0.0125999660258866,-0.00384549448785749,0.32497053145284,0.118863276394637,0.285917745339667,0.162409773722403,0.138248517195165,-385.283595486006
0.223885595839216,-0.00362497496401356,-0.00708982157259734,-0.00428561819293057,0.2259342621792,0.189908764009307,0.175195399071843,0.143917043134145,0.119222342455322,-365.750010636132
0.234889864577861,-0.00327714450124283,-0.0259980156136892,-0.00541691561239937,0.124684908321623,0.000252004300499326,0.00477611692855816,0.24364285361649,0.221824859009274,-372.03503847953
0.240236475967357,-0.00617638370772928,-0.0254572147725155,-0.00170143773567895,0.112682045795077,0.00183366378587924,0.712932710745383,0.202603732363193,0.179601916950593,-360.023843370752
0.225443168184449,-0.00381118310054735,-0.00916885712191414,-0.00449834635159973,0.302303498716864,0.306544597008793,0.249733728500383,0.148951151576573,0.124401665564358,-366.503361741617
0.222349965459341,-0.00256730190075044,-0.00831059877655023,-0.00457339485919012,0.407791931071602,0.149539691955117,0.140735155387044,0.124477650813984,0.0992221984336182,-371.985199841045
0.23586560076851,-0.00402793691080874,-0.0162660671399129,-0.00472818151511198,0.146551756847701,0.0457505151479497,0.1260342166471,0.195230293324708,0.172015782555229,-361.266028364097
0.225622079004107,-0.00131781263286206,-0.00762408276230937,-0.00578657918421475,0.666594685740299,0.0890352407227484,0.0279109417084638,0.129411154362274,0.104298014584263,-360.568659204435
0.224534000754434,-0.0019793180820815,-0.0110334454031332,-0.00626793367261792,0.504915073468977,0.0854322793903468,0.0478879366023237,0.170791627467776,0.146872155183193,-379.801295097207
0.230863057248991,-0.00223555546870209,-0.0187294833622596,-0.00654875681311265,0.411952466764153,0.00199323567570421,0.00591973089891991,0.177714678932713,0.153994910055773,-364.230617484936
0.228285184119436,0.00246332577753127,-0.0183149533419202,-0.00839403575007954,0.367845222231179,0.00244389602866316,0.00111556495633003,0.146086612537223,0.121454495591181,-377.91495622941
0.232669748945886,-0.00493546793411123,-0.0209106125266432,-0.00210365189992232,0.214034644175611,0.0112709581796966,0.620772421733158,0.197508925251196,0.174360144248827,-396.578143252387
0.227368692784102,-0.00181394234358495,-0.009861491446628,-0.00767178265713866,0.535982454978569,0.0219230700690035,0.0140321513296854,0.215126517467607,0.192485936240711,-373.325429287113
0.235466650684046,9.40725938876994e-05,-0.0230209168396709,-0.00796321704427683,0.972391519019485,0.000395549772668774,0.00647739302021152,0.222809099666485,0.200390131387633,-382.772390563296
0.230828253086857,-0.00258290044276453,-0.0150827872445872,-0.00552053029595674,0.325290489467186,0.00403881346217655,0.0393127101596802,0.19273598569531,0.169449523744214,-379.708178532193
0.228368089462474,-0.00520452495409798,-0.0127571226230391,-0.00399967968877795,0.0517282524569652,0.0313105673147731,0.106647936977357,0.201981971304234,0.178962220476471,-375.664565085606
0.234870053076658,0.00155430213294603,-0.020804775914057,-0.00948953733338005,0.643666472633962,0.000506679453473786,0.00253980053794913,0.267924592808711,0.246807032985886,-380.663231859504
0.229776376171585,-0.00249660961040963,-0.0175029954970239,-0.00696069184004312,0.456242221555198,0.0329354571082638,0.0697819089875122,0.223272820775847,0.200867229067458,-374.288076001719
0.244027678262519,-0.0106500598283162,-0.0276396411516685,-0.000100780871207624,0.00376700719428916,0.00238582598611632,0.979260516766164,0.290314837734611,0.269843150361571,-378.793048056175
0.229442123626004,0.000354930114273669,-0.0179500176862801,-0.00735523393657178,0.888020766705011,0.00464279268750893,0.00230605970989758,0.146256091630589,0.121628863504549,-375.218848262902
0.229386032533336,-0.00588415206251768,-0.0192915110735634,-0.000984844967313728,0.0493086433839291,0.00801232287936531,0.696314487489718,0.139687609797297,0.114870906233758,-372.23903336698
0.228365313094493,-0.0015644434788877,-0.014521402711921,-0.00599837414747159,0.645548798816528,0.080856648985786,0.09995938490261,0.185147768409426,0.161642415575083,-384.227138091927
0.231912501041313,-0.00302863106151518,-0.0186269850073461,1.19466959353884e-05,0.360774120813389,0.0208854421660047,0.997424103933564,0.0728076264278358,0.0460616925747926,-373.275521811235
0.223541846704806,0.000275683145465003,-0.0041099175351909,-0.0100283664059483,0.928862107382395,0.222041315137635,0.00292182085838728,0.219102217117145,0.196576319533986,-382.773409764863
0.23115502771215,-0.00616866328008611,-0.0185049412528764,-0.000578595858888464,0.056343896723737,0.0121437589852079,0.846002751460705,0.155080011021674,0.130707319031915,-376.453120046168
0.230390204826517,-0.00336907173043885,-0.0170506565498886,-0.00509885481110519,0.254688091961151,0.0147595389564875,0.0398037636793083,0.206564391893539,0.183676826275083,-374.342113436558
0.236118310199091,0.000417645910245245,-0.0185677966547993,-0.00972331208472591,0.867306310797462,0.000859178575238646,4.18583684298104e-05,0.217316431386611,0.194739020753532,-369.404237328592
0.229708693704413,-0.00215483872215921,-0.0175556770859165,-0.00451527391501693,0.504025613152013,0.0142776939128512,0.129925804050201,0.165676988831495,0.141609978893942,-378.355882478401
0.229861418677916,-0.00405003398863099,-0.00989802310514018,-0.00363431184522747,0.117083377561268,0.071050006763719,0.0595282778377349,0.145776568976055,0.121135508465749,-357.526739841151
0.225605345590388,-0.00365628139313414,-0.0118225924600408,-0.00521780407343613,0.219611966877543,0.0948273975314256,0.0547210464909193,0.130199527086798,0.105109128829687,-353.519644097451
0.234683816261732,-0.00639289437780637,-0.0184051456036611,-0.00347171340971117,0.0240192642832791,0.000610922018507764,0.222325211709589,0.270323622729831,0.249275265693192,-403.712634850527
0.232109667122731,-0.000189014957748948,-0.0175409526308702,-0.0100454441370939,0.954060235743081,0.0162281406729251,0.00951820097256727,0.161279365975184,0.137085501532161,-331.385897686002
0.222464070218484,-0.00546815558870078,-0.00844401878155396,-0.00234650367401169,0.0374669776527047,0.089899933213541,0.198055335722574,0.167560950895992,0.143548286017992,-380.134745150257
0.230463991860663,-0.00102412040368326,-0.0210337640814971,-0.00531396516500752,0.709008656317181,0.000744193049175659,0.0081732717859892,0.148109973352133,0.123536222583445,-373.69319955533
0.232179726205065,-0.00116387331326915,-0.0156158894539024,-0.00777216377042036,0.676111410226004,0.00164857187214219,0.00247267435637866,0.187518310022134,0.16408133819585,-379.087215606277
0.235047590078732,-0.00565430962446424,-0.0194193097326244,-0.00285519621575106,0.0421782701578802,0.00539625784814931,0.334789484725851,0.246223300678823,0.224479742044559,-385.194458097823
0.234834407510447,-0.00137342126579856,-0.0129464133635857,-0.00763325115559924,0.615099561018331,0.0218254555817151,0.00521849245166965,0.159380995925516,0.135132370807983,-362.08808971594
0.233138891751508,-0.00617940786622242,-0.0196131301427607,-0.00336889871782638,0.0329824235870684,0.000906657196597861,0.171185762968957,0.206868006552155,0.183989199048852,-372.86396164772
0.233476551260506,-0.00979634335060605,-0.0222585955800012,0.00107507787443533,0.0109859447521068,0.0171096794318046,0.79929705599725,0.184788225357925,0.161272501089404,-355.813169788544
0.232564173979424,-0.00156580146554151,-0.0212215267177706,-0.00583587460613033,0.472885487147911,0.000797007134298193,0.00713560988039629,0.231439136103266,0.209269111183168,-400.870093726605
0.228016841421749,-2.97080983781522e-05,-0.0130825308343634,-0.00866210495853444,0.991669275741448,0.0928050026716343,0.00355184158292968,0.217169308647407,0.194587654089159,-369.855328985491
0.241230721759161,-0.00334850218544278,-0.0257476579144306,-0.00472730970394755,0.18362140177412,3.78080431319448e-05,0.0109307911573989,0.248872921774102,0.227205794517586,-380.407032194145
0.229799580132408,-0.00382161228287365,-0.0175341181635508,-0.00541737832137499,0.184571233315554,0.00300183767381643,0.0164104925171719,0.207592423547105,0.184734512687887,-360.644947609494
0.225310296600048,-0.00139170579106131,-0.00627654688237171,-0.00592313685340142,0.744983177011169,0.366123442071607,0.160222954804609,0.122786086012398,0.0974818384935244,-370.603495916219
0.22222663084024,-0.00706799623024939,-0.00247670450013558,-0.00285663448707315,0.0200151652599564,0.627063907240879,0.282514450358476,0.209439515253277,0.186634885885583,-373.640846991267
0.221538346680533,0.00133916977084461,-0.00464739039924514,-0.00962030560115658,0.743223944624767,0.484298433105493,0.0263534110788635,0.164501995757561,0.140401091789029,-372.425644152363
0.234008635900707,-0.00272329369251696,-0.0172680521116425,-0.00406521143183815,0.382429647417191,0.00788327030686683,0.164325284643137,0.154608702493245,0.130222415065166,-366.735837455135
0.220374929607671,-0.00159973718469819,-0.00570254368484698,-0.00776166970856479,0.532168508229208,0.390280246720409,0.0041212186764816,0.191724902011096,0.168409274184493,-377.613686463932
0.229730547452428,0.00028769286863422,-0.0140062906596215,-0.00703714145675838,0.932157411190952,0.0779098627934195,0.0465327943883166,0.152415737102859,0.127966191057749,-373.0925718868
0.228734207206429,-0.00593773815514864,-0.0149463390249021,-0.00417444639930732,0.0389842789614045,0.0174352030263617,0.121847085300506,0.248460326575406,0.226781297534312,-381.910821272385
0.228001329017725,0.00438331304582055,-0.0084144208374003,-0.0152654003769911,0.228584088323734,0.0346494712353107,9.56936011202465e-05,0.266952243522409,0.245806635162478,-365.720550312462
0.233954700706708,-0.0040100648242121,-0.0220733327104852,-0.00559504103826101,0.235980715875801,0.00802740343227067,0.153286687609779,0.271094681541842,0.250068566586318,-392.818653583812
0.232654752227318,-0.00135956976932867,-0.0221401524422185,-0.00770171071008148,0.516846718062835,9.90139434234626e-05,0.000194061675902305,0.250473794688592,0.228852846458455,-391.13626080263
0.229767947359571,-0.000993237874155639,-0.0147490338574101,-0.00740563470248397,0.733425626792084,0.00131841650181577,0.0135229505198732,0.178655337191621,0.154962702687533,-381.208416615514
0.23810098838735,-0.00610778625836536,-0.0233109719709358,-0.00403679670483644,0.0117442974415092,7.49611218529588e-05,0.0280274267015661,0.270738873364438,0.24970249471149,-382.63866622182
0.228503980483738,-0.001188320746536,-0.0153005643447763,-0.00450569077555646,0.771989655437332,0.0629671724319634,0.343453994826986,0.108588280588104,0.082874480989684,-372.901725805885
0.230818309233921,-0.00246376354230471,-0.0172231787589326,-0.00465578722050697,0.309852713173433,0.000620357065089441,0.00901375200539271,0.195628948809511,0.172425937717478,-392.627195933914
0.22322300256649,0.00106742426746267,-0.00856060147203365,-0.00882961452064008,0.735826264179259,0.314936917493901,0.0194023162381217,0.169177215857725,0.145211174007467,-380.174116936255
0.231227075884799,-0.000247959112982564,-0.0216792576420659,-0.00756405285633395,0.922087659262608,0.0039332021439757,0.00180130730038487,0.180165129011839,0.156516046194873,-362.455846248776
0.23607742849334,-0.0103174318888674,-0.0212937361691303,-0.000813361045176192,0.000608191572950021,0.00123323601189515,0.772593574320746,0.329826260939643,0.310494326159056,-401.351894667491
0.231108919503509,-0.00232070096346168,-0.0210790461238287,-0.00467658134703129,0.316305280647207,0.000316586927132967,0.0254794513904371,0.164461626032129,0.140359557552287,-380.158021154581
0.230063828064142,-0.00518537738234709,-0.0106849099262852,-0.00640747898834886,0.0346245307160614,0.082118150114432,0.00223839293012093,0.23391257864338,0.211813903027324,-356.210750068468
0.229605047492945,0.000131961053597284,-0.0173118979885478,-0.00707948461374151,0.955891192275995,0.00776323182115247,0.000696693082161105,0.169173974336261,0.145207838980577,-363.017512033938
0.222075813571858,-0.00410973937874096,-0.00865067232328302,-0.00538237776798056,0.229434143144661,0.115267546434409,0.107195891603135,0.234583230286845,0.212503900391274,-393.285973000401
0.229426536434464,-0.000178275989726629,-0.0119966885782216,-0.00436204579375688,0.955556878896956,0.0687599097634296,0.126687929938495,0.0918687670371763,0.0656726737786334,-369.141707864352
0.232760291025312,-0.00416849207291946,-0.0139895800028985,-0.00644634543269031,0.111997095153892,0.0322575621433314,0.0097008259374499,0.218183927031097,0.195631540310841,-368.134890555463
0.222594225860234,-0.00489887024963199,-0.00520993373432942,-0.00348694049918835,0.232654245803317,0.305795680249245,0.422976466483886,0.147541106227805,0.122950945830531,-370.645125180698
0.227341990179116,-0.00493098709628664,-0.0153823089243532,-0.0015815457185679,0.13551777803591,0.0370558381441232,0.637118786851332,0.123831088462394,0.0985569852449628,-363.938710157051
0.225876212385977,-0.00096382458322394,-0.0144543234217638,-0.00505804308669878,0.66051051358483,0.0024540549380689,0.0130666596585284,0.147575186621829,0.122986009312843,-392.683019412681
0.228058632014509,-0.00261428866686562,-0.0131547989118724,-0.00833891412855924,0.341522410584408,0.00530230421572876,0.00160965062018634,0.289394264653461,0.268896022287695,-377.772451372675
0.223571462481696,-0.0032624264543508,-0.0090817267833653,-0.004626859111195,0.160647644150978,0.0819242182813087,0.0376373803460035,0.140802008888232,0.116017451452316,-385.033756766069
0.221398682921349,0.00208447326838944,-0.00322557282621774,-0.0085134739073615,0.592880100865547,0.70577210682223,0.0375575636544275,0.116908134721346,0.0914343309152311,-369.376104898643
0.233820565676995,0.000422331717975516,-0.0219795211427317,-0.00843890737759743,0.854835036977137,0.00030237754752194,3.48483820111433e-05,0.255874828743481,0.23440967957262,-376.298342708549
0.228876442915458,-0.00408369470111521,-0.0138092918951641,-0.00480720140429548,0.19163646366949,0.0963527689881847,0.170564473500022,0.164627473793884,0.140530189384092,-356.651367509712
0.230838187576487,-0.00586294266145414,-0.0132540840812013,-0.00126544617288797,0.0211459307791332,0.0315304234099321,0.501689134271807,0.137438257088162,0.11255666835032,-366.47404772423
0.226652440474267,-0.000843242251051013,-0.0178436723743914,-0.00788496897296833,0.778811398623426,0.0228167985058213,0.0191063023410821,0.280859401504324,0.260114961163103,-401.669982285199
0.227912017372503,-0.00409653812507409,-0.0163310343240843,-0.00397847647236027,0.0954468141673927,0.00269902023006185,0.0664367668682178,0.184925539603412,0.161413776322741,-398.337676544976
0.232700836742477,-0.00529519576387565,-0.0189425337152573,-0.00101270521926245,0.152649863765729,0.0152591753583186,0.777945177508081,0.122100827800649,0.0967768132179754,-350.294484304521
0.230777858115783,-0.00285972749588569,-0.0145059480026272,-0.00785266493974126,0.329124434404066,0.00666413377718955,0.012140385525621,0.31520464486609,0.295450932698765,-401.428211209424
0.231878432271264,-0.00117844670544472,-0.0169404740428193,-0.00964921949792276,0.719407935720601,0.0405060729831429,0.00588143830680863,0.249581107643916,0.227934408825953,-361.478222184267
0.228732075500781,-0.00290382808129546,-0.0200676511313497,-0.00508791743416407,0.291483707008369,0.000510617691391431,0.0600543323818619,0.219832628382021,0.197327800354579,-391.394349672126
0.226404492313388,-0.0042956183617965,-0.0109824894560946,-0.00583966162003191,0.107378364686003,0.0181427702211562,0.0157786762165389,0.26195579828728,0.240666061699413,-387.699863633101
0.230089652867397,0.00305976989757953,-0.0120004144070921,-0.0102260086999541,0.443182188945988,0.179675680679114,0.0133290041621335,0.182535392577558,0.158954682748065,-368.739941802106
0.227009472124268,-0.00434435604037444,-0.0158659688691572,-0.00363489802706669,0.192179923703364,0.0206116733470404,0.342045371323256,0.136022900433802,0.111100484100162,-360.354988665001
0.223053214310993,0.00796957901666677,-0.0056999598176642,-0.0158996732308659,0.0250733564471709,0.308137014313874,2.78510268007328e-05,0.24651547406046,0.224780343504512,-387.313728076181
0.229492131267179,-0.00295020804761874,-0.0157127924970363,-0.00484860824646367,0.316488909910485,0.0112315376015294,0.0637660383339679,0.175987202162799,0.152217602225188,-373.371096503194
0.221039283599336,-0.000986039685651287,-0.00205497765712267,-0.00544569191700348,0.709549464540336,0.687503559957368,0.0261051736898839,0.106776729674514,0.0810106737997408,-361.068841994996
0.226234418268931,-0.00499687405120087,-0.0126491360436381,-0.00385290888023467,0.154271552661531,0.0425858395493697,0.270827179694166,0.196435199888392,0.173255446039019,-363.624753330981
0.225515268198646,-0.0036532794920161,-0.00928339673009192,-0.00607030794568914,0.170310057018241,0.0969599879199498,0.0238272299500751,0.223663889613631,0.201269578737102,-385.66203360044
0.236934608418373,0.000559854845525973,-0.0238643472616209,-0.00912934079820629,0.864819395598375,0.000558920826149706,0.00232773912919527,0.26629334093048,0.245128725765013,-365.841198415525
0.226015163513723,0.000233362153487236,-0.00869840958470808,-0.00977664529523895,0.946228124995492,0.141548475388798,0.0140937283070755,0.151269387046678,0.126786773211486,-362.836860324359
0.241116828727138,-0.0104063874898667,-0.027299961188428,0.00179609811208193,0.0126672235550199,0.00461602776738981,0.669807497862342,0.23943699461588,0.217497677152877,-373.818167989859
0.230225252158236,-0.00204659062820541,-0.0180223858197895,-0.00268130317641464,0.496157022378327,0.0140368637286555,0.17877501814839,0.0995961164039925,0.0736229274541078,-360.622127291095
0.234274067335999,-0.00280455008699861,-0.0210542687904059,-0.00401810165538565,0.234706434718188,0.000398669878715091,0.0177398528805513,0.186299858650949,0.162827739188957,-376.174948771684
0.22662031974616,-0.000458088243768266,-0.0100896964137967,-0.00862494913296296,0.889791519476536,0.00950933190988526,0.00398398432509592,0.155074385578374,0.130701531316212,-351.71526751344
0.231050933760002,0.000144459441129978,-0.0194462410294919,-0.00914295532971203,0.975928592871997,0.0190710440998026,0.062687724521,0.190597226221327,0.167249069285404,-362.262242346506
0.227657276926918,-0.00286530086716549,-0.0124984773688158,-0.00498620424893072,0.272217181608217,0.0203753245191858,0.0432425574265437,0.150082892267526,0.125566052621397,-360.373534202045
0.226811212586763,0.000993171353684612,-0.0121016172256025,-0.0101125141821223,0.72115315676427,0.00648183069076375,0.000450546516964014,0.240511789707665,0.218603475949233,-377.638095441457
0.230013324754194,-0.00732306721382735,-0.00774608279358879,-0.00281482456682619,0.0208632945374396,0.202499973180184,0.365139948276276,0.246874855210495,0.225150091418491,-393.517702956036
0.227308582111176,-0.00130641262221374,-0.0148132466438422,-0.00628818823541649,0.734635134496223,0.0352069354871552,0.127673464952049,0.151321460483215,0.126840348766385,-382.047091833568
0.225432471946702,-0.00055038328493256,-0.00949748922326059,-0.0076308207974814,0.877032982873723,0.13941303765586,0.031334255306484,0.183395991238731,0.159840106370617,-376.377530041001
0.234967096734619,-0.00474731078068837,-0.0173678428794434,-0.00397363502793309,0.0647709991881276,0.00670223964779664,0.0769709700515651,0.15882326478143,0.13455855126551,-363.717337019071
0.225942874133291,-0.00464560702550256,-0.0115751258991443,-0.00537221881898416,0.063810678444895,0.0124953422251585,0.0240194083681363,0.22875165455864,0.206504106132447,-375.119641047161
0.226168112024619,-0.0051246304344822,-0.0114490997505351,-0.00505409319099164,0.0391421557021188,0.0349362156541659,0.0134495543338529,0.21976085534553,0.197253956942036,-375.404767303314
0.22234566998517,-7.62981107665922e-05,-0.00550538816839112,-0.00858124121643249,0.981048010673477,0.421787236542263,0.0156736227470819,0.172870746822933,0.149011249135133,-369.764812700223
0.22570874722135,-0.00239213093210034,-0.0125675643291469,-0.00387959210207981,0.3715518657218,0.0164850380074715,0.125602795627472,0.109197004810853,0.0835007645650121,-373.407274388373
0.227258298795478,-0.00122543924761324,-0.0121882774913347,-0.00353454742389208,0.664819679882559,0.0260426542157506,0.145964887362101,0.0799906510886727,0.0534519198700768,-363.642421670448
0.226461585051237,0.00168318619715198,-0.0156449341056379,-0.00682830422413682,0.515780439741945,0.0103641238814519,0.00330330446020324,0.101693464696998,0.0757807761786425,-352.883336455709
0.232213437393226,-0.00322082704230561,-0.0145809307607255,-0.00577661274672309,0.390886646751214,0.0866823369324317,0.145067250899534,0.191310735886159,0.167983160959798,-367.118665131206
0.231208976975526,-0.00203380433337281,-0.0138652651148588,-0.00825677612731707,0.507417029162443,0.0636826213700273,0.0160545707997817,0.233410376170181,0.21129721394432,-385.775339377686
0.227006267436305,-0.0057735422004004,-0.0120739156566486,-0.00246446544675291,0.119100911363877,0.182136057993817,0.525526559708431,0.18548998363963,0.161994502398466,-363.524155270219
0.22747848479109,0.00271711523275407,-0.0068550728912908,-0.0125889231956292,0.460940436834018,0.174578527651969,0.00126382594685012,0.205321195843489,0.182397768800513,-373.454298178431
0.234497228442795,-0.000223670538884482,-0.0281446978025483,-0.00639096315242697,0.944416304977851,0.000431777549030677,0.0681263985400928,0.198301621501584,0.175175706737207,-364.775467007286
0.235182188944239,0.000768651122184429,-0.022196570678613,-0.00991476725939322,0.829407619127854,0.0053568501459437,0.0108384888712929,0.293867550871355,0.273498345608029,-390.039867085159
0.227944472391307,-0.00337246548096984,-0.0148374184062081,-0.00616141847981436,0.250372118365301,0.0160950464474432,0.0593553824251948,0.201770495228195,0.178744644129008,-379.036904590966
0.226132327189578,-2.80294155670777e-05,-0.00644205336168067,-0.00833413221499567,0.993315054234807,0.395348372890744,0.0136604209322336,0.210567182843505,0.187795082348606,-372.098266670546
0.234577869425816,-0.00301682947097218,-0.0232056671178793,-0.00520304431386114,0.269331715874696,0.000227587122868212,0.0464820444357916,0.244596503715251,0.222806018245499,-398.032696670622
0.224892780215153,0.000533970762658163,-0.0116638665730808,-0.00737741089649523,0.863060455515387,0.0586414719186545,0.0392245337814162,0.109909556161805,0.084233870281857,-370.222796902401
0.227560239194232,0.00126286509766395,-0.00815232676190996,-0.0126059260534577,0.73334996371179,0.106206629816647,0.00149063485472847,0.254856929779877,0.233362418138912,-373.196698578629
0.229581193821275,0.000523131842933356,-0.011553594050538,-0.0103536730637675,0.897737400141366,0.224861373807376,0.01934033136581,0.187267073786055,0.163822854760652,-349.796925558427
0.232150326936197,0.00161382760390755,-0.0246300543513069,-0.00636351825416925,0.435012187199526,8.55650456532569e-05,0.000180141054325028,0.1830829645245,0.15951805003963,-382.793333572466
0.237445968419509,-0.00394577125012707,-0.0194839562115864,-0.00507425446033295,0.230809004936552,0.0055178711271758,0.12896145786055,0.244699851296898,0.222912347007386,-385.957018620945
0.228639300057674,-0.000966094947432666,-0.0153598085589063,-0.00795173663539563,0.701635298195186,0.00307148523456427,0.00132171499848686,0.18388243054188,0.160340577576742,-365.873555121585
0.233611720376044,0.00177112239743351,-0.0235280572595787,-0.00739152350468884,0.599920644318381,0.0012568775246883,0.0176514854439327,0.156453768608281,0.132120704241212,-361.612837876974
0.224742964159502,-0.00108696807807948,-0.0112246469032595,-0.00461558051591998,0.652454302889946,0.0531779977652976,0.0403842819060824,0.0987144357563333,0.0727158137108429,-362.780080562356
0.234932595319076,-0.00532430019318935,-0.0214353506175732,-0.00370263860671253,0.0551674449217281,0.00077808482578205,0.053678973485122,0.20892610274019,0.186106663396158,-372.689762189871
0.227661290911382,-0.00458651908823996,-0.0184628808313251,-0.00254590885831808,0.156502770724846,0.0341746827085076,0.519350775372777,0.170911144652201,0.146995119978707,-374.978882910887
0.22844946882698,-0.00249790855149675,-0.012179966088069,-0.00620166561967188,0.417607333412002,0.0287864510565452,0.0395330631015957,0.235640242219508,0.213591403052763,-380.28633303906
0.224722253521415,0.00560719047098564,-0.0115294008046957,-0.0125630499899485,0.167412263996101,0.213869276733634,0.00282233730156514,0.183886522998767,0.160344788085271,-356.541401315861
0.225328190351306,-0.00158978344316106,-0.00529325477695104,-0.00641943765642962,0.668699288941203,0.419017312759483,0.103268672060627,0.145888778480467,0.121250954782788,-363.483588091087
0.243168631679619,-0.00697000015653347,-0.0324788172564784,-0.00208628702721285,0.0224646593792014,6.237742280394e-06,0.483394134579196,0.286826327064342,0.266254009575814,-383.817430717075
0.232871720204626,-0.00787858036878497,-0.0223272184247362,-0.000766522784841595,0.0404888216867467,0.0112100574512215,0.849736757933185,0.210145978668698,0.187361728053372,-364.98333410597
0.228667009193212,-0.005626714527723,-0.0140156722399824,-0.00356770584358001,0.0987459291534598,0.077585341447686,0.296280447826315,0.230058863882287,0.207849023417353,-379.458304381056
0.228155648901651,0.000567969850695447,-0.0133023085901187,-0.00842289388510022,0.870892547266748,0.108298136388142,0.0278877656159595,0.175111538541361,0.151316679076208,-379.906799592476
0.233070988860754,-0.00407564654502169,-0.017572310009363,-0.00640795834724611,0.0658773151073622,0.00935198930809524,0.00165519099424312,0.232042350721569,0.209889726223153,-375.184652613696
0.226707042660438,-0.00362052976263677,-0.0152404914737721,-0.00659516982099213,0.193941335836011,0.00445773491889816,0.00974268352512231,0.253146885800937,0.231603045968272,-383.063502174408
0.22960041334282,-0.00318744785118223,-0.0135873197851185,-0.00488560998472567,0.324723328979998,0.0339421794431803,0.119606351238023,0.150026545209555,0.125508080167523,-364.181485403885
0.235204968206184,-0.000680472912424352,-0.0149488191084533,-0.00980729215235877,0.823131148754777,0.0297318965746363,0.000632032567885061,0.219389361742903,0.196871747177794,-352.136761759839
0.228209618163646,-0.00203650711516584,-0.0193133192916383,-0.00539212125907204,0.439955513437052,0.00100195933678308,0.045743781273501,0.181124768402799,0.157503367491341,-391.256242345466
0.229128951705923,-0.00154896467518012,-0.0175617894200163,-0.00830283106926203,0.552687313460912,0.00063058493888173,0.00108645945810559,0.262529344993064,0.24125615302171,-390.720408070096
0.226327664199182,-6.19613154655652e-05,-0.0124537593729367,-0.00813303644822429,0.984776784502209,0.060338614200648,0.0192613528791806,0.175950938434132,0.152180292427425,-357.357141351673
0.226237606181652,-0.000363447916666139,-0.00773702358729787,-0.00703352382205987,0.919132689932659,0.166230276811147,0.0485490247220532,0.125497131940087,0.100271087669128,-340.769765740858
0.227312583144844,-0.00605403924323133,-0.013421560261854,-0.00209846359699629,0.0521274361196189,0.0586293789140702,0.510058015054225,0.217314368686216,0.194736898552164,-387.352554438254
0.233292904422264,-0.00331825069951744,-0.0178707098564466,-0.00660779081864096,0.243949232924152,0.0010556238739922,0.0202114527866278,0.258525456234151,0.237136767471675,-373.439599382986
0.231981251219436,-0.00137032371673053,-0.0171216523326605,-0.00696545060962356,0.635200525705103,0.0097613164266014,0.0285083685255682,0.180016586606739,0.156363218912703,-365.363995247299
0.223149696635871,0.00151636818882224,-0.0141236892728436,-0.00421234772190297,0.576676556149402,0.0884823811773799,0.15830978858757,0.079189978143927,0.0526281505903866,-364.102394034259
0.22670327799046,0.00048124741957265,-0.0127570875365198,-0.0111370684348839,0.893498663851514,0.109634192141193,0.00428817465925585,0.290638688549585,0.270176343026977,-400.802696757877
0.223069471371846,-0.00198887068287282,-0.00718337949307249,-0.00558843532986496,0.459635724727819,0.232475135691975,0.0405854140365665,0.117169518313674,0.0917032544188762,-375.26917067762
0.226960051275342,-0.0014559802917615,-0.0126277750311306,-0.0084386005514278,0.675529563329366,0.0935994988962359,0.0266428085077888,0.197538868890317,0.174390951646768,-368.749774954942
0.226011712109785,-0.00235165354404266,-0.00774732561230403,-0.00753846835751375,0.494553999001998,0.250440748445296,0.0328324171472299,0.169115174523247,0.145147343019109,-356.899235889695
0.225933562274492,-0.0050074636012698,-0.0121144871781319,-0.0040652849387347,0.0400172416049325,0.019462909379,0.0685662877261555,0.231294123671047,0.20911991570002,-396.865740134013
0.229579548354928,0.00229914759967135,-0.0100220355542648,-0.0111449573036789,0.447466723597943,0.167747361634522,0.00103802370615767,0.203380088958294,0.180400668447476,-380.504126265508
0.224972684077578,0.00121201471173579,-0.0128095518326826,-0.00760587828430893,0.773127352248757,0.146088442433546,0.0928346737857868,0.114808788376118,0.0892744265023522,-360.375762648666
0.228005586008748,-0.00256114165663634,-0.0184781647240186,-0.00465706345870277,0.487877215149799,0.030298372139742,0.241795420835556,0.147666796437933,0.123080261719796,-362.759265667444
0.228009503856179,0.00567417453227515,-0.0133371729718876,-0.0160581395531548,0.18714593239331,0.149942412503806,0.000674879588979615,0.289106870799234,0.268600338226135,-372.83683123616
0.230365394192502,-0.00310073056672269,-0.0193601960198548,-0.00721739240577583,0.213267838117034,0.00300556934299938,0.00486133010223163,0.287133597853089,0.266570143945005,-391.360339944042
0.231426561550996,-0.00661507616413176,-0.0133333064982616,-0.00562083096748391,0.0372339702967246,0.0745216215790492,0.0895084677974419,0.219421676778419,0.196904994377797,-356.050187861411
0.226455518350348,-0.00161046214760731,-0.0147245454950744,-0.00585451855595882,0.611229404950381,0.0196245341017421,0.0620371103037598,0.18149066701355,0.15787982086971,-389.586981582989
0.229626779564346,-0.00352540126935296,-0.0174173157430984,-0.00621920920392329,0.284619019622484,0.0227851744056747,0.0883660506791913,0.268298031259191,0.24719124369936,-397.921087577299
0.232670494974208,-0.00254915451773899,-0.0218279081327966,-0.0023635156861753,0.479533152514232,0.00791821472051639,0.527124650003362,0.128694033624505,0.103560207671366,-372.73695735004
0.232503960861269,-0.00141747358029269,-0.0171991391034683,-0.00562649804001542,0.556701939589159,0.00899679215966945,0.00571550508698934,0.153983971644814,0.129579663134569,-361.973822343802
0.231387717022087,-0.000715475240545209,-0.0191934351977073,-0.00604940194503084,0.747272870127786,0.00205125754440982,0.000576234384982877,0.184654054216702,0.161134459626799,-377.763977503334
0.233606147897566,-0.00443520804612326,-0.0184310676212763,-0.00295984897720192,0.143076776433596,0.00655885492736603,0.322500508633384,0.189518752580536,0.166139485828051,-385.447298982002
0.234220653499515,-0.00611061353139651,-0.0190769753908829,-0.00151547582164389,0.119996068357056,0.0156159191581477,0.711768484241843,0.182366088676914,0.158780495081056,-380.067918026741
0.225980554453892,-0.00248487698558544,-0.00304393771208435,-0.00756983775951043,0.46397650595618,0.634785156400161,0.0395671516400579,0.22859445952486,0.206342376626539,-381.733591913692
0.228420333890352,-0.00566149586054647,-0.0115135949653285,-0.00463553906944041,0.116874310461901,0.00890070994912363,0.188768229408234,0.243468275769739,0.221645245263097,-383.05969646364
0.221428946604496,-0.00376242623577076,-0.00779573297918186,-0.0040712853811455,0.0754312162559009,0.0557020461060445,0.0173298101282867,0.18160453818961,0.157996976791233,-412.137879006331
0.221467343119448,0.00299948503634355,-0.00525182945807043,-0.0113255906329531,0.438093670691239,0.431380671685464,0.00509566064512072,0.161664700608356,0.137481951587444,-375.067222564848
0.235821683342766,-0.00675397348069178,-0.0211344471144968,-0.00294206148288948,0.00787571013745342,0.00102883924195476,0.107372614470201,0.213596844926778,0.190912138530435,-376.323385331793
0.223555748446293,0.00194288686482042,-0.0101994279047966,-0.00891031051883119,0.581315341500925,0.101280936877226,0.0135914616113061,0.171049211425809,0.147137169447707,-374.073786088284
0.234334621047122,0.000754237276414051,-0.0213640342914315,-0.00768024859625958,0.789590986938276,0.000447682433822147,0.00228370762439937,0.210755598187118,0.187988932750208,-378.190358142402
0.231399654236308,-0.00731741056840946,-0.0205986287543295,-0.00277754889057814,0.0136563072741416,0.00269495944479245,0.242025271935333,0.229617340915427,0.207394764211064,-377.529681122127
0.227662817030306,-0.00491953586910418,-0.00823598418880694,-0.00521572159844786,0.204621255791438,0.338584942279643,0.20238387164176,0.201172965075349,0.178129877529445,-379.835973534845
0.22669538364765,-0.00359412373876164,-0.0108464795932868,-0.00355293748216342,0.171134311596613,0.0119934032172994,0.160995305348536,0.143210847899985,0.118495776204792,-389.062670004174
0.232611625711124,-0.000766465994729511,-0.0190194474745775,-0.00587804294466291,0.797302343985886,0.00261077223135451,0.0171526844691915,0.137250500454775,0.112363495660201,-350.64212517422
0.225073958920416,-0.00372821609411124,-0.00742591614658841,-0.00321150321269438,0.176584744348998,0.118077408446733,0.169187283365645,0.12985080576465,0.104750348238631,-379.09634568232
0.235763714823559,-0.00349987758684996,-0.0220764616161488,-0.00665577474814612,0.315530933794551,0.0204622331593145,0.0963466261134539,0.243305603436107,0.221477880458302,-354.656312889194
0.232171941609431,-0.00373287518964111,-0.0167246083160023,-0.0060824372372541,0.325848413296299,0.0372490385072968,0.15324901645225,0.159618167036353,0.135376383393171,-349.311203137231
0.239696272017005,-0.00263801936342211,-0.03011030521048,-0.00340430468131684,0.338961916748077,3.32091796498155e-05,0.25875342547042,0.226490284718389,0.204177504469881,-372.810609859417
0.233304385371856,-0.00389824541825125,-0.0119731734590165,-0.00480039956337988,0.101742684151884,0.00352182568988933,0.0145141461402293,0.23958406572912,0.217648990702076,-375.0550472368
0.227832750982734,-0.00343571498420738,-0.0156856561535513,-0.00348451526263944,0.192064917599712,0.0171762258877265,0.0768958745091693,0.118847857650684,0.0934300073906076,-363.940892387335
0.225240728638077,-0.00178766442308512,-0.0140429102827811,-0.00491745349812524,0.461890843924496,0.0244467595184435,0.0281130430622647,0.135700344049077,0.110768623204339,-370.021291499873
0.234063659831359,-0.00587034368124706,-0.0174749438984689,-0.00465267919879058,0.104312632797323,0.0646267930843375,0.260986622675654,0.236398216960506,0.214371242449751,-366.340753086162
0.230744010404454,-0.000533401131080354,-0.01300310902072,-0.00821896234163808,0.879942619851505,0.090817163080685,0.0298708277168522,0.199305586452149,0.176208632215192,-371.125347712389
0.232080514560567,-0.00723076054798375,-0.0181608603188649,-0.00250924917649649,0.0071728649896426,0.00039872606675309,0.300679919134501,0.307927099705576,0.287963458350929,-409.62825434325
0.221664792121892,0.000772915105332045,-0.00132099112807466,-0.0117792634978034,0.811237278116766,0.855459449181275,0.00111249818382158,0.217443315964184,0.194869565463151,-377.153445216267
0.229288383298987,-0.00384496758255415,-0.0174332715569539,-0.00371418216614517,0.157382567584434,0.0020253035810202,0.145898832017115,0.214714917635936,0.192062463336973,-400.499127138801
0.234905973453412,-0.00457275475546221,-0.0235849721985134,-0.0035553622945101,0.138555065610925,0.000242295726019662,0.280855358087,0.221964597471343,0.199521268552247,-386.813151951333
0.228582509498665,-0.00235269975207638,-0.0117689346512246,-0.0039557677962638,0.429209336453853,0.0819302447250829,0.154675675973691,0.105168582629472,0.07935613789763,-373.304841112655
0.232720961797074,0.00279945006235292,-0.0183116481446688,-0.00883576806187057,0.379479840452964,0.0348578000181441,0.0137280314636607,0.163904528140617,0.139786389529289,-366.833809172176
0.241964474281408,-0.00213388742400098,-0.0245740912573928,-0.00659839736392006,0.474294964846146,7.08933364170463e-05,0.0130993449549071,0.200202410746551,0.177131326441163,-356.409731970933
0.22588733498553,0.00245034780878339,-0.0084871742725057,-0.0079282942820583,0.519300750763989,0.244018589477025,0.0493017107465641,0.0839751207598169,0.0575513261663502,-366.001491479873
0.229263383370746,-0.00439693089027312,-0.0198931166551843,-0.00478036707099867,0.02356212913685,0.00112828826449987,0.0145818308957096,0.272813541396325,0.251837008936604,-404.748320099413
0.233685347245039,-0.0030318238874818,-0.0222756729131808,-0.00654988241482163,0.284123554040082,0.00544277356980185,0.0393387188005918,0.233475186655767,0.211363893963145,-370.209329020163
0.235093946191836,-0.00475064547069748,-0.0234924998470703,-0.00330183077676715,0.117015901620383,0.00676901288932297,0.343667955912923,0.245303144424371,0.223533042821228,-384.592822876197
0.231593717859146,-0.00211942805334055,-0.0180584103620356,-0.00638999718436949,0.447938959222595,0.00236122577560971,0.0137539325022263,0.200617402853843,0.177558289474627,-370.158142684385
0.235202768583685,-0.00428245820020553,-0.0215869244598823,-0.00505882782093683,0.193106118619881,0.00101922464839351,0.0975766865749627,0.269430735846931,0.248356622457901,-396.363262421669
0.226918906783217,-0.00126387221488121,-0.0079285648090856,-0.00592179676673465,0.707812515920156,0.174679157593802,0.0898797235415579,0.112251239502409,0.0866431021803632,-331.102892657697
0.234425610099441,-0.00699034146134862,-0.016731311290585,-0.00165726954100868,0.0484653464602453,0.0179001909271934,0.638776341542903,0.223248557345652,0.200842265730623,-367.96967457534
0.223458623373597,-0.000957074876382469,-0.0110468765384506,-0.00726187516830693,0.762917027691407,0.0278330033692879,0.0147903520955499,0.14589261917972,0.121254906271443,-365.778222334199
0.235697781216865,-0.0033142106337669,-0.0197720522870399,-0.00628361731968786,0.185315740900998,0.00169539614179896,0.000766079111762446,0.244142138100628,0.222338545930454,-369.260819191332
0.230851299665917,0.000905952245890171,-0.0207146417844696,-0.00731665111961921,0.811656492658215,0.0173791797548656,0.0717362694537112,0.171601418495091,0.147705305567065,-366.851781202632
0.231121908004827,-0.00331918041477712,-0.0100762780598398,-0.00698631319220322,0.307852259053575,0.030082458432005,0.062491224587704,0.200123007128229,0.177049632333851,-371.765373846779
0.227706964189036,-0.00382634192326455,-0.0153238965367488,-0.00127364162943298,0.27551961277091,0.0359638929558882,0.748195167865706,0.0969908924085714,0.0709425527665111,-373.701720380246
0.227441243355354,-0.00139013502748403,-0.0158590271926707,-0.00593791877567334,0.543591424579239,0.00163044617076623,0.00188593151315256,0.196232025779971,0.173046411139009,-392.09988319717
0.23057894853816,-0.0027020630999706,-0.0147211415214464,-0.00685601670107279,0.182678828303558,0.002163245090331,0.000235251113426434,0.248094496144864,0.226404914302889,-386.002558855535
0.234811970586592,-0.00741723842766958,-0.0140715538823056,-0.00373348428862276,0.0436208788391809,0.0600187711907483,0.288104501282509,0.249390722342189,0.227738531640522,-358.491046421316
0.227484524783029,-0.00371665054138243,-0.0152214153967338,-0.00334595132696578,0.0919949681307816,0.00675846549165369,0.0342480339192437,0.209907831643208,0.187116711402147,-397.683134214283
0.222758805334404,0.00266136089573146,-0.00465114033896037,-0.00948850114361364,0.53553078567039,0.599474838591846,0.0355718607292503,0.124689793211213,0.0994404603230749,-366.478285943029
0.232481053138631,0.000823892648179211,-0.0191321977570471,-0.00692834787370679,0.732153737251643,0.00220876725464079,0.0038384535752993,0.165760239691402,0.141695631220962,-374.033786436281
0.230971415895833,-0.000265635310453883,-0.0172372358861418,-0.00859212806290953,0.944520834490832,0.0390953317907198,0.0388261958993808,0.230703412530294,0.208512164814821,-386.584041261323
0.221378634829273,0.00147636979041733,-0.00378160750301894,-0.0105915072942886,0.616635697550337,0.218273014223321,0.000701263251758727,0.183505320846651,0.159952589717227,-373.18344625722
0.227520492485026,-0.00270130705299703,-0.0112992016801031,-0.00556770500756414,0.310454226096051,0.0303850125871935,0.0303972370198092,0.212565229797113,0.18985076527203,-380.176270218868
0.234340125864377,0.000117291472730747,-0.0166785004859443,-0.00517551068262486,0.965310350434641,0.00683171790619395,0.0124862326426793,0.1047641713615,0.0789400609200054,-350.611365668387
0.238408368425532,-0.0041117256718016,-0.0206612282679324,-0.0043265571483092,0.149548933487734,0.000465979636133527,0.0808590248004581,0.239703832331531,0.217772212110325,-394.483664010452
0.229676791062697,0.000849874809039799,-0.014738135163384,-0.00966757020792385,0.794139059731075,0.0168043237438693,0.00568198248356203,0.191623263103673,0.16830470338551,-374.232542224073
