"intercept_mod","scal_mod_temp","scal_mod_weight","scal_mod_t_w","p_mod_temp","p_mod_weight","p_mod_t_w","rsq_mod","adj_rsq_mod","aic_mod"
0.233176978849875,-0.00135040474970665,-0.0191688421547253,-0.00760487041682297,0.717147671571942,0.0260279994395481,0.0658391941802539,0.217939331378403,0.195379889014319,-378.159157012241
0.234557044776659,-0.00500980988227147,-0.0187996093311533,-0.00190364041827156,0.122110261809962,0.0241197659265518,0.598771031187463,0.168313224916755,0.144322260250893,-365.326876299237
0.222603082075058,-0.00615985316609027,-0.00898098037796329,-0.00185350574108957,0.0516406454223686,0.272026637863336,0.598574832703215,0.171222983308295,0.14731595398065,-384.632336050089
0.235321769680499,-0.0100329858251866,-0.0220704136593629,0.00278359748395668,0.00392732626622374,0.0136562219430078,0.343106462923531,0.163568174664866,0.13944033354943,-348.113687895589
0.225200110574321,-0.00266540741176882,-0.0103931588456519,-0.0045298978887698,0.433016595381703,0.197771720194122,0.225936859257309,0.138947171403148,0.114109109039777,-382.0032176769
0.231416718413179,-0.0037822579736215,-0.0153981146243426,-0.00273562541451589,0.389917201615612,0.0909342569334651,0.559424843913038,0.120776056105499,0.0954138269546966,-343.444192826281
0.22858089638037,-0.00424230628063235,-0.0125759453729563,-0.00119504162746287,0.236957871842356,0.178622798924811,0.738482310608134,0.0996748870042698,0.0737039702832392,-357.001353153606
0.230843835025875,0.00514177875387568,-0.0167478216466059,-0.0141764480028273,0.182646401999055,0.0616238853289039,0.00149070237202486,0.222245409813718,0.199810181250652,-357.567375456867
0.226446518884939,-0.00656596190554082,-0.00857090627225375,-0.00364128149363454,0.103674541366041,0.41025606618176,0.402089872846803,0.173363815993485,0.149518541454835,-341.406113910119
0.226552250289301,-0.00728756656623138,-0.00992225505629845,0.00111077628668485,0.0248162835697422,0.236959181272898,0.690089037587204,0.100256205202851,0.0743020572760107,-349.531548999363
0.234916319487383,-0.00203349703474733,-0.0179619609203011,-0.00442085224314281,0.641205520611064,0.0365697149882612,0.328432358567088,0.167766034423418,0.143759285416401,-371.010978215386
0.225089497022873,-0.00580280270036128,-0.0105265245650146,-0.00107569978078911,0.0589629004170592,0.238708375659065,0.737697312962794,0.125368569247068,0.100138816436888,-361.761796033999
0.22994196649049,-0.00586072270063851,-0.0094707914612958,-0.00198232637216152,0.170490467931785,0.31788599787115,0.67140243299407,0.136824292271104,0.111924993009693,-357.40286538534
0.2282651722054,-0.00340130260448053,-0.00713268428658771,-0.0031472209850236,0.335028532278557,0.428368395815142,0.39610380827734,0.122907223751208,0.0976064705901851,-361.909381561551
0.238833927477905,-0.00464450642295326,-0.022796800394047,-0.00169295820363867,0.187513229286566,0.00867559523291689,0.614217372794135,0.161279569387498,0.137085710812137,-356.09419596394
0.23460047568652,-0.00165817170580431,-0.0180016513126088,-0.007938213241441,0.664275288025846,0.0432946713000706,0.0554632111278046,0.242062633096328,0.220199055204876,-362.942619475216
0.226622634544268,-0.00370682833225813,-0.0120223040268824,-0.00342354757139535,0.339077786988059,0.162619214821989,0.389420436633741,0.146667661650947,0.122052305737032,-362.756902753502
0.223561548040065,-0.00128628534422874,-0.00963407236529994,-0.00643465166462699,0.683009501613033,0.218018248416412,0.0568552761988025,0.15665286173614,0.132325540440068,-382.092346659582
0.232100483882816,-0.00456110227421088,-0.0191253412751372,-0.00393614460816559,0.188015281643422,0.0207922001007778,0.341300837791564,0.169578321852964,0.145623850367953,-367.803791902251
0.230902015169882,-0.00219627817474303,-0.0143558344109756,-0.00599817096181599,0.513672865290275,0.134190396053157,0.107074650452309,0.170235502420566,0.146299988067314,-359.157996900816
0.231408276112989,-0.00150890250834766,-0.014699697411871,-0.0049959700514457,0.66966525844009,0.0891979888937844,0.185553606240699,0.138552162741824,0.113702705897838,-369.885389837126
0.223549980493208,-0.00229559232202282,-0.00953848819818135,-0.00398495764350281,0.576437947803725,0.328058968799832,0.337258282746176,0.101908878699634,0.0760024040467393,-346.200822234931
0.224137455886386,-0.0013071374319778,-0.00933040783419832,-0.00600466771851522,0.721224884718183,0.312755804387575,0.152383275003212,0.127006306054442,0.101823795652167,-362.131021072167
0.226097783086501,-0.00644293880429864,-0.00625197548803249,-0.00445153716381109,0.102002822065234,0.514978189392756,0.276579870568419,0.203014702980717,0.180024742489776,-378.963838471872
0.220989752985204,-0.000591506365577292,-0.0120932018744049,-0.00549208111185806,0.863442389583204,0.144506897041387,0.112687910057376,0.124932679800654,0.0996903532564423,-370.575439463099
0.229199714865275,-0.00501490080423865,-0.0120076365898448,-0.000912278876349724,0.102500005241266,0.174421551723471,0.772625553447006,0.126229183594992,0.101024256198694,-365.81715184122
0.226838448778149,-0.00262455069070309,-0.0117875904123538,-0.00373478549211518,0.470098832857273,0.192151243426572,0.335632869076957,0.113980744015152,0.0884224962463581,-361.194344971626
0.221677621834331,0.00152362093316306,-0.00573943600462258,-0.0111105056418551,0.63684032772353,0.468244419067221,0.00515202663599764,0.169623490558656,0.145670322017079,-366.215365917167
0.232865741351562,0.00256196372084118,-0.0187877311339527,-0.010787543785147,0.441848411512305,0.0213693680003269,0.00422515387823783,0.224612029215008,0.202245068519287,-367.835781834731
0.224203108924604,-0.002511894292542,-0.004827772342322,-0.00564385590219112,0.525987413657481,0.646738457962811,0.206634912440927,0.119564621272536,0.0941674468861671,-353.160908266825
0.222337143787891,-0.00356747946956183,-0.00796383358289814,-0.00395894070967168,0.297453741461149,0.394057068696685,0.27431410501122,0.14930720675179,0.124767991561938,-360.383448333569
0.238386597567075,-0.0101627469171716,-0.0268443110316144,0.00470728908526777,0.0021940875238714,0.00217442800332996,0.108280999951975,0.15285614319539,0.12841930117218,-372.055363329953
0.22805939999075,-0.00850653437921766,-0.010639639821617,0.0024847713890491,0.0213755601071656,0.265554291733048,0.502930251061115,0.0966466742154506,0.0705884052024348,-348.121451451859
0.226653228075928,0.00357040475428355,-0.010906159037951,-0.0103965301295469,0.361549930491509,0.182846386294379,0.0107003248552411,0.174839436988857,0.151036728440459,-371.557715278833
0.23256658084354,-0.00165910510206874,-0.0148799227790973,-0.00890341837676043,0.596391269560091,0.0395967613373025,0.020419251024439,0.210181354917118,0.187398124770497,-367.601813608747
0.227737684241036,-0.0058045708123583,-0.0173052564086695,-0.0021870783986782,0.103885860807554,0.0453123831339773,0.558402762533573,0.212912823436272,0.190208385650779,-381.255847233599
0.221850064438885,-0.000416466162983116,-0.00854372964767513,-0.00561977759880573,0.90811534191614,0.269762288076242,0.139332135726215,0.122761909816214,0.097456964907066,-380.955908431096
0.227013542395843,-0.00258761488258087,-0.0190104552025578,-0.00248345737800121,0.625234408451873,0.0628390537641208,0.637073563752517,0.11201451951888,0.0863995537357707,-356.644144271596
0.239321952199752,-0.00715496042374634,-0.0268724106650659,0.00122909420379057,0.0524944234068346,0.0016958714639402,0.750512186611349,0.171758916213137,0.147867346488516,-373.542461477327
0.230504874292335,-0.00762981125942495,-0.0128835588015526,-0.000233900347580627,0.0144655774350698,0.120998043569536,0.941284591569567,0.190574406617582,0.167225591423859,-384.073289140636
0.227150567560569,-0.00273410766918229,-0.0119128481465789,-0.00578581935412485,0.413715744117988,0.133346543229216,0.121870403488459,0.163864654490629,0.139745365677859,-383.61754787903
0.246998437670143,-0.0137327258725466,-0.0364606256349051,0.00493169369794817,2.1954970817743e-05,5.29572621224852e-05,0.159524076256714,0.273152852663436,0.252186108028727,-365.485030536657
0.238466656340949,-0.00991549797883256,-0.0223391723957542,0.00191913713174724,0.0229998072722758,0.0185232540822567,0.66567762292224,0.175823207797641,0.152048877253342,-354.910163424691
0.233248616332996,-0.00214065621680095,-0.0173369608284743,-0.00387317425159196,0.567339034486842,0.036010639186538,0.325336034040479,0.146196989315456,0.12156805631494,-365.159509498264
0.231339573886691,-0.00683570483645618,-0.0191770296372318,-0.00114611689276021,0.0313673828294248,0.0272654107533504,0.740873534990655,0.188435776079067,0.16502526961981,-385.031634667827
0.225851810704982,0.00201163893622736,-0.0118907214442549,-0.0090747280128106,0.519060570768702,0.160483144799171,0.0149289282967694,0.161543446772084,0.137357200044356,-384.278310072226
0.231656894743994,-0.00516070832902908,-0.0205507183358017,-0.00360507690684967,0.140188130046612,0.0207240607789976,0.378738983414342,0.200983811186093,0.177935267278,-379.777452895155
0.2285108046146,-0.00381050648070546,-0.0179678169430018,-0.000804558587777161,0.259572068901274,0.0419838608306942,0.835143672629028,0.103056722407847,0.0771833586311508,-370.243187856961
0.228741155075217,-0.00290764800064448,-0.0122101651793274,-0.00501860306613211,0.377123126493053,0.17850729560855,0.148412577294665,0.165281005854525,0.141202573331098,-360.063944668876
0.224017523359416,-0.00633300391020563,-0.00408602768275167,-0.00139320213674869,0.0557622589686224,0.596760467074674,0.6965578691798,0.125774481569205,0.100556437768317,-353.376819798559
0.227683644930802,-0.00478607911454796,-0.0131181492141219,-0.00239500129196761,0.102918912671646,0.0892884307075932,0.414459563652993,0.175107411352812,0.151312432834143,-375.586452784036
0.230013696977109,-0.00539908796188404,-0.0155545004030616,-4.56861226593705e-05,0.125644822570879,0.0686793924928065,0.989699694829773,0.113503199279377,0.0879311761816666,-368.200045301974
0.231828960599819,-0.0086590320808339,-0.0202440337060184,-8.22126197220658e-05,0.0104384556422038,0.024622841475084,0.981212553809114,0.182661502309322,0.159084430260553,-346.731037947798
0.227895234567201,-0.00574687664762495,-0.0124657893446847,-0.00393241172495709,0.0775915538054643,0.110066503471088,0.235387229806439,0.171301028572428,0.147396250550479,-363.991579135043
0.231166082003522,-0.00590689576841404,-0.0196191158345088,7.04414223146305e-06,0.122370155223454,0.0246278905727572,0.998515877137431,0.135855952687968,0.110928720553967,-368.196879785988
0.228424614499872,-0.00712633071052539,-0.0201009346968755,-0.000215265256265069,0.0220413873391932,0.00857391321010331,0.950756510829646,0.227496707192753,0.205212958361775,-405.396310397147
0.223269874068819,-0.000749606993003141,-0.00266009496804589,-0.00549141577705256,0.865531239038894,0.761632938387718,0.20224422850384,0.101945836217674,0.0760404276470299,-350.888881242107
0.23016903549339,-0.00283774730790959,-0.0187018841686933,-0.00305050831303502,0.394885869271971,0.0349490654283389,0.347291102386146,0.145528612724254,0.120880399629761,-357.687407078892
0.232144732827182,-0.00461991981738262,-0.0176462461381646,-0.00178081448982587,0.191352855701525,0.0659891004515306,0.632581049153725,0.141851713477726,0.117097435981891,-358.314299094827
0.225270909266654,-0.00451629605025376,-0.00894690641428914,-0.00289168521814039,0.158428348813988,0.287539282480771,0.419612982303204,0.137960871326815,0.113094357999704,-366.703526860042
0.225101498264427,-0.0031930624677362,-0.0065065127815335,-0.00500270470506627,0.302366618009298,0.413734470608733,0.131255333892695,0.187426281922771,0.163986655439774,-386.654930829487
0.233429790531724,-0.00302531893105101,-0.0171563373527793,-0.0075800326870226,0.389801794503634,0.040799114391276,0.0494393861856882,0.308780802098284,0.288841786774196,-388.482739497821
0.224141048295622,-0.0038305043259147,-0.00854604795161993,-0.00477782002235901,0.288219188444467,0.29073387130753,0.230870096163037,0.164469336817205,0.140367490763855,-377.484298609515
0.228211980720737,-0.00522772366696447,-0.0140860165246398,0.000287743848626339,0.0722964905618993,0.116170824544791,0.924123068507687,0.0911406877111831,0.0649235921643904,-357.41834342527
0.230692388875008,-0.0069809058771561,-0.0184832257347537,-0.00115286833808923,0.0422261935592737,0.033031040059209,0.739022259091964,0.207127839457877,0.184256527134547,-379.198908944913
0.230020430624069,-0.00579545288785399,-0.0205897571637497,-0.00414070734404499,0.0698439185694353,0.00579455178986761,0.226390693405223,0.271509890676606,0.250495752907662,-386.657669601418
0.229348651358598,-0.00593421824373273,-0.0181133613715292,-0.000805008083008102,0.124104042914146,0.0326088078988375,0.842899293996148,0.1629909529409,0.138846461198811,-367.471605944367
0.223375515659494,-0.00156543160429571,-0.00791548945620494,-0.00809754341358132,0.615665646529753,0.341698610593986,0.0186806796417615,0.227603183801142,0.205322506410791,-377.948703036354
0.225288167821821,0.0025771413394645,-0.0117067232916818,-0.00781245277622528,0.445572589507582,0.172481961892421,0.0427296715115804,0.107706178938148,0.0819669340998257,-361.153301461449
0.229300952471108,0.00429618049318885,-0.0161663762335792,-0.011501361588815,0.211281468031295,0.0560975496529803,0.00301021349852514,0.184593168622096,0.161071817716964,-368.201645980111
0.240990246514186,-0.00804451214740036,-0.0251688368681399,0.000473339639451394,0.0179378818854959,0.0159524670637864,0.909202759857758,0.147628599377844,0.123040962821435,-333.062212167967
0.231686909347154,-0.00599993903994312,-0.01422513526022,0.000719872706420765,0.0536379605541257,0.0680639554692267,0.825992337481841,0.117431016083469,0.0919722953935692,-367.610306885145
0.23926293876083,-0.00947986639164343,-0.0221148524450247,0.00164502978429275,0.0119399970758744,0.0118236536855367,0.673830240519624,0.211245334036678,0.188492795595428,-369.824185972326
0.22883269775539,-0.00554742599093383,-0.0155239636858162,-0.00268063318514043,0.081793928861122,0.0353375822783978,0.428728600771854,0.166670541540313,0.142632191777053,-356.267390615603
0.233214235889096,-0.0014034498392201,-0.0080485363533212,-0.00823589789221926,0.710234305860168,0.407937759316637,0.0485044395707652,0.204213775040121,0.181258403166278,-359.778353084807
0.235549121619627,-0.000623362922482338,-0.015557363841272,-0.00676772874716288,0.85468675485258,0.0485772136445455,0.0434712459783147,0.207746814001776,0.184893356713365,-374.672177400853
0.235039018740811,-0.00710134840601657,-0.0193069833030347,-0.000837987255029956,0.0670272135177126,0.0551209895358583,0.833581285043464,0.167383464718366,0.143365680046781,-352.0502319299
0.234961319102591,-0.00351291391116142,-0.0216526379008402,-0.00311606563938364,0.269052160506404,0.0167158390260578,0.369395705309737,0.167561374002613,0.143548721329611,-365.059509390888
0.224377157505345,0.00199947268043197,-0.00461033255469255,-0.00931035087096891,0.547974977747484,0.581047636707558,0.0120609134014078,0.15813195711119,0.133847302027859,-371.199723835425
0.223172845757269,0.00113477044244794,-0.00941948026399614,-0.00872937149482141,0.682679785625111,0.150514092617683,0.00340506632371469,0.187103185103299,0.16365423851974,-402.00342806509
0.22885136967847,0.00187987471033896,-0.01527152584723,-0.00989648383945632,0.609407270513828,0.0718833280667487,0.0164071600927506,0.195406936314443,0.172197521015821,-371.963505200768
0.227870836156463,-0.00173121873961293,-0.00823575748118942,-0.0065143393157615,0.694678974967812,0.39945445656666,0.172216410217606,0.126255899424362,0.101051742676988,-352.88338962228
0.231276737385198,-0.00641481409831715,-0.0196340942251009,0.000250484817474178,0.0873202265479273,0.0369819308802617,0.94921503323574,0.147341633720147,0.122745719308229,-366.36434662425
0.23526987422273,-0.00304594142485997,-0.0174336133811936,-0.00805522623422878,0.420302651083654,0.051899503910204,0.0705353047166528,0.223188151716417,0.200780117631313,-365.5630946019
0.230255736861957,-0.0107177438743542,-0.0156890892133436,0.00358173894371011,0.000181729941360025,0.0340917294381534,0.243643738362727,0.174195222736238,0.150373931084399,-364.504551938766
0.220832591065587,0.00300335914920204,-0.00733111847373118,-0.0102362991830677,0.391408269767549,0.418671302962829,0.00986151547020614,0.131996138307973,0.10695756537455,-355.417817016405
0.223735437802904,-0.00292372868886898,-0.00309015623270143,-0.00590406728575705,0.361012082539048,0.713842268933957,0.0802167441780242,0.209074161870326,0.186258993462739,-382.387580932648
0.232558245979994,-0.00487746862640907,-0.0158927210095704,-0.0038110423424081,0.24252255066288,0.0951669789236491,0.405817829065227,0.172626650033938,0.148760111092609,-361.762935534034
0.232255762517848,0.000120156977721261,-0.0211055250487316,-0.00643204090128419,0.975953399069161,0.00963230813879227,0.123654928939774,0.155604496651261,0.131246934054663,-368.622808616043
0.231311197699573,-0.00212816949995424,-0.0161872959698922,-0.00507675158237672,0.595892009066546,0.0855038898472365,0.219045341894799,0.152763495219289,0.128323980658307,-363.75082210624
0.234903932341053,-0.00665034687977181,-0.0114191861689681,-0.00495516680140243,0.0557460508247745,0.187259713423997,0.17926771620388,0.309727980981292,0.289816288124983,-388.019266551266
0.226047885894978,-0.00175458985289984,-0.00312016485274337,-0.00812643404459333,0.654390582559091,0.712223830108426,0.0534917304034649,0.114433087845401,0.0888878884563264,-333.498244425877
0.229798897916791,0.0036999848089478,-0.0181727303269824,-0.0116198605974102,0.21246780013361,0.0200807559779022,0.000877212037662755,0.238159820455059,0.216183661429724,-382.041482486496
0.234186699635012,-0.00453016168607514,-0.0197173669752422,-0.00213611667628319,0.19138517326239,0.0339533851363029,0.568340445898051,0.152177902915464,0.127721496268794,-367.670942340473
0.239640458184848,-0.00323636064778919,-0.0224437657769262,-0.00513321050010258,0.423527304528674,0.00843712447336985,0.190056174916518,0.23142166581219,0.209251136941388,-370.457519262645
0.225032045108905,-0.00305758800381883,-0.0128771945337259,-0.00584005064499533,0.370534051177826,0.066038864025276,0.106462727055869,0.224469317295795,0.202098239910097,-396.593920207851
0.233606886321011,-0.00375321335435389,-0.0165273766511981,-0.00504206194466628,0.291138174094719,0.0709025070389558,0.1890907291862,0.21834010983043,0.195792228383231,-370.37910014967
0.222277075487761,-0.00331697625063742,-0.0165809968599908,-0.00307903433286082,0.298704779829114,0.0330373641942208,0.325594348714866,0.172379688868989,0.148506026047903,-383.214961905515
0.240652892241014,-0.00943528879630117,-0.0269947186378668,0.00147620509019938,0.0142457107366473,0.0019802198966097,0.677382344855578,0.225674015811878,0.203337689344913,-370.011465513659
0.230255992039474,-0.00129119402364992,-0.0162614288534551,-0.00752993738388812,0.684202857945027,0.0670205273947543,0.0411840350695504,0.191427811541254,0.168103613797252,-362.342054577164
0.230654665781547,-0.0018103305626634,-0.017069739505048,-0.00604860196914766,0.629125454853101,0.0400563313413498,0.117642363567855,0.204008452863271,0.181047158234327,-383.075908388958
0.233909157880463,-0.00366201359079266,-0.0188927638893332,-0.0030447997643239,0.300354239526654,0.0451584502312174,0.43826865312873,0.147689360477134,0.123103476644743,-363.293953203088
0.230461404197295,-0.00378071582446823,-0.016067317566588,-0.00209338478145023,0.276802091583984,0.102954285165959,0.503093100312529,0.151006288001603,0.12651608477088,-341.14104269648
0.2319122573716,0.000607253053351676,-0.0208558596907629,-0.00669156565301972,0.874791918227855,0.0110860960025869,0.0998190134315148,0.153598936446537,0.129183521151725,-366.291789474683
0.226187449083818,-0.00258535136775242,-0.00462595808823175,-0.00544256541928013,0.384966025350311,0.558662399170041,0.077035151328162,0.193733565296398,0.170475879679948,-383.132526941172
0.232105219981938,0.00140373522882164,-0.0197134144881247,-0.00809020450383924,0.667122875389211,0.012284310516746,0.0156301132713992,0.200642148826008,0.177583749272912,-377.498508267329
0.234835361410376,-0.00113913706497103,-0.0118265774002817,-0.0070130365803891,0.802030859347789,0.225289002433011,0.140503997583308,0.138523750160106,0.113673473722417,-353.800496670732
0.228589810854031,-0.000228806519411,-0.00844241212112604,-0.00937601603121951,0.954861329478207,0.308526638965244,0.0290798953290346,0.211140984551648,0.188385436029099,-370.347198683166
0.228996955743813,-0.00178824756760159,-0.0199732606878039,-0.00531510902704463,0.593625557815798,0.0215658300969117,0.204536559759373,0.154875239550561,0.130496640691443,-370.525086974231
0.230380481787147,-0.00381842695250056,-0.0172653188336417,-0.00355601148523137,0.211881173422413,0.0495961077382272,0.288157767650892,0.1569623392484,0.132643945188258,-371.77966301036
0.231787495291402,-0.00685917425036637,-0.0141233054463338,0.00212203071908866,0.0506628909026724,0.0982569657582411,0.514249713972815,0.0759040829919415,0.0492474700013246,-364.41724580556
0.230745754238042,-0.00160681976970643,-0.00908524807539135,-0.00847255071534728,0.670431268153332,0.276641657526886,0.0456094624818043,0.204945719010056,0.182011460904577,-367.957776070321
0.237502276211791,-0.00990929016997419,-0.0236661684163506,0.00118922352726282,0.00159528619643522,0.00861794017727753,0.721130811851467,0.23796106616397,0.215979173841777,-374.84390100589
0.218730446970212,0.002353889339392,-0.0066024918010691,-0.00958863869733875,0.429871141778628,0.394851942711996,0.00334866220264163,0.176070273081656,0.15230306942055,-382.748203567328
0.227399030668627,-0.00434688722383805,-0.0171493523209291,-0.000654040887596736,0.256188173333703,0.0758538101617863,0.872866126360514,0.088718013134788,0.0624310327444454,-346.168181297098
0.224946283686371,9.30479533227904e-05,-0.0131048559851838,-0.0101945249731959,0.972573173730351,0.0655700680047629,0.00121884077059187,0.290069232585837,0.26959046044889,-400.687896969965
0.228065716376218,-0.00027788749175802,-0.0134070689298621,-0.00785812804871507,0.936452204641006,0.103744601199032,0.0408689982853659,0.183931586098541,0.160391151082153,-374.631180371206
0.240039583117314,-0.00808365569919075,-0.0256398345971379,0.0028702285733051,0.00579271692117089,0.00219308581830434,0.376228926409974,0.172828360643843,0.1489676402778,-363.651980582924
0.22547059760347,-0.000344270976368863,-0.0131750671243835,-0.00905618924544482,0.924666399379106,0.13392281261215,0.0384129864689096,0.180529110573631,0.156890527224793,-379.063582790563
0.229109626870525,-0.00491905546307289,-0.0127992120052304,-0.0010237907758604,0.0980370925841593,0.143711449300916,0.756829560998511,0.113387443726654,0.0878120815264614,-374.73624346163
0.230558510185965,-0.00632512217114353,-0.0168659772684365,-0.0028398787282967,0.0405313117430956,0.0491578948645149,0.380956184553431,0.193701339089684,0.170442723871118,-362.534868419148
0.227234362829698,-0.00127132111924215,-0.0117248059442038,-0.00636473758852635,0.649164080726512,0.118019000386707,0.0474517528845879,0.205891322828295,0.182984341756034,-378.737607637445
0.227852435106464,-0.00473769596152209,-0.00880696855372139,-0.00401405483372172,0.0777722611537732,0.240469790862104,0.133628834473538,0.191592251318914,0.168272797030037,-382.445385279524
0.23266108328401,-0.00478359018764684,-0.0190160707367697,-0.00103267289184693,0.196308148107321,0.0211735907886814,0.778826864782316,0.160980210330441,0.136777716397665,-372.436005516794
0.22757732088777,-0.00401651456966152,-0.0134630096687149,-0.00522306827666986,0.263289483733949,0.121651893270072,0.180719683179009,0.201454572707837,0.178419608459024,-378.109875028652
0.223771786786766,-0.00252188705905169,-0.00424404521328576,-0.00652549692358583,0.494334150120616,0.645747702556741,0.100918989300059,0.184987421296998,0.161477443065181,-367.055654304707
0.237601330897747,-0.00113471283659619,-0.0202966058592289,-0.00371447663873673,0.741040213733547,0.00742248426969256,0.257992367992183,0.156612943187735,0.132284470395074,-369.284446618788
0.223294054629252,-0.0060604503228908,-0.00473347152724995,-0.000930132069918686,0.016613106848003,0.581733856758706,0.744860517561992,0.100844040354783,0.0749068492111706,-347.639439071126
0.232300432470527,-0.0073814014525656,-0.0191637010311198,-0.000578771082669509,0.0115269966926753,0.0109248165830185,0.840681073249366,0.175403520196403,0.151617083278992,-363.670715875733
0.230220239324396,-0.0106974402122265,-0.0194113484991241,0.00409600918716091,0.0026698548264106,0.0367997017035308,0.226836097666938,0.148282364132299,0.123713586174577,-357.922216778584
0.223202815063229,-0.00281601012260345,-0.00398479702499392,-0.00266271180271906,0.373601250796419,0.629181751381637,0.35881812757325,0.0890506856197551,0.0627733015510942,-356.359428249969
0.225383298528451,0.000543932300959729,-0.00645999041795602,-0.00715841605562581,0.872171655575075,0.450548631488154,0.0553215750927806,0.12748904459269,0.102320459340556,-362.354007241376
0.231162169727437,-0.00339326035580548,-0.0220063047839965,-0.00362236727218676,0.293700922163284,0.00523368610866528,0.292663030325554,0.213196386869294,0.190500128798216,-387.910260740057
0.23548696723227,-0.00765215011308334,-0.0225563931548879,0.00139610928113901,0.0184630938975755,0.00356489063584323,0.637686483963,0.17694788308138,0.153205995093343,-369.889370989856
0.24505148291471,-0.00948271926229427,-0.0287317602947552,-0.000902265416316164,0.0136189386585318,0.00382496922517136,0.82492509498561,0.265827348482214,0.244649291226894,-364.11011421849
0.223867255163074,-0.0063145307252424,-0.0138480312586008,-1.2815317739026e-05,0.0520277146989505,0.0773839382045842,0.99684313033281,0.160832151277209,0.136625386410205,-388.27376275695
0.234562522712413,-0.005134977330038,-0.0192116139869991,-0.00298687521917367,0.190635459832489,0.0295031257530769,0.43936702033217,0.209818703322892,0.187025012072591,-361.093257446777
0.237136587615229,-0.00192347279449482,-0.0211895771402172,-0.00638228522194381,0.631575821769029,0.0171428717680254,0.136870914425435,0.220782889278722,0.198305472623301,-375.88796701037
0.236470402552369,0.000611621905978697,-0.024421605773532,-0.00850395748594994,0.861469054206336,0.00245449434907288,0.0213296349900673,0.264300904602784,0.24307881531248,-377.260071242248
0.23167050852731,-0.00223890728541794,-0.0140426359267851,-0.00331365478569116,0.596684837480524,0.148630394608593,0.382074498122698,0.126699706366566,0.101508351742525,-342.812832549262
0.232817658617043,-0.00150381075519592,-0.0130250098834924,-0.00723366836692885,0.686562847842056,0.146849057982903,0.0734066366400467,0.177027062241943,0.153287458268152,-367.579564403416
0.231636300711539,-0.00442831443735319,-0.0145016504210935,-2.80741503411758e-05,0.126612808166661,0.108684004417235,0.991502477313294,0.106822174887371,0.0810574299321993,-369.079486144971
0.225871343687008,-0.00211153805099294,-0.0111028924828739,-0.00129668323121427,0.452553306062587,0.181066063156938,0.663005766960099,0.0468771367672091,0.0193832080201095,-355.284518070456
0.235681836490014,-0.00520509551366105,-0.0188444530801541,-0.00190553389626126,0.213266685144268,0.0409798331304142,0.64157672841826,0.166474764817632,0.14243076764891,-347.284083751943
0.224966207694506,-0.00308388573847357,-0.0110052443576912,-0.000993027510298538,0.396432660624153,0.210997793292331,0.773868261168744,0.0690013086718597,0.0421455771912403,-369.15392874642
0.22290383824928,-0.0011797894456946,-0.00826982443952986,-0.00688942484879996,0.743170810212557,0.312000145116577,0.0720062571217081,0.157644624456684,0.133345911700627,-369.917694064353
0.231906331511386,-0.00354208017640699,-0.0150077080996241,-0.00657665839235633,0.348818559003115,0.0818126340623239,0.134004530601965,0.182636338678845,0.159058540756119,-348.53673225355
0.223872268448644,-0.00218512809657356,-0.00809988990979957,-0.00737677782911474,0.575558743318409,0.340509941387991,0.0710591716446775,0.208486343106702,0.185654218388626,-372.578866013763
0.227016422748021,-0.00167377292210728,-0.0130676799080105,-0.00353388856976563,0.619889708209152,0.0805477276547121,0.324336569502452,0.125887281340367,0.100672491379031,-372.47663441615
0.226679488448803,-0.00355750418016211,-0.0142730255223095,-0.00609548914949635,0.258095864632086,0.122404220639772,0.0832159795346728,0.191948160113805,0.168638972424781,-360.107278481937
0.234623640150244,-0.00403691747333955,-0.0259454208980229,-0.00177245976828715,0.223736983902075,0.00373258446374458,0.600761435156514,0.217919246061249,0.195359224313015,-371.540869402592
0.2291818059704,-0.0080338809444132,-0.0153302312425815,0.00115519194417331,0.00315673598290957,0.029227018324607,0.54099858290043,0.163495272106244,0.139365328032386,-373.541027908833
0.231439467882995,0.000406839310212958,-0.0194158270099818,-0.00640986363124561,0.89942986989111,0.0167279188103602,0.0712462441181421,0.188916758046442,0.165520126067013,-379.828647505316
0.231431198856339,-0.00939298671934854,-0.0177371850605327,0.000966554467474593,0.000604175912522816,0.0163660603486707,0.694963619812698,0.256105129265358,0.234646623378782,-390.691084412716
0.240857249188837,-0.011876071425887,-0.0238640361733588,0.00389484435148684,0.00109406496375035,0.00465868148205376,0.269818964706642,0.19719818394087,0.174040439246857,-360.146578291269
0.226248079047175,-0.00385182294359251,-0.0140122350749204,-0.00590043231897058,0.248255445798513,0.106694291902175,0.111918097057067,0.176135540468782,0.152370219520766,-354.961029995268
0.234290926710899,-0.00810439244631909,-0.0148246163471187,0.000492146815243728,0.02389661228921,0.0939044128094788,0.896290724200887,0.137598739487115,0.112721780049244,-361.312573065123
0.231130269375619,-0.00944721589104529,-0.023514541269673,0.0034880064493952,0.00426426060986653,0.00289645495853174,0.296495647728412,0.18256013740929,0.15898014137302,-386.376468420505
0.244406823813343,-0.00601407765416596,-0.0292269145990983,-0.00323504075371295,0.0593701873943337,0.000435145867188374,0.333791866921185,0.25929244155531,0.237925877369406,-374.162481512251
0.226912961244567,-0.001338098533859,-0.0162251264738698,-0.00448885457153803,0.735183190063316,0.0614129517237165,0.283820109769165,0.123939121514992,0.0986681346356167,-385.488790761979
0.235164786720623,-0.00605422037414202,-0.0225294392686783,-0.000735250458268403,0.102599237526193,0.0147440646878803,0.842134749482673,0.145711026205717,0.121068075038574,-356.032957233276
0.226880714232891,-0.00502096517950215,-0.0107154769092601,-0.00239958039868405,0.145761937409878,0.201548487309899,0.50858324610696,0.152552008211989,0.128106393064258,-369.608455491219
0.235192622574943,-0.00640413286990916,-0.0174132163180542,-0.00113150875078647,0.0804955643813858,0.0516606837775508,0.769103484388453,0.193479068897624,0.170214042038901,-370.962258875964
0.223640603772536,-0.00644493501575354,-0.0173263079851419,-0.00271670807210292,0.0388141823314912,0.0347435202566107,0.4424921975134,0.22024477963013,0.197751840580999,-387.07728385975
0.229474523772226,-0.00713916736925877,-0.0129372374412333,0.000151507033991787,0.00859120507601015,0.116454956996877,0.958123147988329,0.155416306531315,0.131053315373564,-380.780361322217
0.224648080574147,-0.00119357040381769,-0.0082408091954125,-0.0074409824012755,0.771234037579416,0.30987810277256,0.0850557552236335,0.169716424527765,0.145765936773758,-370.029567067127
0.240026418523043,-0.00982769765756237,-0.0259805808793968,0.00190588071387545,0.0161208581569605,0.00523413777069294,0.650290026705328,0.194010061009556,0.170760351230985,-356.35254861496
0.21756435869858,-0.000533908793048258,-0.00386298291331036,-0.00606639685030175,0.878880625608676,0.636232880441412,0.108051357750272,0.101855235610696,0.0759472135610042,-373.47113536044
0.227773661237663,-0.0019466424186155,-0.0191786548743181,-0.00458198699282199,0.603921807502341,0.0340087015183433,0.283390242138816,0.123541637940898,0.0982591851891931,-350.101239876462
0.226203453297458,-0.00562665827995287,-0.00801853459814495,-0.00238036676907029,0.0785073680822471,0.282026349155667,0.441962628666494,0.202102712093006,0.179086444172612,-392.271959429605
0.232582807034922,-0.00670681833272563,-0.0137496227456148,-0.00274248245085513,0.110184003810538,0.163146824004696,0.535590269801195,0.140258227864892,0.115457984437918,-336.789301620661
0.227031701238505,-0.00355689932558189,-0.00881464847315085,-0.00349244446750696,0.323332054662643,0.263198473230832,0.367371163846669,0.117641725279142,0.092189082739117,-360.456968816609
0.235752488498035,-0.0058125452816211,-0.0223565763041961,-0.00315267048581457,0.0757270033140711,0.00957127137507259,0.340628051172802,0.247242520964431,0.225528362915328,-377.49205502724
0.227392593165958,-0.00231318394500848,-0.0110567600492707,-0.00563273019010245,0.538886386274753,0.200917038427065,0.114241749788818,0.21764586326491,0.195077955474475,-373.234488476906
0.232624774826588,-0.00363341684155189,-0.0197272224770072,-0.00523535497025579,0.372712250527881,0.0321063389782724,0.255745592808853,0.155511395055801,0.131151146836257,-348.83595978522
0.241311902595888,-0.0112855313669087,-0.0270692227482297,0.0029955538689013,0.00193559771230102,0.00186239335860378,0.426428488275348,0.244372754320576,0.222575814541362,-360.666116855775
0.235080609710503,-0.000392212061654628,-0.0151779491827175,-0.00732038072684766,0.918900831019726,0.086122067724302,0.0833173875264115,0.155709615301034,0.131355084973179,-357.352599920229
0.226919977857745,-0.00489306465932537,-0.0151106103643945,-0.00440827939225249,0.179437444238267,0.083182974562871,0.262076344385282,0.186817711911602,0.163360530524437,-364.387059608408
0.233941260326917,-0.00882435463056615,-0.0171457557648946,0.00121513884952629,0.0185812796303996,0.084155178004098,0.75227823904015,0.153158296432784,0.128730170368346,-354.427222027258
0.229817902378666,-0.00617303022834418,-0.0179758328816346,0.000227347128733142,0.0150240499767307,0.0518697980997503,0.928042242312763,0.132716994144513,0.10769921512945,-352.651974798154
0.234669975176291,-0.00668383030403685,-0.0215866348483684,-0.00230993752499622,0.0548596399088855,0.0282408021421266,0.530624862080826,0.17299202027447,0.149136020859311,-354.223338615697
0.225645103384581,-0.0079019819836337,-0.0110789640548357,-6.91975600702491e-05,0.0324928189363504,0.17301227799454,0.985095402060395,0.18134407314213,0.157728998328923,-383.918921746964
0.228781925099625,-0.00422741339831035,-0.0110695102654272,-0.00470610850789233,0.125339371647508,0.147046983979679,0.127463840169527,0.233356462333117,0.211241744900418,-393.827899986566
0.230985973478754,-0.00659569392692181,-0.0188941097643196,-0.00151762899131235,0.0856728526374612,0.0343365277842526,0.709713147558874,0.195295318668752,0.172082683630351,-374.620932580016
0.234110456089357,-0.00738358603843064,-0.0181530152445515,-0.000810573467500194,0.0285364794357849,0.0177449155661149,0.825226824388434,0.213071220486402,0.190371351846586,-370.788142690661
0.229285211807155,-0.00451544365768762,-0.016347913280325,-0.00454442500744011,0.202206582698139,0.0302878505318567,0.274667120578689,0.166116266337949,0.142061927866928,-357.900004812436
0.224209046462974,-0.00198958338367323,-0.00893578473945593,-0.00723416250016144,0.597796949382276,0.286528870420004,0.0590575866443587,0.183752009951599,0.160206394854049,-361.352683673904
0.230553675909602,6.56286740656409e-06,-0.0137596336946779,-0.00811669302593063,0.998684822670069,0.0904977558048952,0.0493979249358406,0.185997358888554,0.162516513471878,-373.130350566278
0.234962711186326,-0.00817975360330401,-0.0199584377670722,0.0014153937479598,0.0100695068695598,0.0083814616149953,0.597050292144094,0.160614951958146,0.13640192172617,-369.720366116247
0.235897833235295,-0.00646436189331337,-0.0213679414839101,-0.000735092688243787,0.0773015333934412,0.0163328191063034,0.849761425265399,0.169549654742683,0.145594356321799,-362.170988695079
0.229395955904843,-0.00278236331606385,-0.0120207109609247,-0.00365938815425723,0.422903792844457,0.207471271556939,0.322184946975315,0.0972383277713734,0.0711971256878554,-345.223069611632
0.23636193838082,-0.00825962436676478,-0.024582023530728,0.00287233355555819,0.0149776276796868,0.0103106443259039,0.390983461249748,0.13840354774901,0.113549803934077,-352.658363662171
0.240167786127246,-0.00610736400027521,-0.0220694903555444,-0.00178501361541034,0.0400624304004224,0.0134335726475137,0.570381105871305,0.191171128859627,0.167839526807501,-370.644985222415
0.228939192844959,-0.00487261088634129,-0.0143226871893674,-0.00200884179207461,0.192418837276615,0.0702051998411685,0.579901012783907,0.147658050158999,0.123071263144355,-372.322912843458
0.236169398829613,-0.0112692716567786,-0.0171450930951268,0.00381189121121984,0.00224418802741629,0.0418822333490742,0.277526669548606,0.168559926974384,0.144576078714029,-363.849117365718
0.225904094320572,-0.00679692190420628,-0.0160332722636754,-0.00189350788644751,0.00621622167482653,0.0266888512524229,0.487171796626258,0.232709070319945,0.210575678117635,-397.124624324601
0.221328168191317,-0.00136813776365075,-0.00813375301932211,-0.00568258040027235,0.70773029682899,0.292301980171741,0.141700101619161,0.164464153227696,0.140362157647726,-384.226176763761
0.233145960454854,-0.00552501019623233,-0.0208839171509842,-0.00330218104233098,0.194831705503115,0.0364424595657421,0.479167242267782,0.191014737369501,0.16767862402439,-348.207165320353
0.238271514340802,-0.00447833321378283,-0.0202232437059747,-0.00426259345929287,0.257812335072082,0.0564194283671246,0.317749457495425,0.190551020138118,0.16720153033441,-343.615855302289
0.231331340898857,-0.00144591548975172,-0.0129855566415689,-0.00809080959887502,0.664292037909409,0.154433655095894,0.032841982847613,0.203227748824263,0.180243933886502,-363.671624576218
0.229111109596976,-0.00717350531483799,-0.0193852762016327,0.000767266141910329,0.00555678698420303,0.0104960681370582,0.77563547606457,0.200179532819906,0.177107788574326,-395.393585813151
0.224451721142692,-0.00475817038302157,-0.0101628189208326,-0.00451192978817418,0.162000452650315,0.275021509219185,0.242819813409536,0.165553694055815,0.141483127538195,-357.300023413442
0.226971748739942,-0.00617958744967677,-0.0111889357998935,-0.000276740234151225,0.0954885775881053,0.169820571002894,0.938103113973512,0.119972966918356,0.0945875717333082,-373.961458427157
0.231530555632295,-0.00839136809917389,-0.0267032572822799,0.00095420541558265,0.0027969743464508,0.00144691856833635,0.758449880552397,0.210545722628506,0.187773003088944,-381.213346509671
0.231339838295781,-0.00727421779014899,-0.0142189105694781,0.000375330235688857,0.0142451194870607,0.124769452575576,0.900905605973674,0.147266720106508,0.122668644724965,-367.780491589073
0.228109863466312,-5.14177987106809e-05,-0.0127817393425334,-0.00542654051135303,0.990917866040257,0.1550209594496,0.233805128130371,0.122325758245857,0.097008232041411,-361.34885674251
0.225050645106816,-0.0067818415018836,-0.00959146651273093,0.000520015695979825,0.00259038434693762,0.219527613804617,0.809891403643298,0.123375166225873,0.0980879114054656,-381.656708555048
0.235287976574883,-0.00609752340532922,-0.0136047755595119,-0.000793141475448132,0.114590816473511,0.0793703126807353,0.835021246868513,0.153607005157779,0.129191822614254,-366.782421356873
0.237445169371019,-0.00383669166625525,-0.0258120324459628,-0.00404406742321533,0.318924002738665,0.00227745273140243,0.338665398403838,0.252164564780084,0.230592388764125,-380.217056617685
0.22814233448824,-0.00470892374338975,-0.0151179997560437,-0.00396456596611181,0.200401983740049,0.0983323836122308,0.273246677210731,0.256428291929093,0.234979108042432,-379.24906033337
0.230924776909817,-0.00267934448486983,-0.0129099142050756,-0.00471572724724928,0.515133620855093,0.183545566218629,0.255848351824999,0.146422069469898,0.121799629166145,-354.047417219732
0.231364823908762,-0.00936591587263573,-0.0144912303836215,-0.000869303261703496,0.0125203842789819,0.113054492949493,0.810821999960436,0.198517437928817,0.175397748638302,-350.725582311027
0.234156151123035,-0.00627960702256365,-0.0158262814781436,-0.000504682823132715,0.052177988254144,0.0544197472695465,0.8747413058876,0.158840778506933,0.134576570194633,-374.236833231589
0.236176582929879,-0.00648719504036019,-0.020707381446008,-0.00342756992377698,0.0817422828334601,0.0195748344299383,0.402122902037759,0.204984020107443,0.182050866841312,-362.675846631216
0.230028065980515,0.00706552140127833,-0.0198361513831152,-0.0126680267634279,0.0812177557021888,0.0197813872403948,0.0028566559728986,0.234950462925515,0.212881726279135,-362.590502492805
0.23152153847119,-0.00359777331223512,-0.0178906170744574,-0.0049971285194729,0.253815516059992,0.0294996631269902,0.153969211787523,0.196722143758359,0.173550667136004,-362.560270215254
0.228182311803414,0.00215904253445217,-0.00274164644808998,-0.00900418865766271,0.572634598128679,0.768619682211674,0.028187596348822,0.100408245760704,0.0744584836191858,-326.412923886272
0.226326674030583,-0.00537107745534552,-0.00683235134169492,-0.000586923608157171,0.114726866181403,0.424311170083962,0.86975258568216,0.10583550694997,0.0800423004196806,-375.319778429773
0.233039141354936,-0.00700100949505922,-0.0227208269601677,8.28294867337316e-05,0.0322880146576981,0.0102807954158442,0.98103752108059,0.159736862491928,0.135498502756118,-363.344447704592
0.221651569547763,-0.00296966662855485,-0.00980751029400431,-0.00341725199561093,0.415864084923473,0.238882633547261,0.370715950198345,0.112345907262044,0.0867405007407566,-370.252397233917
0.234656409115824,-0.00773196132336745,-0.0245646472750795,0.00422703599659346,0.0174342927864011,0.002612245739048,0.208290947416469,0.130219054501843,0.105129219535551,-381.650035519295
0.23151368364672,-0.00481275642098335,-0.0170749804128222,0.000528857499774159,0.200344155912721,0.0594918353991566,0.877465320379632,0.0915457067936992,0.0653402944896714,-363.74125145446
0.228112452569499,-0.0048966676747612,-0.0208693462618814,-0.00165308895617032,0.159359701426875,0.0136987227551668,0.656489849060733,0.155394409988642,0.131030787199853,-379.500849554788
0.229847001859846,-0.00222832886727609,-0.0185071767359331,-0.00578586529255992,0.464163493495025,0.019497760034958,0.0933822909277094,0.194505359753231,0.17126993743842,-374.892536354486
0.224581407717198,-0.00565227180235751,-0.0052218480989425,-0.000201517826889556,0.111150416784519,0.521277931548772,0.954800136082973,0.0864463776392744,0.0600938693019458,-365.06236502508
0.230139431721814,-0.00414194828998537,-0.0206583958997048,-0.00310676355370896,0.241676702959731,0.0166535121802719,0.411370350907514,0.186334507894595,0.162863387930016,-369.144310658059
0.233952312392619,-0.00895246189767633,-0.0222594040249884,0.00531610757474776,0.00762784245619952,0.0121366079448523,0.0975650112133956,0.115164071087293,0.0896399577532732,-351.562273527041
0.228752481996257,-0.0057968445222384,-0.0132841571328175,-0.00230892730706503,0.0865536724662625,0.123395769743774,0.545238640284471,0.158687404659114,0.134418772101204,-367.198177347144
0.23677852086582,-0.0096039494712307,-0.0257646023879876,0.00183379523365227,0.00210013725285434,0.00596871756181959,0.556964207732284,0.196509259444416,0.17333164192839,-360.983775447662
0.236384735709388,-0.00367349042631712,-0.0155730217423993,-0.00482775663630493,0.336757027286932,0.115092966070637,0.241979286123439,0.159212335616894,0.134958845298151,-345.845056881844
0.228186664549877,-0.00296425669858727,-0.0147446581804913,-0.00660718666588653,0.462494870674328,0.113722429674685,0.142747592773921,0.198395902251955,0.175272707124607,-366.065634115504
0.229203549736711,0.00647849836520241,-0.0137229331059122,-0.0141232268407992,0.0882504585779538,0.099774223885749,0.000544052492494481,0.235473468845711,0.213419818908568,-375.208636807543
0.230432167808385,-0.00168842352659323,-0.0122803771135697,-0.0037409495639093,0.673844618703485,0.188529454104274,0.379392704929561,0.0779588294717105,0.0513614880141638,-344.393538129093
0.223048767687825,-0.000127101098345992,-0.00394382736224748,-0.00655352432642452,0.973502736197647,0.666286920942059,0.0950142357100176,0.143184598008266,0.118468769104659,-373.531497305956
0.230288877479941,-0.00448312744487849,-0.0222953128985809,0.000955565117338026,0.232959611453512,0.0106826354252373,0.795361126619398,0.116073797171737,0.0905759259363061,-356.8883347454
0.232875889483953,-0.00491752082234896,-0.0201301539634844,-0.00336880173632567,0.186737625600238,0.0323751117972741,0.432359412528544,0.165233531147228,0.141153729161091,-351.574763344531
0.232163910802832,-0.0103905227850358,-0.0139525711798258,0.00156419773998987,0.00177478215009456,0.107865616491148,0.664750062938851,0.183392142386701,0.15983614649401,-366.644085983282
0.217304817763901,1.1340887246334e-05,0.000214002977359516,-0.008006592416984,0.997486397001821,0.982828739642889,0.0534278207246659,0.101324683357652,0.0754013569160455,-339.816399822984
0.23114896828814,-0.0100089314537974,-0.0166941090889049,0.00263006356494918,0.000904305359365922,0.0377672905531186,0.377380564121812,0.179369990340553,0.155697970831146,-371.552736915655
0.228702685185642,-0.00561858637857285,-0.00847198567991191,-0.00207788747437024,0.14570232737997,0.28715019347725,0.546899281728802,0.175403855807961,0.151617428571653,-372.271113953144
0.227070999746827,-0.0038820946829761,-0.0160712914911565,-0.00143236841951524,0.238306127217796,0.0505258998208834,0.648624024502044,0.123627228472571,0.0983472446785105,-374.090425448312
0.231285116589774,-0.010283953773499,-0.0150554862298508,0.00428529645348318,0.00730821822711648,0.0682815058441653,0.221047114154817,0.125541632709456,0.100316872114537,-362.076239459141
0.226822527095005,-0.00519954637411354,-0.0103394375150989,-0.00228848468197676,0.144666346485749,0.211392450802025,0.53991651535934,0.160162530030546,0.135936449166042,-374.090945298814
0.228272884255793,-0.00842692887460013,-0.0131068094529659,0.000636372474353465,0.00947886677992477,0.161107653819667,0.852363177700702,0.164704193059614,0.140609121705565,-350.058475778178
0.220523588447586,-0.00457335268378621,0.0034671347108879,-0.00504727334729211,0.193899974886041,0.630953863737728,0.158418839532615,0.184684180866749,0.161165455314829,-373.548342636793
0.228940949908349,-0.00282251028011493,-0.0187212652694337,-0.00459815251283855,0.46196332419091,0.0234028456203398,0.241045514225551,0.180109445433015,0.156458756358968,-369.044252408414
0.22590724912406,0.00350700228852517,-0.00932529572360599,-0.0111471688161356,0.396865710867301,0.240801036704486,0.00834816641821508,0.205547967397258,0.18263108184141,-372.872767337216
0.231901984202244,-0.00814412617249879,-0.0167874088649023,-0.00307271798062495,0.0179269884728662,0.018768172075789,0.305158012021527,0.203642789232851,0.180670946614568,-372.311175814359
0.22411235645899,-0.00552934170837064,-0.00312503314308144,-0.00415265087096292,0.060306007426823,0.672595299039249,0.185164396814604,0.251463486906497,0.229871087490338,-403.349651982387
0.233629250978914,-0.00762984401629978,-0.0181250131148908,-0.00259736045579158,0.0593107814847385,0.0327403117708987,0.555957744678296,0.2207733949911,0.198295704461998,-367.166938925894
0.237552753178352,-0.00994835346590417,-0.0224605979769088,0.0014706102336635,0.00275942486272481,0.00516170646975623,0.672073565488979,0.193093425720742,0.16981727453961,-371.102004442658
0.219618005559233,-0.00356533151358537,-0.00535068299279424,-0.0041136690723709,0.272367965663639,0.534703316255561,0.225069051532213,0.140573411247926,0.115782259649309,-375.940835918321
0.22941567182937,-0.0068045780644916,-0.0158323310334141,0.00184450168595191,0.0785286993649437,0.0325172998621325,0.655833218140688,0.102811361985049,0.0769309205038486,-377.74726364157
0.221900244192156,0.00792563511586417,-0.00743359761133723,-0.0137220862061671,0.0409598065974692,0.404503842585575,0.00119598843640388,0.147863047581713,0.123282173954262,-348.359885436524
0.227035688813931,-0.0059164993985954,-0.0121769735467024,-0.00339865190691135,0.118338215536207,0.159041734930523,0.389924632935913,0.1999548640808,0.176876639006208,-369.333973892306
0.229516055117757,-0.00634791044170697,-0.00797343694353256,-0.00482674969977665,0.0549358693490766,0.383437700983527,0.186554282718689,0.24276336558681,0.220920001132584,-359.711997769338
0.232172983435988,-0.00542598845811239,-0.0156377331002618,-0.000953071361531381,0.100371582830483,0.0469849075977886,0.764057438438319,0.136923091612601,0.112026642332196,-364.01823486339
0.225298750029532,-0.00418724158508721,-0.0128660558189381,-0.00368569815191131,0.203600873255932,0.108272211952486,0.297164518699177,0.162465767022565,0.138306125686678,-378.389274255856
0.227267034771282,-0.00573518522473461,-0.0121637163012775,-0.00228479964697467,0.139697229715802,0.163564861320996,0.567049730158608,0.137918135550381,0.113050389460488,-353.277755203521
0.232076423337074,0.00183381457695706,-0.0151394577549447,-0.00626057828504169,0.60685755807781,0.0840803846974536,0.12549110403531,0.109938044731494,0.0842631806372102,-370.267718666013
0.241559175389089,-0.00393129704834046,-0.0282253008831531,-0.00264590577037983,0.26684545085855,0.000343234243372565,0.465738224305443,0.223145072362136,0.200735795603352,-374.383661391662
0.226963876664153,3.03833821057404e-05,-0.0164892098355062,-0.00851013104842858,0.992581021092439,0.054388616855028,0.0186877326219468,0.206707573909927,0.183824138541944,-366.776341820185
0.228247976975693,-0.00284210744744325,-0.0147134140771321,-0.00333695557198861,0.318852621562627,0.0839650398817669,0.239235109449115,0.157305430840335,0.132996933653037,-381.593379432
0.230243097704991,-0.00693528175774467,-0.0129425213234581,-0.00256102978394563,0.0137696475345214,0.0572854715262446,0.375979316007436,0.25206833887893,0.230493387115822,-393.917241546375
0.23177721066938,-0.0119954492838018,-0.0222365892296493,0.00606176389083013,0.000271574809711946,0.00349233626705449,0.0446363482997296,0.175786443133624,0.152011052070171,-400.014743807117
0.228709560361429,0.00434298520740515,-0.0122399589067268,-0.0100884054610239,0.302563266355239,0.138266396554468,0.0150322271091182,0.18572518277928,0.162236486128683,-375.395919213593
0.230480544785858,-0.00521365909156922,-0.0169359381078082,-0.0041211422094387,0.143699463677507,0.0573167684606142,0.314075302600811,0.184263718585245,0.160732864313666,-365.111527185781
0.22733484007584,-0.00652064828525881,-0.0108100885773268,-0.00243621859947776,0.00658413557629607,0.221861866159396,0.297603812498854,0.182003647837371,0.158407599217295,-367.258322784592
0.233615839867887,-0.0110502653815302,-0.0204189190419651,0.00290594079152281,0.00104974914989788,0.012674320972165,0.403709361987301,0.229663391068284,0.207442142733716,-385.138859056434
0.234256134795572,0.000376860037121835,-0.0174692747152282,-0.00691980990884985,0.919293448873543,0.0243408639215004,0.0725478935923579,0.174118948199095,0.150295456320223,-367.65893621162
0.231184900873368,-0.00236814315116696,-0.0223165435403752,-0.00441598795169209,0.596364071567223,0.0183962489353648,0.340555176581741,0.17129260622442,0.147387585250125,-357.755712390248
0.237461508724994,-0.00370018967494364,-0.0123474577976086,-0.00701846255963958,0.351736238088972,0.179030250810165,0.0879832507939863,0.227776848249315,0.205501180410353,-343.812016797785
0.225673491260871,-0.00830358509075785,-0.0102792431854526,-0.00237319973403149,0.00592730750982054,0.247722880671421,0.444453783198844,0.221640365309204,0.199187683539277,-359.911479330053
0.232501816967078,0.000694165296237422,-0.0195714711190398,-0.00656926260057114,0.845792412270067,0.0100626292130849,0.0533173967040963,0.2026019665677,0.179600100218692,-373.086806953644
0.23715158956473,-0.00181487692951895,-0.0214695564728796,-0.00612647494930332,0.612916284422752,0.011900942074669,0.106706642155055,0.205588965858465,0.182673262950537,-363.344103536701
0.227441113859666,-0.00350069501841679,-0.00772096932210586,-0.00659204394686644,0.295497118232411,0.355596517343517,0.0695127004285552,0.20832623416004,0.185489490914657,-367.065160831053
0.235981197949067,-0.0048413926327855,-0.0189613315918351,-0.00318375725844949,0.174943133963045,0.0282796353750567,0.429000246982762,0.182116269617463,0.158523469702583,-375.366228230296
0.227660167812804,-0.00166139652473698,-0.0163507611346643,-0.00416717378037034,0.675741526025352,0.0547928691000808,0.357463917322083,0.106477175024398,0.0807024781501015,-375.5860790939
0.229612424864287,-0.00474151844068573,-0.0212275166507659,-0.000537441184308916,0.159903783846533,0.0127685605487151,0.867840513902912,0.142034808775358,0.117285812874648,-368.843942130806
0.222066867822605,-0.00169277294460956,-0.00810273271458091,-0.0047545366346024,0.590477731472069,0.327776170793812,0.167542494412365,0.125575024919881,0.100351227561801,-364.212616751956
0.225719901057492,-4.90623041496264e-05,-0.0114809673108505,-0.00869788495997579,0.985899748468294,0.136378304988999,0.00507696270584943,0.261914650060966,0.240623726505032,-389.06075366392
0.23287051594513,-0.000359535819658238,-0.0161551241203032,-0.00586274262888407,0.928475444965072,0.0782170765275313,0.147291278695406,0.171248217855962,0.147341916447961,-355.335583128668
0.235334223370368,-0.00713401456291455,-0.0180121871977274,-0.000275750608253357,0.0892544073541308,0.0492364123813471,0.950577577418798,0.14055202449411,0.115760255969902,-355.652292209562
0.236525190838598,-0.00533705680912547,-0.0203679322293135,-0.00264048586787304,0.151273449827119,0.0280055166365823,0.534213720793626,0.153138264625775,0.128709560720749,-355.22280748464
0.221897642338362,0.00330179751796701,-0.000589687180378692,-0.0119622965521705,0.483844612748397,0.94834648493619,0.022153604158143,0.135826633998443,0.110898556133013,-351.760464110006
0.222152710170042,-0.00273478077220834,-0.00754607213873989,-0.0028548144898253,0.401646241956967,0.347625975019933,0.354503654595533,0.111058300961603,0.0854157519508796,-369.773305996549
0.228876572148826,0.002416742882637,-0.0104311404258329,-0.0114016035716895,0.552404506801251,0.255377871964694,0.00495978726952299,0.219861458197058,0.197357461798896,-351.920549954475
0.231278528462734,-0.00454596917538436,-0.0143891966445017,-0.00197482946519531,0.270481953647053,0.121167877863772,0.678163137844021,0.0921473071711426,0.0659592487241564,-351.384541093715
0.227763721259681,0.000546996814313979,-0.0181904989374947,-0.00557948882767341,0.881022655317422,0.0371756025962158,0.156692254194776,0.122720859716435,0.0974147306697937,-351.77273801886
0.231981179283704,-0.0116032502931225,-0.0134723179041015,-0.000179512991065048,0.00315327501616537,0.14504335424909,0.964003602608204,0.213193501124624,0.190497159810911,-373.031154204572
0.219513772314549,-0.00609933695205205,-0.00405537006009421,-0.00291865552356289,0.0451198905265578,0.65340638023915,0.35351975510177,0.163179274672597,0.139040215288153,-354.8231417028
0.225067136618222,-0.00664175150008928,-0.010773959138298,-0.0037811701305102,0.0507025049250215,0.149249142013303,0.267760114868455,0.237822999297673,0.215837124277414,-377.23915994732
0.232649036559669,-0.00458494060653574,-0.0216925209643711,-0.000607268312785914,0.175002760779452,0.00493813182232362,0.85962636490521,0.169356346373513,0.145395471749672,-398.770701465681
0.231678810549818,-0.00487286979588331,-0.0136550295201131,-0.0013843432499421,0.20021380259034,0.156417990723889,0.712313371230394,0.124321119351547,0.0990611516405343,-356.598329942169
0.232639339713333,-0.00328171236048343,-0.0177269750413198,-0.00426506690930417,0.319434119967274,0.0247202130147902,0.239640403068862,0.201732693721529,0.178705752194265,-381.84823665408
0.226795756351171,-0.0014037647933865,-0.0100967331396287,-0.00711250486095731,0.674865354512098,0.198953314555582,0.057906718372075,0.179600666927733,0.155935301550648,-373.040121038023
0.229421868712957,-0.00137697031231809,-0.0138912238877595,-0.00500731089648914,0.68317314508724,0.0860693702115375,0.159704296975652,0.145613944896591,0.120968193307069,-384.365256728045
0.232943928699864,-0.00123487647285049,-0.0154028716578282,-0.00714140349508746,0.700984662266522,0.0318005838889497,0.0318822489612341,0.237345908845854,0.215346271601023,-386.369601744888
0.231955624735713,-0.0113487788102797,-0.0197656642649631,0.00359358128090184,0.000758100247643308,0.0128881136946235,0.301875208217281,0.222791498957399,0.200372022965785,-386.260267257885
0.222219391679206,0.0023771497409773,-0.00396152808919045,-0.0130101359016059,0.527624855111414,0.600453180720585,0.00164909236715413,0.22666805161178,0.204360399254428,-382.935043889109
0.230662931248339,-0.00484145688857105,-0.0106289891543736,-0.00531843556094382,0.143567809267034,0.164341474830833,0.125459256269818,0.2547177369091,0.233219210089171,-393.364115148437
0.230083638476381,-0.000414378221837118,-0.0152706414724238,-0.00809255556654969,0.905358739905867,0.0699209812118834,0.02252979399843,0.227524651600067,0.205241708857761,-373.6701000381
0.228163079483693,0.000634452094208509,-0.0149771348383839,-0.00492553221540165,0.837628813097632,0.069190106004344,0.117628055985505,0.121842023673465,0.096510543587123,-366.789482097851
0.228419767773999,-0.0045699913860344,-0.0142244965414019,-0.00064924886028313,0.2162885358504,0.0731237077763183,0.851488838047201,0.114604650131514,0.0890643996545382,-367.716614116186
0.230626012274599,-0.00637011625202286,-0.0156750196029415,-0.00105588923403085,0.110993795731277,0.0883574449692889,0.798543586233314,0.127669768804929,0.102506396751225,-352.366371591692
0.227318886355483,-0.00420830701235116,-0.0157997922920323,-0.00299508933486224,0.180834564914616,0.0638667384472736,0.430448214569674,0.139005398715671,0.114169015986315,-378.103639536225
0.233090508757727,-0.0096675515084826,-0.0179512544524764,0.00206129583547526,0.0117620111860692,0.0430304492819248,0.584814367273084,0.170999223662562,0.147085739729751,-363.646594296514
0.231729044191192,-0.00662341802768069,-0.0173000688140766,0.00031594428290977,0.0488578478203891,0.0430478965417107,0.925780800123715,0.136857575351291,0.111959236178732,-373.43299750639
0.222965142104937,-0.00338636257893675,-0.00686607134271064,-0.00250991508294939,0.255960933344084,0.41710458020139,0.434714836931555,0.0976791786524155,0.0716506934212353,-383.005923849559
0.232260304954688,-0.00442272460408155,-0.0166519051974356,-0.00415331749160259,0.155252176685468,0.0635413431883821,0.25244980571622,0.174233644466525,0.150413461133829,-366.43000669737
0.224213706442083,-0.00411265260751836,-0.0124469621933371,-0.00222871746221077,0.237088407451744,0.0930877205451183,0.521290085932744,0.103287213480513,0.0774204984847583,-347.502676078152
0.227849887946138,-0.0034084766436089,-0.00878228842208255,-0.00565750348776805,0.30482286398654,0.314711044801234,0.103171243110286,0.17864598057144,0.154953076164847,-355.655738185828
0.224665670911663,-0.00231864161634722,-0.0107653149428701,-0.00348287734110656,0.454072838165456,0.196556371649267,0.306743419651095,0.0960747583700974,0.0699999917846195,-373.657492705823
0.233275279480791,-0.0104428108598629,-0.0241144863622462,0.00472620640213585,0.000937778888301314,0.00766664619177992,0.0824627275358025,0.158303847766167,0.134024151067114,-368.86193777682
0.233101495857169,-0.00295135714289924,-0.0177702442178043,-0.00374536675318805,0.394146785682972,0.0281682424655636,0.306380714830738,0.162363538325083,0.13820094808446,-373.0391570086
0.228204994701357,-0.00454115779015883,-0.0117609638922027,-0.000798659935285678,0.202433886159166,0.210374451480036,0.81608969910114,0.0927239829660924,0.0665525593978067,-359.710833102009
0.228404145687356,-0.00509568835257136,-0.00717186613646723,-0.00354622713562291,0.176309097750703,0.377141485032302,0.366486624447498,0.181732637041089,0.15812877080189,-373.672028770909
0.230541851643436,-0.00449938060458736,-0.0194470149522462,-0.00287880870332018,0.170636261435523,0.0207268590013787,0.416033952999277,0.179555426232011,0.155888755834858,-374.519768012224
0.230994087826169,-0.00460579148834609,-0.0171388735282046,-0.00346215360586543,0.121418850268189,0.0300422267056185,0.24171572878088,0.243305576406023,0.221477852648504,-397.847263902449
0.226291715674099,-0.00391082331974251,-0.0136689915241554,-0.00243779544011643,0.225347305588046,0.0645934342107278,0.420656306998195,0.133593392878917,0.108600894596578,-367.697733447891
0.232205853891343,-0.00536355528536995,-0.0153721742120803,-0.000526451997863117,0.0766180411954962,0.0622499337576093,0.853527846352122,0.109193621779222,0.0834972839459307,-359.359670270089
0.23046686228274,-0.00370050433310182,-0.0105965790209137,-0.00166948445156236,0.400350215739124,0.243800277364882,0.68553777537383,0.0848711096695762,0.0584731609100448,-352.927022004554
0.229131339335119,-0.000725032432073617,-0.0127885004424206,-0.00739333002675368,0.782151328426493,0.109974561918819,0.0235354717165401,0.17619415440511,0.15243052424372,-366.636896691433
0.228992891867554,-0.00227343554731008,-0.0108045353905552,-0.00528207346845366,0.558987788792475,0.198036142483535,0.210404405272535,0.113529946102463,0.0879586945477268,-366.505933429252
0.23484417687097,-0.00790966764617987,-0.0205716028426319,0.00155254856674746,0.0222217480807858,0.00737250909292596,0.677082144410412,0.174930273810332,0.151130185554861,-391.342017529
0.229131365474863,-0.00256712676925296,-0.016630244553535,-0.00181201634589228,0.406298035819926,0.0330111581674847,0.56176578063167,0.0998594170501535,0.0738938233112157,-372.074112695443
0.229690255027136,-0.00503101101416129,-0.0122447949708243,-0.00444203608020761,0.171495916564413,0.124331579875349,0.2221447413466,0.176068017729341,0.152300749009995,-357.554379833309
0.227681429402298,-0.00154110930112474,-0.0112075954114904,-0.0053164623317115,0.644190853491629,0.202322877928011,0.140316385858031,0.153193166415221,0.12876604621566,-362.279389500243
0.226451755570259,-0.00391050573308516,-0.0161487450120206,-0.003314714780304,0.234895410312341,0.0711627161628078,0.352542467566828,0.15845567777998,0.134180360792864,-361.966340516139
0.228912996667038,-0.00672614831393934,-0.0106575005090771,-0.00203125437147345,0.0730692282696376,0.222954607838983,0.611439496199591,0.137904814701729,0.113036684356587,-353.725183725691
0.226672637849982,-7.22293277055193e-05,-0.00512967691404316,-0.0077405204579662,0.984844176696278,0.580369869012116,0.070075170247585,0.110174105208834,0.0845060505513968,-340.195481966155
0.229823456353006,-0.00571103756940626,-0.00822475976724586,-0.000660187903362385,0.108309691712768,0.40540766420735,0.841903333343447,0.0981401242425626,0.0721249355187904,-343.122034820144
0.227257663344345,-0.00586305773304904,-0.0106999671260982,-0.00246868675113423,0.0691259106725307,0.280746623556054,0.508074365240302,0.124175142946381,0.0989109643775271,-342.324439717494
0.238549477507662,-0.00842441112952983,-0.0239421695049788,0.00121199737661329,0.0147598161308079,0.00648494112332301,0.758224999314468,0.187973198388131,0.164549348341635,-365.031618174748
0.231554592389803,-0.00302919789078199,-0.0134178937262657,-0.00206105160498955,0.41836224879734,0.150508179939287,0.612754179139746,0.0736307451024703,0.0469085550573493,-346.431165913455
0.235745536234115,-0.00632573848443235,-0.0187873077461919,-0.000339716146799037,0.0822162519038843,0.0323174131074321,0.92600508639307,0.166481077316185,0.142437262238768,-372.844723318004
0.236349032547355,-0.0055288804058166,-0.0181624130442797,-0.00339853448781501,0.128709146404927,0.056322300843705,0.393176148367411,0.190519376715004,0.167168974120245,-360.821767006842
0.222629466860327,-0.00313000374461862,-0.00840399489229557,-0.0101750754160291,0.355088943583409,0.290660624215594,0.0109091474950907,0.258605857414521,0.237219487916863,-372.842308881215
0.234227795430163,-0.00701364018741338,-0.0183072194051976,0.00181980715637747,0.0371732803070225,0.018457621310021,0.579146665148002,0.142649926554885,0.117918674436276,-385.904310199246
0.235980972646089,-0.00392683198110862,-0.0261573431091265,-0.00437551397713288,0.288269906913758,0.00567771038981682,0.276052224051216,0.212652477708287,0.189940529949872,-361.64767126196
0.227570548922536,-0.00231506148233893,-0.0140194675151843,-0.00329049435079265,0.449058358366018,0.0998094707165026,0.325522824600383,0.11345195929897,0.0878784581249017,-367.543282748373
0.241788804273874,-0.0147830587567177,-0.0318820677591495,0.00578785122931831,0.000111744135948458,0.000887873157428034,0.14345376746667,0.252296802489357,0.230728441022704,-376.841808978897
0.22739559257314,-0.00243863117130863,-0.00959777949267038,-0.00549345128361354,0.424548252312736,0.224326334652647,0.0965018700319788,0.186941573684735,0.163487965233334,-387.14038603104
0.235966493075863,-0.0019017699767716,-0.0139497485276635,-0.00515032939401735,0.617550250502742,0.108554058680094,0.180431874658257,0.139220231268394,0.114390045631905,-341.500380520856
0.228487357490372,-0.00479863212973821,-0.00899859500651335,-0.00385986317161898,0.167280092945706,0.293066880913315,0.313670736072531,0.137055907933447,0.112163289893066,-356.365245316369
0.234426344632706,-0.00106526466241144,-0.017862300707068,-0.00683161165257303,0.786865272682771,0.0221229174814556,0.124949413132742,0.205474552984693,0.182555549705406,-380.540606479708
0.227788152890672,-0.00343010017474267,-0.0114157733119883,-0.00356522282782959,0.285263572828192,0.15548341308042,0.28398386919895,0.167682001595827,0.143672828564938,-377.853092406795
0.226351186348514,-0.00696659521944046,-0.0153557618201964,-0.000355796402168777,0.00817818897718313,0.0475783563961757,0.899275657069502,0.171986133999352,0.148101118633949,-380.234502372687
0.231264900883882,-0.00527486744556097,-0.0119895650889504,-0.00234152254262681,0.189698318546207,0.17988812750843,0.576538668443825,0.131564889601495,0.106513876801539,-356.846623468093
0.226535005953567,0.00372642875028208,-0.0121580713640348,-0.00876820112585789,0.269192796194459,0.16624086169029,0.0214204498801929,0.124631190783669,0.0993801674408898,-359.617351840639
0.230770275398788,-0.00674834837469968,-0.0148856457159582,-0.000686525024076508,0.0428442553067252,0.102210399017915,0.838013123849518,0.167211857049906,0.143189122157115,-367.076903958419
0.233025294481499,-0.00542845526801939,-0.0176193725899419,-0.00237908849055228,0.0333684506151066,0.0064101716970748,0.305810849752643,0.213178820072124,0.190482055266513,-388.43422009272
0.227675402514932,-0.00522953104548916,-0.0107193811700255,-0.00468101508347574,0.213022837189412,0.224039573995578,0.317925913539795,0.147690618318152,0.123104770769637,-362.35204200348
0.23081350415613,-0.00439050924532591,-0.0220813238960904,-0.000969983624818356,0.117465320580223,0.00947012488774042,0.748583388904046,0.126916089501283,0.101730976698436,-370.030213840317
0.229065433978102,0.00269650088752209,-0.0114619953724181,-0.00905737081098788,0.435727683523257,0.176550597356754,0.0141304806890011,0.185489579497036,0.161994086597912,-382.984994424159
0.243261364982458,-0.00227684874112981,-0.024492223518247,-0.00538620981254314,0.626594883925544,0.0196223746856607,0.26369605416842,0.161336764490556,0.137144555773938,-333.919754859235
0.232773151796306,-0.00278785169161379,-0.0207911109032555,-0.00345036895939787,0.447863668365627,0.0184369340695059,0.369644965025194,0.161203821847875,0.137007778247333,-370.819849015179
0.233420083605776,-0.0103718589134132,-0.0237327981084852,0.00233201281353403,0.00276520473185278,0.00522302023006225,0.541577926575125,0.209499287143186,0.186696381964624,-390.190815330045
0.229167123344549,-0.0032764566495026,-0.0151150990548047,-0.00349475476269225,0.352091716687826,0.10646166841416,0.355897928675567,0.138976647481597,0.11413943538972,-356.487990802784
0.224753403215592,0.00153625234341121,-0.0117649710540736,-0.00779330103075212,0.721540140001561,0.20766290674194,0.0905377645923961,0.121190724921937,0.0958404573716081,-362.389006847
0.231763410264495,-0.00185369443432482,-0.0193141206852876,-0.00587981004030618,0.622346529752199,0.0180674163781322,0.147336140998288,0.188930584726987,0.165534351594112,-371.814750234801
0.226634069617496,0.000116216106865501,-0.0106519902136503,-0.0037838479658844,0.976172882178044,0.228289639764173,0.355430690012932,0.0731922736903905,0.0464574354314595,-353.642610669702
0.233220896743701,-0.00739072127850669,-0.0185768976399959,0.00289205395351604,0.0091167732441277,0.032057151506415,0.297363218828667,0.103510060951207,0.0776497742478762,-356.503121574184
0.224765840036002,-0.00272204261495214,-0.00364530362932102,-0.00526291031357118,0.315817795900683,0.692779729504281,0.0842308126324263,0.105501262660309,0.0796984144678181,-355.04625972792
0.237605605638989,-0.00639408003931957,-0.02467215928344,0.000183912046479817,0.079394015259084,0.00463887424032543,0.964112905501826,0.161854997059563,0.137677737359358,-377.511887277175
0.23506279545614,-0.00624280456674136,-0.02408841631387,-0.000411642013689401,0.0244049424970198,0.00854722073332635,0.888137461140078,0.201372390724869,0.178335055841932,-372.075495184168
0.224651456333426,-0.00378725341809838,-0.0147384089810239,-0.00463346385629964,0.235766784206055,0.0540865976283972,0.189289220904993,0.20112921761124,0.178084868119257,-378.356324969097
0.225648856956685,-0.00526265481839691,-0.00931666879507999,-0.00377077976613041,0.145844904995887,0.317470061316756,0.267525049104079,0.200032799142289,0.17695682219447,-352.728773144461
0.233190430678861,-0.00773012277725777,-0.0171794009091398,0.000396664617921531,0.0524077185271096,0.0801633725281042,0.927030701950531,0.143790585355226,0.119092236855858,-353.552830945888
0.239695595500831,-0.00987437001104774,-0.0249804545411656,0.0028457276092013,0.00974424517752468,0.00301382989877801,0.476899569852599,0.17716371470631,0.15342805263053,-362.725951033374
0.242621889004917,-0.0102397219032023,-0.0291001228855479,0.00243555040360491,0.00251675058933117,0.000264909267228743,0.463690776520953,0.290609223052955,0.270146027564098,-389.164281855514
0.232367554413414,-0.00363509020459635,-0.0255260298612956,-0.00191223324251586,0.227334878725096,0.000607452620229617,0.563248138419159,0.199504472242364,0.176413255095509,-396.668279561726
0.242347306802052,-0.00670323219263524,-0.0237826949512518,-0.00105222052635936,0.099173511039921,0.0121203497492522,0.793498672352198,0.191239776468037,0.167910154635384,-357.447492459021
0.241012350018884,-0.00825444474962149,-0.027732584580346,0.00145466206085793,0.0115766705504686,0.00124932255470292,0.668523871928709,0.183808853651375,0.160264878275934,-370.895201966003
0.233727464398485,-0.00632253853362499,-0.0185866382976896,-0.000967682733716215,0.0650074230644674,0.0492620605882592,0.791513738475721,0.151515625932192,0.127040115141775,-350.673403256564
0.236677692867731,-0.00609392820435994,-0.0207349725708115,-0.00106474176195497,0.0859388678325249,0.00701499223895415,0.773378734455161,0.206173055669891,0.183274201506523,-379.202929141332
0.229547865768751,-0.00662911991320881,-0.0118647592448705,-0.00166828578497748,0.0703687740526513,0.0907878637868323,0.64188788786596,0.187757350616763,0.164327274192247,-383.17217573899
0.227574481479905,0.00143078184670626,-0.0088177191247385,-0.00964082124952294,0.694637938374123,0.308258613437113,0.0236748871927188,0.134727132946006,0.109767338704064,-356.249510377585
0.226286721005353,-0.00358944905409739,-0.0104220073518971,-0.00503934758212387,0.197129186228177,0.170646606858974,0.0859367548369164,0.172755208968093,0.148892378457558,-353.455607251457
0.239974114955935,-0.00699924206242322,-0.0226040586609905,-0.00122081091246073,0.0612375370142764,0.0101606930483414,0.740796029828113,0.207949046316786,0.185101422652847,-375.143695155764
0.230421532498776,-0.0104970996074273,-0.0216805473491665,0.00440615725552248,0.000757603606176538,0.00841335216601676,0.10990910893875,0.169222165177104,0.145257419941828,-378.08011658867
0.226644116299243,0.00183200891620884,-0.00990793002816861,-0.00835281525345045,0.605511150564719,0.217296712477446,0.0285758393747472,0.129836225673671,0.104735347568104,-365.472422140701
0.222794904898894,0.00268773922343185,-0.00430983106553139,-0.0102715058120157,0.457409651514364,0.631568980425691,0.00985030277158232,0.150479447139423,0.125974046576137,-358.342526611634
0.232038897656287,-0.00578876048970347,-0.0193137664520276,-0.00279767593412319,0.130689751867021,0.0189450558511323,0.494235283633305,0.204771924940656,0.181832653544713,-364.930371606783
0.231907841150913,-0.00752531810716745,-0.0154914461552931,-0.00245438243932498,0.0362165288793226,0.0717135666960181,0.535542910520886,0.239978667990028,0.21805497572051,-369.382006009929
0.228316667714862,-0.00388137637487926,-0.0145948567180364,-0.00330049243606808,0.270898148736337,0.0962716546023846,0.377515612805255,0.172387399192862,0.148513958784964,-379.708001925695
0.233471142839776,-0.00571914436962011,-0.0200109391468943,-0.00194285675067017,0.0811447126539918,0.0207547352316763,0.557169694844042,0.20379958463698,0.180832264963047,-371.423117043299
0.234330693945539,-0.0124064203000005,-0.0163029672011952,0.00250636679495731,0.00170315828511315,0.0939905523430902,0.503824115672675,0.233430331854384,0.211317745273261,-358.007250672414
0.228001226188785,-0.00588384588117625,-0.0209401466937574,-0.0019279187993148,0.127312506787227,0.00961416616903897,0.624872833221468,0.203270963088711,0.18028839471627,-385.789324288333
0.22591156200472,-0.00400055986285771,-0.0118714955137176,-0.00224813131940518,0.137563951548276,0.138557391196716,0.368731360703901,0.164767093986847,0.140673837082621,-383.306506689512
0.229514930820282,-0.000678913319223109,-0.00720046815015303,-0.00841045694991079,0.832714593896759,0.38761503281657,0.0208549782020438,0.201314594250158,0.17827559216122,-384.269537449953
0.219886001967926,-0.00312943522621334,-0.00894525115233829,-0.00563303392706264,0.318779606813716,0.298080058122227,0.111070935014966,0.171162306030368,0.147253526396629,-364.43571763453
0.23285010380719,-0.0091395952016394,-0.0146043816444778,-0.00101841065258681,0.00929008401714855,0.0827249118820068,0.774934990898828,0.281230391755872,0.260496653056522,-395.129267489147
0.233194943646565,-0.0077716930186189,-0.0168891506851864,-0.00119002764850664,0.00832881585085142,0.0563121554023965,0.714508462487919,0.196277857025273,0.173093564439464,-362.679152322693
0.226553507144106,-0.00567765060556014,-0.0076573440132174,-0.00392379660820773,0.0427191815868634,0.326936476155282,0.158907628628027,0.185507736970968,0.162012767845131,-367.202646113425
0.240969939501906,-0.010383075843734,-0.0239125074404569,0.00420058943124393,0.00482019913328934,0.0150219189436626,0.225229961845694,0.117851884115165,0.0924053038492562,-327.079617365488
0.229264036520496,-0.00111115538806452,-0.0173703620007364,-0.0071015781637743,0.791889681695485,0.0833835841095073,0.126626575359831,0.187074951560292,0.163625190547608,-353.625362912621
0.233818247213227,-0.00658627679694457,-0.0205188340391596,0.00116643876926618,0.028955854388019,0.0197979819301159,0.707171725996795,0.157363047580357,0.133056212414406,-367.151729104305
0.230520034756789,0.00095777081140793,-0.0168666349302266,-0.00528373453026189,0.784192852129896,0.0570503523640641,0.173973885013961,0.10512152240031,0.0793077201618569,-367.873068881415
0.232841670071137,-0.00395980355668019,-0.0136814855538578,-0.00354327866835914,0.175525288371067,0.0986763580676859,0.293133536797196,0.178306227629377,0.154603522657147,-365.550914507581
0.240157339879823,-0.000922934223015873,-0.0229993177371157,-0.00825812020454754,0.783682517045919,0.00801930358557613,0.0328363403959213,0.242228339739159,0.22036954184702,-381.404674405729
0.232734851231197,-0.00893679979271869,-0.0183981559736978,0.00301396453508874,0.00538390674442685,0.0221446681520087,0.295530008704493,0.130221757355845,0.105132000356494,-360.925109064179
0.234243200149143,-0.0122880495460174,-0.0169340294272113,0.00368050973463595,2.91144746588001e-06,0.0345969676432252,0.163257683982567,0.270774702307029,0.24973935718127,-386.787929484396
0.232416520725311,-0.00534100626537059,-0.0165010379903988,-0.00286620900289844,0.125583301746261,0.0508328825838691,0.456432478877181,0.191545857374803,0.168225064799077,-383.968576419204
0.232023138039713,-0.00468985779764597,-0.0200896087252726,0.00031678669427799,0.186636978437769,0.0509510257137303,0.935056318329608,0.0883367289083989,0.0620387499346028,-337.189791269808
0.238277506540324,-0.00364576485795264,-0.0263438490481832,-0.00395144251188339,0.330456173882498,0.00715039934041352,0.337543710130348,0.207931300745984,0.185083165190579,-353.799193530566
0.237748200593493,-0.00989890637636194,-0.0203801884010116,0.00367107862573004,0.0109222500080127,0.0322905032604303,0.379618478806991,0.130567090109493,0.105487294631882,-361.36003839614
0.233360062504729,-0.00353005512542358,-0.0183205083043662,-0.00393925924580708,0.409311127061312,0.0620913367293641,0.369201731193042,0.166969819724117,0.142940102985389,-355.894055480163
0.232938092408907,-0.00312866698770755,-0.0157869025284038,-0.00129223503931513,0.435010756051225,0.0626060284263323,0.756030875976427,0.0907667582559115,0.0645388762825244,-358.996480292039
0.243170132736243,-0.00864035832668852,-0.0282825425719417,0.00264702645810216,0.0258714609534592,0.000844449473749529,0.486488636787174,0.183106020323332,0.159541770909582,-363.71558248807
0.224810992902002,-0.00698167912116463,-0.0127250438713612,-8.29401475651267e-05,0.00980911986810399,0.0539088119298353,0.969220643739276,0.125674234538146,0.100453298995978,-380.900294194314
0.224175192485551,-0.00267128233894574,-0.00698220808193529,-0.00662389712145653,0.446829225769802,0.451403284574229,0.0840507893563441,0.143985463334141,0.119292736314933,-352.430735154918
0.236213237687345,-0.00469740359109158,-0.0186688720382319,-0.00529073216562223,0.163292084870135,0.0325977069772308,0.153631201451729,0.258062340543309,0.236660292674366,-372.897929601906
0.234441565673592,0.000273664687545702,-0.0198107149061376,-0.00828119637703733,0.947428038692619,0.0293135372377159,0.0796219349484852,0.1620835490439,0.137912882189397,-353.249799836453
0.228384263869218,-0.00358032627188461,-0.00777290294104242,-0.00426935281346025,0.283029822272465,0.346888072025676,0.214151545236781,0.173578117932068,0.149739025180109,-374.37959676067
0.224349529601467,0.000244584812745101,-0.0106382724205514,-0.00706751276236333,0.935390580503401,0.187294250377836,0.0340052118653157,0.16819257343139,0.144198128434218,-390.511645132013
0.233696803221953,-0.00328171458326931,-0.0190186704936868,-0.00436371640480767,0.353512718345339,0.0221523073209453,0.258962493161133,0.163237723949296,0.13910035060168,-366.925183069272
0.242266966327222,-0.0110202621178659,-0.0246610412623802,-6.27861516993667e-05,0.00291677428703638,0.00645437710620914,0.98687251152069,0.310052854316705,0.29015053280661,-377.581879575396
0.230575086865811,-0.00599558408007842,-0.013668128049562,-0.00145235628311583,0.136860629300674,0.117906079988545,0.701918507624805,0.161243180518624,0.137048272264354,-362.412964362067
0.23210580098959,-0.00321733675764677,-0.0189287792640886,-0.00447993131115871,0.4452042504723,0.0493919346846294,0.341280814653884,0.152335436747799,0.127883574346293,-362.083887352223
0.235314452205427,-0.00961055058590263,-0.0265378443670133,0.00390431875284859,0.00118709871455043,0.00194948755877779,0.199436562213706,0.174648972703263,0.15084076999278,-368.058424218755
0.22655391490009,-0.00379642230276093,-0.00988802496182079,-0.00207656407594481,0.349081495833927,0.304099437344766,0.624099046918029,0.0897682013944856,0.0635115148962497,-349.061389250624
0.231723395985068,-0.00181224346890373,-0.0137720510704497,-0.00509925770814859,0.590280498207726,0.0924919544391479,0.0890670606843546,0.199796934443288,0.176714153706075,-367.468256227197
0.23113567217971,-0.00117540650569756,-0.0104011465834627,-0.00707688006675629,0.751880497840023,0.248290871258925,0.0632574598206579,0.201643432360678,0.178613915986467,-363.666497517339
0.230196716509735,-0.00791630843093928,-0.0147089855952946,-0.00110014154976917,0.0462692246000369,0.0933633992831093,0.778685492824794,0.199532235171761,0.176441818878639,-367.355550205652
0.239787869735574,-0.0121239320370266,-0.0298463683434132,0.00656280964829181,0.000361590523922876,0.000595038141914002,0.0401907825810279,0.193617675168273,0.170356646567357,-375.199064451308
0.228248438336884,-0.000314398269311357,-0.0109037445536693,-0.00557922971323712,0.918196033938968,0.194910836234044,0.0826385657508662,0.138995270430618,0.114158595539194,-357.978426622014
0.229124096438254,-0.000549412819366918,-0.0112824559958226,-0.00580499160113379,0.883805432531008,0.216988537770639,0.139609991993795,0.127530467782748,0.102363077430327,-354.449382561696
0.234377513598072,-0.00477990292191435,-0.019834364317311,-0.000103183345046463,0.172082497333161,0.0311387615848001,0.978745937066349,0.0905970689113486,0.0643642920530222,-359.748560374826
0.230478411030975,-0.00228611545161351,-0.0140555846933998,-0.00662853577403689,0.503412370797883,0.134275063495552,0.0752382713184177,0.204799968586031,0.181861506141397,-373.084265906914
0.224785470448201,0.00360796442207219,-0.0113790283950546,-0.0108699020595197,0.303487056373921,0.159054962648878,0.00529015645104554,0.171210281363185,0.147302885633277,-376.007700091563
0.225195413727958,-0.000968309053333597,-0.0113459138639066,-0.00332616927945764,0.792536472329441,0.169511440115595,0.332443540229281,0.0959583085988296,0.0698801828853344,-357.434820000392
0.22896187165549,-0.00619009316925498,-0.015107037440806,0.00117776841782958,0.110537337829939,0.10661131126206,0.7300144431309,0.0899897981815012,0.0637395038982754,-364.333729510275
0.227786728835675,-0.00221190764401932,-0.0115609770397949,-0.00781751556512502,0.486041582911622,0.178766664960891,0.0337286066222179,0.186152832430808,0.16267647182785,-369.226187019682
0.225861599827396,-0.00285296284176278,-0.0111044637955404,-0.00596424480370322,0.420794935150752,0.139928901445522,0.128284295530041,0.185317117824358,0.161816650069292,-394.204088905944
0.234041320211207,-0.00839001859509984,-0.0199133933361097,0.000994239144017795,0.0243877544848459,0.02953167163738,0.777019660924461,0.171689896863958,0.147796336196572,-369.410560521214
0.227524854717327,0.000327312592391177,-0.0130684409245432,-0.00446190253785747,0.931504893837483,0.15406309681584,0.202315053367238,0.10738450025717,0.0816359762261269,-359.899483481928
0.230834583667713,-0.00590609966824974,-0.011213363009955,-0.0026550647966924,0.107804846860561,0.229132166419715,0.500951994856685,0.169826199407643,0.14587887823671,-363.973683746483
0.237643016184885,-0.00773355323876539,-0.0257383115951626,0.00279679649424581,0.0172284244719867,0.00353783357785074,0.382203549844261,0.133960880078509,0.108978982388466,-372.648866153557
0.232434450746535,-0.000154614870111415,-0.024910797069059,-0.00512707703968611,0.966399544717305,0.00157436137934825,0.129130743251279,0.210474218051196,0.187699435879596,-374.693701475742
0.230348879007408,-0.0034100024549792,-0.0124177667710738,-0.00533162943752618,0.252502954758191,0.10079982062437,0.0966127585203101,0.200683722832365,0.177626522529452,-379.246803189694
0.231382544919363,-0.00125424827782852,-0.0170878357793321,-0.00556999657237,0.671796847922077,0.0364048990020824,0.0911862956337842,0.169395703054426,0.145435963719458,-373.377924944055
0.228108820383326,-0.00420418741741051,-0.0101193413643678,-0.00266385455817329,0.207921401278388,0.210516409143022,0.381267594861698,0.155014755001123,0.130640180626155,-357.216913461152
0.22244189931221,-0.00189183181140551,-0.00666160493888181,-0.00843588982394526,0.62596940741143,0.430657079454921,0.0436569672532242,0.220715703259561,0.198236348545894,-369.592227313645
0.221437256823864,0.00397948343362142,-0.00414765644537407,-0.00999447565413623,0.343573903224937,0.653328498285343,0.0202331639598531,0.126105372044182,0.100896873160842,-358.212128381664
0.229678457602566,-0.00260954043660832,-0.00767382418668138,-0.00514067048346884,0.397578283336103,0.377514160511627,0.0970524238836716,0.188806361800263,0.165406545313732,-374.174356320368
0.228192755081688,-0.00066640011600306,-0.0154939419029794,-0.0047512098588083,0.84550504545965,0.0668235952383538,0.172651121057477,0.142444855194638,0.117707687556021,-361.30168337164
0.230581496975374,-0.00525140463975806,-0.0139746993117589,-0.00194900217203039,0.128572507826441,0.116491322035643,0.573185082469777,0.148102729899179,0.123528770184732,-376.990346848359
0.225633467141585,-0.00125366427732091,-0.0161310088552056,-0.00434364382891748,0.73316047831549,0.0848251987641758,0.283499983285973,0.111121383936216,0.0854806546266837,-368.365689842811
0.230672624885339,-0.00416517227141593,-0.0112168514721586,-0.00254017099391528,0.198053997941832,0.173277963767345,0.459233605937221,0.126379100496684,0.101178497626396,-357.943063563836
0.23108640634237,-0.00668820679164129,-0.0150297652580296,-0.00195378848195456,0.0309982241453989,0.0846855814926009,0.545183599042803,0.172636593142796,0.148770341021915,-356.91788373555
0.228910459147233,0.000571300812862437,-0.0133162330339907,-0.00901178797240471,0.866892208328268,0.173144800803254,0.0248210876599793,0.163578807340393,0.13945127293675,-346.256762446064
0.23028335380322,-0.00570326109861302,-0.0167880935140734,-0.00190127717710291,0.0227994160385034,0.0435784907959162,0.47977195554399,0.204984525124469,0.182051386426137,-383.458405105238
0.229031566792794,-0.00515159542951324,-0.0173328210816069,-0.00235771146802897,0.122754694236217,0.0447827069641077,0.476242172631306,0.153418026980085,0.128997393142973,-354.177710593479
0.222631604606807,0.000370867474096015,-0.00490830324893281,-0.0109877286938978,0.916083419144565,0.581048946021232,0.00628499268944087,0.233356924823051,0.211242220731409,-372.211819888545
0.22549611161256,-0.0055257521069092,-0.0132574216976534,-0.000883827072062023,0.0781995941305258,0.107482299156843,0.755187423367662,0.154140631891918,0.129740842427262,-378.119348804373
0.224924061385216,-0.00166593095588553,-0.0140647383203144,-0.00490652758109888,0.581280403087841,0.0479863465732266,0.128325568836113,0.166587486069775,0.142546740475634,-386.671326989317
0.22582700201793,-0.00337394855269985,-0.00626446608726264,-0.00252120885538331,0.278099335529877,0.448360858355453,0.398983950198031,0.115342312897018,0.0898233411536624,-374.273341038754
0.226800828082144,-0.00325731278437076,-0.0182373040960183,-0.00509586154136368,0.261811022110368,0.0243373091809473,0.0935533343450897,0.253788683261411,0.232263356817029,-394.603743572475
0.228765207053688,-0.00306531697481999,-0.0125728425436014,-0.00580242542306244,0.368668180985306,0.14017852633956,0.121116940984348,0.219817315752792,0.197312046014892,-378.566900497236
0.226046124878418,-0.00615017911456962,-0.0145704109573761,-0.00249835840267053,0.0168083475999622,0.0545790564141021,0.365846803221639,0.241169042850038,0.219279688316866,-388.604670931106
0.226950931495197,-0.00543190583887732,-0.0162703797973757,-0.00252098569319019,0.170037043432445,0.0762185566461017,0.568329238085246,0.165596894203383,0.141527573843865,-371.757434514628
0.226296502404268,-0.00534132934842877,-0.0110120608464552,-0.00310137135190922,0.156834329271507,0.222374352678198,0.457597800505831,0.153141015805867,0.128712391261805,-362.996682521236
0.235727966987321,-0.00679301110223624,-0.0257865919704902,0.00208383267962985,0.103094996475404,0.00566272357116761,0.6285543328505,0.118987115191811,0.0935732819761902,-354.723343346735
0.238245088043693,-0.0106097511071526,-0.0264917256697927,0.00142972752440377,0.00577790249260609,0.00546804376769289,0.728237558534229,0.244217367139492,0.222415945037746,-382.804695938042
0.229453501739568,-0.00389075422385857,-0.0154489008306168,-0.00294267272519806,0.311579938434137,0.0717049455189857,0.457338919706792,0.139795430489033,0.114981837137755,-365.116241490333
0.228938956882548,-0.00649182310453822,-0.0135739915952653,-0.00118030502126136,0.0651991999450735,0.129244926262758,0.720583468452583,0.175411042091314,0.15162482215164,-374.406920173447
0.237435260799894,-0.00826242202393211,-0.0179937692030943,-0.00235402602912845,0.038205826275527,0.0549376120017158,0.572851683579028,0.240597152572421,0.218691301204318,-365.751603732343
0.225311071971011,-0.00604209321404044,-0.00669225512398111,-0.00130343064008103,0.0775151054949136,0.409213200833193,0.693088958274433,0.142116359535589,0.117369716060654,-354.722098228499
0.231275933030774,-0.00581404516191871,-0.0163644328347101,-0.000933357279683894,0.0378164434909245,0.041663413427702,0.740180743049565,0.179093476096871,0.15541348021505,-378.414997446426
0.224647028249587,0.004266885064946,-0.0118872983223316,-0.0118860590107468,0.233661944440555,0.143359432015067,0.00149416873631784,0.238889086819189,0.216933964323589,-376.022409205247
0.231060274432343,-0.0045775693016124,-0.0174637326218573,-0.00157723339852965,0.24923905234221,0.0508926695992413,0.688141849211635,0.121636523694811,0.0962991157244688,-364.424435728872
0.231853937340986,-0.0071667072911198,-0.0114179438796993,0.0030206507791095,0.0179028840397668,0.167280298185868,0.217200727483646,0.0711024705462211,0.0443073495042853,-381.865941365528
0.229232208115854,-0.00782528332684354,-0.0124606176814618,-0.000771856305605344,0.0403771104935202,0.169931439227029,0.847778142444895,0.178599217605653,0.154904964267354,-357.715887925556
0.22826027786064,-0.000951672320799281,-0.00930841889666415,-0.00747916079880402,0.735141389987776,0.230088713926451,0.0176705562229433,0.2339682032382,0.211871132177763,-394.968499790796
0.227120066207886,-0.00296242540111468,-0.00880876356608367,-0.00883184160025444,0.395491408661064,0.335165755812392,0.0218819747790907,0.248213875266869,0.226527737053413,-378.463877302094
0.239794294327217,-0.00952087867851585,-0.0275447535282253,0.00174320860530027,0.00334279785419266,0.00309603863419452,0.569478072084025,0.228857242462259,0.206612739840978,-365.490330561505
0.231618297885699,-0.00499716662740235,-0.0195169787459903,-0.00192357848966232,0.12946138675138,0.0235982418301624,0.579546721284701,0.165804030602742,0.141740685331667,-379.248285498975
0.229532200259292,-0.00307395283015368,-0.0130864007772724,-0.00553936184860475,0.386158170624668,0.080161498366629,0.169342863551832,0.162758586199595,0.138607391570737,-362.060186657774
0.230898575481144,-0.00372547432568948,-0.0188718797383577,-0.00374098161152097,0.340221341386089,0.0419915295063372,0.346525835965181,0.180766588655541,0.157134855635989,-358.968856311952
0.22574898648692,0.00768565031324783,-0.0108267708658079,-0.0148186763385701,0.0588278552976134,0.22232250164872,0.00095613910884638,0.186527885465463,0.163062343700044,-362.26196309194
0.233765798785085,-0.00475403818505653,-0.0164187481661487,-0.00294828820628443,0.241856480682688,0.0724192520570379,0.490084953798704,0.166411894436571,0.142366083699165,-370.22984976183
0.250319115042928,-0.01070437607917,-0.0339449570343522,0.00417870495011805,0.0072039589151877,0.00134070248234132,0.267480368778819,0.204813842984649,0.181875780763052,-364.738538214993
0.227774194404969,-0.00510496896401914,-0.0135688038809393,-0.00156540740577946,0.0968104934271368,0.098090072309986,0.637264778688111,0.169810230799966,0.145862448996119,-382.934673197036
0.233498429316275,-0.00762104939138958,-0.0208512230539956,0.00193538261787789,0.0193561002906913,0.0225179410007021,0.586038231254974,0.117230491772978,0.0917659867279681,-351.888707770101
0.230871603236867,-8.64787576974403e-05,-0.0115947737848824,-0.00642628130559037,0.982282537356188,0.186177932753269,0.0994515291403839,0.125756262318701,0.10053769296251,-353.632464219751
0.226317849398292,-0.00495603153931314,-0.0074460924581775,-0.00366813416696918,0.137190066904398,0.376080841751439,0.304138733591507,0.142158898577306,0.117413482190113,-356.895985248184
0.229820258808523,0.00324216635546476,-0.0110057104481009,-0.0105073470616674,0.357064208981689,0.163459406089776,0.00785221663512183,0.197443936361135,0.174293280679245,-376.478119242374
0.229458631781671,-0.00591305768231996,-0.0219086892433513,0.000359368402967065,0.0747263207440719,0.00952547300303748,0.920412836597217,0.152482935341484,0.128035327707104,-365.978681670655
0.232544103783499,-0.00540404624470138,-0.0203450741754817,-0.00166060003106669,0.0686434065707926,0.0259235770040192,0.592572729392704,0.172771562400255,0.148909203623339,-358.438252954373
0.228471361500279,-0.00569711604509926,-0.0176597287122623,-0.000602931241205815,0.133449464153897,0.0435378638234084,0.885876879942579,0.130337040363173,0.105250608835188,-370.012332885572
0.223699116043714,-0.000530520286329281,-0.00357561819761077,-0.00619105523592489,0.860736588371396,0.62541379885534,0.029035230464286,0.154023500663349,0.129620332413253,-376.71107950997
0.23602298703997,-0.00682668676194295,-0.0150540679574353,-0.00087445924618601,0.0283782917162332,0.0288230611166357,0.764475293720184,0.221239598217627,0.19877535585852,-370.308527197468
0.234110397273128,-0.0027884885837563,-0.0219055314923662,-0.0051556682738459,0.558715149977234,0.0237309302535115,0.302044457953322,0.178747766943808,0.155057798682572,-369.609987414904
0.226610945976836,-0.00431717822507107,-0.0124616329716082,-0.00274258913165669,0.17898974811081,0.0841488010989711,0.378782126697153,0.212447324938337,0.189729459311558,-410.178647063453
0.231588019121957,-0.00514647896103088,-0.0144307293409938,-0.00111258404659911,0.0999093857787289,0.106772072810704,0.732533979930168,0.113988993435101,0.0884309836303442,-360.771232329614
0.227353346676712,-7.67175195920932e-05,-0.00545010833079036,-0.00816473655094394,0.984322199697075,0.549835375232235,0.0494313057549883,0.144888730984863,0.120222059763272,-350.672364622252
0.233896825349635,-0.0058229417680759,-0.0185553072462398,-0.00127983021643874,0.0699782111354338,0.0272469190447213,0.675120104703616,0.211492404430805,0.188746993020155,-380.234087104246
0.237672818159569,-0.00528709727546268,-0.0186400448334434,-0.00107816602189849,0.0804697650456264,0.0594272443893877,0.748970230720677,0.122402933636872,0.0970876336456283,-355.141472954904
0.22538793551738,0.00379761457278466,-0.00832270308992686,-0.00937794932792163,0.318652344823721,0.342486170489345,0.0222725659230412,0.140428634237237,0.115633306378696,-376.93376941517
0.223907755026071,-0.00587034828716768,-0.0129917307148761,-0.00113749602138321,0.0645131312968753,0.0959643207103434,0.732473036299395,0.140204110400701,0.115402305893029,-373.983319667421
0.223905012467155,-0.00243618424130401,-0.00633286464191977,-0.00157417136785913,0.492246546275364,0.47013255290761,0.639232335602146,0.0497734363228696,0.0223630546783371,-358.532353844026
0.229658843455824,-0.00277473100957383,-0.0112539750690385,-0.00403499861723179,0.475460317756079,0.207802798035152,0.306856088524364,0.121442820229567,0.096099824659266,-367.887851085146
0.224920510460001,-0.00563594270009323,-0.01089510571177,-0.0011710857881091,0.107888438488327,0.23113836273389,0.770987852475948,0.10977761875734,0.0840981269907249,-367.573144177
0.22663228654843,0.000173804351286549,-0.0125691156164353,-0.00980195562094712,0.959115850443117,0.149726492182042,0.0118459705196598,0.222448985605759,0.20001962942131,-370.469617689725
0.228712512152515,0.00171405873587815,-0.0058090471460891,-0.00944760871132102,0.621641399708125,0.54972200161794,0.0197709559491157,0.133418642300836,0.108421103136437,-361.793561672204
0.224000070429585,-0.00178537224815176,-0.0124795895098832,-0.00444511755656997,0.558327424104569,0.131312979527268,0.183608517792044,0.129066281322011,0.103943193283223,-381.048532720408
0.23181226675075,-0.00816621548136978,-0.0205955021261007,0.000896807147010142,0.0101891151024947,0.00481168778599676,0.782032338720111,0.211833331603688,0.189097754630718,-399.024084670122
0.234695960574128,-0.00985084459922923,-0.0251363513154878,0.00130569920859687,0.00228450202018553,0.00520745620003745,0.691388581226452,0.22001090928101,0.197511223971809,-367.951405160356
0.229201479726009,-0.00485062467298251,-0.0211660717844712,-0.00119975223732017,0.0728497987155906,0.00907812797935088,0.662568987312492,0.171523280329443,0.147624913415869,-380.505350729908
0.23616834475904,-0.00596989895622989,-0.0155046384951616,-0.00112463141825139,0.108848308981653,0.0696903674856018,0.75676853770485,0.131395183856097,0.106339275698099,-353.649153537883
0.229546123634739,-0.00660781067041742,-0.0156168173887089,-0.00293571496106812,0.0426058104534738,0.0460707051656965,0.399948486522377,0.230586806770125,0.208392195426956,-387.096077729272
0.238256814684512,-0.00813599262908486,-0.0164322959193453,-0.00031057190324968,0.0614941736603395,0.129823679841726,0.949884923444683,0.118222153344709,0.0927862539219598,-324.485771219341
0.229779422500288,-0.00647613154975718,-0.00794999884036921,-0.00407242359368001,0.12576577104262,0.4095256680109,0.327192581988415,0.173286715389848,0.149439216795324,-347.90673610499
0.235409638027464,-0.005472515670586,-0.018919862387395,-0.00247453664832541,0.0649947133492095,0.0289428157784093,0.382457160286117,0.218079835492946,0.195524446132166,-367.490114684071
0.244174110000266,-0.00715554691325475,-0.0285785325180254,0.000347351671568758,0.0894046176180314,0.00575757833569781,0.93671760488235,0.171571841548508,0.14767487543933,-357.478511845651
0.229514647729928,-0.0048092939019341,-0.0162222778382515,-0.00287285614752524,0.0649927526224528,0.0350231030457891,0.315373404147752,0.196061159449806,0.172870615972397,-372.710558579761
0.228502786531006,-0.00502680498478139,-0.0129391236769539,-0.00160637219366296,0.162903777789389,0.146012931506517,0.679866788067547,0.11915448821892,0.0937454830713889,-368.675039914144
0.232994276294472,-0.00756383966356379,-0.01909008762895,0.000782157984770496,0.0532913332070184,0.0434233785887605,0.848632778424473,0.141427568473317,0.116661056025432,-361.86219946209
0.22592647719639,-9.31103195041325e-05,-0.00979892006761299,-0.00640411703317016,0.982056144703501,0.252271059715119,0.128337595277816,0.105298301560293,0.0794895987206864,-350.343418232934
0.234226976248285,-0.006686087024539,-0.0133609834100739,-0.000611852011259612,0.0220341473192202,0.176282135696645,0.837402371737588,0.125852271102387,0.100636471230341,-350.012678320818
0.231724663595687,-0.00460105727517496,-0.0223178829691545,-0.00107203215390415,0.12971304655601,0.00365444184915173,0.74079645736599,0.187521780069562,0.1640849083408,-397.178863439547
0.232611156371769,-0.00552343115002717,-0.011161131317507,-0.00400764708467817,0.037295908539704,0.112273515358028,0.148562333493292,0.285535568976999,0.264926018082105,-399.288348888778
0.221723605632485,-0.00247870038057928,-0.00670267571535077,-0.00627484632159463,0.454395360774547,0.377770453926141,0.0785224818242332,0.14573262559762,0.121090297489859,-362.620055022874
0.230009744590759,9.08776988034304e-05,-0.0150321498627222,-0.00664088805803408,0.977313953510383,0.102986869910729,0.064092228609489,0.151758978373437,0.127290487364979,-357.461209926723
0.221266323999968,0.000937550952637755,-0.00541636264222251,-0.00947899189045133,0.810671209548274,0.532085601145856,0.0227984672576322,0.164050375626503,0.13993644415419,-358.168235131467
0.236200316871694,-0.0036351740211713,-0.0246909734447446,-0.00487555301139609,0.299187443497397,0.00442283194377233,0.213461123308828,0.223702091084665,0.201308882173645,-366.742762093386
0.22854377709389,-0.00270071837727928,-0.00884522268459775,-0.00539244594768456,0.51100086824913,0.301783128773345,0.226938621215385,0.140701796277722,0.115914348093426,-356.864833692225
0.237762513673719,-0.00710880599091432,-0.0275077814142644,-0.000777775781889495,0.0729758216267976,0.00185611352530759,0.848633665902816,0.189622729126327,0.166246461697279,-369.396633162773
