"intercept_mod","scal_mod_temp","scal_mod_weight","scal_mod_t_w","p_mod_temp","p_mod_weight","p_mod_t_w","r_sq_con","aic_mod"
0.22351960632076,-0.00132492264675328,-0.0126280704517522,-0.00115708766655114,0.667004115491208,0.32606579680964,0.758651520128258,0.526735449652897,-373.914573501875
0.222399885455942,-0.00524473448857869,-0.00754490501140655,0.00432179714689118,0.0720982175503329,0.552055279139829,0.191802015698449,0.488083415399435,-353.584630667528
0.215360088892986,-0.00502728730974109,-0.00603457771099663,0.00414008749196859,0.0486583012732797,0.560968870197043,0.179686360474343,0.580602881472806,-389.833017617905
0.22371799123987,-0.00414432170312247,-0.0156878250221264,0.0034248025225176,0.206302989884052,0.160861770390041,0.196222893794932,0.433712600250376,-332.406820751524
0.219298675824735,-0.00482768995710255,-0.00751693620161241,0.00259257491960704,0.0942134632994232,0.494105600682018,0.488797226556219,0.473747979136123,-372.147840644434
0.231886180644586,-0.00611850392474596,-0.0219171857811605,0.00496692007072565,0.111560378558948,0.0284204961646954,0.247116896582872,0.433127565014906,-333.676327412524
0.21053582973635,-0.00046049080704939,0.00365711868140379,0.00153842360830678,0.881941428055744,0.763768062408381,0.620105139621986,0.556247286619019,-353.49691506072
0.231697599874686,0.00230009789953139,-0.0218580535613619,-0.00521521622181901,0.558413297500445,0.125221039122527,0.250520596174156,0.375399119561661,-333.115801354506
0.215697498770442,-0.00467997466826095,0.0023061492392733,-0.0014953056280679,0.233640851638581,0.862244604609301,0.734484485366975,0.417404469354572,-325.389476337998
0.209396956218842,-0.00170361144134446,0.00539343224322336,0.00155808864455521,0.559414715786616,0.607478322951498,0.527957338389641,0.473560651731521,-334.046506213836
0.229813398245781,-0.00110840180832451,-0.0202448712730376,0.00194607427197562,0.767835476139042,0.0463199609601594,0.634525166764156,0.476232695766666,-358.590381529726
0.209826060402877,-0.00130848519258818,8.86188301810847e-05,0.00234694462255771,0.634294044257937,0.993825039107674,0.443872125268602,0.538540976977473,-354.572641378831
0.214571104798971,-0.00397089388417352,0.00382936606183519,0.00215306312805976,0.277200239347673,0.739252049833281,0.620802740453272,0.481601588478306,-345.592432898572
0.219944735696748,-0.000778978846371124,-0.00286217015142438,-0.000744793471627551,0.80741713999419,0.801053788506667,0.826753916385335,0.387663076915167,-344.878042466129
0.228166074020103,-0.00446703309508135,-0.0127597327116825,0.00212154296857985,0.151374230759382,0.261688570194383,0.485705641989131,0.438056493886789,-343.472235779554
0.22554009366274,-0.00159554324884944,-0.0142803240858938,-0.00039566632453361,0.616541761556856,0.274073197810907,0.919020415657201,0.507295868808908,-354.441290401596
0.21306873975938,-0.000172086196728815,0.00191470704205659,-0.00364312626746597,0.960716907629752,0.860184792870323,0.341207534612961,0.445127697104265,-350.38103412943
0.208846809739696,-0.000741401622392912,0.0047859612071942,-0.000866979794148617,0.788999840665959,0.712880158909933,0.78138477283468,0.470838198127304,-363.991375748201
0.220473503303707,-0.00391170194147837,-0.00587161731118735,0.000207059607897454,0.174931170551943,0.566264239730209,0.955190315808344,0.520636996842795,-368.02153722357
0.223814696435309,-0.000433844803450847,-0.0107822457592191,-0.00289474282081268,0.893456915681156,0.461297857354467,0.463725317025829,0.346711127789493,-336.347004070934
0.224745028057115,-0.000779734759670069,-0.0116230236044463,0.00112218395671523,0.820493098207005,0.318966035238955,0.764223098982066,0.373203961462222,-345.406504916268
0.21124996965378,-0.000856096506508951,0.00085857939165521,0.00039990079548509,0.817544138392681,0.950026111126265,0.918695899044413,0.458829162672017,-333.291030995999
0.196760405629661,0.00248475605660027,0.0218775230210861,-0.00207187311655994,0.451218049470781,0.0972823456143435,0.607647036926946,0.593448690621072,-350.055110266875
0.219509801093444,-0.00428356448533986,-0.00530005504796232,0.00132897934675243,0.283826728750385,0.71227737266195,0.752437415481805,0.411499740948994,-356.747688816885
0.207230248025253,0.000738124108478141,0.00039222807379918,0.000138752213081817,0.818842507217163,0.974352210222187,0.96596979071575,0.454137377851955,-349.078453932968
0.216900994076444,0.00055712790592616,-0.00624222532781378,0.00105345851340328,0.828345227983783,0.605963346595884,0.697397267236361,0.576513842981548,-369.3710922301
0.200066386718975,0.000677517318953374,0.0147743811295695,0.00189416828953498,0.818997263868305,0.234314620890725,0.576799977182257,0.663655296392502,-360.424512363619
0.208462575322386,0.00238130938338586,0.00582950580685123,-0.0039714726755529,0.393104485078557,0.568256244053125,0.280218443001521,0.492295628131096,-351.490720154291
0.22370731346496,0.00172576923737586,-0.0118574173908363,-0.00354774942277757,0.539737532526537,0.309273192656278,0.311420286696365,0.512798073878008,-362.80505587438
0.215113384429358,-0.00174728723198339,-0.00414872100511441,0.00490009610379164,0.618699886810365,0.75854779561965,0.260154619220157,0.538088764203769,-339.633966339439
0.217493587132814,-0.00374698750105335,-0.00661530148289659,0.000800218591957667,0.214120235730902,0.637288495775777,0.817377813800148,0.397476472333115,-344.020037008263
0.210967138803789,0.000809455240048013,0.0014125707337144,0.00173773986624653,0.794389597358405,0.905864270374638,0.531904501310171,0.612548648745147,-369.110036522667
0.208554398216659,-0.00291729981992387,0.0088622179430903,0.00253715290072276,0.382001379495366,0.43741733169123,0.461529151740288,0.493718391572787,-336.025775521846
0.221177449800196,0.0012917911216738,-0.00919627058508532,-0.00345245341206991,0.708724304607983,0.467997804074463,0.367349167858435,0.39999302428891,-353.071417892793
0.219172174605612,-0.00404118502879162,-0.00540227534752237,0.00314203726737345,0.140625999757209,0.531648478933182,0.418464693067999,0.55938627863783,-360.343712843376
0.223326401895805,-0.00385939727674654,-0.0218882060364578,0.00435103212067962,0.208279153297312,0.0888197561004435,0.216279504105819,0.520246292884763,-367.760598912553
0.218958289387007,-0.00105899686506726,-0.0138307192623397,0.00271471976358422,0.74826549660609,0.146191197895149,0.447804114888241,0.493999858288665,-369.307330627567
0.198032601549513,-0.000360651781890314,0.0137772930916211,0.00231957062412841,0.938401466366287,0.394393288231851,0.622899975993094,0.586240179443048,-343.474104159031
0.219806616123088,-0.0046342014258291,-0.00525800343230373,0.00502100483638083,0.140342085042232,0.694929399270553,0.159336865583931,0.516639324668111,-359.872856256603
0.220296913783938,-0.00378216117753741,-0.00987885151596169,0.0033177661657355,0.158471818721428,0.314350016272492,0.273849950327429,0.480233988081822,-369.631666080365
0.217098300499548,-0.00329121159607956,-0.00243034591437201,5.31450609212003e-06,0.286720807918155,0.847049266027098,0.998893782996527,0.370447410398753,-359.202171673709
0.238779951918894,-0.0102899057460953,-0.029749112102779,0.00532690464917391,0.00135031750876769,0.018189618649876,0.124479733045198,0.456600627469992,-350.210552432405
0.225315562021951,-0.00410863159296052,-0.013265510060435,0.00391247261820316,0.298430782061209,0.264229490063653,0.35693263028065,0.455821946995151,-339.268095836299
0.214050289462735,-0.001822853619586,0.00263367714882552,0.00138390078709191,0.582723756966621,0.815580500471655,0.707384290275654,0.524071158679439,-352.425575764288
0.209923526283711,-0.00319566039316984,0.00140631667590283,0.00477723551221505,0.270177486880365,0.907415092002517,0.148890699836625,0.59877730378284,-373.694125783015
0.219065719136381,0.00342535989365453,-0.00975387964529455,-0.00271875639015826,0.203348815073423,0.465085250779532,0.432898992819764,0.518623279170638,-376.168751465038
0.220551544698075,-0.00478597009641204,-0.0122546473527959,0.00539094162463707,0.123186052717612,0.407944049056491,0.174246949713315,0.508238725171413,-363.983569806086
0.213938408204047,-0.00175941346567138,-0.0096794856530237,0.00745721673057936,0.550589757157712,0.408752486934721,0.0475201471177706,0.611243408580487,-364.008887985345
0.209344058021659,-0.00121155358716769,0.00716010365011609,-0.00195411721968819,0.636348640367411,0.582999171306979,0.506596291261103,0.595796558738323,-367.852383457846
0.211172214100406,-0.0049046337623356,0.00761381159214586,0.00391339268105813,0.0928830590902335,0.396528972492113,0.226909015421848,0.487833611108413,-338.733808613229
0.214138919715804,-0.000995817872927812,-0.00111044227655671,-0.000954502016522706,0.710578754897597,0.909045724924627,0.725805067565596,0.472024995581941,-361.056780925967
0.21329548820332,-0.00194186395863355,-0.0034695087473925,0.00501269891497697,0.484038506504704,0.766119678255333,0.0938452824903523,0.626300010503293,-372.084025086435
0.220494089845201,-0.0032288979146262,-0.0114946966493824,0.00114103969456942,0.29837389123835,0.322535975056037,0.72850640657941,0.424767137910779,-331.649063884992
0.21715942339474,-0.00172587962904396,-0.00470470729102189,-0.0016036618986742,0.571420392792748,0.626731718962098,0.590076412985538,0.40490028124798,-346.688037167698
0.223862025017942,-0.00350101394310735,-0.0147182253432543,0.00117562501774262,0.304443050479252,0.213659836617704,0.738692968561641,0.369858268947013,-349.863137389296
0.219520671203871,-0.00604890796415477,-0.0153104364734032,0.00513006671614196,0.0310168052213373,0.136684811151701,0.135047210634649,0.512435007315207,-392.230537887272
0.212196395977236,-0.00110813897715752,0.00279447320569337,0.000997287822023104,0.781687643298284,0.808880675487225,0.80156233211705,0.492522161563141,-339.978554685167
0.221825251524448,-0.00131923478564304,-0.0173098577205121,0.00324879494641122,0.637587397604742,0.143814343744912,0.241169579778697,0.562726427588692,-353.509561831337
0.22467183528117,-0.001525186937248,-0.0199537606547418,0.00382654959510779,0.614162199048987,0.126846428701776,0.287249928056635,0.501412080358252,-348.720510858264
0.211993332303109,-0.00298768524443711,0.00309930919847444,0.00222244772703193,0.276771435515314,0.771361476320514,0.511781527131962,0.532428836044388,-359.497771013326
0.219988509373389,-0.00319573340218927,-0.00405843735883077,-0.00207688787163957,0.284686912239549,0.704970934112928,0.541981016486128,0.342231779980654,-361.63977371785
0.22867168999085,-0.00368757082304091,-0.0161622431939167,-0.00171045956598807,0.233365439891856,0.205510553261983,0.645755580013618,0.478270766642518,-373.848179969431
0.208136402885794,-0.00171622320619189,0.00633050235627423,1.37156296849853e-05,0.582349368283268,0.57380294900092,0.997180467962657,0.511690163985409,-365.758081434304
0.216466513918203,-0.000972508226624012,-0.00642221635522375,0.00262588892170249,0.714848964709352,0.591372904090591,0.366599276563224,0.549708839280503,-358.679019181686
0.208965292113364,-0.00389121877147603,0.00588722563034006,-0.000481096693154896,0.18223827906096,0.605954671538614,0.878342280679658,0.547674799509688,-369.496250739428
0.214270171823803,-0.00422474820995363,-0.00411677963520118,0.00239410759701852,0.131462529848313,0.686425955198861,0.47228143040032,0.569215691279704,-375.585062218102
0.211936395681893,-2.81655819321623e-05,-0.000939415215717979,-0.000251157835998654,0.993527824405714,0.936648497180865,0.947376483123257,0.501886574455369,-355.991515579376
0.212554427541239,-0.0017585089898277,0.000521933832048158,-0.00110056408394049,0.537188225045404,0.960983761280768,0.7366172389754,0.489971946313174,-360.799922559158
0.214378237586692,0.00390034962296128,-0.00449067030669761,-0.000634614415931974,0.20672070433026,0.707555199327598,0.85824799713973,0.505942285532078,-348.814343945452
0.206319546998694,0.00493780364902686,0.0127774040649562,-0.0072129302451443,0.0963042121974378,0.361498460835314,0.0371903863986025,0.560607173303277,-361.290395398866
0.23309431100917,-0.00524495629115009,-0.0245299487457,0.00868064266686186,0.0770424612930555,0.0998460755205133,0.025804382675458,0.556620460543121,-330.831600771525
0.220050726283974,-0.00185586745103264,-0.00526014163770922,0.00202668636907565,0.518972680463856,0.584366825923005,0.529345040451479,0.416123237744694,-347.518591372531
0.225310380395964,-0.00644870453097199,-0.0122906829659349,0.00681081340777519,0.0627099409164211,0.320815984993171,0.082046998416876,0.482157630323039,-348.766393329997
0.221712530666579,-0.00413968793345208,-0.0115428792220738,0.00356644604223146,0.143980826620562,0.157951662980243,0.271598024974802,0.485605756827704,-344.92743560534
0.230559547947804,-0.00278338819529,-0.0110069551777419,-0.00152236522951473,0.402534509038795,0.441008330880512,0.712907905310709,0.42068832805259,-343.470562114424
0.225218446603994,-0.000304079231235629,-0.0107080700356539,-0.000834482059717665,0.913589842105159,0.306146357259717,0.769253664927526,0.540953801146802,-371.364087947967
0.213132470097599,-0.0015225294745652,0.000262488693535302,0.00106960839904306,0.641400861240265,0.983168038394444,0.767579494030808,0.520718664814068,-344.580143902777
0.225265950807002,-0.00166896151509448,-0.0118181247926347,-0.000532144319782539,0.578523430105695,0.356697136763361,0.8764306423126,0.351932269838267,-341.668122159969
0.211003555093581,0.00312099450809366,0.00571431534348571,-0.00419702564919066,0.257889353696278,0.594058670046928,0.206810520566444,0.533452802632263,-366.120963943163
0.221982082568608,0.000737501261745514,-0.00995631007802307,-0.005717945638533,0.758537022308655,0.204180570642674,0.0238005091152872,0.47330172876116,-396.003389253578
0.22666012001628,0.00104932705080576,-0.0173836458047258,-0.0045320957109442,0.748258481976261,0.18308843225416,0.242986281268501,0.430128105456315,-358.035517955863
0.220828821272714,-0.000912885705339531,-0.00403589279649743,-0.00307474911574337,0.802780199452,0.780615139726937,0.467324897051889,0.453064412232574,-349.111032066738
0.217841207564409,-0.00552596872024694,-0.0088829502844018,0.00524558279251801,0.0697037551107445,0.533380824615451,0.131907130081407,0.53609041753582,-362.918865915411
0.227701389303189,-0.00249823946286459,-0.0140692830391266,-3.58478855867935e-05,0.461620373497593,0.31296058103861,0.99334176309939,0.485369472969278,-354.234906565813
0.21726615502559,-0.00764579755140561,-0.00124433350379992,0.00494164221853703,0.00488350097160668,0.8898130095154,0.0798803872009467,0.514650792587281,-354.906084373709
0.191969064759028,0.00305224140282762,0.0297685214243381,-0.00326735226207909,0.312580905362538,0.0409398050167961,0.385010780017336,0.646922427610899,-350.895894777558
0.216197383962482,-0.00361138612622202,0.00413036345550371,-0.00304208679703884,0.234731601625455,0.718246305511921,0.38292736233904,0.370552038154652,-357.128541618179
0.220397152718628,-0.00533359886000738,-0.00998918233454361,0.00694771030257873,0.137423585798126,0.472448943528749,0.0929098126469755,0.588690453944743,-357.639466025127
0.217120324399437,0.00207086703724757,-0.0061141192916063,-0.00149884170288237,0.570996208031336,0.625972271180481,0.701820581903931,0.496716267083913,-358.368516272119
0.229526715040744,-0.000674424962063114,-0.0202717841666214,-0.00126927635244434,0.847805290561355,0.145214331607977,0.735354278711529,0.408472978762342,-349.499093072823
0.218376651908828,-0.00393578543456418,0.00247402547793563,-0.000824919363397935,0.204726589936376,0.838063786136904,0.816918453340529,0.523893660632275,-374.764314181888
0.215796449969327,0.00195917026665903,0.00251391074544929,-0.00178593058910868,0.560036719258899,0.793940522000941,0.63556468671763,0.495181540503404,-326.932259503736
0.218593629236892,0.00389955279137816,-0.00487394495463159,-0.00894649414256239,0.11262270350285,0.663570857969447,0.00497151576549848,0.497612801698583,-378.268599597647
0.209557493718909,-0.000151803694107166,0.00924318421056387,-0.00209250307503691,0.959242060895635,0.434864135514687,0.514670912786654,0.595299210246309,-370.036012449399
0.215963502256633,-0.00148439603828327,0.000541412079162178,0.00127623058289875,0.657627689854675,0.959184530435245,0.687634561940603,0.634418063730098,-368.571272859281
0.215269204627844,-0.00395637403464712,-0.00438472451588668,0.0024441622280866,0.201135381235775,0.599325144690757,0.4783028628416,0.540221549629877,-383.775599664028
0.224548218154749,-0.00196127788305956,-0.00895049655352383,-0.00316778287455,0.537790074159103,0.533580329089452,0.38665176443845,0.401253552051886,-352.319516663527
0.216745683640135,-0.00161031043980009,-0.0155661045826369,0.00238259861742649,0.537362388395567,0.161258938320376,0.364883929094358,0.560907341938274,-380.5777169914
0.225592142720387,-0.00563098326626321,-0.0149183235698396,0.00361000474827548,0.0782424727157894,0.206465834184512,0.22944002256106,0.526431238846641,-365.377771867436
0.22120310777996,0.00108063894289307,-0.00885733904713645,-0.00451018620447431,0.726852153335415,0.500850237159054,0.220504171881102,0.350726092848341,-337.493830100084
0.218926576065279,-0.00142574866818999,-0.00558401710119718,-0.00050270126037494,0.66865036926873,0.652838599780692,0.884266661119518,0.473158241398805,-368.541561098493
0.223418247230478,-0.000516537013775762,-0.0169403765600542,0.00354950894086692,0.872195794725125,0.268873214449387,0.396381175247025,0.536957101344845,-353.122039658915
0.21414931981555,-0.000552754453809053,-0.000458135164628016,-0.00185695507241373,0.856264233471224,0.972757742634209,0.530550452037276,0.461487978363028,-332.1886576983
0.216507928796757,0.00286388709942716,-0.0047640579321403,-0.00271857188150275,0.396005119710926,0.701017998276283,0.435108159640654,0.510970762912899,-359.766092094044
0.222969912912188,-0.00258285361055807,-0.00749641871926484,-0.000146334415110216,0.345151223130274,0.442321631452536,0.959397661486463,0.480464574253405,-372.210310426518
0.23170385832556,0.000806602084291151,-0.0230987098296115,-0.00384254219230647,0.792801681963523,0.0669585004525506,0.243283094371685,0.367016598507401,-353.260953919893
0.230260409451216,0.000168248513023095,-0.0134022407098666,-0.00181428262615536,0.966698944881789,0.335449548493068,0.68018493186762,0.418328299097178,-339.423596779377
0.220942496193391,0.000298679322244443,-0.00613404399693667,-0.00202210934291299,0.932158493753043,0.581120729202517,0.623269711959487,0.487925843630661,-358.543294731052
0.214662082367139,0.0003325752847668,-0.00504456672004709,-0.00107200785891366,0.909148983833014,0.666516456567735,0.790730633878689,0.433694877432649,-354.419340574787
0.216381725637598,-0.00159864746076281,-0.00545797617904219,0.00290162011744677,0.573883794576568,0.685355411867981,0.391652851077158,0.527477752997378,-359.207240123582
0.214799135559981,-0.00083855459655482,0.00267270455418446,0.000978820870401139,0.78904771573969,0.820906032651509,0.741694175704624,0.484869576901342,-355.713336212516
0.222023807169326,-0.00102210397561319,-0.00336049040523063,-0.0030462333448564,0.754607645335311,0.76098393402018,0.45664022913425,0.468893514890674,-357.486069795334
0.234927172202597,-0.00949191795154317,-0.0250131226873733,0.00422844940005361,0.00220708593635421,0.0743931578659921,0.196645944498786,0.413210122377255,-354.388962961754
0.218082017464771,0.0022075929036745,-0.013953771335901,-0.00172186541175427,0.413905633392292,0.179137206880993,0.592828795155432,0.435970166373746,-361.028253134019
0.208561211687547,-0.00192280110113665,0.00133509468682295,0.00372454437653191,0.545775709546891,0.926241617542091,0.284685977076836,0.554739479113708,-344.899451527115
0.22038451446158,-0.000240770926765047,-0.00942602273254884,-0.00546684561739535,0.924533038139306,0.354865422063449,0.102674423074253,0.411024595023655,-376.803393034027
0.215996120994279,0.00129011453601286,-0.000320401897473842,-0.00535160831317441,0.677661913459857,0.976446937432329,0.131879512535527,0.440882251169177,-362.853249624403
0.227960216361929,-0.00588715239832634,-0.0147395018948301,0.00434196435856689,0.0250232632009026,0.180215840660512,0.157720778660144,0.459218541834615,-352.368727943962
0.214258981721608,0.00171359799546223,-0.00565982768851513,-0.00199855500261521,0.603096853783231,0.655411222350761,0.633072531651511,0.500983655486437,-368.358427853507
0.213014378650244,-0.000946200407926164,0.00333633664152231,0.000191479294094836,0.716606131090552,0.777680060147559,0.952287056748798,0.502788408785032,-365.202813861582
0.21642345691502,-0.000886358322662048,-0.00358064210405086,-0.00254596381249409,0.761800659237588,0.76414178180924,0.411782726879657,0.422911846663114,-344.896323321248
0.213851457590831,-0.000461840034972113,0.000278902871745313,-0.00287377855645015,0.850599375961487,0.974524583298638,0.351396798261983,0.472103577425409,-362.973603479198
0.222813776600775,-0.00233041956788232,-0.00873470138237928,-0.000845366793651196,0.383032572993227,0.401638951355729,0.745803343775467,0.375704312624356,-359.869021645544
0.22341759656309,-0.00325539436552524,-0.0141396748680987,0.00275010697740342,0.324037309469893,0.172513171438251,0.441763900667523,0.427951583772502,-354.119889171156
0.226084402207069,-0.00420095782170032,-0.0172388257865144,0.00131601357154475,0.189037167218281,0.190086841945077,0.717976079231182,0.478298221127374,-369.149456551895
0.217922969061666,-0.00360558744707992,-0.00713745217323228,0.00330914231554565,0.271756180602477,0.591376103467901,0.368758463651004,0.560791188550684,-361.773126379877
0.240738881529636,-0.0010904601027123,-0.0293551901807158,-0.000655879012031909,0.703163293244534,0.0019881995005043,0.814378796049891,0.516732968137267,-365.637844090827
0.218519687782591,-0.00298593721272173,-0.00793089319803576,0.00336903257944185,0.181910666107838,0.43650015036298,0.234825099356587,0.506630737437329,-346.350462301225
0.213360210762485,-0.00306407119472088,0.00209588951362473,0.00249890962092536,0.226433626312041,0.836132439002472,0.333668019980811,0.530085209701333,-353.324153591819
0.221410450443452,-0.00404777608343081,-0.0172029039610897,0.00625898583903164,0.183826470773946,0.126707326951463,0.043862517812303,0.591198406213375,-362.506038545176
0.211680142011517,0.000515242713790056,0.00195748809103703,-0.000452287344803567,0.842375005977644,0.82849769644934,0.852936970697283,0.531121073243662,-354.723365939248
0.206796952050532,0.00273212501496893,0.0130946638711531,-0.00360470487415669,0.333041797224304,0.257691432835033,0.317005532764582,0.540160478171331,-355.010559177046
0.213999603050855,-0.00236953278750662,-0.00418082483981758,0.00115672685160572,0.380142041503271,0.740250021281521,0.713555118335711,0.54527601153898,-380.701444655564
0.22444079315752,-0.00385312223641923,-0.0167852758574255,0.00390305170452059,0.175392671503989,0.0651923871531513,0.116764953045109,0.504306759923089,-361.700738907663
0.247270379528713,-0.00856775061172311,-0.0386056673185457,0.00334232643783103,0.00819952421040156,0.00771532413660948,0.378412037064737,0.511550099592374,-355.64603120593
0.210657409999446,-0.00351887569891166,-0.00149334511340094,0.00195243048909289,0.23776960184131,0.900936717483621,0.540766027387992,0.414770398627085,-366.234224147552
0.227941467904378,-0.0037338850425337,-0.0154580136360038,-0.000139234147428814,0.293107928957679,0.1577843185469,0.969492644813008,0.421260600796539,-344.674557741907
0.230996190785241,-0.00268181673953799,-0.0181533611631102,-0.000439280976201829,0.451574827163302,0.17312480778056,0.91439842483072,0.467360304744144,-364.573000635643
0.232599212560855,0.00087683722967602,-0.0236403295618439,-0.0038284935394084,0.781941424734828,0.0404568257076054,0.277448493566207,0.449127967617432,-360.071858870722
0.211426219309697,-0.000887668974092285,0.00429181570157486,0.000861396841326877,0.793181181853734,0.711477685087435,0.769250902837934,0.654506575597915,-361.870522575451
0.2269110979681,-0.000725635620237644,-0.0132352266480482,-0.00137813335102739,0.817663161876906,0.366275550994844,0.708767495247516,0.458403441671298,-356.817747465336
0.219329332271853,-0.00209124198350975,-0.00329199940000176,8.01772611741916e-05,0.445811649648061,0.816262990717756,0.976167220116936,0.346522052694024,-345.614051808794
0.202388782175758,-0.000563778592772958,0.0182086807837237,0.000442056418370315,0.817575791013043,0.0716995995208555,0.861791810753475,0.595464931182077,-354.024428962854
0.221821676085838,-0.00378327284202548,-0.00696807974353778,0.00284730466198239,0.278573905070914,0.498156992096632,0.424402428732493,0.51629640256276,-341.334017464471
0.216089815945823,0.000133051885861825,-0.00667473314282646,0.00151765419741632,0.967288024443995,0.587253505820686,0.633609264418956,0.480160877276555,-360.601264611724
0.205071290736202,1.09060900592563e-05,0.00968788598171837,-0.000845258379668896,0.997134892400805,0.370179254274259,0.814352867285643,0.591290203607798,-368.134123582373
0.220361185128329,-0.00218723729966071,-0.00427726620646515,-0.00207437906501018,0.520994110701945,0.695694429542611,0.623513427828682,0.419494330801402,-331.755362029585
0.209635300490752,-0.000101254524499078,0.00470268290994996,-0.00437157317366065,0.977321928142484,0.697424142004727,0.263282724814396,0.424817979276559,-351.924218334056
0.206363085946191,-0.00068530795781037,0.00473708173037777,0.00299527154369556,0.799243345638045,0.583108971361523,0.320972398972882,0.630009083155288,-369.789698867073
0.222973727862982,-0.00073646812902287,-0.0186682915878173,0.000840918972703996,0.800435896627899,0.159471396439252,0.806184288822581,0.532875332023669,-354.375182225758
0.223242889597185,-0.00324819512397019,-0.0190426195802203,0.0029250625033481,0.217620894839278,0.118947522645338,0.326547013470938,0.576561935450339,-375.969394092396
0.219230334350504,-0.00209710226533086,-0.00910483818740553,0.000330099796043921,0.44672871138648,0.293843962343516,0.846122226816066,0.386390604120519,-352.074119982531
0.211327535111645,0.00367274171904197,0.00120951159722804,-0.0033413954134755,0.166629397769455,0.911876110116199,0.298092791473885,0.587628466563164,-380.563397700876
0.222579879730008,-0.00469220850365279,-0.0144689069704573,0.00217951194092667,0.0548173634604392,0.124631207170334,0.336750824314709,0.496784800837685,-378.365306145254
0.235523889069577,-0.00698301116122384,-0.0231230907243026,0.00449875251674816,0.0558368276205584,0.0421824213144376,0.208267992088269,0.356637862795708,-335.080029124699
0.212479887882284,0.00239754985393625,-0.00174684121492985,-0.00248962848632714,0.469556441120457,0.875326178912821,0.462675400485573,0.579473910773373,-355.799862137442
0.227127238484622,-0.00657605700026861,-0.0104746362549609,0.00312019267725135,0.0743223223493728,0.38490637991476,0.415279143185387,0.381950200408462,-342.532002765459
0.214238723229436,-0.00551840959043094,-0.00782169170821263,0.00810173654630891,0.0582512732960068,0.434142384257541,0.00955851211205958,0.592875650718465,-375.044078669052
0.241514540839582,-0.0038246501961465,-0.0315560888153584,0.00167017625274754,0.191264719675456,0.0105457661215352,0.626228952610315,0.444195815459794,-351.36088244257
0.212677207770936,0.00102261159428168,-0.00303870599874481,0.000210120442376661,0.75724023954337,0.797732786938614,0.953165348601837,0.533649535784198,-381.744992932403
0.215746157672834,-0.00200995570157916,-0.00388553154672414,0.00248120258764587,0.531527910756274,0.764600680507573,0.43224615792752,0.531183282235796,-350.535969777255
0.206003903530931,-0.00345816546737583,0.0114639959444793,0.0012788376068839,0.224794560012694,0.254281491882304,0.691435962182155,0.585651988608026,-365.121834154845
0.224512393973739,-0.00732691105797617,-0.00859649371921437,0.00347772360070132,0.0200216240235078,0.505552478335732,0.33279436980424,0.491101038714367,-361.133846119624
0.221800793009292,-0.00694897219748762,-0.0213192787734941,0.00629309720981433,0.0139580575767634,0.0773238707607524,0.074093251544139,0.524552935982038,-375.996641659353
0.219432470783422,-0.0035042218992199,-0.00866615844683102,0.00371672333342835,0.179162335427052,0.420332948101853,0.188286229946162,0.565106354487119,-380.071811090085
0.211879087973894,-0.00103034939456866,0.00222191260872048,0.00125447458515925,0.764012679006612,0.805983773933611,0.75601982676762,0.625515599131372,-375.839566400386
0.23330178101822,-0.00684665047629915,-0.0263797630422127,0.00688599567862079,0.0515839913865438,0.0722995516331717,0.0649116270169088,0.514118646934629,-347.771479303949
0.205018735725547,0.00256897940827174,0.00535058939846135,-0.00101864513864424,0.40182293120687,0.650658292157374,0.769878558248326,0.502140944556789,-360.30690866848
0.204582400441968,-0.000230344137165205,0.00788901616043333,0.00166677940679218,0.941303088655333,0.557341017855621,0.657864027357496,0.602647880026674,-349.799925977095
0.219667718772982,-0.00453267379170169,-0.00471962670384208,0.00155864837747933,0.12812726244422,0.660860037185223,0.597700842193246,0.45234000677211,-375.816012405806
0.211254310964357,-0.00197873929521296,0.00908257744496769,-0.000628153743407534,0.566183585463191,0.486773631252003,0.871139027003781,0.560624182552478,-339.388694067658
0.214657051565391,-0.00186376613113234,0.00105325814536993,0.00122143784610166,0.567749063965436,0.912476564154074,0.725190890785549,0.488699260752285,-351.870420036333
0.230380471518689,-0.00433331019186313,-0.0188681910000309,0.000369578641890743,0.147964274257729,0.0753590654035352,0.912631903796183,0.423070207902975,-359.376748933319
0.219250461362969,-0.000887152279080032,-0.00891739911979382,-0.00128466310116123,0.770192829534865,0.425291951704087,0.668146776958459,0.551539610689541,-375.152068644152
0.222950273112548,-0.00331279836405468,-0.0146049373823671,0.00378253885009945,0.315020191484105,0.220829568313742,0.347181664136095,0.526610419437845,-347.195413354787
0.217896792866097,-0.00589527022226498,-0.000400709603460117,0.00236442504854473,0.0715168615402351,0.972757563872895,0.516495354844235,0.515338136526909,-345.693944466059
0.235115864427082,0.000970739394949607,-0.0218233100289272,-0.002626427285543,0.776838903937243,0.142096359446887,0.506822556567006,0.436919360304896,-342.901189688744
0.224063450330081,-0.00405791602215832,-0.0166811705966546,-0.000157359623401695,0.229754016308194,0.162501571093285,0.967451910543537,0.346387098693342,-340.91390834938
0.215723178495602,-0.00555361033383885,-0.00312486937633782,0.0059606630615385,0.0790220028092037,0.805325496187111,0.102996670242375,0.553218993281649,-346.448326729038
0.219873741593945,-0.00218558693655147,-0.0105069882191484,0.00235874934841405,0.405376600305871,0.436934669582531,0.37359251420731,0.441598108080199,-335.779001290347
0.211396649547102,-0.0016815789085553,8.10829249083045e-05,0.00248332350187842,0.595163836437739,0.995450398424568,0.46492880172985,0.561361225249127,-344.308972659447
0.213656557326076,-0.00574412755355186,-0.004076238602996,0.00506942821011343,0.0531611263866119,0.631840795759337,0.0998421386180513,0.621823332506837,-391.160746201593
0.216358628533277,-0.00153712867285025,0.000784564604199725,-0.00210064168474211,0.55065463205099,0.942455637358802,0.47746240881873,0.468536714021519,-377.366764241019
0.215133618736745,-0.00460522714399571,-0.00291074520786959,0.00343411878501671,0.163561079911163,0.789857751665499,0.372037239473141,0.552928359507061,-365.94515307296
0.224608934145659,-0.00590883202860271,-0.0143762973913427,0.00554878250931105,0.0583365913754865,0.109600740556601,0.154999176990258,0.451340308037548,-349.726555741226
0.215938111933779,-0.00520120082217947,-0.00305944779832989,0.00179685775621596,0.124906384016877,0.739090600181659,0.683949199305681,0.384275470308,-333.139226620822
0.202176648875948,-0.000961864755519548,0.0150561680046583,-0.00270766843986165,0.76685372850175,0.189505853337849,0.423142686493836,0.535326884024729,-348.935269349584
0.226053673587466,-0.000417019052099501,-0.0139713683062393,-0.00298948193217331,0.909231748274705,0.262384022578393,0.45803832280179,0.385916574951162,-352.620527386002
0.221206771179964,-0.00343430540857327,-0.00963983661828922,0.00236587564729172,0.212275169140585,0.276583699883598,0.290325351093358,0.485668719224991,-360.782942373696
0.226270463333215,-0.00133506251457823,-0.0170445099151266,0.00260363537918444,0.697158232303928,0.14542949782863,0.48922983653258,0.510298755683034,-351.979761632147
0.217847102437977,0.000348944345686077,-0.00429194537205749,0.00192034259561699,0.912898842376775,0.747632270029238,0.582852516596436,0.505008705501057,-335.843813289861
0.225015477215577,-0.00482263788869298,-0.015583613494389,0.00458398812706595,0.129680698759729,0.204180503420032,0.140011310484445,0.518329263262511,-352.825523105953
0.226966596784215,-0.00245080802881917,-0.0115186521398138,0.00142148777796381,0.395352295438428,0.362648298297418,0.64815958080033,0.488932171317161,-358.137284109106
0.210681143612122,-0.00224630959893295,0.000794101661958154,0.00294221232866112,0.481421361160451,0.939795228725768,0.365907393149915,0.545965717577855,-364.413887481122
0.221485002823887,-0.00852578043397525,-0.00482433140665118,0.00702927075324743,0.00971177158731147,0.64737280270991,0.0416317780981641,0.526307177089219,-353.048889016721
0.222985101635919,-0.00512720954185526,-0.0172794930647378,0.00353064108478308,0.027944714038138,0.103763585666492,0.214867533330615,0.421975210781669,-370.266579736187
0.212539041628086,-0.00159947453184532,-0.00306615275829372,-0.000229309043774041,0.625617254715715,0.755819541799579,0.950166401811452,0.428256119513456,-365.858336984175
0.23523054650102,-0.00565174512714532,-0.0312458804815348,0.00335572925129418,0.147137031776926,0.0491138768727752,0.467849213028565,0.408498676144873,-328.241499207332
0.221622805862483,-0.00504904893283378,-0.00446456776392672,0.00240772438367978,0.130091151822575,0.777447920559278,0.53451934834906,0.518837581895456,-338.411262844971
0.227764941639031,-0.00364796572102612,-0.0144832797587955,0.000200186627300475,0.243347691165827,0.322297606048695,0.95801616791208,0.391223242899856,-341.098186832484
0.218026048117548,-0.00578248190483892,-0.00780809355895229,0.0019115583825741,0.0161950156157268,0.431120310017269,0.472321671164091,0.504614441934371,-387.123468807755
0.208214310500541,0.000302898586384929,0.00554911622747401,-0.00200438619688551,0.917414687688724,0.651065533699087,0.57859881424781,0.526466719778771,-352.02567823086
0.22104484342293,-0.0052674676908979,-0.00888303353239929,0.0036544405295136,0.105939909932126,0.424084530663582,0.241502570742499,0.42457396843612,-360.602230666667
0.221234024955172,-0.00413250132628377,-0.0196241108957024,0.00451347481847659,0.0904346690876248,0.104342399569575,0.127783624195513,0.540941809770767,-377.298160767295
0.232323952344669,-0.00625222964156599,-0.0232219111256211,0.00618533947722823,0.0292949856878693,0.0892736340362255,0.0543520847029886,0.464269272910208,-353.14003502077
0.214497575059003,0.00159430010542649,-0.00145856641865731,-0.001694582240344,0.657408226806767,0.900529817843727,0.663903261682136,0.539341519804458,-363.24665645093
0.219074143020246,-0.00392967792403283,-0.00564435912680644,0.00236237082054404,0.0794996040627242,0.60829395024966,0.284071936933357,0.39158704229863,-361.511453573532
0.214980670280284,-0.00398630885749087,0.00589208528713355,0.00338407584051527,0.220560934995658,0.505328256785335,0.319019579727811,0.563692627592534,-357.667454334926
0.230015930681927,-0.00488390593933017,-0.023012919845113,0.00408811507389024,0.127847905760333,0.0262382216623895,0.33917777633178,0.534562456940554,-373.763389229361
0.218685727312568,-0.00181398296271173,-0.0101365736460874,-0.00107201694586087,0.587034120457836,0.412872561302264,0.758215537398973,0.465722833476866,-363.920845835488
0.219619409320281,-0.00410502022524618,-0.00425986648977495,0.00284954234899728,0.240691364523689,0.750570164547941,0.433752774735625,0.569422998134222,-357.047998617824
0.224735752545605,-0.0060532538749834,-0.0136031417983671,0.0019555157356533,0.0729210001802175,0.238107069203581,0.570650691733709,0.413239222928458,-333.324403330955
0.224015406953559,-0.00506396818637296,-0.00761076627339436,0.00250873900532726,0.0645672659572783,0.447705344596622,0.384511010160966,0.471450664261928,-365.348670579687
0.217542100321955,-0.00420690050936945,0.00122927588641998,-0.0002106361708895,0.188130475423997,0.923539198298078,0.954890835102988,0.532560641013373,-358.304740834843
0.222174415263397,0.00266713204692056,-0.0145312344395381,-0.00407360365290023,0.442252127932093,0.194133776622134,0.287826761998272,0.488265532112445,-354.824364617752
0.218212436036934,-0.00529411531937301,0.000639771279232418,-0.00280891986757469,0.0612088727761544,0.95117880183336,0.38086409685957,0.521568886904899,-355.706620152628
0.204360461621038,0.00445017734250036,0.0240769539830032,-0.00557616484022333,0.192697451478578,0.0601937746295502,0.147302251498185,0.494801428356191,-308.729347263768
0.210659283772479,-0.00535904032906753,0.00653199189655193,0.00572539140839119,0.0657877001224622,0.577038533711672,0.0779285599412051,0.583397863620619,-367.42241537221
0.229925474705008,-0.0060030270605918,-0.0259590461536415,0.00551057676972075,0.0489676081506706,0.0279914323329462,0.0867027587662134,0.490631329109047,-354.91783528003
0.212490992751861,0.00257725888982527,-0.00777653642561558,0.00120488525403729,0.400482597065596,0.455143463269593,0.727580985044801,0.558182384941162,-366.025360829835
0.225336060744559,-0.00297198214886461,-0.0200462105356206,0.00649571616101641,0.279944209176426,0.051952805986354,0.0269292712833585,0.546063513175845,-376.561421480017
0.214381799205978,-0.00311960890180019,-0.0013439493860244,0.00404411361708205,0.351583923323405,0.919672207333332,0.189250910590658,0.516707422311953,-353.729878602081
0.21178842543126,-0.00403561605333764,-0.00189496871987216,0.0026305866507777,0.203177216466471,0.887665523037689,0.45005204424555,0.446426265231331,-359.294743324776
0.215057804004011,-0.00231966534024299,-0.00227930566584596,-0.000936290961605437,0.401060353952509,0.859073409270487,0.78585988341797,0.417761081787583,-352.97100318594
0.217813200528316,-0.0028447340110966,-0.00499619390117062,0.00345123064459264,0.378235854721775,0.620468170015186,0.291051096889838,0.457528276983615,-353.101708152119
0.220339401980106,-0.00165372650784761,-0.013549367099356,-0.000633915852357805,0.598915685667168,0.30279597555327,0.85448627924588,0.40944946271045,-351.81945613612
0.218615164029315,-0.00392468217012465,-0.0114976255394255,0.00689655116793277,0.175453918518664,0.309877263128918,0.0220305096132806,0.547784431636736,-345.222671182493
0.23256263852236,-0.0070886573682393,-0.026925896592992,0.00712763740083755,0.0132711165603642,0.0302320480663545,0.0504346245907235,0.512495105204086,-358.459052273764
0.217290647562119,-0.00548826359684911,-0.00506030820822144,0.00286945278093946,0.0567536734822452,0.687574753736411,0.333554544414485,0.540224741457363,-356.391906690043
0.225702455731884,-0.0022612625941661,-0.010535645512443,0.00266206663623962,0.475808129982607,0.392311756771394,0.481294551485336,0.553269459419049,-347.034997965657
0.212190334281487,-0.00132592519428361,0.00346117675356376,-0.00409727998198715,0.706334437169889,0.804155494437761,0.344523325390051,0.436793822673521,-349.946594237321
0.220314506729006,0.00111966819826859,-0.010027134241676,-0.00109516727712963,0.722486352037221,0.428120140676475,0.76513153970257,0.618607205069872,-383.469022491037
0.221779390256114,0.000371721286389074,-0.00796476354345135,0.00305416158549293,0.91999611753419,0.540971139977995,0.456227783221608,0.47421817877404,-330.607328990796
0.211950362452215,-0.000170307606187047,-0.00140473654690688,0.0024518872132549,0.961101009668547,0.915771295903329,0.524617701784908,0.565528470647385,-361.265010920943
0.211506938822654,0.00141177621622172,-0.00411780115087472,0.00113877347855616,0.666859919284165,0.723626234634706,0.73084795343634,0.534716727502382,-349.137322068172
0.208823882427029,-0.00151707585533304,0.00814071150234189,0.000744236816069478,0.635224535041391,0.568289212925205,0.852457351821105,0.554269667111092,-342.955842307535
0.224796309921577,-0.00742103769545343,-0.010834227168167,0.00541743631079087,0.0167488378875627,0.367935505141738,0.138405184451204,0.392080337997576,-343.763918243063
0.206620353185593,0.000243841579406054,0.00695536827171765,-0.000811626290363945,0.94062896820422,0.6275399093007,0.839920599890638,0.457760796657409,-325.879242316433
0.210183255388079,-0.00486559901980096,0.00391649102898879,0.00407171094545764,0.069769258343395,0.700851460088401,0.132226319802842,0.557649194166859,-361.543396255866
0.218901132351795,-0.00424531114779609,-0.00370771633335964,0.00195011581081071,0.19241173984433,0.731233890023335,0.50828510011946,0.495869616667525,-361.62086604047
0.2171537448214,0.000121942140492035,-0.00843835089789015,-0.000281143808866395,0.970190497715963,0.463331623997597,0.927853599408809,0.43615886378485,-360.834793859949
0.208530001614296,-0.00487636363193888,0.00834066757318294,0.00557154962772463,0.154820018298811,0.447881014622215,0.065397401060936,0.537376212587481,-346.449612398627
0.217231694106853,-0.00518187306026711,-0.00296064598676193,0.00259480345026409,0.113150388426625,0.813488033950775,0.510575576735119,0.388342426164495,-350.834555072071
0.206149468969852,-0.00436401737684633,0.0104506167856523,0.00287822666259913,0.146532971299785,0.456152350566759,0.383138367413833,0.553488549795079,-340.528921792583
0.214477486325491,-0.00527782284924124,0.0028966554960756,0.00187828284485041,0.0820769369516672,0.718805949500758,0.577824883444069,0.487687751579726,-361.341436268087
0.221527387535892,0.000762058344316293,-0.0211430373256872,0.0029079975159484,0.819220862962855,0.0552698688523555,0.435253878098601,0.581548960926632,-360.634381049992
0.220774556353887,0.00276485066784553,-0.0105051902753216,-0.00388394196516207,0.44784991307538,0.287203656825312,0.3241149733885,0.45235017051838,-356.559148114626
0.229037708909658,-0.00755471974699986,-0.0181056493857987,0.000653038868929048,0.021587313784901,0.0214564721990127,0.80109029982928,0.44554029162065,-359.415969848748
0.220400559073612,-0.00349203827145733,-0.00489525190690157,5.49744620417302e-05,0.205554940665354,0.640601443319268,0.986456348240091,0.412753961622356,-378.966622530249
0.225697607697509,-0.00338760735177774,-0.0137426942324312,0.000173473454265646,0.345892749566455,0.204753901854945,0.967699422175867,0.455914876907391,-354.410275691312
0.224230404408911,-0.00502540514483582,-0.0117133708628847,0.00479496761563271,0.0934485038908213,0.189136158857735,0.133292912913649,0.477966765056252,-354.041357108488
0.221238694601881,-0.00340018536876101,-0.0178028641510901,0.00366521537383332,0.262785087887616,0.166896753252074,0.256498314542138,0.488598249431696,-363.449504583307
0.2133988122027,-0.000824303195978912,-0.00166934788180474,0.00246959307163014,0.813723968437396,0.839692076996474,0.51584603667114,0.508881655682501,-368.879786786172
0.208442734070516,0.00522528841010297,0.0076132101771235,-0.00571401230707773,0.151370883483368,0.544027725816821,0.218714868293184,0.397445071410016,-325.259257853858
0.2161986647646,-0.00319337659230987,-0.00286841114998901,-0.00201032385479913,0.357395302225303,0.784322277721186,0.59848341896347,0.370614836835213,-346.925695343471
0.22081586758743,-0.00350541680029139,-0.00691401076210635,0.00109846319476691,0.243506982499228,0.54752300269057,0.755948257846782,0.529398539342491,-352.478280696746
0.222682812392546,-0.00498802133222054,-0.0111805742428797,0.00467599599309545,0.0898743712540506,0.318538355127652,0.104851407207036,0.472957558860772,-349.395914148257
0.210019696469051,-0.00182692312231799,0.0021069160589943,-0.000586241456935627,0.52076066339268,0.862414831229605,0.854937389336329,0.499347958942294,-368.902455877296
0.198669612097942,-0.00324835485631679,0.0170106647811836,0.00577282608897621,0.330121918463899,0.174433415308647,0.133484312886818,0.649038538889683,-344.542581585504
0.2179143529739,0.0008536723991199,-0.00499187668934816,0.00206330907626895,0.771342003994219,0.694948158429398,0.583433295597637,0.529864242304933,-363.174603614991
0.225078457777923,-0.00215435700985397,-0.0124711027575262,0.0013599587897184,0.479805661899301,0.280682570621103,0.673286089650808,0.508098868477813,-362.479972782777
0.218488447495454,0.000561909440041146,-0.0107938750095763,-0.00338494416444338,0.855530359401201,0.406199495347221,0.338671792601783,0.394725431137427,-346.178182319676
0.212840174541943,0.00134896552129201,-0.00168536518503917,-0.0021230504243208,0.642900844323931,0.887523405610764,0.459874329815425,0.508613747231844,-373.46482640303
0.213471387534261,-0.00428189645031566,0.00606382748006098,-0.00238962254785959,0.0944143972876848,0.437921490435759,0.385539336856795,0.4887332918566,-374.796718949796
0.221016054588919,-0.00678288788538742,-0.0135654526546367,0.00608963405541282,0.0315531969156722,0.147260733883562,0.0374093999507532,0.466344383936939,-385.049171997178
0.216482849926458,0.00397008750404622,-0.00499654983931903,-0.00182359843726848,0.30588356274445,0.675298304728972,0.650691416450682,0.483587318732757,-353.660675739365
0.225191753985991,-0.0022680133854825,-0.0150776613574345,-0.00164675699896218,0.514402178732395,0.27475497206557,0.690105615753758,0.345643344995619,-340.971359391463
0.221908279974096,-0.00224928882311618,-0.0136931321298913,0.000361763417830642,0.376835669561208,0.264980164699831,0.882046439198249,0.389655052949727,-344.036107244608
0.220386976702387,-0.00694882810041386,-0.0134668835114295,0.0073981469379551,0.0204610564836356,0.232352716935971,0.0294167287714534,0.523256559082641,-369.567506814113
0.223958546456663,0.00187491650202365,-0.00980059812694696,-0.00189604478311783,0.553478584836681,0.317632619539151,0.592136108637047,0.500473084117092,-359.218816643177
0.227949459055832,0.000246487575791941,-0.0251618374427881,-0.000988754214892534,0.949524424433157,0.0808149510252843,0.822178591541242,0.484998467312872,-352.023672886222
0.224598826845227,-0.00188484395631039,-0.00398732914285199,-0.00138904317671325,0.596306506046183,0.742113465842473,0.749577308113243,0.41680689311508,-322.208855466039
0.214513119448529,-0.00358279540885747,-0.00179340598980396,0.00025802256425988,0.203761247554376,0.879494800554663,0.932834799444832,0.484641673287605,-348.248110456147
0.220592062890168,0.00372046060448221,-0.0119899862060833,-0.00201926191836689,0.22431421905072,0.251632914349091,0.491998508751021,0.549579025239087,-364.390112756869
0.216364148114708,-0.0011081196167362,0.000808118867756737,-0.00185240632106385,0.698656326054004,0.945413347407395,0.57968266136465,0.561533170100121,-360.836365567342
0.210782012930726,-0.00384739373065591,0.00393985219153512,0.00246488839272198,0.168641819457314,0.75368941054894,0.464531844990406,0.585533424112334,-361.768425532791
0.225256473712901,-0.00418422625240152,-0.00968639006488204,0.00178464700470366,0.174664829176273,0.396874858002786,0.631486634982569,0.475135699542488,-365.111300018878
0.203573402539631,-0.000938266969991266,0.0129251683616937,0.00129145962036645,0.780981726533227,0.271884596331614,0.76198004797412,0.557899899532466,-363.213258215823
0.220481865902569,6.84336165706344e-05,-0.0171400037873909,0.00172367430018835,0.982218295768262,0.160998150279484,0.571690948362283,0.535437217230656,-365.345677938345
0.206633853396376,0.00125898337558581,0.00206411925173584,0.00079157869450121,0.637573062212699,0.834365681379857,0.796548393339706,0.607340727228369,-363.338961539817
0.215320752164537,0.00119840973106371,-0.00471296274594834,-0.00350871743648109,0.635171034552146,0.672935596920234,0.214197962863726,0.515625609437565,-378.113246869998
0.22845029433174,0.000240956092619893,-0.0213149270450476,0.00125776833983894,0.944640322392425,0.107858224397621,0.748758657679508,0.473523321314074,-340.745692979099
0.22366106253405,-0.00645028932096852,-0.0131747683898178,0.00785327610151543,0.0694537252272848,0.308377784865731,0.054457184630693,0.515517297016001,-345.371196938336
0.22703690423271,-0.00425755692763898,-0.0123594470407007,0.00298260888541683,0.20507021064752,0.355483731638844,0.467400360176511,0.44656663162632,-343.015036422284
0.217520244342301,-0.000608806531716032,-0.00358607215687558,-0.00017092852228151,0.881178723779721,0.748060368429616,0.973441789978575,0.450274493695005,-338.237396959927
0.215922493177592,-0.00156809469396013,-0.00521345391309217,-0.00023179053876614,0.56395931319764,0.602156900413494,0.931008665493251,0.46659897890608,-362.83722394727
0.223702688203558,0.00475976979084772,-0.00894279468730531,-0.00867701815128057,0.19215524269231,0.516170259565025,0.0213201756856444,0.403012405795223,-333.924508511403
0.205919433607647,-0.00252177683729007,0.0142655048396771,0.00557049591951339,0.472561672220967,0.318177245658305,0.185186895985477,0.607764469299005,-345.399185823167
0.200278087638532,0.00203396568601076,0.0140093375980881,-0.00107370074566168,0.474586248644041,0.254411569877478,0.741515436601277,0.633389258831678,-357.012567477917
0.224599763164234,-0.00871249817639869,-0.0116374703003568,0.00673969524708693,0.0163252685946835,0.371904274503927,0.0946998713358939,0.512944431854647,-360.859699511442
0.20296811226942,-0.00221211201619724,0.0125811496791415,-0.00021579849111862,0.480469409839216,0.378498466853654,0.945579331591559,0.462156990485617,-335.294548911711
0.225029961147112,-0.00632882194626731,-0.0173415186323804,0.00112213006441828,0.0402922978078174,0.0753488954411085,0.729413620012029,0.414845912144247,-357.082943798711
0.234810253585978,-0.00728978115251471,-0.0287472295891194,0.00468527111609914,0.0149462765621777,0.0122429109058024,0.139053318603012,0.470844617421809,-385.798225159371
0.219832006839322,-0.0025358488193566,-0.00723043242880708,0.0041394186401996,0.435961740502406,0.535464248415373,0.210746224763305,0.563837274485362,-352.333093931391
0.216097050129789,-0.00333889957993483,-0.00178369593762263,0.00233458983796498,0.237516864264331,0.891399219584006,0.503237142805189,0.544068869378587,-370.941813302454
0.224183755233841,-0.00177325778133997,-0.0125386865168365,-0.00174549158016562,0.571234148407403,0.212277981239029,0.649213462179184,0.343202853622829,-348.149170791681
0.218018400093901,0.000470078057802627,-0.00577419859437806,0.000337946823058189,0.863470908832177,0.659259382647224,0.915024593230507,0.576501704885305,-386.659132962983
0.228435933939607,-0.000731813327809561,-0.0143822976081632,-0.0030882276276658,0.809383554889589,0.121621982864143,0.345774146097541,0.368354151704351,-360.858465584663
0.220054891294012,-0.00872111309195525,-0.0100880828613493,0.00689378409222157,0.00205509923094894,0.300664205492944,0.0322816811660527,0.530603856551529,-378.012338063752
0.213335156664281,-0.00160718020316648,0.00225757367512472,-0.00345250985656496,0.653516966962291,0.83880579226804,0.426700934411939,0.386001325689449,-356.684504318528
0.225592076680673,-0.00356517722028845,-0.00719947915668917,-0.00361537128892996,0.232950882797077,0.454520777088358,0.294569900608254,0.409169558678437,-373.739429423906
0.213776197138782,0.000911936267278165,0.00125618227340942,-0.00372476636776021,0.748855877869509,0.903766329991289,0.227214007201574,0.555367083654359,-372.457065651004
0.218159681075917,0.00242896406070649,-0.00752000385615297,-0.00228622730244035,0.381510167945385,0.53860520422324,0.43604723934844,0.407425731881489,-348.312215517347
0.210764075640987,0.000886308321219249,0.00274604187956903,-0.00015654866249744,0.77153786482773,0.797120531716985,0.958629661767909,0.564578637208277,-365.616782827522
0.222365005272026,-0.00313598873773095,-0.0116815691874075,0.00314950804991288,0.448531482040767,0.312736325690535,0.460623990490594,0.38423786799759,-329.357586204252
0.214327134610442,-0.000146770101773586,-0.00244447697518024,-0.000628049839579374,0.963442860040214,0.83285547873034,0.87715100952661,0.356068823388992,-349.185234328574
0.207599483402579,-0.00382606196804028,0.00525825604347218,0.00412575998854539,0.214860634116826,0.630978851940411,0.217091430813968,0.61993111533225,-361.776163108459
0.220576225693133,-0.00480981160576483,-0.00729579811609114,0.00267443887866211,0.136671409895998,0.547784889438665,0.408650810452953,0.38297906160807,-352.423837336526
0.21401116213307,-0.00236397135038211,-0.00299305751347567,0.0029784298018471,0.342236366100795,0.781034397771029,0.288875765135445,0.546259247433763,-381.210168957084
0.214886651654681,-0.000340212973475997,0.00120068855293005,-0.000466143188104022,0.898561099118622,0.923905241565774,0.88755798520671,0.536926899442425,-359.730907866807
0.211785269820019,-0.00105709173655658,-0.00132180862784821,0.00114015580128307,0.738913630486946,0.885116280167199,0.713541781988436,0.423551154200934,-331.020134607405
0.21188436638658,-0.00266249543721632,0.00486590725120138,-0.000660207520694828,0.354131146995407,0.680972067537183,0.839929674339107,0.483428593577346,-340.962161055858
0.214236782847114,1.55312143835955e-05,-0.00277005327560458,0.000306165485399365,0.995425244650775,0.808239722191422,0.922322298034874,0.464304469744688,-362.416681989325
0.216055843345478,-0.00567278819651553,-0.00662500757730267,0.00319825696158259,0.0577211288202509,0.613911645661376,0.254114711518136,0.443746193407709,-352.338815238296
0.219211040314168,0.000962016767175821,-0.00415997427905403,-0.00208580737427847,0.735388095047382,0.688751959667143,0.533759584883586,0.532741687422784,-371.920941664586
0.215770697232638,-0.000291249399754758,-0.00722952266936934,0.00273872834673178,0.922262669227752,0.547987230234635,0.371752156372897,0.54596121471551,-358.618684190372
0.211303776556428,-0.00335663244610829,0.00735409739512391,0.00134896932950427,0.317468767348446,0.48706987063927,0.709878705652773,0.540891769294911,-362.686851582076
0.207109484283645,0.00151500609506873,0.00486119898279761,3.65286983163498e-05,0.594781628411182,0.667294428594223,0.990445868249318,0.647032693383492,-377.74262958735
0.220206532190431,-0.0033652416906288,-0.00554156538668998,-0.00155477905387195,0.240567084959328,0.640295855252369,0.583201543487831,0.434232478686933,-378.871020004255
0.214010400219306,-0.00125903628293658,-0.00329652255988582,0.00188577365500084,0.638300506739533,0.741970487800121,0.489787487289968,0.519333749714593,-361.963408265138
0.220104169884702,-0.00192508895397785,-0.00613822803105492,0.00216889525103719,0.477976106940288,0.544494333757803,0.373851879576793,0.504356148471141,-353.687734084038
0.215044693770288,-0.00364774426183608,0.00160866911400426,0.00406382684108543,0.328770015519086,0.895429735890354,0.241188967583063,0.523630310547102,-346.752597963083
0.218370039451022,0.000571138501656558,-0.0070433520373923,8.84650773913133e-05,0.803877045879265,0.491213290107498,0.977164880439778,0.539485415060046,-359.262573644791
0.211182678859839,-0.00075449899450764,0.00874625472942852,7.96203858017436e-05,0.809158304028495,0.427226776131828,0.981975006132349,0.574306220645198,-369.007974040758
0.220185079730678,-0.00762758273906737,-0.00413148116674806,0.00496702119884181,0.0175422758192766,0.710522662718378,0.16298966247804,0.414895338393504,-365.982772409957
0.226225913902437,-0.00288888811891915,-0.0192383479640808,0.00425799572591156,0.284824126754702,0.0797860237122922,0.139950151670838,0.45279849578934,-356.896632419868
0.22017417042666,-0.00218054396418367,-0.00675449315917569,-0.00119865665477959,0.542250660555112,0.478377480647949,0.733545698041401,0.298991579368857,-326.459294383816
0.217515324612814,0.000305254480848906,-0.0091494998810079,0.00291305051668163,0.915957761196536,0.468362753323274,0.369302327612744,0.600626783365662,-357.954635177593
0.213489432142612,-0.00353860437268382,-0.00400674439906672,0.00156987197761358,0.234222582140768,0.77222762780609,0.640506149525643,0.459357922059304,-349.773155972636
0.218888257051551,-0.00636870385107773,-0.0007758397355416,0.002671481891476,0.067689493144589,0.944823088788328,0.499369929617432,0.37061277262245,-330.316317841821
0.210045617366303,0.00245729023227032,0.011386845754904,-0.00257165839963366,0.443123331854671,0.301832017502215,0.493956087289594,0.584877840462928,-345.671594119125
0.212599316648298,-0.00197835626151808,0.0035186364119249,0.00406565562699071,0.514180388466882,0.79055796586507,0.16298057926748,0.594369207115443,-340.113294838457
0.224134141458934,-0.00349536498450234,-0.0162705454624529,0.00375668231619172,0.261340113042806,0.223494331299568,0.301492752025345,0.455647108635342,-331.016922839097
0.233113155407714,-0.00634297165334931,-0.0228576263445829,0.00666866924411949,0.0399533247856049,0.0721880539875943,0.0860996900743852,0.486256484681865,-352.475573609899
0.204322187161006,0.00128942013040717,0.0170428955872214,0.0015838970797503,0.680271795558991,0.154169512876022,0.644296368204637,0.634370593214992,-345.797913959908
0.226212097997783,-0.00381637013075911,-0.0131805698196141,0.00202294032243004,0.250158128028746,0.261970584100897,0.566196468775552,0.438645576581982,-358.871281342211
0.226351801185336,-0.00322058431313045,-0.0145756466772601,0.00295946130537789,0.304370966161196,0.306365634826182,0.452734361127632,0.47496854509575,-345.762541168405
0.204210368993818,-0.00300297618292125,0.0146854841529321,-0.00443633379884675,0.313464315205792,0.254468401639674,0.256169141319004,0.53256399811061,-358.991256821989
0.225663514547596,-0.00451936230246986,-0.0140972366126558,0.00510499053364584,0.107732824980895,0.166909435495647,0.0903844079293158,0.502005340065692,-377.254372587512
0.227096304944945,-0.0028922925665025,-0.0207782585421041,0.000329518682682715,0.41467124672899,0.150727073205113,0.936846259298562,0.402349361691251,-342.435234358499
0.221052601539277,-0.00234585890393696,-0.0114440117040452,0.00296901206153628,0.386609689909631,0.335774892747199,0.332838829520387,0.481369937677092,-359.280213286459
0.226888294167437,-0.0091837737391887,-0.0157047127648939,0.00759537626828247,0.00818846406237144,0.265480057148571,0.0427097176608005,0.49559470218351,-363.320789770224
0.213297317007354,-0.000868400941484668,0.00393668833137299,-0.00130767354207248,0.762324780655492,0.731711553544423,0.705374952378479,0.427376998188504,-362.119335621699
0.218234383167452,-0.00017597757795075,0.00549613675699492,-0.00349944083714697,0.955623290575641,0.577604106997113,0.289958847371765,0.505753863657241,-336.525163583798
0.209260131782383,-0.00383276317561423,0.0117432380903294,0.00201929735078194,0.17726392695343,0.286959184884634,0.555135856978818,0.570156602685035,-353.341372794416
0.227650550925226,-0.000610470141859539,-0.0126426452870439,-0.0039092104584206,0.872209175352234,0.210459983523565,0.385907945700503,0.36795536906756,-358.062855654398
0.223364099996433,-0.00132993804903186,-0.0134899482859562,0.000209101090966424,0.618987954691136,0.186280817336569,0.943579188874706,0.5261566173079,-376.036962015036
0.219191007738703,-0.00514306311953822,-0.0107926382095683,0.0042092126500216,0.0350887708855248,0.318051265581781,0.111132596088556,0.516552000824404,-373.342344680089
0.220506590305353,-0.00403030025851011,-0.00341907922879727,0.00143639947075838,0.247695472377835,0.797005418509174,0.716258042076609,0.447272274955888,-346.250569924707
0.216842560486129,0.00493814106494223,-0.00763235835440724,-0.00301243147711741,0.0963604152299621,0.538353044044294,0.411091933336552,0.447457584492616,-344.763707959984
0.223057490090867,-0.00285123523934153,-0.0128921849360307,0.000811635983766438,0.297338327776488,0.330649575210082,0.776536325333588,0.507415347481604,-364.425606514492
0.218343625476364,0.000992774165790677,-0.0068338636455125,-0.00115251068319628,0.689172296709763,0.322159982614827,0.576556034643124,0.526139520110526,-377.864303012712
0.203476296779306,-0.00473834836311141,0.0154651020797908,0.00643350211795547,0.227998948112892,0.275033781980486,0.204398577138412,0.560299108744937,-339.657698009791
0.213516296976668,-0.00112465476569984,-0.00174697292848975,0.000239958386192832,0.672447106675477,0.891425870901961,0.934095874754333,0.403923412680435,-349.004941650611
0.218304572942757,0.00388936443419848,-0.00370582805832559,-0.00508475341854421,0.194938280083831,0.770312140375129,0.122142692840527,0.496176237245115,-376.469127439617
0.236539745092749,0.00139990557877767,-0.0231431359367678,-0.000685270421263764,0.737541065209753,0.134658066440606,0.87830913877117,0.463323689539754,-320.833089837207
0.222353682093554,-0.00237238575883099,-0.0110549988710058,0.000729173711141968,0.489444741790815,0.397324138683617,0.841257624932344,0.406404904259059,-352.533887529265
0.209797249434733,-0.00446106371212554,0.00274312464745877,0.00427489778662996,0.131128637746494,0.811185751363769,0.220467382876623,0.637593838567418,-391.713336600081
0.226433712257502,-0.00176521248441212,-0.0196591340863965,0.00215194008342115,0.586663767650817,0.145433800394425,0.561574349322339,0.412371748854905,-336.903540724401
0.223655332840658,-0.000951162203350183,-0.0162342203785046,0.000813198148819401,0.799172714980651,0.208550852121767,0.841997302856714,0.474565706389694,-354.964973948267
0.229143997700766,-0.001074124606868,-0.0226693966615249,-0.000871852261615213,0.748446998683055,0.0600407354680877,0.820911169194919,0.443440608629234,-356.852563490801
0.213601443002049,0.00116560636746348,-0.00216306815275464,0.00177358620756513,0.720959936121287,0.84475567376205,0.631840384368056,0.524473823106591,-347.044673256149
0.21617938687661,-0.00206157847372144,-0.00220029705143813,0.00222064092051011,0.473472814615494,0.844461496700202,0.424573509709761,0.451622140715803,-341.116189324075
0.216908606563057,-0.000527288607417631,-0.00129902073223378,-0.000160350493010653,0.838072430544745,0.927178628491232,0.957903877201338,0.497631349425975,-351.371211531336
0.229519510666771,-0.0031894561391245,-0.0210925344195556,0.00409333492587304,0.317861128548079,0.109412041975142,0.280512217286338,0.458347452118769,-363.125565931352
0.229225854540601,-0.00336159806381185,-0.0236700753233788,0.00287290796728946,0.221135696878198,0.0627150062026731,0.350289815685815,0.434771220600243,-352.708566200383
0.218587994897004,-0.00506476717981834,-0.013419978762179,0.00345783967720942,0.0580233176651785,0.200597225513918,0.292323612749516,0.537228541757827,-374.289181182429
0.204590935785013,0.000220444929455022,0.0118971170270093,-0.00408469034721174,0.940885966914967,0.345886171700663,0.167179686362884,0.570618241769042,-354.54394967753
0.230734159874101,-0.006494174844243,-0.0192180475765412,0.00363722230766823,0.0836940655777841,0.20372358141984,0.387387226595044,0.388707511979742,-337.773212901251
0.22921418899943,-0.00457185043928325,-0.0176592886881815,0.00430430577097729,0.147607437653115,0.0618603154015345,0.208568860564648,0.5142261405235,-359.54047271127
0.232038652059694,-0.00851203790567754,-0.0179475105918158,0.00415039618510562,0.00683974999038059,0.133364988617394,0.219546434119881,0.416832474753237,-364.611484556629
0.218850379120741,-0.00291502953343155,-0.01243586260574,0.00342745672618151,0.249638790390873,0.242425991608528,0.260376989223568,0.528270743869001,-384.948148816191
0.235948635435994,-0.00391489720279997,-0.0206933651171733,0.0011289956473863,0.290538164913241,0.109700702912343,0.76544288766624,0.411350020014556,-341.659260272319
0.230866221508541,-0.00711793022994327,-0.0174497414270178,0.00490697326685391,0.0137263035438648,0.160031111390748,0.119133115828497,0.427963496406648,-353.734297361548
0.214803317764048,-0.00347010313085022,0.00245784709619047,0.000783905514458988,0.289752413198311,0.846909546091783,0.835042801769495,0.472285258207501,-335.910738473484
0.233561569924733,-0.00567219906033394,-0.0229003772821766,0.00416122137350371,0.0555882338445871,0.0220531485816663,0.212783575062661,0.517021576234278,-374.558948188432
0.216788393295382,-0.00451599536357994,-0.00364786368637793,0.00284758173238561,0.158864809599858,0.665092141722424,0.403010443382874,0.50278087434652,-369.045891810698
0.223361866185386,0.000803908396892092,-0.00740118124355816,-0.00320677481722149,0.811375682552552,0.540333147094817,0.432836964250354,0.368007464793223,-336.561395128396
0.220009697120212,-0.00162950669539785,-0.00620611911700953,-0.00316873446139512,0.525458372881879,0.483628592240392,0.247747355427782,0.405142219031214,-337.648895942761
0.221549612406863,-0.000696327485554921,-0.00486983434519306,0.000841721472384874,0.838493501955661,0.706395255045158,0.795363791732644,0.556786343176233,-367.439898325663
0.20941616252199,-0.00397590237878292,0.00242159956477603,0.00198095514819101,0.142594152716159,0.82123419836283,0.432496666664086,0.554527055799055,-371.86056527688
0.208259801127518,0.00365108344330094,0.00600681011885128,-0.00104970467054624,0.215963914256688,0.576210664856075,0.757214591945976,0.58755933226965,-358.897552892021
0.202367171372637,0.005084187319791,0.0172695356284123,-0.00559322125085693,0.107665183436913,0.173728332926978,0.123118341829951,0.56258420142004,-352.358093771204
0.215346145750227,-0.00486996080820206,-0.00299665008483215,0.00393395059196889,0.135012455669525,0.762307946377643,0.276202528033116,0.582584996701505,-361.559894238127
0.228681358330597,-0.00600933896923047,-0.0199012938187144,0.00419278531883261,0.0631538834205032,0.12381274090604,0.282622477297134,0.504532708580764,-358.460545670313
0.221876394985907,-0.00212463087405896,-0.0133406143172222,0.000727242739987386,0.514842948696622,0.341323356361808,0.850168024802259,0.406952960798899,-359.563276241131
0.21579447637881,-0.0017883863090509,-0.0027706624412431,-0.000204609038465904,0.55174823314143,0.832029805724254,0.945068202389499,0.502750389116761,-360.32940440373
0.221436891608877,-0.00838241444202969,-0.00955151291939302,0.00678038293679403,0.0182787552596726,0.503819111673304,0.0729217074290323,0.482231417029231,-336.184478917259
0.215650127465631,-0.000700736152110734,-0.0114894931414478,0.00132286193464185,0.837404126149295,0.317097137821392,0.730492025024256,0.485339598849705,-369.803797583233
0.210005373784894,0.000395902552797956,0.0058454131401603,-0.00245986441895844,0.878596708762938,0.56775160591959,0.302417427956553,0.531298003206623,-376.400428624811
0.214512432062303,0.00086952335352584,0.00713428028743853,-0.00429761183459392,0.758156982060311,0.495929005128514,0.238365973983932,0.484781653772583,-369.509684563161
0.211399398913864,-0.000815168901459597,-0.00409066236543076,-0.000508410343278192,0.79183052359034,0.760459112971282,0.888628410569337,0.401506106504175,-341.394971677638
0.216973720510118,-0.00510869324247968,-0.00162839126862614,0.00253110179196894,0.0761269398551498,0.881243570388599,0.436453819273663,0.583635797814964,-389.871192536351
0.222075936348581,-0.00527515507903505,-0.00907351388974586,0.00255162989627378,0.0389860833037522,0.502085456950208,0.412524330040724,0.471667882214807,-350.45591205519
0.215798840973736,-0.00134427979392358,0.00150637107715471,-0.00301819605485022,0.60965221160521,0.87622206605994,0.245354867012404,0.407993600680051,-347.481071648383
0.217779767540309,-0.00106266776119423,0.00113788040197197,0.00124718044756211,0.76381729304218,0.92635025059561,0.713711593658871,0.465536842752799,-312.175099248205
0.227172245443475,-0.0059035305234941,-0.0214730564743512,0.00366655563072922,0.100253241729178,0.191268131769443,0.393330247116814,0.502479287550755,-348.184074735151
0.221996890805466,-0.00251305099380591,-0.0121122692378632,0.00272596855095385,0.370541513668224,0.306992927449887,0.404057231295845,0.45476624851603,-350.611098811801
0.223951634952934,0.00150975825837705,-0.0138703790521935,0.000242533926491437,0.648881843481465,0.289531423373947,0.949914797349733,0.408355576454687,-347.579936739885
0.226509543384969,-0.00258409061359685,-0.0116385717795934,0.000283690436864706,0.309847811325117,0.227625672323216,0.928876834783965,0.468341872284894,-356.411532417863
0.23209708626075,0.000558257196568692,-0.0171631380476128,-0.00505210545790764,0.850057909977914,0.206301024541826,0.167206893636698,0.424987880856898,-363.641944040206
0.210051523934854,-0.00444620051897703,0.00730956160471556,0.00211858256816812,0.113782841234958,0.415171732039034,0.373364744154316,0.573668605029084,-359.224349768814
0.231120400291385,-0.00956549550462885,-0.0181883378711514,0.0058255683484751,0.000218178081215268,0.0830473500195579,0.0442497399232862,0.433899788734597,-365.164565141107
0.225072461149274,-0.00314267136585799,-0.0123314669131923,0.000860358033420362,0.313511127232654,0.365585463228155,0.823672537999969,0.419037020904934,-365.164910787855
0.218729247123199,-0.00158585592277703,-0.00853143808352614,0.00261548039946226,0.634031075719618,0.560599632993051,0.498579787988896,0.391637487454599,-319.037855537378
0.19814289289083,-0.00463451502779419,0.0230067968687236,0.00513514643694184,0.13082770677166,0.187755901298303,0.17671729250994,0.710606915883581,-348.805861076376
0.214595812751212,-0.00869150015741627,0.00909334329896117,0.00456985914849389,0.00471368056405424,0.455221141040804,0.204715858274269,0.610567265175653,-365.982011939951
0.226074794480476,-0.00439675841077288,-0.0139386428021394,0.00220021100968032,0.231077385998919,0.348212058598807,0.575100844412537,0.476494959266936,-348.135607275441
0.218912352061529,-0.00241649800104183,-0.00499510874617195,0.00437085309004164,0.460332847352872,0.648184838965265,0.233119918724062,0.562849081397959,-359.010517997908
0.238020423644133,-0.00637690818940896,-0.0267220755845277,0.00450285199109918,0.0554482058799358,0.0182926019705275,0.175726862917232,0.456041465984254,-352.956542342647
0.211858879284064,-0.0015735024558085,-0.00174644916787559,0.00203434295916537,0.505313780381376,0.827590852759447,0.262685412800415,0.543338525514511,-376.320619684024
0.212120725384471,0.00012226068721829,0.00275349921194707,-0.0027269899983791,0.972279959628675,0.836787851363908,0.487650514402795,0.37675491702288,-330.041204403125
0.239657104445195,-0.00620341428688284,-0.0306891752161001,0.00245116116984189,0.0577514761072319,0.0179209936381186,0.522248366622648,0.461964916980592,-354.219547357476
0.213443946590296,0.00121304267885816,0.0037268158679212,-0.00131513219216502,0.73508956991884,0.807699044319288,0.761851141532093,0.513914622456737,-340.944659082352
0.213220860031701,-0.000294414810711751,0.0065826817971836,-0.0016682585031095,0.918470463566424,0.539711339273856,0.591410392181491,0.539632344409252,-369.149575631223
0.2223009737448,0.00322282803704885,-0.0160542513908552,-0.00308957099151357,0.236929779008666,0.179335906374891,0.322223633212376,0.486103141164286,-379.495693302165
0.217607923786375,-0.00199238406764069,-0.00245112000288383,0.00112908207350854,0.477512246990673,0.832739947230421,0.725069247626423,0.569035275110101,-370.313623803415
0.22394994738078,-0.00593448462392518,-0.00733904923960861,0.00264766347926303,0.0651549909643694,0.558351400967131,0.488927732158184,0.563548822150428,-370.257442913721
0.22743509128521,-0.00391451414646394,-0.0158363071860555,0.00177813911033368,0.290789535626655,0.244349912867801,0.62325680197923,0.371294749302587,-341.108280515559
0.231254410675363,-0.00163648578272549,-0.0251003563082051,-0.000863115577813375,0.644766108068521,0.0653606396021172,0.838131134721907,0.462350328956729,-354.872491370212
0.22343699131011,-0.00519403735087836,-0.0159304510157038,0.00517615198165379,0.0660497511671271,0.161971129245385,0.0940679775484035,0.487226856327539,-356.316682141442
0.203732070168818,0.000621605966027909,0.0132580943799098,2.72718865655082e-05,0.860135767377327,0.342634542803137,0.994461323182714,0.515592539804112,-336.042696976306
0.21764678777583,0.00231009269330484,-0.00216018229600288,-0.0035240440158802,0.396980246621244,0.844119970891124,0.140749747991716,0.590958879642965,-373.475070194217
0.21757033976008,-0.000809089482593048,0.00137305359967882,-0.00141085160074219,0.81284175131967,0.921255409117734,0.712579240731718,0.440039488774739,-342.433710934255
0.219463186542626,-0.00658567685092975,-0.00765012584320678,0.00370031104320938,0.0574174891993836,0.522875980327305,0.31710346141778,0.452382805817147,-351.552721093881
0.220283178528013,-0.00470329214643025,-0.00933177767640552,0.00409963196729951,0.121331799099959,0.478141185755124,0.144709305516529,0.544103796935741,-371.473437716047
0.22385858183455,0.00162855379122506,-0.0133955554846464,-0.00112116941590949,0.564024255572775,0.203716589789315,0.719751588333279,0.470278707873169,-348.067992686961
0.223418800309269,0.000392890857576682,-0.0146881870230364,0.0026192906065147,0.900917474209519,0.229651171611304,0.468336635112032,0.541876670296402,-349.475740458563
0.210741125407915,-0.00138180209780906,0.00702830767382414,0.0043974172596125,0.642569456311482,0.581017703968226,0.194464615984211,0.621098079397703,-359.868362259846
0.210043225889087,-0.00284378690649163,0.00580450140790362,0.0026907531104097,0.347943734366139,0.672420872209027,0.460796269822015,0.613230661520978,-364.288973395981
0.210681276926594,0.00275826195584031,-0.000123705583448562,-0.00100923726568776,0.358074346909181,0.992139207438503,0.778048535815652,0.573620020471048,-370.388113087199
0.214996532961673,0.00289422057721903,-0.00633222505830157,-0.00104270870163349,0.348089898276871,0.512478415608338,0.733842945529404,0.493126897697758,-351.44269797615
0.22702677105967,-0.00430550452186191,-0.0200663832915921,0.00399951720735654,0.209300180389243,0.125564937723867,0.203642853385157,0.465615333376407,-356.699478321151
0.213746659157321,0.000419276433924261,0.00299547430708248,-0.00456030762873501,0.879022868934373,0.799276542336701,0.176062820514187,0.495993639858165,-361.669152074928
0.212213941139875,-0.00144373947678072,0.00364387650295243,-0.00202433719209552,0.648958822821541,0.706234029950718,0.601847075884016,0.422491255253029,-371.535052782091
0.219480380349531,-0.00335343239151406,-0.0104349012275294,0.00306118737987988,0.319427576687518,0.401934944340191,0.370120465991038,0.468167333982071,-354.553730181626
0.216417886601366,0.00427497301538386,-0.00630979690734123,-0.00164640924148881,0.193678727881176,0.6497596733703,0.601659650868212,0.486999237382507,-347.841427356718
0.212456186505864,-0.00649531502981125,0.00685652861904699,0.00307504716257206,0.0331841387096462,0.620183175095437,0.407818094306109,0.574548085559282,-361.09493902259
0.224111519871762,-0.0032740608693205,-0.0124000960712052,0.00419273045391841,0.281796506333845,0.263379067570425,0.157387249984788,0.503615781853975,-367.948690307583
0.215649332428033,0.00189692373558853,-0.00968863924419647,-0.000123737798429083,0.556738632306969,0.388333682718939,0.968039767046636,0.521998476191563,-358.730497718056
0.219638460485607,-0.00120126200530943,-0.00343710186666541,-0.00283533515569895,0.671759900611664,0.772566807682466,0.369743255146475,0.399560824264956,-357.68881673243
0.218671558945487,0.000165884086233567,-0.00526329070446166,-0.000923106116220603,0.951055844946945,0.646979482122893,0.782167722339103,0.431100265897095,-353.119555674471
0.209673002851448,-0.00052275343088768,0.00918216934004119,-0.00237417025883969,0.850279044429988,0.292781508791926,0.3521691040797,0.52104199237543,-351.792582852418
0.215602864963445,-0.00043205356000969,-0.00249816577191877,-0.00314470410113165,0.904426482188759,0.823389639559032,0.435713276363359,0.423481870517567,-351.428046009966
0.201294112284932,0.00606017315843259,0.0137718557197253,-0.00425224474434789,0.0684123208997768,0.317932025650992,0.232029899609325,0.605613659795658,-358.47208427165
0.226457624422376,-0.00211862973933337,-0.0106538757488152,-0.000645442915321473,0.428722397965018,0.413250200001042,0.814542350764811,0.486635554145386,-368.254703187603
0.215896531090002,0.000573228045748619,-0.00356305252798346,-0.00128461882040359,0.848740430782674,0.726023599300859,0.675680374950518,0.521318919494794,-360.382927363326
0.214201987710309,4.05013452576371e-05,0.00126893403530742,-0.00162361866938992,0.989171034710258,0.905058528436794,0.604492635778487,0.517404461276276,-371.548975237411
0.216664147123258,-0.000356114564189889,-0.00983593230847853,0.00150750311749316,0.915347981459312,0.479693802705689,0.684742036446246,0.453211047273878,-355.233649758489
0.219155000792117,-0.00154163843266898,-0.00519539078708857,0.00230209195691425,0.567282998054623,0.636053848176823,0.480096412064312,0.494055784368991,-349.048310401668
0.218474689681638,-0.00580725564667714,-0.00137522755397906,0.00135258236346591,0.0340904602581058,0.900575513407377,0.649545832248648,0.510168703158515,-348.935204855456
0.225606489524082,0.0014208894456336,-0.0149069644075286,-0.00456144001724939,0.64121148906023,0.269927306900554,0.238154641836638,0.4095615752514,-333.297373057708
0.215241754103366,-0.00250361165220442,-0.000142550490587607,-0.00123547896533506,0.308329584053293,0.99027521168681,0.663345516070805,0.455724880635127,-368.47738484713
0.216326462895119,0.00115983468212847,-0.00595970723283124,-0.00296265463282517,0.704491750998596,0.57293992646969,0.333683883482431,0.47909787493129,-347.658625556042
0.202395084780231,0.00268729128232857,0.012074141757067,-0.00237804744554626,0.389971303788434,0.433281107979382,0.563582634175819,0.611183176324109,-362.721631730299
0.220026018063713,-0.00185071838099901,-0.0142953063064243,0.00121560359903323,0.50558427796862,0.249619609665321,0.636173935490923,0.502586407341715,-371.635636973826
0.213228420627845,-0.00108952065353041,-0.00223739147697164,-0.00129418675182664,0.699645279878076,0.808821965513562,0.659163029462843,0.447382558806906,-372.865440793073
0.214979592171555,-0.00122086562878002,-0.000187103454129968,0.000441253896712744,0.671520964130965,0.986234590244313,0.878479358802616,0.521294213138371,-368.570482610059
0.2185242035409,-0.00142151973497899,-0.0127146596368732,-0.00145815899200618,0.609985408630283,0.278928345999765,0.641320680636183,0.449469689762978,-376.785687755915
0.224611886328277,-0.00174297208261277,-0.0177853260366403,-3.16572875051675e-05,0.544135094510147,0.137847697024278,0.99262536990984,0.521352109464058,-372.333112501579
0.216496031808712,-0.00343563372676341,-0.00664461842914359,0.000291811150536784,0.126647728169266,0.504116605760248,0.914110582816488,0.505675897478954,-379.392779852079
0.208322200451721,0.00055421161764771,0.00410232958602042,-0.00355067423447251,0.882075617966187,0.731043871210206,0.4152100163793,0.481268458106212,-359.695441051286
0.212026674476864,-0.00455682926297454,0.000663302962944024,0.00438313493911659,0.177558077416745,0.959461202778815,0.267580032925487,0.534346044769267,-352.459522931241
0.224882245057721,-0.00534700136957876,-0.0162886884109973,0.00723859430330442,0.146503686262228,0.203982127546661,0.0502302009698359,0.529888036532727,-351.273770117224
0.237639379072994,-0.00905152463191739,-0.0336466117449757,0.00601288518849034,0.00963666820576805,0.01936107975251,0.140486156364868,0.446513079878795,-363.194127156842
0.220020968320323,-0.00372923572346343,-0.00894135098371642,0.00315222782339003,0.228328414528078,0.451398761974054,0.342521786939514,0.554261020839836,-368.865418047293
0.218128608286881,-0.00317265835466543,-0.00527762424080672,0.000472664615457669,0.328861662964884,0.683535028879298,0.881163087915011,0.419889047816634,-357.491668591629
0.219196303335107,-0.00661311543174833,-0.00130995191016151,0.00502454478337673,0.0566378997549466,0.917647438180233,0.199715391128674,0.568746282721509,-353.830105342819
0.205179614638403,-0.0023758129691704,0.011928850454403,-0.000576598892137717,0.396208829983112,0.197128399933162,0.839815163881231,0.547169764065358,-347.277212140183
0.221927042623295,-0.00433647844685629,-0.00918916436419054,0.00206478274989253,0.0989637641012111,0.392219942654083,0.451653214426368,0.428444798333487,-360.074686043916
0.217466505367549,0.00555625008102721,-0.00930370666872583,-0.00740658841931089,0.0693995196128323,0.418399252457486,0.030340598153904,0.514520579083809,-370.463038908344
0.22616408009363,-0.00259304893401352,-0.0194814187352331,0.00393622805457128,0.465320334244764,0.125028027893022,0.269331919576932,0.473007322850245,-353.214611289566
0.213376105769091,-0.00100426987149515,0.00517242038495325,0.00165530890563847,0.717009892062174,0.652299287928385,0.48591044567877,0.520321052855068,-371.954752124548
0.21904304652284,-0.00679011410991199,-0.00458657650657279,0.00500816095665813,0.0450149447921284,0.709094044199108,0.190753349031612,0.517249027903615,-349.79602876182
0.21440338248395,0.000632273008390681,0.00299777659846707,-0.00308337917952673,0.806381710190262,0.797313106820671,0.350758640148021,0.443591475326722,-369.052033966415
0.207772856699825,0.00168710383298451,0.00643476501543787,-0.00276939523665805,0.59904089715474,0.592248360113249,0.452475503174985,0.581224153415442,-369.14612028752
0.23360174914001,-0.00734030547889367,-0.0240798728609895,0.0037048622566389,0.0316458567439522,0.0707309383628945,0.265837958399502,0.389818050562177,-342.246265241279
0.222413576685965,-0.00286633965846963,-0.0123801066034153,0.00110618200534943,0.335524965582581,0.361687543087585,0.741878816836054,0.392547088691572,-359.308107100955
0.220725226294279,-0.00290609844793846,-0.00882568410711385,0.00258221952382207,0.383787601107327,0.320499112013735,0.528863454578457,0.425955014128676,-341.029362765661
0.217237058121253,-0.00276253170993264,-0.0049019671940533,-0.00015203385714274,0.454294965354554,0.727040276310662,0.967728024945868,0.3679226702517,-334.014567986954
0.20800200854911,0.0057825867396826,0.00736642550147847,-0.00648886447150035,0.0994034590012478,0.627848364536577,0.123120721410736,0.527732137501523,-351.725649203717
0.219156459325049,-0.0038390424075932,-0.00578716270566544,0.00506293752818047,0.270887695373905,0.66421969196719,0.223822619900341,0.530103792752765,-356.004879933594
0.223885761211232,-0.00248441686831227,-0.00888602679435125,0.00225127019359241,0.47195068806801,0.487194117451222,0.506015384778476,0.5254246012923,-354.208328053416
0.220673905271196,-0.00420762898991202,-0.00905301908541344,0.0027990202501102,0.126933444103018,0.45027246216828,0.392913279884082,0.418993665691666,-362.846553180822
0.229356062575559,-0.00582282739567816,-0.0205607467844812,0.00556253012033264,0.0721219326183672,0.125089869290546,0.1014643808514,0.419565482323701,-338.663585700847
0.217765563230939,0.00174293851862789,-0.00231783965416194,-0.000447453305073286,0.602225536608461,0.854308526665167,0.893776034531469,0.492908830406886,-343.274643462994
0.211670410930227,-0.0016607913269275,0.000435196788528242,0.00269066293926509,0.5716932909108,0.965670576696313,0.404010239926651,0.526365426165394,-345.901246529708
0.227544415005213,0.00164287431023819,-0.0140920171295503,-0.00408340453519905,0.593918035729614,0.165743919264617,0.264028170116947,0.436589658847153,-361.95581076524
0.224456173257659,-0.00115478621696011,-0.0236568822516658,0.00541314301214747,0.696223362081762,0.0687854453094867,0.127946601884743,0.522280479944352,-352.789752337571
0.216443157573636,-0.000221776887455883,-0.00318402819556394,-0.00190239226711125,0.940058095681432,0.797937350190531,0.566828505602439,0.484093166301708,-348.972491255216
0.222889976331731,-0.00735836859470782,-0.019761361167335,0.00918054495655372,0.0269076932178706,0.102127518197887,0.0238727588442111,0.494463084077707,-357.84044619828
0.21344693452695,0.000467790984734492,0.0026405134868283,-0.00228781945603191,0.872040284294718,0.780493269585957,0.385447052151208,0.415989099360538,-356.814999303589
0.22713096985855,-0.00570189082336806,-0.0106020223681516,0.00288641769853475,0.0430964529534533,0.21455799696002,0.290306098961283,0.424537889781007,-349.436160718085
0.228261567702035,-0.00362282066376727,-0.019157051283158,0.00119112224997348,0.419009145735692,0.192235269726741,0.805340211769282,0.419311612791849,-352.326648449985
0.22128184604704,-0.00186956672822027,-0.0115401673188945,0.000149046242184653,0.497723108795539,0.202512577648173,0.958498908371757,0.480359229184595,-397.046189872194
0.213973982470258,-0.000419219566936752,0.00261033943869387,0.00137769237150127,0.884248864231775,0.822841578538155,0.665463465857657,0.537555399053497,-354.686337842654
0.219938926574171,0.00235254424861886,-0.00786632755277402,0.000328554850335833,0.485942474357227,0.527113083154357,0.930896693039919,0.523617521190954,-338.819211480938
0.222606707778717,-0.00256334393953397,-0.0119893661121391,0.00131923412804361,0.320295011484217,0.327731972803739,0.613236209076816,0.569947731648601,-383.250498980672
0.220622796101645,-0.00045071677889419,-0.00467943712815738,0.000720827186893418,0.875444921300849,0.747106112429986,0.833906825196288,0.440998288332131,-340.427096581119
0.222542429471475,0.0033698477605892,-0.00953743338853207,-0.00397101509249648,0.319667177876578,0.484664269132073,0.307130892678147,0.419987882890341,-362.188924648769
0.212941397331429,-0.00415563051534019,-0.004219812338749,0.00305249789037792,0.120686725921703,0.680873725817771,0.293842385576621,0.530444110497538,-370.897943300142
0.213884518013002,0.000550343856249731,-0.000989104281580767,0.00116925821012047,0.864321142584378,0.92160521842008,0.704473122041745,0.433382790351997,-344.088682419038
0.220577135191273,-0.00152649569588044,-0.00802118292247369,0.00244850664349352,0.653335730863747,0.555555430487441,0.497361046879849,0.460925690340124,-351.288456664656
0.198151601693823,0.00121298759691725,0.0159810734371442,8.46652463187187e-05,0.667904526417782,0.179646705717114,0.981485873249,0.649479072699072,-372.881459451834
0.22332147706738,0.002595053796874,-0.0185490757284302,-0.00399465586856715,0.369143595635669,0.137311891305317,0.285392944001179,0.504105006666677,-360.738439293774
0.223380925706332,0.00313474209705405,-0.00622443743120508,-0.00465183222682572,0.283132062361765,0.650362153638715,0.197710551950398,0.469818327579611,-355.205514640633
0.201803393154439,0.00101994262372175,0.0119899108290063,-0.000580455156432087,0.694918536051796,0.343900442848358,0.847776779669932,0.563678686954166,-370.571924278251
0.22541711784834,-0.00676533800896144,-0.0179335485809841,0.00526781619489712,0.0211036955828121,0.0503576553927191,0.0807991048191077,0.466951584764387,-382.878353899413
0.229109085448229,-0.00667108408624235,-0.0252316379297736,0.00415363157905506,0.0320868655687749,0.0291915995593121,0.188873049263257,0.421503253563,-348.136524233134
0.209335614396249,0.000150235933176323,0.001224894027075,-0.00207215359528842,0.953988804608654,0.916334304957019,0.434419587340811,0.487385712582117,-367.836526756125
0.21783267884949,-0.00521976211777998,0.00192932433358045,0.00546193560307844,0.0914415283414394,0.883228099241356,0.0916927250070046,0.571339943588988,-348.727945732678
0.222562658103017,-0.00375661980897131,-0.0110011407172123,-8.35700525877358e-05,0.201450640082806,0.285190945464159,0.979098533386266,0.461155106899765,-375.236465414894
0.222479975323539,-0.00445801057631931,-0.00618626968170781,0.00778775034102381,0.251360736369703,0.690595492748509,0.105332920784878,0.509461027126326,-311.64102627941
0.219905478472351,-0.00119191955361667,-0.00446862110836694,-0.00106382694764672,0.747429003902328,0.708845122426361,0.779928644485536,0.460706522792097,-337.897390734749
0.230162606504831,-0.00323726406386345,-0.016900044782071,-0.0013127341586042,0.232377720187719,0.170265602536861,0.630659116792016,0.436015634903163,-353.417751056414
0.233254865213025,-0.00609741726885832,-0.0215635230286799,0.00746165389010045,0.131337722458873,0.165784873242713,0.0959991882077087,0.417780099158194,-330.007277895588
0.215324758777058,-0.00173225985860826,-0.00133840792393177,-0.00205532422890469,0.47473038811365,0.881708403947079,0.471903100325716,0.399218894265946,-349.997303660467
0.215372582668115,-0.00406382443469048,-0.000721620521717428,0.00343704824005502,0.196904592904099,0.955179474460289,0.329328153952371,0.484873991684569,-356.918898478294
0.225626986713624,-0.00723751325447542,-0.0147812738646838,0.00507842566794715,0.0364141877664127,0.318028560310434,0.192137001009298,0.428028840197609,-348.120496043928
0.210853442928448,-0.00327059588918446,0.0045335397954734,0.00330808423272562,0.364472797935342,0.685157487884781,0.391007332468757,0.549882723315868,-345.35162240545
0.218335100404204,-0.00112954857898017,-9.64051883111709e-05,0.00158249945645276,0.716687958939552,0.994788992325255,0.628436096795852,0.468359135037365,-334.233998589865
0.222629664678674,-0.00165846463490361,-0.0155269372966087,0.000453744388038307,0.558614407415814,0.142843243729201,0.886870937773811,0.365288292163775,-371.393544323739
0.228604933201527,-0.00466339499438281,-0.0133844932249796,0.000386835273460825,0.0679798431474279,0.137311712447733,0.887470740743148,0.423085935957123,-374.878538532205
0.21593989469119,-8.92033469844694e-05,-0.00386171533766538,-0.00286742315055378,0.977707543023952,0.695771810970828,0.38163611388313,0.389615945529782,-344.341419359875
0.229157338441582,0.00120476736821464,-0.0279373270096606,0.0025476931087311,0.665637065032492,0.0528646743058224,0.487408658038391,0.491311954055484,-338.620713771563
0.203440100679459,-0.000894264274225605,0.00881155763725615,0.00190888704906695,0.785883551500262,0.48671164258059,0.609881710352338,0.611028688118379,-355.006042512551
0.229546183791597,-0.00296738872505023,-0.0245129624363724,0.00420817877448449,0.343861160029488,0.0841589346850232,0.268569698056439,0.541821645522574,-355.77594683582
0.214198787916702,-0.00501537652237299,-0.00163935180064672,0.00776964420133621,0.164424945072648,0.894061748219563,0.0867546596063499,0.586407927908931,-347.752248451864
0.225826990271371,-0.00374570148199276,-0.0167827186537795,0.0033494754655681,0.282964609031424,0.176071115215611,0.384173527284633,0.442117593277274,-352.138335154118
0.209756868350401,-0.00227914754918155,0.00371369515227194,0.005877068223536,0.446657608235029,0.735527436256818,0.093497649008002,0.62315889086921,-351.068233712253
0.212338802838089,-0.0031735804150388,0.00621528518021383,-0.00188735440139019,0.239933601472586,0.477237018887075,0.509189724615874,0.510918015484027,-356.760267002027
0.222502842945152,-0.00538396054160151,-0.0123206470103786,0.0021190401973238,0.0528125346690116,0.214619465977791,0.454363202894553,0.454970514247772,-365.300139320527
0.217467303211288,-0.00252076632399789,-0.010506186417444,0.0034115692488938,0.361316292692567,0.279225192870477,0.179774818874582,0.57836485157887,-383.118128722754
0.224126674604749,-0.00762320622630525,-0.0108723070994078,0.00493531985516541,0.0316662342881737,0.377737141300389,0.161188365062842,0.459221233527625,-347.898759171164
0.224537809279268,-0.00132878701577174,-0.0134282266016241,-0.000552708084591582,0.614187047705287,0.154354789474389,0.804131072889078,0.50911124099532,-377.241644506832
0.201851811709283,0.00180931512105069,0.0157366876810447,-0.00451964369685847,0.43617263321489,0.167262949665384,0.0733046843452037,0.606303037075224,-379.339582822515
0.213212312913248,-0.00267558994524001,-0.00252636608688633,0.00382779400565886,0.397170593310061,0.8312870833531,0.270836007301429,0.571458987069854,-360.898192545818
0.212429462010446,-0.00180175267407195,0.00334469830754201,0.00230040237138176,0.454792048115761,0.726756750253207,0.302561583016645,0.582151113026534,-374.737153180404
0.215720528094646,-0.0024155972333123,0.00226762739084184,-0.00174890281776309,0.334623409847195,0.806257214326976,0.505317558951456,0.491791199375974,-356.704865535853
0.219889982072233,-0.00391880684545134,-0.00382035540932067,0.00158227314435501,0.222246580773478,0.750431868289754,0.63501749887875,0.513270611475954,-341.545885180717
0.203379921890267,0.000910570892630191,0.0066127153802793,0.00141194911631366,0.739917006414702,0.568110428607692,0.645160051193172,0.639333524456856,-370.214403227244
0.2161693335499,-0.00240766612386391,-0.00772058662243038,5.79472322071173e-05,0.401532160480523,0.431454862433095,0.984411070163959,0.487048982116609,-357.868962026333
0.229094255720547,-0.00254640187818115,-0.0241083690342265,0.00340563210804824,0.404321502023711,0.0631717247686748,0.329040984443698,0.484776775881909,-350.575196078921
0.224617841850259,-0.00175883239236812,-0.0127138578973512,0.00153395929887639,0.615028020476463,0.358931146990723,0.709320183940556,0.502921683410033,-346.16823172049
0.206204362828577,-0.000795934377659661,0.0039199911824739,-0.000116133114080622,0.795254479333216,0.70898463518377,0.974192159138017,0.499596453929837,-362.982286146918
0.205531674870946,-0.0045746066659863,0.0120179508027023,0.00115157289945793,0.120897000222636,0.325366049598594,0.739875656654183,0.588374351133262,-355.227301050481
0.22014038776032,-0.000159273654260913,-0.00581680796850736,-0.0037249476559115,0.96216631465225,0.611954654733362,0.358849935252258,0.358949660337886,-334.662223008005
0.208364072602131,-0.000346136200547998,0.00798683083643324,-9.87541586462757e-05,0.899272748842878,0.521338633313299,0.973410047213285,0.581697387864951,-366.708716907956
0.218564816452245,-0.00478627039688156,-0.00522377318521835,0.0012679167393761,0.104079801065829,0.575889962734744,0.673552665340968,0.498990388571879,-368.858152203843
0.219751005658883,-0.00175367011970356,-0.00758879305872569,-2.77934971928705e-06,0.54708838725459,0.485597614630873,0.999355702268607,0.535972618871283,-369.819608183606
0.208155690775871,0.00111494683801498,0.00413912022037939,-0.00217362663610081,0.748494621763732,0.613674738160284,0.577106734041513,0.508058454371588,-347.274372242299
0.222287174549567,0.00106503744911966,-0.0109005846984509,-0.00264908795857037,0.711113176481765,0.370213176547436,0.389271637084137,0.429532661428721,-346.99734427072
0.210627374646282,-0.00220755292351099,0.00251441711057895,0.00245890566221842,0.50629200655696,0.814482999841972,0.514396670312893,0.518816771671304,-356.493220528391
0.217615745430838,-0.00281801373143806,0.000290306882933501,0.000739674602100853,0.3756301348031,0.975261016500949,0.841581244927059,0.473482099683517,-344.28118127742
0.21981295522823,-0.000987877471663193,-0.00365658528831766,0.00192470456448662,0.70380376170618,0.788087618108419,0.566111635085458,0.50399605955151,-345.841412043249
0.2207828839446,-0.00127199592321021,-0.0130857289853388,0.00161033146967427,0.705218822720558,0.267938584363711,0.667624040382103,0.460924922732287,-357.06366162441
0.221996721799168,-0.00322100664586112,-0.0151559021581287,0.00158863280916807,0.27304662151425,0.280410851483413,0.549290295411339,0.402281019432416,-338.68556018362
0.215780767412123,0.000257242930052989,-0.00413712831753012,-0.00373704049515511,0.941379942698697,0.744820758255894,0.27974417071576,0.453686340373301,-389.471096029364
0.212553187851426,0.00357574071162434,-0.00193510933122219,0.000761544032425547,0.282649783147978,0.898091293507178,0.841987398067565,0.603728298807873,-340.833942674849
0.211208230474332,-0.00196070525859247,0.00417996335772311,-0.00226171201257731,0.452956497184193,0.709960615348798,0.420917599830714,0.508355173775958,-376.29351686317
0.209942233599542,-0.00107466117076313,0.00476241074595961,0.00099242400659159,0.745493320687887,0.665264810204306,0.788836498360912,0.543540397474083,-350.605154523769
0.228191018548682,-0.0077531955422616,-0.0210793630411409,0.0076537740920243,0.00816773186746197,0.0758567380053371,0.0168871392880409,0.572070995780882,-379.841630431537
0.208077322413781,-0.00326577711426494,0.00655087762224471,0.00197136981568812,0.261108729491983,0.566690447043833,0.528376314361113,0.573236787052973,-373.668322742705
0.218732863489576,-0.00331256573482971,-0.00533138291088573,0.00168715060344237,0.354654322611078,0.713102545538264,0.672262336253314,0.330667710418273,-314.239725039321
0.207058030428491,-0.000320424094093524,0.0116092801547967,0.000185364530061123,0.905147986702215,0.364145052606946,0.949587052067104,0.54863561360261,-332.517024768722
0.207531963103604,0.00187526059244476,0.00279362618413133,0.000231905585521809,0.544177660576046,0.834664674332376,0.94256866664266,0.578996803673227,-379.152285532441
0.229591807043528,-0.000356844745666387,-0.0149475518991643,-0.000703693974032167,0.928095628696143,0.246535074740107,0.872858563773415,0.468240151449491,-327.911415105842
0.232363590023402,-0.00676578449735158,-0.0261411676500518,0.0053322226077175,0.0486553015678137,0.0347462574734688,0.125098701615612,0.468500609228047,-356.330474820041
0.211016638295039,-0.000205902595341796,0.00637144854731662,-0.00326260618814685,0.948142265228028,0.593816066529724,0.327917177485453,0.444235876608424,-350.00811081133
0.232677156649096,-0.00193375839923979,-0.0265901543361547,0.000724097190979398,0.533064030301327,0.071338177583582,0.849255236756632,0.528830354364531,-373.351253879266
0.226869799359578,-0.0020641184602632,-0.0134199021863988,0.0012923013349407,0.530490625312609,0.27105316309396,0.696481819492328,0.446674191055398,-333.204300544331
0.212420407651008,-0.000918903399318587,0.00602776892592245,0.00553202300672316,0.769380747692807,0.647437174162802,0.113218289349821,0.566408921038446,-339.4406886454
0.214972584681901,-0.00054710433945427,-0.00101728009082473,0.00195209242760117,0.875913198872543,0.935147744151775,0.60091361608396,0.516014901995233,-334.130819151837
0.213431054316477,-0.000752805117614269,0.00340569471159918,4.07657981587731e-05,0.791261806881062,0.684227392970244,0.990800407208154,0.618592701339299,-384.28057943452
0.222650735459361,-0.00247280138599523,-0.0119627688619759,-0.000400149522528064,0.395709514150297,0.349759848986122,0.912177731288612,0.486638532535067,-362.356009394655
0.212908794670275,-0.00788824345786301,-0.000947673174494476,0.00932987487343141,0.0295129126792776,0.941356482455313,0.0439730659910583,0.561183635004481,-348.051284392902
0.220021892145144,-0.00823704400124729,-0.00686596126011664,0.00915452115627054,0.0113816842907087,0.585189474669022,0.0205541210006642,0.538331718339685,-368.053483937943
0.21260804231143,-0.00243851559480783,0.00632254187960773,-0.00120138902476988,0.361023213461445,0.534688239591252,0.647809010618275,0.519054491857392,-376.672980151803
0.234247443077394,-0.007906613813265,-0.0306986897853724,0.00764097428320369,0.0268498693887149,0.0256921608551931,0.0191177230367287,0.506045174793743,-355.057367740378
0.210788889406856,-0.00567379907780407,0.00322884166024408,0.00317094047832843,0.0362902066931871,0.757854296285238,0.208001361811089,0.532588562240741,-372.64262515529
0.221219460941185,-0.00486632412999939,-0.00830877017072822,0.00634421747497218,0.126182764174735,0.461002162646278,0.115382112928962,0.482927762978333,-350.941518753219
0.20844979758256,-0.00129701983783888,0.0105499173056614,-0.00420896688235249,0.68593414156681,0.424414616626995,0.345684790731865,0.447288333375266,-350.729523463034
0.21987673359174,-0.00109059013838895,-0.00849023794375303,0.00145243767157579,0.741113879457165,0.43037441252418,0.640472858438472,0.548194714911139,-360.299296992699
0.226331745876396,-0.00777759358585878,-0.0153601153183446,0.0042057525134019,0.00741813686781381,0.138045699416663,0.182271494202143,0.447176954325437,-366.183285662323
0.205310943373778,0.0017938039780708,0.0124727649656013,-0.00141206099531165,0.577312720575066,0.292621374033295,0.694580432324264,0.507003151573363,-344.718481273962
0.232888139844061,-0.0073000895863544,-0.0205237770650695,0.00808330912150194,0.0357670575433487,0.115509583643945,0.0286726890411696,0.491857661165421,-364.94080407082
0.197015185844781,0.00234754711934362,0.0215579827686154,-0.00599095941473137,0.410715358581425,0.0233213013428347,0.0796279245205708,0.589102508594805,-376.577718373262
0.212631721543312,0.00120546114467966,0.00168297446946602,-0.00340900594956382,0.695019407569674,0.877495328602369,0.279880329595616,0.438047587698901,-347.671117249634
0.198044863243024,1.80090434592965e-05,0.00807579303286172,0.00519907892889169,0.995208823917435,0.47848074295592,0.128885260369008,0.689243380110733,-368.255222983332
0.215414792115863,-0.00141449106748198,0.00395436157074915,-0.00459175520337931,0.625177103445767,0.68534216119691,0.131249790463992,0.427369856678582,-364.527700333873
