"","intercept_mod","scal_mod","p_mod","rsq_mod","adj_rsq_mod","aic_mod"
"1.1",0.230811999610718,-0.0149666546608134,0.0843641974898726,0.0278391482731351,0.018667819483259,-333.35862790933
"1.2",0.22536500136313,-0.0131084544156052,0.0846570833897396,0.0277874706076523,0.01861565429263,-341.711533119886
"1.3",0.22923446201642,-0.0131443770244697,0.120925001164115,0.0225406594822282,0.0133193449490415,-361.764819096981
"1.4",0.222470281860512,-0.00961192171180673,0.171648121360682,0.017554574130212,0.00828622105596866,-353.535791270625
"1.5",0.226494697229881,-0.0150071906349981,0.0232947393897719,0.0476088632905938,0.0386240412461653,-361.085713068085
"1.6",0.218104861052926,-0.00929677408991937,0.175624443697725,0.017235831151443,0.00796447106796594,-367.988939034734
"1.7",0.228046089557451,-0.0172367413361144,0.0126249147904192,0.0572593655159379,0.0483655859453335,-365.329423470605
"1.8",0.233088584562106,-0.022456309380015,0.0136468422286065,0.0560285027379413,0.0471231112543369,-337.63485884542
"1.9",0.228440360691153,-0.0148071030885601,0.0460780953293225,0.0370099156007321,0.0279251034837578,-343.141660171288
"1.10",0.224996939820259,-0.0177350257464906,0.0125623608381031,0.0573379493558531,0.048444911142229,-359.889014551096
"1.11",0.239197765990942,-0.027527729170353,0.000671036726746598,0.103844596570214,0.0953903003114421,-358.535439866094
"1.12",0.22770106411128,-0.0235495869501076,0.00609399019069951,0.0688161929901869,0.0600314400938677,-351.783095484319
"1.13",0.22987090498509,-0.0142291841571247,0.0823251817053178,0.0282043010241814,0.0190364170715792,-344.822479353551
"1.14",0.230383280396678,-0.0201385064258428,0.0183505707464028,0.0513564745672989,0.0424070073462356,-346.943019555966
"1.15",0.232214303999861,-0.0242133556468829,0.00225214067629465,0.0846499909364341,0.0760146134924381,-345.273348936326
"1.16",0.23252295109216,-0.0221656958711036,0.00648805948123378,0.0678200722246028,0.0590259219625706,-346.795800868787
"1.17",0.229242112138634,-0.0210470706028592,0.0155967489929837,0.0539192193211876,0.0449939289374252,-340.297584230432
"1.18",0.223963518584347,-0.0160795872922766,0.0327792068934912,0.0422760437251163,0.0332409120621456,-348.184936771335
"1.19",0.230462920640057,-0.0218620523765897,0.00493947478756034,0.072156642881705,0.0634034036636077,-339.844364541513
"1.20",0.232274868023394,-0.0217331664393794,0.0022029161833391,0.0850013066948464,0.076369243550458,-364.288712965379
"1.21",0.236463911361431,-0.0242916341064381,0.00606212417704113,0.0688995485376325,0.0601155820144025,-339.261742998891
"1.22",0.223069120681678,-0.0165269142553661,0.033168517514536,0.0420925301121658,0.0330556671886955,-359.77196694818
"1.23",0.227983589360933,-0.0118699811950327,0.128076200934667,0.0217099035679404,0.0124807517148076,-353.102371785066
"1.24",0.235309050398563,-0.024464127053389,0.00365715339063914,0.0769387220478377,0.0682305967841379,-350.259385807494
"1.25",0.224328221821241,-0.00710145523141064,0.261067306921015,0.0119008290885087,0.00257913879689065,-362.562570891081
"1.26",0.226049864301915,-0.0129736307148704,0.0645418994013544,0.031865757501463,0.0227324155910994,-374.651088605749
"1.27",0.230907686863635,-0.0154275211554596,0.049055026471277,0.0360486021446108,0.0269547210327674,-343.794902958556
"1.28",0.229067026524534,-0.015868233613916,0.0522890804148483,0.0350707289422694,0.025967622611536,-359.262660744974
"1.29",0.23502446203526,-0.021518788906141,0.00641777838368882,0.0679931989337644,0.0592006819425733,-354.790964947411
"1.30",0.234675703225151,-0.0275129841253433,0.000591008062066528,0.105849247237817,0.0974138627777966,-366.678616478461
"1.31",0.225112738867366,-0.0166364380276599,0.055636448450398,0.0341228635768364,0.025010815120014,-350.746660256752
"1.32",0.224675138612403,-0.0135559800201935,0.0804365733110543,0.0285512076239792,0.0193865963751486,-353.804595632739
"1.33",0.228601810054129,-0.0130681909470445,0.102751485538925,0.0249188885901587,0.0157200101806317,-339.626800709424
"1.34",0.223910792803698,-0.0127827034488593,0.0943097081721298,0.0261834991138164,0.0169965509922486,-364.920033491436
"1.35",0.22859406476699,-0.0185635101358555,0.025535034897516,0.0461710496353153,0.03717266331112,-362.970173842308
"1.36",0.227598745776944,-0.0184072067490708,0.0127103998344867,0.0571526083947701,0.0482578216815132,-363.435843025057
"1.37",0.234159629076203,-0.0239854892618357,0.00449832741097845,0.0736449340820539,0.0649057353469789,-343.865149417229
"1.38",0.229344766313324,-0.0192776160885672,0.0172700011867641,0.0523122888565339,0.0433718387514068,-349.645394549604
"1.39",0.230914366620162,-0.0245683549588389,0.00384774848580669,0.0761304058741672,0.0674146549861876,-343.531142554099
"1.40",0.238492807160443,-0.0261438880528866,0.00141445479261409,0.0920383040703635,0.0834726276936687,-352.808716158964
"1.41",0.229309591185948,-0.0191718259120389,0.00685886517754518,0.0669367348340586,0.0581342512004175,-356.443949004652
"1.42",0.233132912314194,-0.028342869460298,0.00239080112580032,0.0837000599964193,0.0750557209397817,-337.912591248394
"1.43",0.222200139334364,-0.0168634338991144,0.0297893649731507,0.043764804792032,0.0347437180447869,-369.291152756434
"1.44",0.229641064442223,-0.018040638499728,0.0450040065819972,0.0373726846653119,0.0282912948980034,-340.34465114472
"1.45",0.236060968085745,-0.0277826182148192,0.000427474196462011,0.11095337435632,0.102566142038927,-372.82700614701
"1.46",0.231383215038899,-0.023439294803985,0.0015566809656974,0.0905176025086006,0.0819375798907571,-361.999107699042
"1.47",0.226547276219761,-0.0173013524347634,0.0207374120906398,0.0494335841519162,0.0404659764552361,-351.975740228642
"1.48",0.228491525371995,-0.0180914369496318,0.0151373502270448,0.0543910856561764,0.0454702468416119,-346.086744461267
"1.49",0.234892590179355,-0.0192912549802467,0.0355924660811212,0.0409975287091798,0.0319503355837946,-334.439626352
"1.50",0.223846781512851,-0.0110509394829769,0.157136844295017,0.0187929967721239,0.00953632693035134,-349.98597572987
"1.51",0.230175080301064,-0.021042285435805,0.0084113312368817,0.0636958801427809,0.0548628224082788,-363.762742091525
"1.52",0.225962338013144,-0.0161021065897985,0.0483990845916105,0.036255111700592,0.0271631787921069,-352.718635442757
"1.53",0.227568033085197,-0.017311473028267,0.0226554221188883,0.0480451525433979,0.0390644464353167,-360.224722008935
"1.54",0.229491028994495,-0.0223210427929788,0.00986484013729258,0.0611668901745495,0.0523099740441206,-344.264995865745
"1.55",0.231060025482263,-0.0204955539307567,0.0132942978261438,0.0564422689941133,0.0475407809657558,-354.885804909064
"1.56",0.227311266162943,-0.0185806395679817,0.0216482054621412,0.0487586452991945,0.0397846702548472,-354.02363723673
"1.57",0.231414144867556,-0.019345553992144,0.0115174204801152,0.0587125526339293,0.0498324823757587,-363.870035386562
"1.58",0.232418582339513,-0.0241996924126787,0.00172371942360905,0.0888990806360333,0.0803037889439203,-374.685467866205
"1.59",0.233764951489567,-0.0279509177554016,0.00146740038147713,0.0914551284614393,0.0828839504280566,-352.732404214631
"1.60",0.231237144503858,-0.024494392668253,0.00436085649517956,0.0741387254439265,0.0654041851179256,-355.408119849386
"1.61",0.227329215178946,-0.0216017009223136,0.00598367188077211,0.0691066532168519,0.0603246405113503,-368.806101544536
"1.62",0.233404949089907,-0.0259201066866125,0.00160381734580939,0.0900439972893133,0.0814595066977029,-358.172050855577
"1.63",0.225250133754339,-0.0122827841322256,0.0339850831774333,0.0417147075888504,0.0326742803019527,-372.10358349901
"1.64",0.227414150936585,-0.0142732574019186,0.0544723075023964,0.034445593810102,0.0253365899781217,-360.537585663098
"1.65",0.227647062929745,-0.0158480437434726,0.0681408007189648,0.0310450397756921,0.021903955245274,-346.940274681106
"1.66",0.228418854156387,-0.0164140928282804,0.0392648351419285,0.0394769697983703,0.0304154317776002,-347.687251521408
"1.67",0.231085390716628,-0.0195718808454784,0.0189930381978294,0.0508149281268618,0.0418603519771151,-358.15642292775
"1.68",0.225061020181546,-0.0144193581123125,0.0332789011856259,0.0420409001908772,0.0330035501926778,-375.473667894974
"1.69",0.228560879667352,-0.022509289042623,0.00524443475065796,0.0712037120700185,0.0624414829386035,-370.669990633961
"1.70",0.228641030691303,-0.015790423303343,0.0553579518292319,0.0341994239157922,0.0250880977263185,-350.241429299444
"1.71",0.223737919093714,-0.0150971389893853,0.0692965220485165,0.0307911360219994,0.0216476561731503,-347.13042283228
"1.72",0.214368210308824,-0.00143155303255664,0.850747226713013,0.000335542783993976,-0.00909525398219491,-357.618759574346
"1.73",0.226348007938094,-0.0196122620651153,0.0109950403580309,0.0594477282546837,0.0505745936155768,-362.640368584275
"1.74",0.22549212033487,-0.01481202853271,0.0767706662631169,0.0292499790289178,0.0200919599631527,-350.785408603644
"1.75",0.226318520314782,-0.0142807210079586,0.0635951936742113,0.0320896587628815,0.0229584291285689,-366.66304021383
"1.76",0.234299826188169,-0.0240578440153414,0.00349886898812845,0.0776426899922604,0.0689412059355835,-348.392920212776
"1.77",0.235643815162709,-0.0196977566126821,0.0275643950280853,0.0449758241247109,0.0359661620881515,-329.766680694148
"1.78",0.225093725760559,-0.0172013732875734,0.0235533533901053,0.0474358375939037,0.0384493832315819,-378.032253064244
"1.79",0.225049241403773,-0.0105753588159598,0.128022540842455,0.021715946162009,0.0124868513144807,-368.949576422552
"1.80",0.223892227864508,-0.0130089946221685,0.0833657061015432,0.0280167726157602,0.0188471195272295,-350.602861977273
"1.81",0.23449440816633,-0.0228683498084721,0.00178648894313768,0.0883309559688341,0.0797303046100495,-359.667482815486
"1.82",0.224776007985131,-0.0117708449168369,0.0918248940958672,0.0265790132740111,0.0173957964181055,-356.720260630946
"1.83",0.227344236321173,-0.0159046611238936,0.0241311678754679,0.0470561555960813,0.0380661193281198,-368.542121076623
"1.84",0.23161048555186,-0.0246146173204845,0.000621416626513343,0.105057497898819,0.0966146441054119,-380.550282704157
"1.85",0.228587370161522,-0.0174737593744773,0.0199200424988158,0.0500655046431532,0.0411038584605413,-348.366883733716
"1.86",0.223765520623347,-0.0139350326311952,0.033266897090159,0.042046506344196,0.0330092092342356,-397.952187300982
"1.87",0.234582582546817,-0.0233838861230442,0.000821688739847948,0.10064352023361,0.0921590251414741,-366.155800796611
"1.88",0.232540525602915,-0.0247466161189391,0.00176315828248926,0.0885397652178646,0.0799410837576557,-359.977108890905
"1.89",0.230917660249275,-0.0239922047145535,0.00363917007376413,0.0770171526401943,0.0683097672877432,-364.457271198089
"1.90",0.226971176993887,-0.0158760063984843,0.0314243160760614,0.0429326442554671,0.0339037069371224,-360.157803336168
"1.91",0.229626830298243,-0.0174718364193138,0.015699578339964,0.0538155296590734,0.0448892610709514,-370.314733521898
"1.92",0.227006274491201,-0.0180236077744179,0.0213009032375069,0.0490125382362235,0.0400409584082633,-351.699100394432
"1.93",0.234895175754322,-0.0280775844811762,0.000691765907971076,0.1033640573272,0.0949052276793437,-358.136972329875
"1.94",0.227665181491271,-0.0168170507421725,0.0471258306178258,0.0366644060727674,0.0275763344319444,-359.096087300754
"1.95",0.224696809419417,-0.019107006214303,0.0149765333177663,0.0545597035166716,0.0456404554366401,-372.111990058598
"1.96",0.233538586780579,-0.0229942120138873,0.0124952373636241,0.0574227147974018,0.0485304762577545,-338.633835009963
"1.97",0.223809834836982,-0.0110904043245448,0.15259524866577,0.0192072236475835,0.00995446160652291,-336.720899350593
"1.98",0.23107971019074,-0.0233681965810914,0.00601774834722289,0.0690163627506901,0.060233498248338,-354.572492910365
"1.99",0.228569358860503,-0.0162871569026098,0.0471454383476728,0.036658016357407,0.0275698844362504,-348.496790744559
"1.100",0.225467952629844,-0.0110320534252659,0.119092043831262,0.0227622665475021,0.0135430426470068,-357.327892379887
"1.101",0.223943006298013,-0.014673112934847,0.0793956972000663,0.0287461197521627,0.0195833472969943,-340.714453398967
"1.102",0.219672777653348,-0.00769913552885331,0.282810752701422,0.0108742370447378,0.00154286192251818,-358.092855264296
"1.103",0.23543654493898,-0.0272544021974152,0.00181324241598912,0.0880948297260366,0.0794919507611879,-358.10865157302
"1.104",0.225144897659233,-0.0177677573730333,0.0239840512356518,0.0471519381356022,0.038162805476504,-368.317565084395
"1.105",0.232306724939166,-0.0256668486963515,0.00108536274083165,0.0962376555218957,0.0877115956683285,-363.272418167367
"1.106",0.227311366284041,-0.0170535694518594,0.0229968341537714,0.0478106227790958,0.0388277041260683,-373.152662912358
"1.107",0.223960826000365,-0.0143962656789453,0.0865052815878828,0.0274657026778541,0.0182908508163243,-345.179582189326
"1.108",0.224150263596907,-0.0158851210240168,0.0323333755466963,0.0424889722114061,0.03345584930774,-367.040436507746
"1.109",0.227672472933868,-0.0134916955853067,0.0932373565572385,0.0263528013221034,0.0171674503911797,-359.021261708388
"1.110",0.229258574353745,-0.0229378313578452,0.00384017399337657,0.0761617579753419,0.0674463028619017,-371.261998519178
"1.111",0.227223235843932,-0.0181449209076222,0.0148605946283313,0.0546824079993354,0.045764317508763,-374.899381212185
"1.112",0.22251485183205,-0.00907538214636844,0.197855640499054,0.015593761339588,0.00630691003147077,-343.711845717405
"1.113",0.232588866111801,-0.0164329785855975,0.0163348116704952,0.0531898609550184,0.0442576898319524,-354.679325521282
"1.114",0.229893769040456,-0.0195842955882348,0.0218095755772139,0.0486420856435313,0.039667010979791,-341.258110447636
"1.115",0.234254171448303,-0.0253826736036515,0.00500563452857455,0.0719449953263117,0.0631897594331636,-347.177812840674
"1.116",0.2283554286005,-0.0190308685714103,0.0130013793342152,0.0567945857795634,0.0478964214944648,-358.035398193814
"1.117",0.228400382505305,-0.0158181340288772,0.0243218002415303,0.0469329245390441,0.0379417257139406,-384.101577785262
"1.118",0.231288470653211,-0.0243671890075129,0.000998234472983428,0.0975632349281838,0.0890496805407137,-370.602125458079
"1.119",0.223463049986906,-0.0132271069257375,0.0984500502300531,0.0255486816220342,0.0163557446562042,-362.087771343441
"1.120",0.230183245539544,-0.0210569787719857,0.0131351558238733,0.0566326965214299,0.0477330049791791,-360.162354814384
"1.121",0.228306079729471,-0.0215460740943367,0.00615992155892798,0.0686451086081904,0.0598587417082675,-361.592165391204
"1.122",0.230845055310306,-0.0200394248377796,0.0134614473091985,0.0562447264993984,0.0473413748626001,-350.631654386531
"1.123",0.221871857092676,-0.0106424189687231,0.171759114118956,0.0175455635422813,0.00827712546249137,-357.430639312524
"1.124",0.231024672895518,-0.0236843347125719,0.00463588427190736,0.0731657291350552,0.0644220095985935,-349.309088946924
"1.125",0.232598646191465,-0.0247220821311046,0.00283050764262387,0.0810150875731579,0.0723454185879989,-364.579565785814
"1.126",0.221359905817168,-0.0146818603708405,0.0574214115851404,0.033641481593558,0.0245248917972707,-370.658809377623
"1.127",0.229132334551586,-0.0243663620251501,0.00171304137468014,0.0889977739161678,0.0804034132927354,-364.495119638859
"1.128",0.225158995080747,-0.0149347919357084,0.0410505618734291,0.0387898557593613,0.029721835530676,-362.981122654276
"1.129",0.219643904454222,-0.0114186161676629,0.0799341735258089,0.0286449492362667,0.0194812223422691,-366.641619797335
"1.130",0.236557600284289,-0.0275978950821052,0.000564321154477488,0.106578133289556,0.0981496251130426,-340.690433737807
"1.131",0.232531352643292,-0.0214771701240547,0.0135719405990023,0.0561154996489491,0.0472109288909202,-343.041340761417
"1.132",0.231458032776137,-0.0214432684673041,0.00212677758937358,0.0855604278922017,0.0769336394760903,-373.28640586493
"1.133",0.228605357908482,-0.0215944129777244,0.00470599855304896,0.0729269231238371,0.0641809507004769,-376.631617345415
"1.134",0.232662941339317,-0.0265927598706114,0.00314520951735928,0.0793380212283731,0.070652530862603,-344.230437444273
"1.135",0.231839924757532,-0.0188989990601801,0.0311503224086565,0.0430689570611813,0.0340413057127018,-345.444583737024
"1.136",0.225897199941358,-0.0166959061873726,0.0317510210175694,0.042771693797569,0.033741238078678,-355.770723650024
"1.137",0.224105360266353,-0.0137732247107424,0.0650997604963089,0.0317354308822982,0.0226008594755274,-357.148711199676
"1.138",0.231254602712853,-0.0231089237466746,0.00200491802218098,0.0864982139841917,0.077880272606684,-361.963350063947
"1.139",0.22785472013861,-0.0175257763748141,0.0405271591772122,0.0389879996286506,0.029921848681751,-353.952368655831
"1.140",0.235542739915702,-0.0250059013943835,0.00740085336364206,0.0657283325124599,0.056914448856917,-337.421429424512
"1.141",0.225812024792351,-0.0107457337060568,0.157122671820339,0.01879426844004,0.00953761059513458,-350.087882290501
"1.142",0.225486526339703,-0.0184984868677222,0.0171637345050176,0.0524095472714624,0.0434700146985516,-368.715385617642
"1.143",0.230428198449701,-0.01607029507165,0.055340810882266,0.0342041491984348,0.0250928675870992,-356.793119697011
"1.144",0.230414474321946,-0.0130946501260268,0.0910506713431888,0.0267045952926219,0.0175225631727409,-351.212341749616
"1.145",0.240813227089999,-0.0252795679162922,0.00438822289638361,0.0740391955916229,0.0653037163047513,-351.205121459336
"1.146",0.232717082395394,-0.0211691143452049,0.00489254978232079,0.0723084862948832,0.063556679561816,-362.919373898119
"1.147",0.232376438699194,-0.0201473890564238,0.0160706223271267,0.0534470227906471,0.0445172777226341,-345.834003178228
"1.148",0.229308498513736,-0.0125978610595998,0.0746468212693586,0.029671192165285,0.0205171468083536,-339.638089381534
"1.149",0.224319086174655,-0.0191992035686244,0.0216838131366675,0.0487328494752978,0.0397586310741214,-361.806677003712
"1.150",0.235470906157105,-0.0221014566570477,0.00513994293270025,0.0715238245115792,0.0627646153088582,-332.459157886702
"1.151",0.230794459616819,-0.0172256082947929,0.0175345768110859,0.0520727565977899,0.0431300467543727,-364.578718051834
"1.152",0.226194507958767,-0.0168104462427307,0.0224596866391061,0.0481812423415815,0.0392018200995209,-362.74199949601
"1.153",0.224515534181796,-0.00941239487886839,0.191757259487966,0.0160222437677177,0.00673943474665828,-370.676477404377
"1.154",0.225903122997003,-0.0161005560619333,0.0388295106148343,0.0396493706937109,0.0305894590964816,-357.022023335039
"1.155",0.229571697157934,-0.018961477054664,0.00853917549734692,0.0634564288138254,0.0546211121045218,-364.400421827325
"1.156",0.228981883773927,-0.0220345516580801,0.00311603082907924,0.0794862992547601,0.0708022077382955,-376.054322073974
"1.157",0.231049076885704,-0.0191484858575508,0.022159122932634,0.0483925887665518,0.0394151603586889,-359.793170209883
"1.158",0.226391103576054,-0.0196901584057836,0.0152277874461991,0.0542970570296033,0.045375331152524,-336.006637365267
"1.159",0.22556508730154,-0.0129688988397063,0.0997071112944879,0.02536161068599,0.0161669089000087,-343.716804239936
"1.160",0.227231819928481,-0.0166683204131876,0.0299221894749315,0.0436954709740195,0.0346737301341516,-369.152524509742
"1.161",0.229693970101468,-0.0160804691859216,0.0461477972227057,0.0369866780800848,0.0279016467412176,-361.751347765376
"1.162",0.231516714685141,-0.0183813557127293,0.00908235570017894,0.06247775217406,0.053633202666268,-361.713972019104
"1.163",0.219132506733784,-0.0122358799323445,0.116034645278589,0.0231403232582849,0.0139246659305328,-357.933409024002
"1.164",0.226175504109402,-0.0181974785390034,0.0123178599288424,0.0576489461840168,0.0487588419027338,-348.698136922897
"1.165",0.224736694572529,-0.0146580079611178,0.0677797436707805,0.0311252928389948,0.0219849654129475,-348.350243155536
"1.166",0.236830546670946,-0.0272272677966263,0.000849398991712242,0.100118875716765,0.0916294311480552,-352.672903834733
"1.167",0.229249589953692,-0.0176223058924807,0.0369993538243201,0.0403966697354353,0.0313438081291656,-359.959631612646
"1.168",0.227403485662761,-0.0174033435492403,0.00975289568969506,0.0613478660480349,0.0524926572371672,-381.572691917975
"1.169",0.233828819223327,-0.0229732133112531,0.00664835087278404,0.0674321608750774,0.058634351072012,-356.473103693204
"1.170",0.228264284002893,-0.0218087372260851,0.0047695343885726,0.0727135802804296,0.0639655951887353,-363.074659681094
"1.171",0.227226544427104,-0.0175781093390231,0.0422012598077614,0.0383632722954157,0.0292912276944289,-342.312494716542
"1.172",0.228113197130598,-0.0170581369643254,0.0234893763671776,0.0474784602812806,0.038492408019783,-364.723867295072
"1.173",0.232026839075187,-0.0144285460150172,0.0504979563912618,0.0356042584140625,0.0265061853802329,-338.525352274196
"1.174",0.229628415449623,-0.0200092253410083,0.00823554172398021,0.0640311819130353,0.0552012874027807,-361.186256248982
"1.175",0.237258642770043,-0.0233707848561362,0.00528160484953546,0.0710913799584382,0.0623280910901215,-348.415952079927
"1.176",0.231692093074178,-0.0214896561938988,0.00402699978838919,0.0754059343798327,0.0666833488551141,-366.186863709374
"1.177",0.225062799909002,-0.0140535327237703,0.0484971180416887,0.0362240636192668,0.0271318378043542,-387.910492832223
"1.178",0.220598107926146,-0.0116438416018582,0.115260367296236,0.0232377889416356,0.0140230511014622,-359.306555799926
"1.179",0.23020745672797,-0.0118635601235414,0.13424911556075,0.0210327649008951,0.0117972249471299,-327.692620116894
"1.180",0.232991134305627,-0.0218455274845757,0.0175066649424594,0.0520978527081872,0.0431553796205285,-345.175352092942
"1.181",0.226650738434904,-0.0118631713968957,0.0650045784424658,0.0317575838804852,0.0226232214642633,-357.117152664876
"1.182",0.224811869705043,-0.0126057804735389,0.129549652970507,0.0215450584414607,0.0123143514456253,-346.739500183327
"1.183",0.235825412780392,-0.0185468522294821,0.0151796417772723,0.0543470439888928,0.0454257896869011,-351.259708428649
"1.184",0.223847138930444,-0.0174881012209434,0.0197088438706842,0.0502330777411565,0.0412730124368277,-371.526591492273
"1.185",0.242668802903996,-0.0341198427610577,3.44805811444704e-05,0.150050608626333,0.142032218141675,-367.277519316018
"1.186",0.229222620294392,-0.0172185729835417,0.0432323274491088,0.0379911419215521,0.0289155866566609,-341.062084752207
"1.187",0.222831083049529,-0.0106475509004685,0.193300381725976,0.0159123483355401,0.00662850256512049,-349.625256410991
"1.188",0.222544770364369,-0.0134326087241448,0.0339970777868666,0.0417092275661353,0.0326687485809101,-365.038554508577
"1.189",0.226346539419215,-0.0198771855938184,0.0122592024534595,0.0577244842369283,0.048835092578786,-356.665791536211
"1.190",0.231457041460723,-0.020508763750928,0.0124815469780068,0.0574400599028029,0.0485479849962255,-362.367231700644
"1.191",0.2370009523732,-0.0288578893018583,0.000259435726730161,0.118793246832434,0.110479975576136,-371.15358594527
"1.192",0.225506344398251,-0.0180920630805362,0.011545061329455,0.0586745953963533,0.0497941670510358,-363.474508894299
"1.193",0.233192184612284,-0.0247982914815557,0.00312415611740915,0.0794448699243315,0.070760387565127,-361.8832590511
"1.194",0.233551295034732,-0.0245732903659331,0.00373319602506452,0.0766112850133166,0.0679000707209892,-355.985973628023
"1.195",0.22900073048859,-0.0191289684130066,0.0172936885561089,0.0522906922845161,0.0433500384381436,-356.385203112772
"1.196",0.235206718842476,-0.0215814521427627,0.0120490653194874,0.057998124993145,0.0491113148515708,-348.771091624054
"1.197",0.229970679036356,-0.0154303701143679,0.0469622384315033,0.0367178249318885,0.0276302572425665,-359.031686327757
"1.198",0.22707239402196,-0.0153565801018962,0.0362668584871962,0.0407065096162336,0.0316565710277074,-346.562864143404
"1.199",0.220959797618763,-0.00973401178374582,0.180102875504925,0.0168865333065473,0.00761187796038254,-365.827815728702
"1.200",0.223186044580514,-0.0155768249497342,0.0476133016564178,0.0365063636389022,0.0274168010317219,-358.610342405295
"1.201",0.232204036419372,-0.0194280958746186,0.0150677680041879,0.0544638193600214,0.0455436667124743,-337.834963741689
"1.202",0.23045255706461,-0.0186580585741777,0.0185175671417229,0.051213878674145,0.0422630662088067,-365.862940889513
"1.203",0.224243204811726,-0.0130515810348819,0.0872733362236102,0.0273341370110312,0.0181580439639653,-364.228777463406
"1.204",0.232681854726111,-0.0192233889334798,0.0246654563702825,0.0467132454626246,0.037719974193404,-348.162211953576
"1.205",0.230686308664626,-0.0141288895530317,0.081199516655784,0.0284100351787941,0.0192440921144429,-350.521464503801
"1.206",0.233772921380598,-0.0221749274783097,0.00333479736638172,0.0784068204393568,0.0697125451604826,-370.637894543298
"1.207",0.228716605427752,-0.0155143780656583,0.0365676228061648,0.0405785148975321,0.0315273688116596,-353.412763560802
"1.208",0.223508731687167,-0.0145316369468315,0.0478117975218366,0.0364424905630751,0.0273523253797078,-369.663162712828
"1.209",0.223112697269877,-0.0150779846577927,0.0545550241729473,0.0344224259391598,0.0253132035423593,-363.215074841274
"1.210",0.227745599362187,-0.014167786222794,0.0616280021356168,0.0325663207387066,0.0234395879154867,-360.115070614129
"1.211",0.231966105673815,-0.0229701914272698,0.00444017589669435,0.0738519434785788,0.0651146976623388,-355.227817214944
"1.212",0.231800171831891,-0.0206706958236821,0.00333678383208533,0.0783973460998045,0.0697029814403686,-371.563003347225
"1.213",0.228741544192822,-0.0160131304084551,0.0574402976262674,0.0336364723225403,0.0245198352689793,-354.065398076335
"1.214",0.23667208523739,-0.0261734940133272,0.00256464692568079,0.0825838710396108,0.0739290018984748,-359.012773232451
"1.215",0.231205201072624,-0.0178837141631119,0.0219387293431225,0.0485494277412517,0.0395734789463578,-353.087392303184
"1.216",0.228687209408639,-0.0189085779194462,0.00518013616928292,0.0713999266357973,0.0626395485851915,-370.388101456402
"1.217",0.228968004961645,-0.0171521279992405,0.0211858286604306,0.0490975938181194,0.0401268164013091,-361.044450836473
"1.218",0.226540111391047,-0.0184526658397193,0.0131412704607893,0.0566253368110471,0.0477255758375663,-367.941111408018
"1.219",0.22530561770376,-0.0148413445225815,0.0464226072415895,0.0368954143372756,0.0278095220197027,-361.468064264898
"1.220",0.225170395278619,-0.0154330359291317,0.0156679807127932,0.0538473181959115,0.0449213494996465,-372.286911406854
"1.221",0.223280718459152,-0.0123606242171858,0.0919864811553431,0.0265529462387199,0.017369483467387,-337.166349078224
"1.222",0.223407691191964,-0.0198182199825248,0.0063767531700388,0.0680951401176829,0.0593035848357741,-363.907272232355
"1.223",0.223893181929787,-0.0162005278297591,0.0224654493959963,0.0481772183943817,0.0391977581905549,-367.249759364902
"1.224",0.219649022881222,-0.0128208286600707,0.0747277254382769,0.0296549154581871,0.0205007165474151,-373.869744481461
"1.225",0.233494641620375,-0.020400645402413,0.00889388831566028,0.0628104844705033,0.0539690739466401,-340.13384920532
"1.226",0.234043187206139,-0.0192276519675249,0.0360984495877895,0.0407786571566444,0.0317293992052919,-347.36730907047
"1.227",0.229271786123031,-0.0172277609701924,0.0230841692808422,0.0477511991442992,0.0387677198909434,-355.663127912468
"1.228",0.231881107428752,-0.0240727147568594,0.00201214951344416,0.0864409970534578,0.0778225158935847,-376.126811246401
"1.229",0.227296806801315,-0.0170973698149937,0.0454605787987588,0.0372173933201182,0.0281345385401192,-350.956438379182
"1.230",0.232462821726581,-0.0197136433786081,0.0127996131598814,0.0570419664555075,0.0481461359503706,-358.266188729877
"1.231",0.23479728832998,-0.0257904399134968,0.00236278653429577,0.0838874732576271,0.0752449022506234,-340.136744079278
"1.232",0.229234787425351,-0.0215100182251114,0.00124737030434697,0.0940323713625301,0.0854855069414219,-365.675294438193
"1.233",0.226803244834678,-0.0141120858932572,0.0582928128709262,0.0334121307102584,0.0242933772263928,-363.775240687128
"1.234",0.232115018047419,-0.0210571858721103,0.00537097951342626,0.0708244905522691,0.0620586838593659,-342.806699050697
"1.235",0.233806924744781,-0.0233003092118627,0.000676825548473555,0.103708934679688,0.0952533585917601,-354.423420717312
"1.236",0.23363878409117,-0.0190616112293835,0.0340413342270699,0.04168902515449,0.0326483555804756,-340.789591004087
"1.237",0.226312971066297,-0.0158496841151204,0.0170596995156584,0.0525053571130523,0.0435667284065716,-372.169190647129
"1.238",0.223588562237613,-0.0137299356232825,0.0828292792677184,0.0281131369680447,0.0189443929771771,-355.018812297384
"1.239",0.231185543871405,-0.015066899584901,0.0785111107256253,0.0289139105256263,0.0197527210022831,-340.412426825476
"1.240",0.230463725442691,-0.0207957208545384,0.00138815837254801,0.0923360726628541,0.0837732054238243,-376.657319455608
"1.241",0.228554985886858,-0.0173680275098574,0.016694158140842,0.0528467644223594,0.0439113565395514,-370.381138003222
"1.242",0.230176879813761,-0.0202405603604808,0.0246162627738024,0.0467444996035241,0.0377515231846893,-345.846652527537
"1.243",0.235833207851047,-0.018906356709686,0.0246920388062002,0.0466963833471748,0.0377029530013933,-329.756714281426
"1.244",0.224801106181989,-0.0126617955246517,0.136021295903401,0.0208446918731608,0.011607377645549,-348.318793935358
"1.245",0.229464023336356,-0.0198625186132519,0.00512436116936765,0.0715721174843095,0.0628133638756708,-368.320297128688
"1.246",0.230315347096739,-0.0169515714068157,0.0215616145931963,0.048821556521495,0.0398481749792449,-343.240334515787
"1.247",0.223734170811643,-0.0160953857061907,0.0495347866883974,0.0358993699190814,0.0268040809560537,-360.685857722653
"1.248",0.234626915229589,-0.0277954858502156,0.000499209493190171,0.108510745983286,0.100100470001997,-360.936104299841
"1.249",0.230184592293511,-0.0254197438841466,0.000915392025153271,0.0989348784426234,0.0904342640883085,-375.284714845581
"1.250",0.223493612964418,-0.0161913895313979,0.0136930188012591,0.0559751098673427,0.0470692146774119,-371.408423226137
"1.251",0.235897112571891,-0.023140175076502,0.00256044167337917,0.0826099689129864,0.0739553459782032,-362.273161580236
"1.252",0.221119595326231,-0.00868545775564285,0.202845817782352,0.0152543721094043,0.00596431901609662,-354.481712946168
"1.253",0.226077993192248,-0.0145729066401013,0.0436327396485545,0.0378490979593404,0.0287722026570699,-368.367858914496
"1.254",0.224318736654865,-0.011283741476035,0.084368314808034,0.027838420477075,0.0186670848211982,-357.756294453112
"1.255",0.224958896510064,-0.0180409856126315,0.0167623865873135,0.0527824683955379,0.0438464539464392,-357.445717803987
"1.256",0.225631985222207,-0.0170115714656642,0.016130754989315,0.0533881147430172,0.044457813938706,-354.258079155965
"1.257",0.238429378574162,-0.0268656172853993,0.000281699360448609,0.117503270749706,0.109177829907722,-368.539120704956
"1.258",0.235401532761884,-0.0229864332616753,0.00237037591457648,0.0838364835232059,0.0751934314809718,-348.845116687586
"1.259",0.239443603975925,-0.0298574384094698,0.000537814711452518,0.107336754883419,0.0989154035143941,-357.077062751213
"1.260",0.225787191139873,-0.0127480908240068,0.0697925005260837,0.0306835393182526,0.0215390444061605,-361.08702845325
"1.261",0.230358958660274,-0.0213250947287137,0.0099636534764748,0.0610088544960081,0.0521504474629515,-342.594386051913
"1.262",0.232999888300494,-0.0199062391257298,0.00694892440456618,0.0667294360282764,0.0579249967455242,-356.596647291261
"1.263",0.222134038635035,-0.0177350796258752,0.0327057030283743,0.0423109433974251,0.033276140976646,-365.492286693561
"1.264",0.236300521585214,-0.0234760309603033,0.0022806531884211,0.084449981897446,0.0758127175757237,-361.907431272565
"1.265",0.227767201452897,-0.0203874783072288,0.00531386068829446,0.0709945395383521,0.0622303370811667,-369.770408860263
"1.266",0.234845425874531,-0.0260634585934413,0.00253947778818849,0.0827407124603228,0.0740873229552315,-350.331653869523
"1.267",0.231141146333134,-0.0197404196872754,0.0238997306184577,0.0472071071594806,0.0382184949628719,-357.259198954452
"1.268",0.230648900586863,-0.0178200076392798,0.015915937659267,0.0535995903358585,0.0446712845843099,-362.907237153354
"1.269",0.226915367923393,-0.0164030272651827,0.025502556445666,0.0461909590246456,0.0371927605248781,-372.918525362709
"1.270",0.236088627407342,-0.027020239539755,0.00214333757072501,0.0854371409539247,0.0768091894534898,-353.13542941678
"1.271",0.234015621184419,-0.0225322416341434,0.0039796963158267,0.075593936980998,0.0668731250657243,-360.248604552009
"1.272",0.225484454547508,-0.00620980008394212,0.327247624941902,0.0090558526336865,-0.000292677058448598,-356.989327045165
"1.273",0.234423725291693,-0.0229972702317957,0.00273089464765983,0.0815849453928258,0.0729206524248335,-373.419955993957
"1.274",0.225819926966708,-0.0112180278549609,0.128346601989429,0.0216794963122439,0.0124500575982084,-343.905946134227
"1.275",0.219364516187271,-0.00310392697391254,0.591085386997063,0.00273226877028407,-0.00667591737339257,-367.418699197834
"1.276",0.226390733741649,-0.0160832073082529,0.0417072548682251,0.0385449157670417,0.0294745847837118,-336.197696591594
"1.277",0.233764713836762,-0.0182332007572783,0.0188977569416922,0.0508940556332492,0.0419402259694118,-357.411826166878
"1.278",0.233691276952469,-0.0226731621692247,0.0103285971077592,0.0604385754856392,0.0515747884619188,-338.9147113407
"1.279",0.227956622699594,-0.0198726406127578,0.0265032124463835,0.0455891507333026,0.0365852747968243,-350.191688010863
"1.280",0.220142717565568,-0.00973019846593997,0.123711534233118,0.022210702978377,0.0129862756479843,-378.249038025151
"1.281",0.230415857186028,-0.0262614139754105,0.000910954684472013,0.0990117888678843,0.090511900083619,-363.257519701892
"1.282",0.224215411950781,-0.0137687926946561,0.108437424277627,0.0241287194418553,0.014922386606401,-346.685834953139
"1.283",0.230851643131617,-0.020107388319156,0.00693878122571815,0.0667526483782417,0.0579484280799231,-361.39479334368
"1.284",0.229576281040563,-0.0226319974170345,0.00587575203445521,0.0693960441986909,0.0606167615967916,-362.810375953122
"1.285",0.226345822989696,-0.0159719484978127,0.0310871244132351,0.0431005729912614,0.0340732199062731,-365.83623805092
"1.286",0.222530909264794,-0.00595465335322429,0.417756573352215,0.00620445152428317,-0.00317097817831802,-325.695081988795
"1.287",0.22146275234155,-0.00671015405499139,0.428198819709048,0.00593205394855126,-0.00344594554250022,-348.790713361562
"1.288",0.227010148247621,-0.0161449054057336,0.0386598445495603,0.039717104411194,0.0306578318112996,-357.99931220615
"1.289",0.226447569165863,-0.0160728841638262,0.0253662780573081,0.0462747815743207,0.0372773738533236,-353.923040581003
"1.290",0.23013001344684,-0.0222105180875345,0.00560842143057296,0.0701365094652032,0.0613642123846861,-368.56646483889
"1.291",0.230125917596721,-0.0263878143785271,0.00153517486489031,0.0907384483945304,0.082160509228441,-368.299168402732
"1.292",0.228716662357112,-0.0174943059897156,0.0446733716317217,0.0374861651634609,0.0284058459668897,-337.928101696435
"1.293",0.230495669257638,-0.0183826593779755,0.0228876667292506,0.0478852258795911,0.0389030110293984,-345.271145211419
"1.294",0.229489901128664,-0.0153816721438807,0.0754916602321929,0.0295021367627244,0.0203464965435047,-345.269011807451
"1.295",0.227614058280519,-0.0177656076230954,0.0414578823592446,0.0386374563006082,0.0295679983411798,-354.873187680703
"1.296",0.229778591257202,-0.0219468176738664,0.00716923883030781,0.0662334800659123,0.0574243619533265,-349.96786545134
"1.297",0.224925384881508,-0.0108281750804335,0.171444360553982,0.0175711330162443,0.00830293615790689,-355.698962464698
"1.298",0.23115499412307,-0.0213097086885942,0.00375318212506731,0.0765263320233543,0.0678143162877255,-366.492439084949
"1.299",0.234264015842021,-0.0244975499083466,0.00497824446550664,0.0720322752563447,0.0632778627587629,-350.97319597837
"1.300",0.224192313078601,-0.020822668469609,0.0189315782797896,0.0508659219414189,0.0419118268653945,-345.496090925004
"1.301",0.236908383190239,-0.0238120677090939,0.00405216720646273,0.0753068075166243,0.0665832868328188,-364.482935679714
"1.302",0.221346477731002,-0.0114967555052831,0.128154107577982,0.02170113554911,0.0124719009788185,-356.315247474154
"1.303",0.222344820102414,-0.0192747561780066,0.0165386645451354,0.0529942977880611,0.0440602817294578,-367.854484760563
"1.304",0.228386075061692,-0.016754779799668,0.0222157890569912,0.0483525203388223,0.0393747139269243,-357.273666027288
"1.305",0.231834361149008,-0.0223736803127673,0.00424635984002155,0.0745620350548845,0.0658314882157796,-342.468712299345
"1.306",0.235101072417834,-0.0207438573390643,0.0060573129332766,0.0689121720394769,0.060128324605887,-346.445508417773
"1.307",0.222886701886977,-0.0165892521750078,0.0173112472606783,0.0522747027945128,0.043333898103895,-381.22168593111
"1.308",0.236718556015722,-0.0254202967829831,0.00150031469164227,0.0911030529919912,0.0825285534919156,-366.54929493701
"1.309",0.233044106179039,-0.0257672761476778,0.000915931987713124,0.0989255448017463,0.0904248423942156,-359.136285713708
"1.310",0.225607355061317,-0.0126954032432466,0.0978244518627756,0.02564274093377,0.0164506913199376,-350.978318905565
"1.311",0.227651053811803,-0.0172822440563352,0.0202223257632298,0.0498287806176829,0.0408649011895478,-379.307699353237
"1.312",0.239814301366429,-0.0295623565282655,0.000696000108334601,0.1032676606445,0.0948079215939764,-348.537076610473
"1.313",0.230507296735773,-0.017997357462398,0.00815595812101529,0.0641853549376187,0.0553569148898604,-361.637785689645
"1.314",0.224132869694436,-0.0203613181268005,0.0063069759006167,0.0682700471143967,0.0594801418984946,-362.517452464397
"1.315",0.230498445949967,-0.02461768797898,0.00273151887192018,0.0815813101811887,0.072916982918747,-364.004340725769
"1.316",0.231161785738022,-0.02567248289285,0.00167547810043964,0.0893498922701944,0.0807588535180264,-365.240209965243
"1.317",0.230104849411627,-0.0189397989718442,0.0141190156593152,0.0554909633436099,0.0465805007336437,-372.734871273569
"1.318",0.223105597508552,-0.0128920864677732,0.115345022995623,0.0232270978723609,0.0140122591730435,-365.502721670686
"1.319",0.228851553120576,-0.0201517884209999,0.0102408674111632,0.0605737896627448,0.0517112782444688,-375.595369361407
"1.320",0.233409202704847,-0.0234868081278545,0.00373181595421058,0.0766171679211135,0.0679060091279163,-363.303142675129
"1.321",0.23799725600749,-0.0297617300376661,0.000586331950290054,0.105974573281976,0.0975403711431265,-340.437837502116
"1.322",0.224214368923228,-0.0138143780808009,0.0531465197725006,0.0348220236811392,0.0257165710743574,-358.191485879102
"1.323",0.226619828580898,-0.0195014677239497,0.00692860047795444,0.0667759810016634,0.0579719808224337,-345.721488383172
"1.324",0.22744855069656,-0.0199218073216651,0.0102120312416396,0.0606184888315396,0.0517563991035352,-353.592918234815
"1.325",0.213977059109055,-0.00463821351823103,0.546172559293928,0.00344631429647938,-0.00595513556864824,-352.27113510398
"1.326",0.237006929089957,-0.0234044032914236,0.0100681773935032,0.0608433959374611,0.0519834279746068,-341.949256671747
"1.327",0.220366774753632,-0.00902493231301798,0.126321513453545,0.0219089515235093,0.0126816774812782,-355.892200840225
"1.328",0.234463577363763,-0.0232956857516811,0.00149596542357458,0.0911491326898199,0.0825750679038746,-362.960628531234
"1.329",0.228268377493355,-0.0207738796231304,0.0108701484068653,0.0596287169388085,0.050757289740118,-361.669451912188
"1.330",0.228064090503302,-0.0140723193135064,0.0518558711849672,0.0351980053796777,0.0260960997700519,-366.27862575095
"1.331",0.226667307543158,-0.0168169910196431,0.0209869189431634,0.0492457306033164,0.0402763507033476,-362.203309464785
"1.332",0.225142469137316,-0.0242139358041107,0.00053609177185452,0.107387341829419,0.098966467695734,-373.707789710132
"1.333",0.231152461302379,-0.0142910263634493,0.0204711613432754,0.0496365994755631,0.0406709070177853,-372.51282478923
"1.334",0.227553244405095,-0.0150601195174666,0.0423027994867652,0.0383262093046878,0.0292538150528451,-360.151882989084
"1.335",0.225226360303469,-0.015174019257385,0.0634199716110807,0.0321314836795986,0.0230006486199721,-356.147558625032
"1.336",0.224711715213167,-0.0154552770834126,0.0303395168920909,0.0434796644316455,0.0344558876810005,-381.208950839622
"1.337",0.23133889111485,-0.0191600685480546,0.0189451923525398,0.0508546117328324,0.0419004099567268,-359.847722675596
"1.338",0.223050452998548,-0.0151759763389601,0.0383021437947325,0.039860916028672,0.03080300014215,-361.075494889185
"1.339",0.227738138572362,-0.013684650917704,0.0930151728835855,0.0263881406179522,0.017203123076612,-361.438335171652
"1.340",0.228733088615877,-0.0191270908846178,0.0244237635178819,0.0468674163585216,0.0378755995317152,-351.059063382981
"1.341",0.22541155206681,-0.0162179327132942,0.0320430177314782,0.0426292753265004,0.0335974760371277,-361.287544975894
"1.342",0.227011859815245,-0.0164417770448534,0.0416512645847371,0.0385656434730346,0.0294955080341008,-362.430928542581
"1.343",0.22271670093696,-0.0148912719229864,0.0336952898474011,0.0418477148062433,0.0328085423044153,-362.829013799943
"1.344",0.238322210786926,-0.0273942902833622,0.000959713962716995,0.0981863768326237,0.0896787011423653,-358.293391448982
"1.345",0.232290147962765,-0.0245441542148507,0.00261749185640409,0.0822595056073963,0.0736015764150131,-343.461506869326
"1.346",0.224432084350697,-0.0176030473130227,0.0153706790846458,0.05414963819775,0.0452265215769739,-353.348759476477
"1.347",0.229153165160544,-0.0161476509610783,0.0349205505039979,0.0412931833416082,0.0322487794108685,-355.720012800385
"1.348",0.23374291388995,-0.0252240734900773,0.00269914087750021,0.0817709681361782,0.073108430099727,-355.508634742352
"1.349",0.22638505482403,-0.0164669363789859,0.0477242313044939,0.0364706340658404,0.0273807343872161,-357.632618177211
"1.350",0.22713843042742,-0.0169966783541232,0.0348272597778557,0.0413346954160283,0.0322906831086323,-353.826181447409
"1.351",0.228529440924816,-0.0176583079902606,0.0315285079678651,0.042881128447704,0.0338517051311727,-356.258310713432
"1.352",0.231343247897455,-0.0209794538246564,0.0145235634794587,0.0550446915219347,0.0461300188004434,-345.027553254703
"1.353",0.22319385370138,-0.0150616757122806,0.0486692623481237,0.0361697015146308,0.0270769628496743,-353.485008972296
"1.354",0.229575069516794,-0.016313945209048,0.0780586144563486,0.0290005186992014,0.0198401462340995,-326.023192329081
"1.355",0.236701597388514,-0.0312611860431549,7.60380803905212e-05,0.137889619863113,0.129756503069369,-368.04159392433
"1.356",0.222696853677518,-0.00876993625796543,0.271610911223553,0.0113903129264917,0.00206380644466608,-368.06545253579
"1.357",0.225467130245647,-0.0116305968466357,0.189955968045646,0.0161518222652786,0.00687023568287537,-333.686670271245
"1.358",0.222893214357533,-0.0106538291062597,0.0787169286607157,0.0288746919077674,0.0197131323974632,-371.499177672213
"1.359",0.228542429312568,-0.0204505600709662,0.0060539357354604,0.0689210389734408,0.0601372751901713,-370.144225917497
"1.360",0.235490136794515,-0.0203180574643079,0.00460240227303703,0.0732810460930184,0.0645384144523864,-347.88036100011
"1.361",0.23109867407934,-0.0233408914310192,0.00230847802761747,0.0842571861473399,0.0756181029977864,-352.891149740146
"1.362",0.23008121004168,-0.0206135302496482,0.00757772738173799,0.0653531596151839,0.0565357365926855,-368.053093453213
"1.363",0.225366556743082,-0.0132679494685603,0.0936730719480709,0.0262837602430859,0.017097757981228,-358.287083743242
"1.364",0.23993250250907,-0.0325397448341876,7.18288110146089e-05,0.138769298185974,0.130644480244332,-357.902375891147
"1.365",0.224492337279636,-0.0174467964265069,0.0325264901272264,0.0423963728025872,0.0333623763195927,-371.097445574275
"1.366",0.232480232559144,-0.0196770339597083,0.0223991047882714,0.0482236085141099,0.0392445859529221,-345.655205950644
"1.367",0.225065950439801,-0.0114732123899745,0.11112437397348,0.0237707849775145,0.0145610754018306,-363.560177057514
"1.368",0.238822428716336,-0.030936633606685,0.000354414261832587,0.113900075325261,0.105540642073612,-344.986948640226
"1.369",0.229616041215158,-0.0203795323088147,0.0198681592737908,0.0501065027098224,0.0411452433014244,-349.251050195653
"1.370",0.233038555108025,-0.0197883440779897,0.0174480308926413,0.052150704314599,0.0432087298270007,-344.888720270973
"1.371",0.225893643696336,-0.00737931302340304,0.269946830910966,0.0114692465024048,0.00214348467695569,-365.095221193599
"1.372",0.230321143374342,-0.0184441628620676,0.00625272853523341,0.0684073732733719,0.0596187635872715,-371.86705352388
"1.373",0.23099497374074,-0.0172657587060142,0.0435583234256555,0.0378753942612106,0.0287987470372597,-348.47904651761
"1.374",0.230472150591812,-0.0164958902036772,0.0351465451068716,0.0411930927838839,0.0321477446025997,-351.483186621249
"1.375",0.228956645824407,-0.0147772947484876,0.0313898382051012,0.042949729850686,0.0339209537172018,-367.743887220029
"1.376",0.22882143610776,-0.0234717402955915,0.00936814962425121,0.0619862315784396,0.0531370450838965,-343.510388577557
"1.377",0.226816260474959,-0.0219414518560989,0.00859472227446823,0.0633535123458544,0.0545172247264756,-349.262641920759
"1.378",0.230814851258111,-0.0208376984507613,0.0155476093548167,0.053969015035078,0.0450441944222013,-339.628436313392
"1.379",0.226697047590946,-0.0132905485231468,0.0968020403730937,0.0257978625962096,0.0166072763942869,-337.336897520884
"1.380",0.225638071508772,-0.0167605012288952,0.0353857681817614,0.0410878629642358,0.0320415220488039,-373.971247192839
"1.381",0.231472434645489,-0.0225358371048998,0.00875334018118533,0.0630632711524228,0.0542242454085776,-358.357291793989
"1.382",0.234440647321929,-0.0219594377168454,0.00570979198815845,0.069851643425636,0.0610766589296513,-355.802149653785
"1.383",0.230340742250603,-0.0152602720124322,0.0501562980161832,0.0357082655908547,0.0266111737568061,-336.831830840295
"1.384",0.237725074791386,-0.0234541199551779,0.00579803495121577,0.0696077669221749,0.0608304817044595,-344.035598137252
"1.385",0.230925244289027,-0.0170763745548583,0.035509066134933,0.0410339122302019,0.0319870623455811,-357.07556335732
"1.386",0.226094029170886,-0.0231606187405274,0.006270073713053,0.0683633346798935,0.0595743095353641,-349.938886495065
"1.387",0.218160409528588,-0.00977843863697713,0.174046527731839,0.0173613259122515,0.0080911497416124,-376.305929364704
"1.388",0.226490781895488,-0.0143063359371999,0.0325259298298642,0.0423966406499369,0.0333626466938042,-358.514540968289
"1.389",0.229054203016899,-0.0191329526469604,0.026326916357736,0.0456934730648722,0.0366905813013331,-339.236168429493
"1.390",0.231851330020969,-0.019277396654213,0.0190739052830092,0.0507480870252857,0.041792880299109,-347.197872229312
"1.391",0.225147631771638,-0.0184686274185296,0.0252166016500155,0.0463673770403053,0.0373708428614402,-350.622882832234
"1.392",0.225795073935214,-0.0198228187822468,0.0085825028455995,0.0633760948221202,0.0545400202449703,-367.808459445557
"1.393",0.228381062559336,-0.0201924546069058,0.0136352475546272,0.0560419380954177,0.0471366733604687,-361.112106735058
"1.394",0.228446855141003,-0.0146247062728323,0.08040748370229,0.0285566183979159,0.0193920581941226,-349.316176685284
"1.395",0.228517376261289,-0.0156238115123082,0.0436302322857073,0.0378499832241428,0.0287730962734271,-357.567708860043
"1.396",0.226473860876534,-0.0163466198289184,0.0418484248742646,0.0384927819136834,0.0294219591015483,-360.3579846306
"1.397",0.227898384928751,-0.0183687317274466,0.0152252469514713,0.054299690678718,0.045377989647385,-361.143975935915
"1.398",0.226245443757201,-0.0169762235331094,0.0506459611788498,0.0355594301995777,0.0264609342580642,-347.114594862619
"1.399",0.228725586397696,-0.0168024575614159,0.0466071420139639,0.036834444980513,0.0277479774803291,-347.739923517407
"1.400",0.231646152933939,-0.0142400413357449,0.0445561529223884,0.0375266061841985,0.0284466685066908,-353.023195291148
"1.401",0.219000751922136,-0.00983974317667748,0.137685077226919,0.02067057039421,0.0114316135111364,-376.781962311203
"1.402",0.221522724785995,-0.00496335692360051,0.403368117321415,0.00659665669331199,-0.0027750729605247,-363.218219971316
"1.403",0.222572829438315,-0.0127413267518207,0.0780503398412234,0.029002107423298,0.0198417499461592,-362.606044496657
"1.404",0.234314276258748,-0.0229526963010072,0.00522520086685991,0.0712621526362913,0.0625004748309731,-360.974983641839
"1.405",0.230534846635695,-0.0185739108424969,0.0142215575348152,0.0553766323584262,0.0464650911542602,-344.118127943708
"1.406",0.231997977427805,-0.0221009927045269,0.00581717875373666,0.0695553508771841,0.0607775711684783,-367.333827890313
"1.407",0.22567194065574,-0.0169661756872733,0.0269569807466419,0.0453238671992948,0.0363174885879674,-356.712744406111
"1.408",0.228387458982385,-0.0175058309183596,0.019713495522377,0.0502293673036484,0.0412692669951921,-357.440127761586
"1.409",0.237688839188018,-0.030180057539656,0.00019992534478678,0.122868811310051,0.11459398877524,-366.0628578287
"1.410",0.238128606213648,-0.0261857568432307,0.0034748068342012,0.0777524855462127,0.0690520372966484,-349.33028107811
"1.411",0.222659495198406,-0.0156899740677539,0.0224469493634184,0.048190140106551,0.0392108018056693,-373.699102890899
"1.412",0.233804213458956,-0.0245808580027499,0.00311173618914267,0.0795082404301028,0.0708243559058584,-342.52667326519
"1.413",0.233589910423138,-0.0239757931707052,0.0100533363617088,0.0608667831300332,0.0520070358010712,-337.316385644787
"1.414",0.226180663254757,-0.0171512798719335,0.0204811755214778,0.0496289151646126,0.0406631502133352,-366.959264715381
"1.415",0.226828735005622,-0.0192624122526487,0.00675311921582891,0.067183659603198,0.0583835054485111,-367.585127905096
"1.416",0.230911388028988,-0.0246278990597134,0.00709093603218521,0.0664079737131885,0.0576005017670863,-325.330355154645
"1.417",0.228952098053239,-0.0157078382891857,0.0226043382038166,0.0480805538955479,0.0391001817624869,-351.55260809212
"1.418",0.233532699111618,-0.0223731386641066,0.00993161007950303,0.0610599288971027,0.0522020036980186,-344.966003202332
"1.419",0.226703140911087,-0.0104526533495393,0.183791673807621,0.0166061933237316,0.00732889326074782,-340.61511054183
"1.420",0.219431688856895,-0.00366322793552448,0.531155154238134,0.00371040839640514,-0.00568855001494972,-366.736402534316
"1.421",0.229020183786692,-0.0232305969366289,0.00994755194949134,0.0610344982074247,0.0521763330961739,-342.112886649397
"1.422",0.226851514700288,-0.0195124761774409,0.0111159555745262,0.0592744682677705,0.0503996991004853,-360.527170949505
"1.423",0.226653367157562,-0.0199373632009911,0.00588944867003532,0.0693590221216244,0.0605793902548473,-369.223797819313
"1.424",0.233550856619237,-0.0250585257421784,0.00282837464207696,0.0810270787760731,0.07235752291547,-345.260856573917
"1.425",0.234974790842599,-0.0270280374457251,0.00108890461839449,0.0961860325128535,0.0876594856497671,-360.63715515637
"1.426",0.222187006525865,-0.00738230298520719,0.340636421961838,0.00856990481231417,-0.00078320929323028,-356.066897048403
"1.427",0.228690632311714,-0.0158609775592467,0.0251275842187136,0.0464227133169199,0.0374267011784002,-373.062553963241
"1.428",0.218694564767817,-0.0102683378636132,0.171434178130122,0.0175719610899138,0.00830377204359212,-360.882152895522
"1.429",0.22998534817571,-0.0225734400895611,0.00297739213378353,0.0802103196082381,0.0715330584724667,-372.492624521948
"1.430",0.225078589135337,-0.0168314289331586,0.036391109295353,0.0406535006987794,0.0316030620261263,-362.228552150691
"1.431",0.230099120403343,-0.0195747233598767,0.0120195801650241,0.0580369058224807,0.049150461537787,-349.904449679834
"1.432",0.23313376919705,-0.0187299219553646,0.0195123977462654,0.0503905936934156,0.0414320143886365,-350.104870120275
"1.433",0.221307964551105,-0.0135119413578774,0.0641260384612232,0.0319636830357402,0.0228312649511716,-371.679392320211
"1.434",0.222189623770699,-0.012749119763162,0.0983798322118378,0.0255592068881789,0.0163663692173126,-362.72332425133
"1.435",0.23477951659509,-0.0259164189989836,0.00129194841731746,0.0934754976816331,0.0849233797352333,-351.855850447274
"1.436",0.23061965577737,-0.0189293014236299,0.0154162774938261,0.0541028872826323,0.0451793296154873,-347.518439371386
"1.437",0.22280007236523,-0.0125645818255844,0.109155089149298,0.0240321843275013,0.014824940783421,-355.904377273806
"1.438",0.224682231480228,-0.0110609379871723,0.164265736052041,0.0181691743443238,0.0089066193853079,-349.31367930344
"1.439",0.223940218309993,-0.013170565103378,0.0757429529758856,0.0294522385383254,0.0202961275811396,-367.168598908724
"1.440",0.22752210269491,-0.0208448782104672,0.0071362802408217,0.0663066920345233,0.0574982646008867,-367.637754025542
"1.441",0.229649589477444,-0.0191136391367572,0.00661541728247396,0.0675110893289499,0.0587140241339399,-359.217764131017
"1.442",0.240550183220088,-0.0252031076512664,0.00081840310870105,0.100706889626032,0.0922229923583531,-363.481005086392
"1.443",0.223956509560811,-0.0151389994533954,0.0424877883668846,0.0382589226206773,0.0291858935887969,-350.435885935505
"1.444",0.224693505537272,-0.0156378344295564,0.0621574690466038,0.0324364738629888,0.0233085160692432,-341.522502933466
"1.445",0.232884825183962,-0.0162955921794294,0.017731067503748,0.051897227631617,0.0429528618545567,-353.993533520352
"1.446",0.226705989247115,-0.0144742653354586,0.0616552750098818,0.0325596037719189,0.0234328075810879,-355.547909292573
"1.447",0.224343566835141,-0.0122415882862821,0.110501974895869,0.0238528544024387,0.0146439190666126,-338.801857219827
"1.448",0.23502361707489,-0.0269034767357295,0.0018423728968915,0.0878416382319923,0.079236370668143,-346.128499048354
"1.449",0.234234329140014,-0.024608666068924,0.000933649522514721,0.0986222786825066,0.090118715273851,-380.629949492284
"1.450",0.230290540585629,-0.0199572841346946,0.0152631985229129,0.0542603937885604,0.0453383220318486,-350.47895956165
"1.451",0.22224095138198,-0.0116644333948259,0.177422188095901,0.0170944080284357,0.00782171376455298,-330.018988240219
"1.452",0.228660719894854,-0.0232314261116376,0.000454755012527411,0.109979670548413,0.101583252346039,-381.98366438571
"1.453",0.223435516043282,-0.0149490931160479,0.056359388458483,0.0339259771973255,0.0248120713218285,-360.630113621994
"1.454",0.223156893003133,-0.011016641865351,0.150923713429652,0.0193631657767978,0.0101118748878996,-355.029822030869
"1.455",0.226722324991853,-0.0115400716031982,0.126752711587113,0.0218597573112023,0.0126320191726287,-351.638924963229
"1.456",0.231063465411984,-0.0236403088150221,0.00294928000278507,0.0803612308948305,0.071685393450442,-371.0142351851
"1.457",0.225599273557131,-0.00972163763145745,0.133631892882353,0.0210989119971162,0.0118639960725606,-339.861055336068
"1.458",0.221484875291922,-0.0140581553012837,0.0539028772389764,0.0346060873510677,0.0254985976090966,-353.691340966886
"1.459",0.225997916156667,-0.0176854407961692,0.0148590064886242,0.0546840955421967,0.0457660209718399,-380.773661449036
"1.460",0.229189730183968,-0.0152974126807649,0.0387179587635561,0.0396938696833494,0.0306343778879092,-358.895337720931
"1.461",0.220970964936236,-0.00342937066181323,0.647470558100219,0.00198004210921196,-0.00743524051239941,-353.246031854224
"1.462",0.226798952643647,-0.0155544112076362,0.047922009782349,0.0364071447274958,0.0273166460928495,-353.273831361235
"1.463",0.221033011730246,-0.0126814467376029,0.0786092263252565,0.0288952010000793,0.0197338349717781,-382.898685122343
"1.464",0.232096310236721,-0.0273939586079331,0.00040538588081355,0.111787989841605,0.103408631255205,-368.99288008677
"1.465",0.226165522497432,-0.0165579816047282,0.0225759272760235,0.0481002781024477,0.0391200920468102,-363.7776020331
"1.466",0.232933724059428,-0.0205056284769947,0.0137165352163389,0.0559479883710514,0.047041837317948,-348.78731948797
"1.467",0.220569799759668,-0.00912414003881025,0.26829819402948,0.0115480430855695,0.0022230246241125,-356.738806754849
"1.468",0.229743548508314,-0.0200443673743823,0.0140136292821431,0.0556093450256073,0.0466999992239621,-360.522937057499
"1.469",0.229960533758112,-0.0225401208466763,0.0154411641071746,0.0540774307370951,0.04515363291386,-332.26597915989
"1.470",0.230101188459764,-0.0184258181150637,0.0194066985510145,0.0504760150441405,0.0415182416011607,-350.127077796472
"1.471",0.224925147483111,-0.00989101822213874,0.151146610658419,0.0193422598427608,0.0100907717280698,-353.20073310088
"1.472",0.22609070770376,-0.0162378618817961,0.0446905274823782,0.0374802555430048,0.0283998805952972,-364.627184993625
"1.473",0.227604557629667,-0.0216306905105799,0.00319808366212288,0.0790727968079248,0.0703848043249806,-383.837117416931
"1.474",0.222738998065795,-0.0076521031220996,0.287701614381876,0.0106568209212252,0.00132339470350074,-367.329657291852
"1.475",0.223283170125021,-0.0108425250441026,0.133594328522668,0.0211029486038029,0.0118680707604425,-361.764273149014
"1.476",0.235592173035063,-0.0232590296023141,0.00246353621764226,0.0832235160769973,0.0745746813230066,-362.258529468115
"1.477",0.224354922848352,-0.0142684305885966,0.0452397137629699,0.0372923119069813,0.0282101639061036,-364.84535157871
"1.478",0.234918179132369,-0.0247363561429952,0.00652016032911859,0.0677416220886843,0.0589467317310304,-340.983201238821
"1.479",0.226994155272819,-0.0169284321010707,0.0349216317785479,0.0412927028706859,0.0322482944072017,-357.205190767333
"1.480",0.222787203923914,-0.0110653960844981,0.138218260328314,0.0206152624907888,0.0113757838350415,-358.883230459938
"1.481",0.228900900990676,-0.0186614186740216,0.0240370372750631,0.047117371817991,0.0381279130615568,-345.803092124355
"1.482",0.223839829204123,-0.0153565359883347,0.0311141571998418,0.0430870412867289,0.0340595605441508,-368.520372618097
"1.483",0.228220355136316,-0.0136541859909455,0.108490079092747,0.0241216131939213,0.0149152133183921,-341.73729601314
"1.484",0.233873638072705,-0.0218834520902963,0.00819881947700925,0.0641021348535587,0.0552729097106676,-363.497531111076
"1.485",0.223359539363206,-0.0169783557277379,0.0135656944175721,0.056122776407553,0.0472182742981903,-365.48987313559
"1.486",0.227556279776013,-0.0155194283637544,0.0195179705151567,0.0503861031018767,0.0414274814330264,-355.690190442981
"1.487",0.225818063548051,-0.01743070689146,0.0349955242266855,0.0412599045490824,0.0322151866674698,-358.876638841279
"1.488",0.229700822211122,-0.0253705609834719,0.000869564878637418,0.0997476493703432,0.0912547026662898,-359.532611150159
"1.489",0.223110167084161,-0.0114940059465945,0.131820686336702,0.0212949790527208,0.0120619128173689,-338.885824175293
"1.490",0.23481406983613,-0.0233585172091276,0.0106349024473808,0.059975397173158,0.051107240542716,-328.665368586629
"1.491",0.236147676684984,-0.0247852247564325,0.00536729757676249,0.070835397301581,0.0620696935025392,-333.44261449352
"1.492",0.232506401100191,-0.0207447417985877,0.00736604398308785,0.0658032282420158,0.0569900511499593,-357.923244981356
"1.493",0.235548590590484,-0.0227510785056387,0.00395596715644793,0.0756890895590556,0.0669691753096127,-366.642173037069
"1.494",0.227638511154205,-0.0205931974276671,0.0109442670899049,0.0595210554578224,0.0506486125847828,-366.238418116129
"1.495",0.232726799028207,-0.025482313930447,0.00282856873785643,0.0810259872442047,0.0723564210861309,-356.049793635796
"1.496",0.224660621014409,-0.0194512737690682,0.0100632113513194,0.0608512177880826,0.0519913236162719,-382.099522865659
"1.497",0.230504908373483,-0.0205692940948535,0.00755615922812476,0.0653984345017384,0.0565814386008113,-352.135361677547
"1.498",0.222065998679655,-0.012098531159609,0.108445971944985,0.0241275656019818,0.0149212218812457,-369.116855304302
"1.499",0.241818820131638,-0.0311844486009453,9.23289544615658e-05,0.13488654243154,0.12672509471863,-360.678787534822
"1.500",0.235787924437647,-0.021436060536378,0.00654876480272368,0.0676720426304425,0.0588764958628052,-359.519762480344
"1.501",0.235564581209438,-0.0231202508484195,0.00595546798703671,0.0691817744845995,0.0604004704703032,-340.109129220432
"1.502",0.234071522708679,-0.0254071161583725,0.00408474070970571,0.0751794208102274,0.0664546983650408,-354.829321866652
"1.503",0.233349471939762,-0.0250241276560511,0.00233293707096992,0.0840896158592041,0.0754489518578758,-350.571647732866
"1.504",0.225529604547908,-0.0183144770389556,0.0107309481192221,0.059832929829138,0.0509634291671487,-365.930332765065
"1.505",0.230343915786814,-0.0159445866705439,0.0551134848596369,0.0342669616436177,0.0251562726025196,-336.063349073422
"1.506",0.227202425360613,-0.0139390288944494,0.11022111159145,0.0238900533658874,0.0146814689636786,-335.270235774097
"1.507",0.226100575843989,-0.0224978873268327,0.00331821812452254,0.078486114860964,0.0697925876426712,-374.648571061884
"1.508",0.228979101544275,-0.0135871792200484,0.0551702987575078,0.0342512380676625,0.0251404006909423,-360.608793899248
"1.509",0.229698608848852,-0.0180475937505754,0.022847143652161,0.0479130110511629,0.0389310583252304,-345.838830073217
"1.510",0.226065778225373,-0.0162405737718111,0.0217141507639646,0.048710905546683,0.039736480127312,-367.62760082691
"1.511",0.234049491325718,-0.0240877532758909,0.00430830266952715,0.0743316256428325,0.0655989051300289,-348.832655110821
"1.512",0.232209389106554,-0.020425887902899,0.00352906423230267,0.0775059719802084,0.0688031981309649,-369.534051671508
"1.513",0.221001792468281,-0.0128710450248077,0.0663376689422441,0.0314503797542943,0.0223131191859384,-342.211049754586
"1.514",0.230232650993386,-0.022401617127609,0.00573694188142704,0.0697762091568754,0.0610005130168458,-362.693763947498
"1.515",0.23041477223621,-0.0154094529292951,0.0879463166729511,0.0272198694024455,0.0180426983590722,-341.336602580988
"1.516",0.233144338484592,-0.0237198099571921,0.00331558879097161,0.0784987266703388,0.0698053184313796,-356.470811035533
"1.517",0.229928700776578,-0.0198174021619489,0.0217527246196078,0.0486830492312035,0.0397083610164034,-349.684488270746
"1.518",0.232382342498421,-0.0166585393681336,0.0380055773620614,0.0399812039473169,0.0309244228524802,-334.317603455053
"1.519",0.231015877262558,-0.0242153205309043,0.00118085675248921,0.0949011901772488,0.086362522160053,-361.628387487212
"1.520",0.227999195251243,-0.013444053184328,0.0772720911659257,0.0291523351014974,0.0199933948666058,-347.484913362682
"1.521",0.226579731715429,-0.0215302310839621,0.00230910078491068,0.0842528976795374,0.0756137740727404,-364.63240327853
"1.522",0.223881080181943,-0.0152927338281308,0.0538007974354881,0.0346350454398138,0.025527828887359,-354.06935004126
"1.523",0.232330160584703,-0.0128981989037599,0.155606032164758,0.0189311023042298,0.00967573534483557,-335.350970870105
"1.524",0.230613018841655,-0.0211814050079825,0.00734570145306559,0.0658471620014674,0.0570343993788397,-352.842794736219
"1.525",0.221909883173252,-0.0126721725594133,0.0976015803828713,0.0256764062578505,0.016484674241415,-367.751245183761
"1.526",0.225059924802802,-0.0143948299959263,0.106030363784121,0.0244576258003856,0.0152543958551061,-342.372698948345
"1.527",0.224664097796649,-0.00952092440061554,0.221493100112356,0.014067378292007,0.0047661271438183,-339.630800332713
"1.528",0.233153095327364,-0.0219332229316435,0.00929191273319707,0.0621158542855393,0.0532678906467235,-338.289260340983
"1.529",0.229818892048938,-0.017051761326375,0.0354375407990855,0.0410651855912753,0.0320186307383628,-343.933663796388
"1.530",0.232854496323198,-0.019118756640754,0.00862426495774636,0.0632990483456221,0.0544622469149204,-369.788585261652
"1.531",0.224624425027668,-0.0129783289545304,0.0751116506464112,0.0295779289154487,0.0204230037165377,-355.354508395691
"1.532",0.23413115920256,-0.0252172729903346,0.00106612046453628,0.0965210717578665,0.0879976856423745,-355.842496606694
"1.533",0.233251731246859,-0.0214999698008956,0.0162923617399962,0.0532308959971522,0.0442991119971253,-339.370477308369
"1.534",0.216794916318352,-0.0047740009994417,0.479427783112218,0.00472961506742967,-0.00465972818665139,-370.073693052236
"1.535",0.227504773086677,-0.0168631536217154,0.0212509713594132,0.0490493869783716,0.0400781547800543,-371.556485212431
"1.536",0.22260580095435,-0.0122344926661082,0.144943483247769,0.0199372876062496,0.0106914129610254,-345.396346741924
"1.537",0.230012987250845,-0.0187231201864429,0.0168604885737673,0.0526904845351102,0.0437536023137431,-356.777430861945
"1.538",0.228947164057158,-0.0209256284403086,0.00926057573525343,0.0621694463448901,0.0533219882915399,-360.720782494915
"1.539",0.222690440364804,-0.0147038991392628,0.038532266601581,0.0397682382506021,0.030709448045419,-366.872166593961
"1.540",0.23328124676936,-0.0200409274689296,0.0192998546275167,0.050562843774941,0.0416058894709309,-343.702410613668
"1.541",0.227169871883043,-0.0161673813232289,0.0492643265095453,0.035983312284404,0.0268888152304831,-344.19931800242
"1.542",0.229200283079079,-0.0153911361533436,0.0522927720404776,0.0350696490751236,0.0259665325569642,-362.109532037014
"1.543",0.234344187574974,-0.0242491988682511,0.00844432934757458,0.063633726066627,0.0548000819729159,-345.381922099793
"1.544",0.2343901877433,-0.0253090538433724,0.00140211214846929,0.0921773744227782,0.0836130100305401,-373.372611484624
"1.545",0.233476163511573,-0.0246123076623257,0.00607702461689317,0.0688605171812398,0.0600761824376665,-350.396939442887
"1.546",0.230254950645535,-0.0194355867878586,0.0111033935138157,0.0592923797425045,0.050417779551396,-362.618481097106
"1.547",0.230489197013857,-0.0195807771131912,0.0126108951617774,0.0572769435013931,0.0483833297608401,-345.063838094684
"1.548",0.222929282764594,-0.012031332405272,0.0537062395178284,0.0346619209106256,0.0255549579003483,-371.610436191975
"1.549",0.23144103295067,-0.0229634327591873,0.0024239825487827,0.083480894397957,0.0748344877413338,-375.237440742901
"1.550",0.227487706605772,-0.0235149760612302,0.00293259468049265,0.0804514815813052,0.0717764955584872,-370.330178098069
"1.551",0.227425352901718,-0.0163178159793737,0.0371095593848082,0.0403506016007337,0.0312973053894198,-354.722777023412
"1.552",0.22852613216409,-0.0138717216845676,0.0490829398642681,0.0360398780074583,0.0269459145924341,-346.501516484485
"1.553",0.232618444470127,-0.0186988653505503,0.0245278241224521,0.0468008480653396,0.0378084032357672,-351.955084302817
"1.554",0.231392276105539,-0.0252615433154091,0.00424849714642423,0.074554029022152,0.0658234066544364,-356.239377451303
"1.555",0.222784300524434,-0.0135805282900414,0.108345893686378,0.0241410812323368,0.0149348650175475,-335.463502313992
"1.556",0.226539704985932,-0.0177130954719144,0.0315048920786548,0.042892789561465,0.0338634762554411,-358.722126922713
"1.557",0.225619522948281,-0.0154389710348462,0.0455534496069429,0.0371860037487048,0.0281028528406736,-355.054959797087
"1.558",0.225655585189828,-0.0163072590338598,0.0463907202714785,0.0369059751213632,0.0278201824338288,-359.472499848035
"1.559",0.225952852574482,-0.0127046804838074,0.0964569490576092,0.0258506181507473,0.0166605296427353,-354.690500201888
"1.560",0.221882876971287,-0.0167004520754036,0.0244266143279164,0.0468655888192963,0.0378737547515537,-367.942551205571
"1.561",0.234648377444074,-0.0275504146651594,0.000797882974914016,0.101108466857624,0.092628358054394,-359.052602278139
"1.562",0.235833176042759,-0.0345203744212596,3.47838103919209e-05,0.149916630593611,0.141896976165248,-362.112386866246
"1.563",0.225814095788578,-0.0119350710701015,0.138806213843128,0.0205545462396958,0.0113144947891267,-340.361135424033
"1.564",0.230386614860223,-0.0234895503992888,0.0019025874270177,0.0873306807432024,0.0787205928256853,-374.083114011792
"1.565",0.235686989793771,-0.0243817746874046,0.00112285341192823,0.095699527672624,0.0871683911412335,-351.240379084361
"1.566",0.228439320143932,-0.0133578823847429,0.0735435366033187,0.0298950384447641,0.0207431048451863,-360.138053542216
"1.567",0.228261235867749,-0.0204101589063943,0.00793533456366812,0.0646208023505397,0.0557964702972428,-368.272990791764
"1.568",0.23117762665066,-0.0218278425812379,0.0057396241166188,0.069768776176305,0.0609930099138173,-362.556100859616
"1.569",0.231968468643374,-0.0218758638049511,0.0108546051577834,0.059651388302654,0.0507801749847544,-360.590658352792
"1.570",0.229265674744711,-0.0222785264862573,0.00181034978265349,0.0881201922147738,0.0795175525186868,-374.858781933023
"1.571",0.224780683420441,-0.0119969989429085,0.0953909554746936,0.0260148706853591,0.0168263317295605,-360.684430634152
"1.572",0.231268853989241,-0.0216087233866887,0.00622433558451401,0.0684797269267236,0.0596917998222587,-358.859799842344
"1.573",0.229473893865571,-0.0175289365698088,0.0122738610249015,0.0577055730151531,0.0488160029492583,-381.94621218014
"1.574",0.230793426873186,-0.0196617198884856,0.0122478930321637,0.057739090295136,0.0488498364299957,-352.42579595803
"1.575",0.226934380476337,-0.0161099491422848,0.0200069236860747,0.0499970939300176,0.0410348023633196,-380.445491209419
"1.576",0.230845245915069,-0.0290637498281832,0.000107808543494183,0.132483821446239,0.124299706554222,-391.057460226843
"1.577",0.221126210895278,-0.0117189457303842,0.0841474708846694,0.0278775113824197,0.0187065445086688,-378.326475949587
"1.578",0.226275031495739,-0.0147854405804753,0.0267624547883932,0.0454370278046662,0.0364317167462196,-364.324171445116
"1.579",0.231935971106076,-0.0198631026041262,0.0140788122548376,0.0555360184218305,0.0466259808597722,-355.451179360044
"1.580",0.228459802970706,-0.021855100466423,0.00913474224081504,0.0623865000226568,0.053541089645512,-356.530210252033
"1.581",0.232687632509686,-0.0164086370586978,0.0264107009229569,0.045643805147953,0.03664044481916,-356.054131688103
"1.582",0.231802817911199,-0.0233871523775295,0.00317078695740495,0.0792091694756929,0.0705224635273503,-373.199067008228
"1.583",0.225752051163503,-0.0158631153576153,0.0666649814645866,0.031375945316313,0.0222379825362781,-341.177394556131
"1.584",0.221918740630313,-0.00619871371430942,0.47847977261259,0.00475000659100225,-0.00463914429021495,-345.372134450921
"1.585",0.223824592272998,-0.0159135984570805,0.0314940235666092,0.0428981592595096,0.0338688966110142,-376.902938993809
"1.586",0.22537819001558,-0.0157920514466048,0.0299317494315242,0.0436904929017946,0.0346687050989812,-360.316688433439
"1.587",0.222649259431858,-0.014662884083135,0.0500049636520078,0.0357545704841441,0.0266579154887114,-362.459277266466
"1.588",0.22490493112052,-0.0159424447030739,0.028871636949526,0.044252694407933,0.0352362103929134,-373.816592568333
"1.589",0.22765857495907,-0.017707287574091,0.0262780592577738,0.0457225104856694,0.0367198926600624,-357.042750337113
"1.590",0.233862899318703,-0.0244684316049422,0.00361762738384336,0.0771116183855962,0.0684051242194225,-343.047267523895
"1.591",0.237469510707374,-0.0228182737115324,0.00234015524825105,0.0840404984154163,0.0753993710419767,-362.104392397282
"1.592",0.223282026954966,-0.0153368894792192,0.0394289558439611,0.0394124851960417,0.0303503388299665,-376.997059334756
"1.593",0.230049741659182,-0.0133089302707208,0.0640332982418736,0.03198561220514,0.022853400999528,-367.159402264259
"1.594",0.227626539330123,-0.0142349856608641,0.0483802577702105,0.0362610818082403,0.0271692052215254,-372.666721967441
"1.595",0.221794555974475,-0.0125198871802627,0.0942284098350257,0.0261962619425078,0.0170094342249841,-362.323039843292
"1.596",0.229254870636185,-0.0165418361775233,0.0552495832455272,0.0342293238706105,0.0251182797561822,-354.498324459795
"1.597",0.228273680383672,-0.0187560033743035,0.00831245901685702,0.063883591975663,0.0550523051075088,-376.488131800828
"1.598",0.225639788479423,-0.0232669985514343,0.00824624955198654,0.0640105526960321,0.055180463570523,-340.645539393753
"1.599",0.239610238260026,-0.029494146077529,0.00038820055737847,0.112469134793942,0.104096202103318,-356.821811810447
"1.600",0.229169238208444,-0.021425042712608,0.00183108850548883,0.0879392416772757,0.0793348949006462,-358.848736456818
"1.601",0.23014453091307,-0.0172390167801862,0.0119897050034685,0.0580762977536503,0.0491902250909487,-355.669624883027
"1.602",0.227174678270868,-0.0190285559912826,0.0154653470200237,0.0540527338113433,0.0451287029982426,-347.504430497128
"1.603",0.225269177401248,-0.0140408308925698,0.0392465494174806,0.0394841716658892,0.0304227015872653,-373.228054976461
"1.604",0.228935083054047,-0.0203858186706864,0.0141535772503671,0.0554523346067169,0.0465415075747047,-345.29268921167
"1.605",0.220675405949802,-0.00790289820203586,0.287112405068156,0.0106827664609062,0.00134958501242399,-356.900601595009
"1.606",0.22883646473429,-0.0157116842114735,0.0348936975678077,0.0413051205231843,0.0322608292073652,-341.603630562284
"1.607",0.237757022142329,-0.0216950100910713,0.00648121943068273,0.067836838738048,0.0590428466506711,-331.168151199597
"1.608",0.235025819216922,-0.0250863927655377,0.00327671821119678,0.0786863473420694,0.0699947091094473,-347.72995594253
"1.609",0.231993864376918,-0.0200862192917165,0.015711702804988,0.0538033491540519,0.0448769656555051,-348.292308035215
"1.610",0.228043043407026,-0.0174864569593522,0.0199909714133889,0.0500096321503233,0.0410474588687224,-362.715058723917
"1.611",0.220090051630928,-0.00918221123345449,0.212567670794028,0.014620275087078,0.00532423994638997,-357.824515063632
"1.612",0.224979828771148,-0.0129983273056473,0.0801753633240214,0.0285998683029464,0.0194357161171251,-352.159332544327
"1.613",0.236219792047215,-0.0252954270172561,0.00404614458202956,0.0753304726460481,0.0666071752181805,-341.002044250551
"1.614",0.227786174373908,-0.0170457276208429,0.0331988946059196,0.0420783041894592,0.033041307059171,-347.202768971759
"1.615",0.229912181330569,-0.0207039170983312,0.0107558468707016,0.0597962067309755,0.0509263596246639,-347.051630134387
"1.616",0.227611045672659,-0.01868119674682,0.0098906879953298,0.0611253972045944,0.0522680896310528,-359.101149948803
"1.617",0.222975370639948,-0.0115221688400275,0.0879967745114658,0.0272113396597335,0.0180340881470894,-352.477828442602
"1.618",0.237218275829149,-0.0240690831473796,0.00268406496495472,0.0818600531440769,0.0731983555322285,-344.235365061948
"1.619",0.229990121189523,-0.0151131947166058,0.0471164241282232,0.0366674724149761,0.0275794297019097,-371.699485370394
"1.620",0.235454111030309,-0.0249705385546194,0.01041715383408,0.0603032561414841,0.0514381925201772,-328.293412343704
"1.621",0.22933572527023,-0.0183706342666912,0.0193748066746242,0.050501881575779,0.0415443521566824,-345.780597975397
"1.622",0.225890549440892,-0.0141950018264623,0.0580833377460605,0.0334669349395755,0.0243486984767413,-363.297264790821
"1.623",0.234399649778623,-0.0212814349182834,0.00525281688889347,0.0711783108066155,0.0624158420406401,-348.915849645533
"1.624",0.235031832218884,-0.0267807310107178,0.00237178493992222,0.0838270348190845,0.0751838936381324,-345.926953165435
"1.625",0.2274516987249,-0.0183205131378343,0.00920717652876703,0.0622611910751601,0.0534145985381332,-367.694061381404
"1.626",0.228741309374805,-0.0156724422156256,0.0560454916182976,0.0340111381421491,0.0248980356717918,-344.806128278445
"1.627",0.2259955067568,-0.0172665400852494,0.0338944468033543,0.0417561814132258,0.0327161453888222,-347.223570908291
"1.628",0.227300642372608,-0.0160656029351912,0.0133819614752249,0.056338354078557,0.0474358857208075,-349.210679111556
"1.629",0.236147695953737,-0.0240399007497162,0.00958713113280242,0.0616197324584447,0.0527670884250336,-337.674247174259
"1.630",0.227679547686651,-0.0145068061060712,0.0758912611035923,0.0294228717870231,0.0202664837850137,-361.59883053053
"1.631",0.226320501385433,-0.0174372707861471,0.0258011404427611,0.0460088944835303,0.0370089783937522,-359.039484738133
"1.632",0.230182174941478,-0.0227600828336326,0.00323047409833802,0.078912476623022,0.0702229716855033,-368.021099220023
"1.633",0.220059518431627,-0.0117843314268193,0.143303190971251,0.0200993788454051,0.0108550333628145,-358.629452131996
"1.634",0.229814600857165,-0.0167541846656361,0.0179978152317487,0.0516620721357955,0.0427154879106615,-350.871725186393
"1.635",0.224950955623476,-0.0138086464376862,0.0653737711785356,0.0316718463713904,0.022536675110743,-359.6750780904
"1.636",0.231946043193698,-0.0214487495964941,0.00953227159199347,0.061710750444696,0.0528589650715326,-337.56075685579
"1.637",0.227469069192711,-0.0161925457243116,0.0622333535400959,0.032417959037107,0.0232898265751927,-343.267721745374
"1.638",0.234904650710882,-0.019931256406427,0.00549437881649548,0.070463223255975,0.0616940083810312,-348.757067790287
"1.639",0.230854471236534,-0.0234618919860326,0.00628642457373475,0.0683219324188539,0.0595325166869561,-355.473780900311
"1.640",0.231069610684609,-0.0193286801832455,0.0110038890280773,0.0594349838985393,0.0505617290296575,-362.381830515304
"1.641",0.231412403079977,-0.0224807654999031,0.0108858197752199,0.0596058917903699,0.0507342492600903,-337.078831351672
"1.642",0.226976702048994,-0.018251044706164,0.00651645996291091,0.0677506454880908,0.0589558402568463,-375.603036771386
"1.643",0.226752312847324,-0.0126264264225843,0.0980219622347202,0.0256129753377051,0.0164206449163626,-370.509325067693
"1.644",0.227073289648274,-0.0157867030034831,0.0336561094994589,0.0418657877629156,0.0328267857606789,-360.510088152235
"1.645",0.231366299501501,-0.0178502587047217,0.0134308171869173,0.0562807397934808,0.0473777279047399,-372.287027697173
"1.646",0.235176882406578,-0.0233374578783903,0.002439033662045,0.0833824654397162,0.0747351302080153,-363.085643054655
"1.647",0.232931575864693,-0.022457712344179,0.00520088902963052,0.0713363313848066,0.0625753533790029,-335.268009523192
"1.648",0.232375459015131,-0.0229673999974825,0.00534851948526123,0.070891139276191,0.0621259613448343,-369.383330692308
"1.649",0.227218720888817,-0.0163564839121971,0.077471003464503,0.0291137863102649,0.0199544824075315,-341.237444517867
"1.650",0.223405104966471,-0.0155916671137507,0.0348920108871644,0.0413058706344311,0.0322615863951332,-350.930565536127
"1.651",0.226098067503319,-0.0154529721000691,0.0353497060505493,0.0411036790508187,0.0320574873437508,-372.977808588455
"1.652",0.230894301267358,-0.0181161797948346,0.0320547299954571,0.0426235906321098,0.0335917377135447,-344.411887396915
"1.653",0.236393714336056,-0.0311718325387639,0.000292392828230867,0.116919172146043,0.108588220939874,-361.018263071083
"1.654",0.231326964688244,-0.0220215803544598,0.00466346674447999,0.0730713557600497,0.0643267459087292,-356.528525333991
"1.655",0.227431768885384,-0.0155493363793728,0.0704665937588976,0.0305385889388652,0.0213927265703638,-347.886407629477
"1.656",0.232422209647731,-0.0222811802770384,0.00604847413349767,0.0689353890807863,0.060151760675888,-341.014196189672
"1.657",0.221676376755118,-0.0170860278842812,0.0319698660042285,0.0426648288092795,0.0336333649301217,-373.831600010462
"1.658",0.236821266250839,-0.0253916384069232,0.00256603149333029,0.0825752877289608,0.0739203376131962,-326.347665135336
"1.659",0.234833087421601,-0.0272305192601896,0.00131210004282688,0.0932300061306687,0.0846755722262409,-358.747173023972
"1.660",0.233093468667492,-0.0211029969672602,0.0169095057037966,0.052644727635877,0.0437074137456493,-341.656872093819
"1.661",0.230817673903855,-0.021121097793781,0.0148662496102962,0.0546764005497442,0.0457582533851191,-357.866837084975
"1.662",0.2264500728157,-0.0120675810565121,0.042008125605059,0.03843402362322,0.0293626464875899,-390.167330472134
"1.663",0.233613004351618,-0.021951334540331,0.00925103474126108,0.0621857994861784,0.053338495707746,-353.85737383088
"1.664",0.228061207654656,-0.013831361155498,0.0855257178016735,0.0276353195725525,0.0184620678704066,-329.896068925573
"1.665",0.232417974585342,-0.0205469371151986,0.0116047855972591,0.0585928926176525,0.0497116934914039,-360.387150088263
"1.666",0.2283687112434,-0.0135188536457649,0.123838222773324,0.0221958954758963,0.0129713284520839,-339.276568182429
"1.667",0.22444103972227,-0.0136556929898327,0.0675582447146887,0.0311747491944133,0.0220348883377567,-371.019493743445
"1.668",0.226855415458769,-0.0195721311298523,0.0212006962156812,0.0490865782590204,0.0401156969218412,-352.76552080123
"1.669",0.223887000874407,-0.0139841031535405,0.0786707147035845,0.0288834884966258,0.0197220119730089,-350.301243638688
"1.670",0.225995792847044,-0.0123183666207823,0.0925217514891701,0.0264669461093405,0.0172826720160322,-363.908921132989
"1.671",0.233920889343901,-0.0268103108039062,0.000524860179922773,0.10772111615328,0.099303390833971,-368.692481866236
"1.672",0.232052893155616,-0.0237269623715368,0.00265092665231317,0.0820576385981653,0.0733978050000347,-355.149688084151
"1.673",0.231174188688081,-0.0215712224513989,0.0157162689836793,0.0537987643400795,0.0448723375885707,-337.012696620802
"1.674",0.231210758302698,-0.0196679808596398,0.0127138864093349,0.0571482696402708,0.0482534419953675,-360.343010400328
"1.675",0.236997408713608,-0.0321690222377726,0.000257888787264905,0.118886910070926,0.110574522430086,-344.93250635246
"1.676",0.230547926126079,-0.025235664117432,0.00228982138731342,0.0843861984198765,0.0757483323672337,-355.937937819104
"1.677",0.231924121826112,-0.0151219053053859,0.0449284803540413,0.0373985304062207,0.0283173844666565,-357.931259777247
"1.678",0.224150437142505,-0.0164945541092652,0.0275941135511002,0.0449589977154416,0.035949176939172,-364.96174744306
"1.679",0.230639730171,-0.0199075418251303,0.0118594948047911,0.0582491523447955,0.0493647103857839,-363.47173142179
"1.680",0.22937397452181,-0.0219576975624813,0.0115094449109207,0.0587235220221365,0.0498435552487603,-345.914667018088
"1.681",0.230160871118059,-0.0203175180768776,0.0158423385520913,0.0536727107782767,0.0447450948422227,-344.186714019506
"1.682",0.227995645074118,-0.0140330067381886,0.0547086624600311,0.0343794909978609,0.0252698635544444,-377.480891543835
"1.683",0.231712067181823,-0.0199054828535715,0.00549896853065617,0.070449943675454,0.0616806035214488,-366.292247378673
"1.684",0.222962214846339,-0.010358973525693,0.154370499122224,0.0190436840431987,0.00978937917568157,-343.975733277512
"1.685",0.22742877237927,-0.0117666945239002,0.171114517597137,0.017597985519212,0.00833004198637421,-344.703683874105
"1.686",0.223671561355815,-0.0109268654543092,0.133003792440292,0.0211665716864932,0.0119322940608939,-353.034165923426
"1.687",0.227203098017904,-0.0185262710502738,0.0119725459855066,0.0580989676500548,0.0492131088543005,-355.972450413155
"1.688",0.224115251780923,-0.0148340621631455,0.0566869631176447,0.0338376324927259,0.0247228931766194,-362.057458489277
"1.689",0.227424947000093,-0.0160707225860175,0.0547164165813328,0.0343773274105838,0.0252676795559665,-344.571234331198
"1.690",0.23014818555796,-0.0176891131479941,0.0357925290661716,0.0409106073104008,0.0318625941718195,-343.96775758914
"1.691",0.228049022039388,-0.0132231483457313,0.0788254253042801,0.0288540616531828,0.0196923075178354,-360.089024428543
"1.692",0.226273593676781,-0.0137115625438792,0.0621386167820905,0.0324410772483437,0.0233131628827619,-350.41735845755
"1.693",0.230796373334691,-0.0221185464112749,0.00147752560703154,0.0913459916188895,0.0827737839926526,-388.926899774268
"1.694",0.224773914043211,-0.0162084199399839,0.0291733827528931,0.0440905447259078,0.0350725309969068,-364.039563105032
"1.695",0.230817256572408,-0.0179368499977393,0.0347628809931507,0.041363409200905,0.0323196677782719,-353.311468967816
"1.696",0.230529946053054,-0.0236033453951887,0.00227793336708209,0.084468952967708,0.0758318676183467,-362.76242156233
"1.697",0.237311379371062,-0.0297201529729121,0.000139589255395637,0.128469615801877,0.12024763104529,-366.349266648506
"1.698",0.223881840456469,-0.0132270997552019,0.0928220059530669,0.0264189382783892,0.0172342112810153,-343.691979083097
"1.699",0.232461133851001,-0.0175583206483505,0.00528885775707162,0.0710695532850791,0.0623060585047496,-371.770257779508
"1.700",0.22936973047414,-0.0209007865442162,0.0111378788200037,0.0592432581317284,0.0503681945291974,-363.658889021033
"1.701",0.234277711624527,-0.0270888362291247,0.00207025797987643,0.0859885353170207,0.0773657856502,-353.33103614757
"1.702",0.22872772443285,-0.0199530174930768,0.0125401111675206,0.0573659960511218,0.0484732224289625,-357.748635644478
"1.703",0.218438883198567,-0.00707461967178321,0.27483587578644,0.0112390330644625,0.00191109941412715,-351.14649710213
"1.704",0.236597728199398,-0.0264271853140034,0.000988738598952516,0.0977146006469023,0.0892024742379107,-359.103680900149
"1.705",0.224936360763106,-0.0121276517328941,0.089768649340276,0.0269150788679444,0.0177350324421702,-345.414745132132
"1.706",0.218575167009923,-0.0108807733819886,0.178405883126542,0.0170177133460635,0.00774429554744138,-355.342759465636
"1.707",0.229601800296778,-0.0198186905381961,0.0207173473905317,0.0494487907040809,0.0404813264654401,-351.669751592348
"1.708",0.222840679235118,-0.0160670188174787,0.0471314314253886,0.0366625806146703,0.0275744917525444,-350.680495307648
"1.709",0.227552617584847,-0.0105332277282491,0.179152341515698,0.016959836271084,0.00768587246232055,-345.922700824249
"1.710",0.230998330927206,-0.0234958929954497,0.00806043786719121,0.0643724119250767,0.0555457365658792,-348.925667946377
"1.711",0.223814872475094,-0.0104022231569296,0.132485659992858,0.0212226511832861,0.0119889026095433,-346.751306139127
"1.712",0.227250930456431,-0.0142951368231816,0.0529909782371115,0.0348668273215609,0.0257617973906321,-366.816485696551
"1.713",0.228910488453216,-0.021140021426672,0.0104773020958932,0.0602120063766343,0.0513460819084893,-360.744779211552
"1.714",0.234927395391461,-0.0234963503939727,0.00835791410868543,0.0637970167029932,0.0549649130869836,-349.751122566111
"1.715",0.224455004512815,-0.0189650255167651,0.0246722829308086,0.0467089133793866,0.0377156012414562,-351.689519254238
"1.716",0.228169584850004,-0.0157881352398454,0.0462481400421247,0.0369532892452447,0.0278679429173696,-365.292800657175
"1.717",0.233370783997325,-0.0190804546492685,0.00842349409712905,0.0636729421030992,0.0548396679719964,-353.168596356205
"1.718",0.22350500493106,-0.0125607448869473,0.093475200556542,0.0263150710907728,0.0171293642142706,-349.534717222941
"1.719",0.230761509267439,-0.0201060001049136,0.0150514899015388,0.054480883837296,0.0455608921753836,-356.457410765877
"1.720",0.232121935302648,-0.0183968696536759,0.0275464431371734,0.0449859973543991,0.0359764312917047,-354.266583504839
"1.721",0.223798699363976,-0.0148567206011178,0.0485244772137398,0.0362154103665692,0.0271231029171971,-345.462869130215
"1.722",0.236247147428931,-0.0223109940112275,0.00632990663533248,0.0682123545053879,0.0594219050195895,-352.715101906866
"1.723",0.226789578165341,-0.0132540351272701,0.0540605555563159,0.0345614693096611,0.025453558642771,-352.84091249044
"1.724",0.230129030258425,-0.0197001654389525,0.0062227338185067,0.0684838185652256,0.0596959300611238,-368.464802003972
"1.725",0.224500183616992,-0.0147487180306724,0.0442803123050243,0.0376222093513598,0.0285431735905235,-360.708054878559
"1.726",0.235107870698525,-0.0230664768423087,0.00600917725615028,0.0690390247064284,0.0602563739961116,-348.136930320948
"1.727",0.229519583284654,-0.0197859315426223,0.0160696332471519,0.0534479935952897,0.0445182576858112,-350.590219144004
"1.728",0.229110825860527,-0.0193327345743477,0.0285032680723449,0.0444530162253041,0.0354384220387503,-342.34058785162
"1.729",0.223332417478582,-0.0109313963671094,0.166869699245332,0.0179488834869201,0.00868425031226838,-353.045493778571
"1.730",0.230224256645693,-0.0193473342315071,0.0143227797130332,0.0552645883667663,0.0463519901438112,-371.412467172664
"1.731",0.22893333759426,-0.0145914642635007,0.0662127281879162,0.0314788946379779,0.0223419030779586,-351.713924228706
"1.732",0.221764075302572,-0.0166913352848939,0.0221380112275714,0.0484075434963306,0.0394302561708242,-380.562263616467
"1.733",0.233663900213476,-0.0285909212989246,0.000626716003509236,0.104923461821453,0.0964793435367497,-360.331766489099
"1.734",0.22310178979095,-0.00826273912963723,0.301474335954776,0.0100688233050006,0.000729849939953287,-353.097722362415
"1.735",0.228154096592091,-0.0169517124381907,0.0308811295026016,0.0432040855839964,0.0341777090329018,-351.598846136438
"1.736",0.230392459292092,-0.0188968506755876,0.0306081589746656,0.0433423506969149,0.0343172785336781,-346.731706087587
"1.737",0.229082567836976,-0.0143793428989543,0.08003895228514,0.0286253472450663,0.0194614354266234,-350.273260493868
"1.738",0.223195186121708,-0.016410127735956,0.0571397179447103,0.0337164023120233,0.0246005193149668,-333.427120095714
"1.739",0.228614402485738,-0.0197180018460702,0.00376353091931594,0.0764825209775757,0.0677700919301942,-377.841754051978
"1.740",0.22164675366443,-0.00606066858805441,0.355443069062926,0.00806133360747171,-0.00129657833962771,-363.776410209014
"1.741",0.230568607698376,-0.0259231777876265,0.000315237733304463,0.11573915569053,0.107397072253648,-369.220576262137
"1.742",0.227596408001102,-0.0154221780743075,0.0507795796524048,0.0355190763632865,0.0264201997252042,-353.026721688477
"1.743",0.231235868670593,-0.0207644351859559,0.00863951882813655,0.0632710002338104,0.0544339341982802,-361.350887825665
"1.744",0.228852011652413,-0.0149872189132031,0.0447113169488876,0.037473097414048,0.028392654936822,-364.077682151351
"1.745",0.226691573949619,-0.0161545456483376,0.0336509946802584,0.041868148703424,0.032829168974211,-370.911583072595
"1.746",0.219219034888546,-0.00734921885835522,0.281776833153191,0.0109208025346691,0.00158986670952432,-357.154109927633
"1.747",0.225624359750973,-0.0177462579329934,0.0327145710060018,0.0423067286029063,0.0332718864199147,-363.221876200392
"1.748",0.222934054133849,-0.0160596877125004,0.0334355385322594,0.0419679374190804,0.0329298990928452,-381.716890079561
"1.749",0.227847807469998,-0.0187901008924565,0.00709291433819356,0.0664035413735012,0.0575960276128737,-360.870828723634
"1.750",0.226411010072354,-0.0159398308866087,0.0519240696127369,0.0351778954199027,0.0260758000936753,-347.172928815655
"1.751",0.228637899270431,-0.0197361114680339,0.0164857987955296,0.0530447779166986,0.0441112380857239,-350.628968825951
"1.752",0.235730144780123,-0.0207457054004404,0.00856167127787001,0.0634146679251201,0.0545789572451683,-332.569844828505
"1.753",0.226905987789607,-0.0141407718025506,0.0773470455371429,0.0291377967575036,0.0199787193684233,-349.767943521011
"1.754",0.223278538371642,-0.0189558375205581,0.0121626849331287,0.0578495761884224,0.04896136464303,-372.827549553263
"1.755",0.229277378853001,-0.0181914485589985,0.0221666765867357,0.0483872415727934,0.0394097627197064,-352.817714308969
"1.756",0.236665816232026,-0.0265929017548972,0.000810555070954699,0.100859281643207,0.0923768220360672,-366.792810617286
"1.757",0.228505077944546,-0.0117125858145798,0.134779964821836,0.0209761422065938,0.0117400680764672,-334.731379657213
"1.758",0.232468388274126,-0.0244215756755573,0.00337158544124987,0.0782322697511232,0.0695363477676432,-348.976133122136
"1.759",0.232776736894215,-0.0253240676306955,0.000899844122155282,0.0992060077676481,0.0907079512371541,-352.307861808589
"1.760",0.22364850699216,-0.01440727290274,0.0606364856653819,0.0328126593257216,0.0236882504514359,-352.922940998801
"1.761",0.226494948209234,-0.0125731430493247,0.0846526183849085,0.0277882569955085,0.0186164480992396,-342.931541699341
"1.762",0.230755753161954,-0.017057023269344,0.0123993509584174,0.0575446045501365,0.0486535159138169,-341.146392041951
"1.763",0.231059661573555,-0.0218298917435723,0.0155480719238827,0.0539685455467683,0.0450437205047565,-330.417589855121
"1.764",0.221437308678136,-0.0132109811201796,0.0518067708374025,0.0352125008790371,0.0261107320194053,-359.424599866652
"1.765",0.224531010497164,-0.0130614169220874,0.0474083054197967,0.0365726194969522,0.0274836819450366,-348.339195032289
"1.766",0.241182649765109,-0.024205480294707,0.00140787054670869,0.0921123409113702,0.0835473629954396,-348.336930864509
"1.767",0.226377694531656,-0.0128074354148093,0.0425630877603404,0.0382316204998601,0.0291583339008021,-359.244543181304
"1.768",0.228392948870164,-0.0182937900790562,0.014379259295529,0.0552024184076429,0.0462892336756394,-360.382779223506
"1.769",0.228570836104136,-0.015113407345426,0.0712856521728341,0.0303644236111559,0.0212169181735251,-349.459773097152
"1.770",0.233133361230128,-0.0182285764949804,0.0167280830057309,0.0528147615929628,0.04387905179667,-360.103123981445
"1.771",0.234577310209169,-0.0231930520221239,0.00217225437986092,0.0852241182959445,0.0765941571477929,-363.884892820182
"1.772",0.22905764898922,-0.0185917983706265,0.013454531484831,0.0562528505131792,0.0473495755180204,-359.644838611567
"1.773",0.238148523453115,-0.0313494197900187,0.000460200678390899,0.109792254380885,0.10139406810146,-343.016468869188
"1.774",0.229074570500825,-0.0170014362207283,0.0254835223876706,0.0462026390088086,0.0372045506975709,-362.19685507123
"1.775",0.223573109984766,-0.00964330843879499,0.256123984918456,0.0121489797529484,0.00282963050533469,-343.784521431845
"1.776",0.228775371370433,-0.0204902291355781,0.00514778495422361,0.0714995749913301,0.0627401370195501,-376.409449024967
"1.777",0.233531260449002,-0.0224051126813183,0.0106680881102289,0.0599260256817597,0.0510574032825308,-348.30696270849
"1.778",0.229807337428704,-0.0242377695666629,0.00480190270112209,0.0726059846597074,0.0638569845149876,-353.875887335741
"1.779",0.230190550646061,-0.0169881025955556,0.0194688077574736,0.0504257640061859,0.0414675164968102,-355.689683996317
"1.780",0.230060574688578,-0.0245356031616859,0.00219607477488427,0.085050752348109,0.0764191556721476,-342.844005670266
"1.781",0.230664163642898,-0.0201143314149607,0.00626264243653751,0.0683821873542217,0.0595933400651105,-372.148407025756
"1.782",0.22658196072845,-0.0140417039312821,0.021158821720865,0.0491176237577654,0.0401470353026498,-380.606542905853
"1.783",0.22813857547813,-0.010960771338319,0.0917525486954419,0.0265906998752656,0.017407593270315,-356.386191908274
"1.784",0.230356344220132,-0.018142104226163,0.0328553678226096,0.0422399672331262,0.0332044952258914,-351.877965970898
"1.785",0.231460578492535,-0.0213948176523279,0.00361076246065623,0.0771418395931777,0.0684356305327359,-359.87810017631
"1.786",0.23790932298014,-0.0257390861838982,0.00167049876199556,0.0893971576358267,0.0808065647833344,-353.954032879161
"1.787",0.228178153654432,-0.0185293336213905,0.0341206835441377,0.0416528709318518,0.0326118602802654,-347.56377091084
"1.788",0.23711307367558,-0.0244814364875772,0.00419661448418892,0.074749521764368,0.0660207436678053,-349.222593873676
"1.789",0.235878774097062,-0.0210426646560106,0.0143894084320981,0.055191272945362,0.046277983067488,-344.608596640671
"1.790",0.220853343993239,-0.0120940783642628,0.0986470175214232,0.0255192004380321,0.0163259853478248,-366.51604571285
"1.791",0.230432198053974,-0.0188183776363219,0.016626128198629,0.0529111393989189,0.0439763388272105,-348.503883206379
"1.792",0.232943272690134,-0.0244105675856644,0.00517685252684749,0.0714100124478341,0.0626497295463985,-352.850029372144
"1.793",0.225936587030791,-0.0220974003202647,0.00576808255823415,0.0696901263236296,0.0609136180813996,-369.615545516829
"1.794",0.233996317107903,-0.0187230276257119,0.0305549233467093,0.0433694630506509,0.0343446466643362,-343.635124321575
"1.795",0.228588216068367,-0.0215974083681403,0.00305257076822414,0.0798136317785872,0.0711326283048003,-362.398786885042
"1.796",0.23108901590114,-0.023789766503089,0.00242411087760243,0.0834800525990256,0.074833638000903,-346.319921958548
"1.797",0.231192703178676,-0.0203154570395148,0.0158643801227909,0.0536507764918974,0.0447229536286133,-351.677515316681
"1.798",0.221271142365328,-0.00441773397470339,0.429087645971334,0.00590932548020117,-0.00346888843036308,-350.140161064368
"1.799",0.223992399516545,-0.0118524749140959,0.0960734464057653,0.0259094842271682,0.0167199510594999,-361.113319983468
"1.800",0.224846069389704,-0.00934493709512006,0.186545178674478,0.0164011020030089,0.00712186711624474,-358.428205968691
"1.801",0.226404202898027,-0.0181284520399007,0.0275292487917509,0.044995747653754,0.0359862735750157,-364.080588773699
"1.802",0.235943609576922,-0.0239802381405741,0.00701738646915613,0.0665736472304742,0.0577677382420824,-335.009075465048
"1.803",0.225448114575107,-0.0139482008370226,0.046529617468363,0.0368600281175145,0.0277738019676795,-365.449036237576
"1.804",0.238788444114667,-0.0285674332448511,0.000831239432472813,0.100460736529458,0.0919745170627542,-357.911295291934
"1.805",0.226744461838305,-0.0139054996286477,0.0522635197858607,0.0350782080684726,0.0259751722955336,-354.418482037057
"1.806",0.228849372762066,-0.020006287410548,0.0156019681848617,0.053913939791451,0.0449885996008041,-346.117942988071
"1.807",0.227480320568513,-0.0119514916192656,0.136305780647991,0.02081475307746,0.0115771564083793,-352.894240977189
"1.808",0.229481155037022,-0.0169808783245678,0.0303982894816305,0.0434495170819763,0.0344254559223722,-355.812445693834
"1.809",0.220215984667601,-0.0118060424872857,0.133781648322806,0.0210828319453037,0.0118477643221461,-371.542939025958
"1.810",0.230023215604169,-0.0219802475263749,0.00886700150620281,0.062858529939345,0.0540175726746217,-352.548391103315
"1.811",0.227816247565613,-0.0150445309695155,0.056280346332685,0.0339473747232441,0.0248336707111991,-349.796911610844
"1.812",0.231342977008182,-0.024062008623653,0.00419925680056784,0.0747395072712124,0.0660106346982993,-348.161834977041
"1.813",0.224220954242666,-0.0107329022285779,0.142375598473839,0.0201919571709881,0.0109484850688275,-357.663551666349
"1.814",0.233445487414617,-0.0227914614952727,0.00307534149850084,0.0796954031174094,0.0710132842788943,-367.275515852922
"1.815",0.233580475522924,-0.0244829446132343,0.0013759693147876,0.0924760046843749,0.0839144575587557,-367.133609073788
"1.816",0.22417942222805,-0.0132479611860807,0.0702910367310278,0.0305761976238076,0.0214306900542207,-359.10117726392
"1.817",0.224518152211935,-0.0106586871091529,0.162706588886179,0.0183029705431094,0.00904167781238396,-354.760547444277
"1.818",0.230155800619449,-0.0260147140279763,0.000572327688629312,0.106355925335423,0.0979253208574552,-386.775888794931
"1.819",0.220473598986267,-0.00896400874701505,0.242386074953152,0.0128703976643674,0.00355785424610655,-359.715013195143
"1.820",0.236552561999992,-0.0249894137593222,0.00197796999887087,0.0867132581469317,0.0780973454879403,-367.286466619507
"1.821",0.227021748845005,-0.0164069120974269,0.0350581274649383,0.0412321728670205,0.0321871933657659,-365.895739833713
"1.822",0.230023083635672,-0.0211560930501541,0.00718072194080892,0.0662080516763006,0.0573986936732468,-360.075936383937
"1.823",0.224080817654434,-0.0104534215647969,0.175896253833969,0.0172143431341159,0.00794278033349427,-350.232867601081
"1.824",0.237063079671562,-0.0272974325814857,0.00134064379871224,0.0928886230310261,0.0843309685313187,-331.999283178523
"1.825",0.233681327230979,-0.0274534435646757,0.00180490739066934,0.0881680204844618,0.0795658319984661,-346.62824941195
"1.826",0.227733662995214,-0.0151819896383238,0.0252461163969675,0.046349073723033,0.0373523668713633,-376.364950723759
"1.827",0.230716964605517,-0.018165741621726,0.0174990270263075,0.0521047271890785,0.043162318955013,-356.468942819392
"1.828",0.231330470052703,-0.0200281867810373,0.024169194781422,0.047031494564579,0.0380412256453768,-330.164081239618
"1.829",0.22190592891078,-0.00937317379873562,0.18909489329177,0.0162142658509365,0.00693326835896413,-380.654588136597
