"","intercept_mod","scal_mod","p_mod","r_sq_con","aic_mod"
"R2c.1",0.209868939119529,0.00366623512093398,0.201888714957972,0.399213526925983,-355.800692172996
"R2c.2",0.21297758050158,0.000525805143351745,0.839566895380596,0.558251508989788,-370.485406860837
"R2c.3",0.21368335655156,9.15537804593918e-05,0.970715315914572,0.425478546951817,-370.120701062387
"R2c.4",0.210246364544838,0.000348300341578895,0.887346514455214,0.519650532191214,-390.561724604892
"R2c.5",0.216674326289332,-0.00445350564093528,0.0942105275689461,0.500391864832559,-353.833950369428
"R2c.6",0.212777249157326,0.00123780778331796,0.611054194831519,0.566638617966964,-394.387017037176
"R2c.7",0.211169536045225,0.00365290533988298,0.186015875734247,0.450017800848937,-361.014891391221
"R2c.8",0.21415537906489,-0.000574142709868465,0.843036610111031,0.463704937051071,-364.054508231884
"R2c.9",0.212383228343336,0.000328218364538932,0.912644660777122,0.518655599201215,-371.41868638047
"R2c.10",0.218446436777942,0.000203107319688416,0.938092955027022,0.484287078153575,-361.61426997503
"R2c.11",0.221727489481756,-0.00114797540805302,0.670130496955529,0.485232084880349,-357.151732594557
"R2c.12",0.218717207790523,-0.00285627552772493,0.257809021724059,0.534228987023318,-378.201773962073
"R2c.13",0.212748356352177,0.00338824041317509,0.215230697860329,0.478815889175732,-362.394106666925
"R2c.14",0.215700395676596,-0.00410521389662418,0.0919142137011929,0.522031142758099,-376.018142264317
"R2c.15",0.214045322053502,-0.00254999768690133,0.339360677406945,0.467794997312639,-377.875482848195
"R2c.16",0.212564494810488,0.00189572930781625,0.526107386000832,0.481044171157465,-376.740395284473
"R2c.17",0.214174755951817,0.000128995475408421,0.9578256938907,0.544772934815166,-395.705636231572
"R2c.18",0.212284772622383,0.00217803531645307,0.334655078323105,0.481802175771274,-400.880809658848
"R2c.19",0.221207697922762,-0.00357787445654303,0.211877084093164,0.468447968288441,-366.565596698097
"R2c.20",0.21120708469912,0.000562364552829484,0.826555765971409,0.444835382225412,-374.614436209656
"R2c.21",0.213053776837255,0.00101960432507032,0.689984575332639,0.59325269227931,-404.756789634067
"R2c.22",0.210254979015948,0.00440194527531236,0.109363511373125,0.542819629522922,-381.081202935376
"R2c.23",0.20830383954733,0.00189846026852102,0.446027477181476,0.508241948899403,-373.486659323207
"R2c.24",0.209290268508814,0.00372403286910016,0.163734876546753,0.49316760820488,-375.586013234915
"R2c.25",0.208713124495548,0.00295059110414371,0.250353557586962,0.556141377988295,-380.4986129791
"R2c.26",0.208592589800929,0.00430564473764379,0.0726057462941058,0.499967021246685,-360.191438850304
"R2c.27",0.21473640347271,0.00237981435016553,0.337370457011255,0.543382524086541,-372.092708668165
"R2c.28",0.211515258547475,-0.000838608343907355,0.737962398967402,0.565723458949418,-393.13573035912
"R2c.29",0.209039110655672,0.00399867562126749,0.0869824785554194,0.575982053577109,-384.773677786036
"R2c.30",0.211429870247044,0.00213324254774167,0.43759341535022,0.483411473758702,-375.037499419391
"R2c.31",0.209437047889031,0.00325610238448409,0.300722693159015,0.396871996398253,-352.984294584374
"R2c.32",0.214883979058852,0.000903105222548083,0.722078196753043,0.496916292182944,-371.433423474254
"R2c.33",0.213927940145901,-0.00285381765062505,0.276293606647118,0.5370542440758,-382.312688353043
"R2c.34",0.216378329370924,-0.0015370879375759,0.613149075482868,0.494196867482519,-356.402485891869
"R2c.35",0.214683934072251,0.00123031345256812,0.674740652264735,0.500119888873448,-347.940990840444
"R2c.36",0.205512292334628,0.00104031013637031,0.661770068044011,0.494070905542576,-381.100077830519
"R2c.37",0.210164344916396,0.000176221363856659,0.943432539708426,0.458620593493986,-385.678345680771
"R2c.38",0.215965191403592,0.00132993060970873,0.661481368825459,0.461258283720495,-382.806723663018
"R2c.39",0.220546230769902,-0.00442885768539357,0.121691929981594,0.514345223533827,-377.607306629018
"R2c.40",0.217021843951532,-0.00401397472932464,0.146527074321823,0.449602263549143,-372.201507138516
"R2c.41",0.214278352185784,-0.00129814423832798,0.637702047858351,0.462323383179552,-362.294716184286
"R2c.42",0.218722893130907,-0.00257262079019409,0.243192934098702,0.57863823063605,-396.070028958339
"R2c.43",0.207845018217163,0.00643871601554787,0.0174808104964201,0.533327680558193,-397.02738806
"R2c.44",0.214733156532526,-0.00120204119043382,0.64539460949283,0.515293486916681,-392.060462136579
"R2c.45",0.210853319663796,0.00123273444429313,0.62091285855707,0.455061963319276,-381.650453637515
"R2c.46",0.212212170837236,0.00387209327225426,0.153088918813988,0.497706697530106,-391.229302659903
"R2c.47",0.207289532711383,0.00244930740656266,0.398224115448361,0.494886683080421,-373.668245255385
"R2c.48",0.212200654343695,0.000177001839127588,0.951606978617638,0.532153716620148,-374.499572971837
"R2c.49",0.209682360123248,-0.000614929215471767,0.797431119457714,0.471764929824543,-372.901413960922
"R2c.50",0.211048083066213,-0.000191583916757593,0.942593446100148,0.53438008652392,-377.383768609056
"R2c.51",0.213758258301507,0.00288922745135771,0.269014267965184,0.504833937064097,-377.720670622735
"R2c.52",0.210294552339882,0.000599882285359491,0.819297109461024,0.478544581811135,-362.749491942976
"R2c.53",0.21212545561328,0.00109111395298046,0.669859009095621,0.516353947867963,-366.184934575899
"R2c.54",0.211733898716566,6.49245221466489e-05,0.979199241797627,0.535249662630186,-391.143092215442
"R2c.55",0.211987911071178,0.00167253218395927,0.578937117758545,0.395574896600468,-366.828076071668
"R2c.56",0.213179057870228,-0.00166858238120193,0.557330227910711,0.425676006828748,-369.437203264734
"R2c.57",0.207050035571418,0.00193637344307179,0.450032821892354,0.433171921561235,-372.98912097043
"R2c.58",0.211960294602556,0.00453661307304193,0.123855083650568,0.488360618731305,-365.273716054078
"R2c.59",0.212313660721755,-0.00161879741921072,0.532093491390629,0.490785335573178,-377.101268055732
"R2c.60",0.213989537680935,-0.00224240059773875,0.383478045505371,0.494634708978212,-382.18432557014
"R2c.61",0.214308299746151,-0.000435660897772842,0.849615542013284,0.505585054390302,-387.478211386629
"R2c.62",0.211060193986001,0.00120574953244029,0.642567646471407,0.535133175259907,-389.47006678887
"R2c.63",0.208750332182643,0.00575691677684248,0.021344823090528,0.4719117988435,-379.532710853387
"R2c.64",0.20998611807885,-0.00157776663343231,0.507216085350271,0.523834819129353,-397.554638868115
"R2c.65",0.207761555550007,0.000907038226639175,0.755065367208715,0.512085099709713,-379.863951806505
"R2c.66",0.208141857821266,0.00335853082967403,0.158493353109655,0.60765562815512,-410.531860684056
"R2c.67",0.211179688351093,0.00459155916269058,0.0781611984230805,0.489774899647853,-380.278701867139
"R2c.68",0.210172299592981,0.00169749423252791,0.534298051043719,0.494895763701994,-376.790776572308
"R2c.69",0.214215480108723,0.000569268284784293,0.830071690957223,0.483036360775949,-363.405270560104
"R2c.70",0.216389272096996,-0.000182604487549687,0.951411507986701,0.378301142681535,-358.303415776226
"R2c.71",0.211344951473541,0.00243655480943783,0.335546645965924,0.446402691193165,-377.209796694859
"R2c.72",0.214528956396453,0.00161347895592924,0.560615379515853,0.435735013468048,-363.146042208102
"R2c.73",0.219083046747209,-0.0024789901332177,0.366140076536233,0.499498727923112,-367.914305030972
"R2c.74",0.215274160335655,0.000443674410885262,0.871486846705023,0.518503071645035,-365.928919692934
"R2c.75",0.216637153394334,-0.000834805463563427,0.741911650120737,0.508970303911443,-364.719953037287
"R2c.76",0.218592911253572,-0.000672832541148043,0.808914243922159,0.519495222391138,-367.119931897888
"R2c.77",0.21771521777285,-0.00154521107734334,0.574501980472599,0.479018888707197,-346.12740861508
"R2c.78",0.211555808493428,0.00617122545536636,0.0097791036006418,0.580584619629429,-405.298876103342
"R2c.79",0.21468411998024,0.00145580000967045,0.572638889773715,0.468908740633117,-372.413967866914
"R2c.80",0.210384770383923,0.00142293987238154,0.542166869387051,0.530173050367483,-388.568014797043
"R2c.81",0.212147931438524,-0.000889345401498219,0.725562344119298,0.501994410401579,-381.497091010419
"R2c.82",0.213469249679789,0.0024176306440686,0.422404598400437,0.470375984080477,-369.323008767386
"R2c.83",0.212874648670467,-0.00206874043226562,0.283645570395483,0.608754632749247,-416.16521844358
"R2c.84",0.218955764888036,-0.00356203898815005,0.264140623446012,0.477825437031402,-362.223180022589
"R2c.85",0.210912246185706,-0.00152244903802344,0.605384871896186,0.432118438861282,-390.805316969004
"R2c.86",0.208494804163853,0.0061888851666065,0.0258164779802855,0.518265318935805,-377.486792947861
"R2c.87",0.217036551680112,0.00167908781762323,0.528347246692711,0.594758595664674,-392.10238443725
"R2c.88",0.210917026550018,0.00465977728320942,0.0996983374521195,0.387457932791054,-377.985545653322
"R2c.89",0.212198642023404,0.000534756398255905,0.834149333290899,0.472459824997111,-375.823857975889
"R2c.90",0.209157503709363,0.0044308095123792,0.204331008665602,0.406559468994629,-367.641814176345
"R2c.91",0.214283096007422,-0.000782246384154235,0.810080606979797,0.536994428786809,-361.591589636988
"R2c.92",0.213526533867897,0.00287194596225246,0.252959380123204,0.563288184314784,-359.293217029791
"R2c.93",0.206522961216782,0.00412533017950142,0.100380541698174,0.517269026902851,-390.133073001881
"R2c.94",0.216469333293539,-2.6076881324087e-05,0.990761023456221,0.487282778935762,-375.87973815606
"R2c.95",0.220761122925274,-0.00168893785792084,0.590760213499994,0.426787439582848,-360.5395771995
"R2c.96",0.217037038303557,0.00275328855000448,0.39835987234964,0.446067144684426,-359.03435592999
"R2c.97",0.21222710380774,0.000168714334823217,0.954545465696264,0.512923805092938,-379.543883425697
"R2c.98",0.209445304282634,0.0028643186362979,0.311200565282553,0.542142094539674,-378.223792015053
"R2c.99",0.210859813902791,-7.06296040964076e-05,0.979309471250065,0.509643615930574,-374.212469212223
"R2c.100",0.212284090535321,-0.000422972263472551,0.869139311192309,0.505620171844131,-380.066192667668
"R2c.101",0.214563072660565,-0.000328479211389891,0.903139297784274,0.511621549826615,-375.774700745308
"R2c.102",0.218105837971058,-0.000408226061768914,0.894445453648577,0.428818329672514,-364.291679977803
"R2c.103",0.216024718401327,-0.0011629623030331,0.642330464926645,0.476680145961167,-374.174787600003
"R2c.104",0.218885805039447,-0.00137693506942029,0.64228308771868,0.487465208549741,-350.502258190825
"R2c.105",0.211113401435597,0.00279598901032158,0.294169179627228,0.524623611621554,-388.273727131827
"R2c.106",0.215474085375776,0.000856266255632487,0.756915979596653,0.576531230187463,-374.026913175001
"R2c.107",0.216227923093146,-0.0014621592642896,0.61332446641278,0.435004415854929,-353.155116707196
"R2c.108",0.21423131152141,0.00241264188979919,0.418541198191316,0.436458629871103,-362.411893137956
"R2c.109",0.213582217098627,0.00116338629518261,0.657222236856523,0.502734883544538,-383.885603898713
"R2c.110",0.208681861284612,0.00480827046602568,0.0408798412956531,0.528595410437496,-417.220772609652
"R2c.111",0.214486392659687,-0.00124553708212004,0.69366500052468,0.395528190306781,-349.844501718668
"R2c.112",0.214505172190824,-0.000388635864677874,0.876434829776676,0.540863268348353,-393.096249856768
"R2c.113",0.214154667706176,0.00134666847111184,0.643068130210573,0.498868905461448,-366.710011046271
"R2c.114",0.212132216736492,0.000266307048320312,0.915607900322212,0.486023565740063,-387.106236862238
"R2c.115",0.21309474885327,-0.00180603011039125,0.505428676655576,0.494286369644743,-364.17999167008
"R2c.116",0.213334619629906,-0.00057146582413297,0.855413497788688,0.438193630348872,-352.959062137783
"R2c.117",0.213022401960845,-0.00438948234967375,0.148277784590331,0.492297850675182,-359.548015218357
"R2c.118",0.208400406994256,0.0021801485288214,0.43605323524149,0.37301780977029,-374.232701788259
"R2c.119",0.216343385801499,0.000291836655433833,0.909570903916938,0.522587752215931,-380.442208862883
"R2c.120",0.214412668131076,-0.000426392254116115,0.882073493026368,0.527812392284767,-377.031324944215
"R2c.121",0.210431581834009,0.00215102796120049,0.391484802157554,0.529329168289767,-387.440068964492
"R2c.122",0.21701050092996,-0.00261568512165904,0.328824545410256,0.484445959135621,-373.217945674686
"R2c.123",0.215482849395675,-0.00124908393465519,0.65944454255781,0.496530527617619,-363.328776152993
"R2c.124",0.211562816962133,0.00284807524907823,0.253621089856153,0.501659617036864,-369.858193166071
"R2c.125",0.215575893828786,-0.00146820354237317,0.561824917223136,0.61519159601135,-381.988779801298
"R2c.126",0.209019338338581,0.00213978283476841,0.323026276035243,0.603579119597371,-401.394335900161
"R2c.127",0.209445667180613,0.00323814736887726,0.242827446988501,0.525448079501921,-393.139860945077
"R2c.128",0.220057348020916,-0.00580391745914625,0.0316660320144565,0.496723390406361,-365.672740342511
"R2c.129",0.211543882973669,0.00158027364764417,0.483105795849703,0.460688859482535,-382.219578104752
"R2c.130",0.215241232283152,-0.00414752835386537,0.0735877244077795,0.575152305559093,-381.04990979751
"R2c.131",0.214931905156908,-0.00308328130996382,0.173356960208006,0.470743034670819,-385.010586733068
"R2c.132",0.211206298772993,0.00215987076119519,0.347779554121355,0.478797089953466,-389.731326252905
"R2c.133",0.207801444895961,0.00371726385458924,0.199124535069696,0.466566114243038,-374.85704972549
"R2c.134",0.214900200809514,-0.000309176436625009,0.906579598373561,0.475186069079204,-375.563075837889
"R2c.135",0.21299708951857,-0.00209470875871571,0.322254124339145,0.645207867718214,-403.919064867507
"R2c.136",0.211401510332482,0.00386587978648516,0.196114314926346,0.564004301847019,-379.485625475416
"R2c.137",0.219439602457199,-0.00141634933261906,0.606582260864032,0.518486342472573,-366.24476775559
"R2c.138",0.211882510530945,-0.00252421678275886,0.371439769484756,0.385764184122352,-382.134606346855
"R2c.139",0.215294573132291,-0.0035006514636463,0.171719348065275,0.399649365309788,-374.012996667946
"R2c.140",0.218568885783328,-0.00290388934617244,0.311984383492637,0.53784983083226,-369.047130830948
"R2c.141",0.214617458779412,-0.00240259925107162,0.299743401290711,0.520121819421835,-378.300403608845
"R2c.142",0.212787929489629,0.00148632351007596,0.590106981993492,0.421859785396161,-370.252843219616
"R2c.143",0.211477714624082,0.00390451606221762,0.183152187072785,0.528935428993632,-373.010448829198
"R2c.144",0.217112091033914,0.00395410531203881,0.123848158923162,0.48554103780925,-379.495874855572
"R2c.145",0.21340588479485,0.000269872967524197,0.921236448485999,0.484249409734214,-381.903978820576
"R2c.146",0.213066515505786,-0.00176766434663304,0.352407634920551,0.611142760768144,-418.24691406039
"R2c.147",0.212799487696419,-6.22612398052081e-05,0.981488279100255,0.454832041179372,-375.506075919014
"R2c.148",0.214875153698661,-0.00154936437966833,0.637953110323542,0.496201894351831,-359.411593725057
"R2c.149",0.211040772625829,0.00047166622504793,0.861887385692336,0.484771945777613,-374.717914434619
"R2c.150",0.21597425695557,-0.00209982846604032,0.441638979659106,0.537654756458577,-390.489391026134
"R2c.151",0.215369190156025,-0.00159792550928042,0.531959281092545,0.495396936308901,-364.735764300645
"R2c.152",0.213615224003429,-0.00107222236066183,0.682965980168041,0.499800144811068,-363.34385875574
"R2c.153",0.215178011824761,-0.00451947890706179,0.0927953988680011,0.508633349887929,-386.418234972456
"R2c.154",0.211331661370628,0.00130669326601152,0.642768229255767,0.541402568205599,-370.123328556199
"R2c.155",0.211425526608982,0.00151833043594831,0.574236843482573,0.45770269185531,-357.46237464675
"R2c.156",0.207740429384508,0.00692560473840043,0.0187913702370317,0.539789452627669,-381.541282726708
"R2c.157",0.213629568429144,5.46069142581836e-05,0.984785691178667,0.374761749492686,-369.045277381029
"R2c.158",0.213833760133392,-0.00206135605559664,0.370167643922665,0.383472748006005,-391.755144886725
"R2c.159",0.211141872248227,-0.00295845362509176,0.262061115041533,0.494709578490638,-402.492044690078
"R2c.160",0.21408540320576,0.000155181501576924,0.961874575589094,0.516755622310161,-362.566563259042
"R2c.161",0.208229977363604,0.00450993180306547,0.123115370281522,0.516838515501758,-376.053695642824
"R2c.162",0.216471442249017,0.00046620154951808,0.844075275414265,0.569995599082824,-384.069840224666
"R2c.163",0.210949426273941,-0.000962613312323313,0.716727410656322,0.602741478701306,-393.383364255171
"R2c.164",0.214047992671018,0.000557532703158642,0.827667847561514,0.545521438832373,-377.788869034468
"R2c.165",0.21753771732725,-0.00344741788620711,0.30745648123594,0.430291056259801,-345.481017472807
"R2c.166",0.215586748849025,0.00127592745199912,0.669445850929886,0.491167666986718,-375.8949099711
"R2c.167",0.210686207477599,-3.64310373137747e-05,0.99032506734054,0.533239803823861,-377.437359775057
"R2c.168",0.21704419097705,-0.00141550563882931,0.641934769265684,0.403509712161386,-373.049768453238
"R2c.169",0.213551085202969,-0.00169697308827383,0.547361165418943,0.533278912749916,-393.170173066115
"R2c.170",0.219554817727483,-0.00759570816853179,0.0119232700463947,0.42038490750377,-360.019669088892
"R2c.171",0.212028463525253,0.00105811205149947,0.703008270967026,0.550015643617556,-357.839196901261
"R2c.172",0.212083236969475,0.000302292768819812,0.91148139496004,0.435995346167226,-370.666761824228
"R2c.173",0.213468060450528,-0.00375427432676441,0.0848496943794484,0.585629997583661,-395.645628146181
"R2c.174",0.213142303386503,-0.000616188200767039,0.816902428859274,0.541675151825374,-363.728514627381
"R2c.175",0.216578252759737,-0.00316896164775249,0.220767159683857,0.560916143871195,-382.876250287637
"R2c.176",0.210804436226873,0.00101718321941805,0.726019205146239,0.457173738583024,-364.108927601656
"R2c.177",0.216101087969816,0.00124495703732667,0.635308923872411,0.473214185350736,-366.423885980336
"R2c.178",0.217904435394369,-0.0057211405377294,0.0349748904763553,0.44928334113033,-387.711141329402
"R2c.179",0.210952437737108,0.00238407682821633,0.399324904258637,0.499358072208142,-379.035321722988
"R2c.180",0.220224006959185,-0.00537067338607373,0.105940505567055,0.520599222627533,-367.855007857817
"R2c.181",0.213853680338495,-0.00355870428597585,0.245387913979288,0.444708305882031,-368.815041391558
"R2c.182",0.213688261696638,-0.00179433666300982,0.529391672188168,0.566236349353215,-373.445034948407
"R2c.183",0.21357267033046,-0.000938037869025949,0.704580757854449,0.534269444397466,-376.432639146688
"R2c.184",0.213622262239145,-3.57804675283413e-05,0.989948279831265,0.505486257657662,-365.579372714615
"R2c.185",0.217630149969306,-0.00117410853944226,0.685239287179356,0.415620526500928,-364.523755313162
"R2c.186",0.210822779199875,0.00055197865685856,0.832240865474979,0.527179642675326,-387.969160264463
"R2c.187",0.214899872555224,-0.00188869648756643,0.455580986576292,0.45850912747603,-373.243562666305
"R2c.188",0.21224960376454,-0.000909261717281629,0.778185259544713,0.461123611170417,-343.219230830781
"R2c.189",0.2116721743905,0.00146534309412324,0.608336317318396,0.580022813508201,-371.808098852996
"R2c.190",0.212835024541935,-0.00203730453034083,0.438332304384821,0.504733452283426,-372.845178943199
"R2c.191",0.210422201292618,0.00222721090094155,0.422310288035903,0.414678077588043,-364.896650232456
"R2c.192",0.212655846115564,0.00492594176881052,0.0399633066997624,0.592082917042216,-400.954550896939
"R2c.193",0.211283183281686,0.00111671660652823,0.680319579152834,0.563511293920621,-382.527533267243
"R2c.194",0.214860574724646,-0.00322012217296909,0.220579850322162,0.484210721628079,-376.986066871707
"R2c.195",0.213361856109612,-0.000281651562558207,0.926900574829345,0.49611078914675,-351.26994114889
"R2c.196",0.208948663122424,0.00440143919144422,0.0634912311494583,0.50437979599571,-375.538046944252
"R2c.197",0.215653032891887,0.00420911049229792,0.091096287236627,0.498429100792493,-369.846049472933
"R2c.198",0.218879990835188,-0.00272365845670811,0.328630720722318,0.446227991560987,-374.779909796578
"R2c.199",0.213464192128045,0.000367139130518609,0.876635683509275,0.506258629592402,-381.72188451422
"R2c.200",0.212995709514178,-0.00164687803130293,0.477606417043318,0.568921077177047,-399.494035570853
"R2c.201",0.214846955137581,-0.00425296200445978,0.119139686000349,0.354004721856308,-346.596137342993
"R2c.202",0.211059530125278,-0.000714290368360177,0.799932575898051,0.473212440343375,-369.88954131825
"R2c.203",0.218661275450319,-0.00450770675286066,0.122619962394674,0.502527806820605,-359.78167751165
"R2c.204",0.215798003656938,0.00115866787250199,0.649602691321048,0.578486942169211,-374.812456034724
"R2c.205",0.210930408367792,0.00108348709588137,0.679230731491187,0.551044799207528,-384.839802712533
"R2c.206",0.213019609908056,-0.00290386208754364,0.28599184557143,0.518275246997446,-362.621694277084
"R2c.207",0.214030775553122,-0.00104155400608369,0.695908116053614,0.502361244912749,-371.892388642555
"R2c.208",0.211906037460171,-0.000565648064991788,0.813969122752103,0.527341733555112,-377.5876633532
"R2c.209",0.21420496957999,-0.00252485887289514,0.345023457304519,0.474080605093013,-374.636507114562
"R2c.210",0.209695243409844,0.00354772288559316,0.144928484284075,0.564436541212579,-392.350216849273
"R2c.211",0.212036940164776,0.00306739900430299,0.237761703228196,0.549598732463721,-368.152813059318
"R2c.212",0.217038075379184,-0.00132746294688687,0.671139333247412,0.464813237403803,-361.230037812782
"R2c.213",0.21442230423145,0.000840425793413395,0.753961642250068,0.479172505882872,-378.003675661497
"R2c.214",0.214904445829849,-0.00066662409757713,0.833076127815254,0.412239005357525,-361.139193590914
"R2c.215",0.218088328993629,-0.00150939538113773,0.58949930715208,0.433177939016565,-367.04188394605
"R2c.216",0.214053895960027,-0.00294298175611181,0.222969666927456,0.480315760980081,-379.449341101301
"R2c.217",0.212847064293816,-0.0025832553862518,0.272805943659854,0.513718065661594,-399.033299440088
"R2c.218",0.217421529367363,-0.000154656229285684,0.956560748158604,0.467194273594784,-363.132113892036
"R2c.219",0.209409843546696,-0.00107257068765673,0.708595423148763,0.490438054608162,-363.015641051323
"R2c.220",0.215248531700119,-0.0030608975149191,0.211875121421529,0.533816718297363,-382.989852127593
"R2c.221",0.218080981277246,-0.00368875946565173,0.231636970703902,0.513369684855719,-357.200115753454
"R2c.222",0.21848113071952,0.00167652531092289,0.531246612662241,0.446689672895798,-338.814948024991
"R2c.223",0.214092492758711,-0.000464055016928537,0.83588017297353,0.503080913084279,-387.180965992008
"R2c.224",0.213494919303446,-0.000820192459144816,0.743536811242844,0.474810317660632,-374.748566345503
"R2c.225",0.210056909961662,3.28279005714644e-05,0.99096598705972,0.393337220724858,-378.022020403885
"R2c.226",0.214925914153406,-0.000196155742072444,0.945538282496202,0.517350271685265,-368.220029467837
"R2c.227",0.214595440713717,-0.00204076760417949,0.404707827313897,0.552473943984305,-387.713245161519
"R2c.228",0.212350325971924,-0.00329334671231996,0.225963370721724,0.555872347889192,-385.524182761048
"R2c.229",0.215386532347314,-0.00394666380520185,0.149893830217618,0.5464639799565,-389.045698809739
"R2c.230",0.220294893700102,-0.00410179229979189,0.125025883817762,0.532519665724818,-386.481073634622
"R2c.231",0.210714827359444,-0.00218556350755644,0.454085084441876,0.39385778370533,-353.727492789931
"R2c.232",0.203347191312979,0.00980233736925602,0.000412331134728449,0.479749650181818,-378.316538199929
"R2c.233",0.214904993855696,-0.00106912004708352,0.671730026345978,0.483320894710356,-372.436997601456
"R2c.234",0.21065134879795,-0.00338402028243836,0.213697099434866,0.504135929061558,-378.876791146351
"R2c.235",0.216574419644521,-0.0012919172281817,0.702535880864793,0.472360785520916,-356.562854379069
"R2c.236",0.211330216574156,0.00265783895339345,0.38603480902686,0.481026400363669,-377.782384455964
"R2c.237",0.221092806601429,-0.00686961438793523,0.00889736992634703,0.50626276050821,-376.552061059743
"R2c.238",0.213455212977632,0.00305774863622689,0.304489481547406,0.443507726289113,-368.329421970092
"R2c.239",0.21549430159576,0.00264173653170282,0.285380739579003,0.608475231466324,-386.944916854921
"R2c.240",0.21093356792768,0.00297693403561662,0.19518109907592,0.530181361901573,-393.539840060844
"R2c.241",0.214031410567707,-0.00228347103938928,0.408812020327284,0.451930852452625,-364.392272568065
"R2c.242",0.213810047861797,1.71460644819281e-05,0.994957189033499,0.424775836020158,-358.127115405543
"R2c.243",0.216871139623385,-0.00442709831070597,0.126211924996476,0.449400323740059,-378.317528876987
"R2c.244",0.205532843643563,0.0048211016192494,0.0463548735510386,0.516243015816886,-367.305798520061
"R2c.245",0.213318975526401,3.08435656241344e-05,0.990560150710175,0.522666218540971,-382.593783946235
"R2c.246",0.210793357873901,0.00245677320153384,0.423210931786654,0.477447094640214,-366.493070382932
"R2c.247",0.214520636924794,-0.00358302607800665,0.186130423522943,0.526345119185672,-369.241034846034
"R2c.248",0.210235704315726,0.00110449968648815,0.680364496920313,0.507081470840112,-375.386079304016
"R2c.249",0.213997053017618,0.00026191891250475,0.932795037971673,0.359802273901929,-349.603691813877
"R2c.250",0.21195703466058,0.000322081389815439,0.91123679448659,0.406685395978041,-357.271110264432
"R2c.251",0.213064494774153,0.000634891759115016,0.791275295210355,0.477407556946167,-387.876269701286
"R2c.252",0.209252461336251,0.00209824351213261,0.484396566325586,0.420073565260752,-368.235440100261
"R2c.253",0.211130893861057,0.0002455772753521,0.93610264993653,0.40502255368236,-367.414134265599
"R2c.254",0.216189356068961,0.00104675518580303,0.712720825412069,0.547885566198787,-370.321289922055
"R2c.255",0.214294326405059,-0.00338738261202061,0.207285746564476,0.519076412258898,-384.949302726692
"R2c.256",0.211914596520124,0.00102629088132056,0.800703041592642,0.4125551905643,-339.626985347354
"R2c.257",0.212764957792542,-0.00155465200538089,0.528401038210173,0.553952950731822,-395.696245649791
"R2c.258",0.210855986045643,0.00267289112672437,0.373614293527207,0.527189485362791,-375.079119953447
"R2c.259",0.209801023162988,-0.000453062602267206,0.879544668257408,0.416708356079771,-365.856614994689
"R2c.260",0.208944761599715,0.000315699630578819,0.917527905891645,0.453110372073328,-372.029523669183
"R2c.261",0.212263798978404,0.00273603642150401,0.282997911538533,0.490706844571974,-365.723566268079
"R2c.262",0.211860113616015,0.00013532836336687,0.960686990458511,0.451176111911253,-380.849727471323
"R2c.263",0.221338662956627,-0.00333556334525813,0.223681621704664,0.548539700108826,-372.739896179356
"R2c.264",0.212708144370258,-0.00270925644623981,0.395086089803872,0.438886473723499,-365.010601566341
"R2c.265",0.209275234391868,0.00278062626468226,0.246634257814259,0.586542420840075,-391.772231195099
"R2c.266",0.211840774640432,0.00392192958021222,0.162951308628692,0.48476393845806,-371.460608120222
"R2c.267",0.221333349055886,-0.00219672577567733,0.404378554393602,0.478214957744212,-361.418827782222
"R2c.268",0.214494950709157,-0.000124060307217651,0.965571365147647,0.442309975014941,-369.019372811654
"R2c.269",0.212270811341052,0.00177875439953512,0.570666652847207,0.392895494905687,-353.73693656041
"R2c.270",0.209018327315466,0.0027649591733046,0.370694504233662,0.476792470321131,-370.341524531359
"R2c.271",0.213654168077848,-0.00154709952826534,0.563894809352501,0.509360750034562,-379.237475289752
"R2c.272",0.216695586905756,-0.00173973839642311,0.502956403785474,0.562508262428755,-375.033635566701
"R2c.273",0.21552156620216,-0.0018025453968144,0.463989744592122,0.571747078541697,-388.908249898571
"R2c.274",0.209819413457397,0.000795565038648077,0.776317899639789,0.513440465155008,-373.039372603109
"R2c.275",0.214278900507534,-0.00157702713272467,0.525229982492969,0.557861258999399,-386.105262195774
"R2c.276",0.211387555532276,0.00203127661801032,0.421397301154861,0.439808886696391,-380.652032391725
"R2c.277",0.214101973408809,-0.00066603966988616,0.801574961656386,0.530929043336714,-373.662807369406
"R2c.278",0.211316651417002,0.000863326273098474,0.748346551855816,0.556265250924283,-373.908126448977
"R2c.279",0.215647372095613,0.00161227507047577,0.514187518841416,0.543427614750501,-375.392351515147
"R2c.280",0.210144975454775,-0.00150630827713123,0.533912865029075,0.569873550222325,-393.674310605399
"R2c.281",0.212866242001406,0.00141632986996928,0.677463762889211,0.462559649006973,-355.966265245132
"R2c.282",0.21715913264824,-0.00311120151207836,0.221380401495272,0.442893675326961,-377.988940190334
"R2c.283",0.212278206225413,0.00391320255184555,0.193652082519127,0.443173223071305,-359.127038280435
"R2c.284",0.211052711774142,0.00204533883479841,0.473007950733827,0.483756961234554,-361.632563820038
"R2c.285",0.213901068768213,-0.00285168804310886,0.33479572588516,0.430763867005351,-372.883313834124
"R2c.286",0.211913994809616,0.000958236224102489,0.742364621136519,0.490782811619708,-371.472573335881
"R2c.287",0.212927720583534,-0.000781202108843417,0.758336644628516,0.492473556063757,-377.860110056458
"R2c.288",0.206207009769502,0.003701507700974,0.104648713555948,0.541859807410003,-397.080815145908
"R2c.289",0.212331106768865,0.00307287840841188,0.187618706747712,0.640248276347788,-391.677000976692
"R2c.290",0.219044722063291,-0.00666582517490759,0.00545383412873029,0.590418953482067,-397.59801093325
"R2c.291",0.21076678528358,0.00374878302613466,0.153446873784499,0.557199041521919,-390.043509194172
"R2c.292",0.214163921788525,0.00146466574976673,0.633938544848662,0.496944194627706,-368.587124404088
"R2c.293",0.212418326455916,-0.0008839680571502,0.741756470849374,0.44085182922663,-361.425646540802
"R2c.294",0.210906618331226,-0.000643077643564153,0.797245424120254,0.536983567202626,-380.17917248579
"R2c.295",0.215136094162653,0.000872919800780012,0.738411064219851,0.52224548913192,-372.164037703414
"R2c.296",0.212497520767901,0.0016736338377761,0.469870771821592,0.54282400489076,-379.412431286348
"R2c.297",0.204074317313092,-0.000117123540987286,0.963433434474884,0.566248116427956,-393.516230067648
"R2c.298",0.211460890558272,0.000115571474648597,0.972324766518672,0.49701425590185,-372.639478405643
"R2c.299",0.215931835807586,-0.00572748800264991,0.0757846918722272,0.453558302527148,-351.734492213411
"R2c.300",0.214580989639349,-0.00256437781637081,0.318224782185285,0.439059095687355,-361.436044755352
"R2c.301",0.21549205459545,-0.00125639820333275,0.649232139150994,0.546768896567571,-380.566495693815
"R2c.302",0.21745100916802,0.000143752142704311,0.953924729557856,0.477540218517042,-378.367332464319
"R2c.303",0.211664992852243,0.00093106978874051,0.69606314335092,0.590159568547652,-401.339532819954
"R2c.304",0.217027760397659,-0.00337467372065333,0.241031468214629,0.525892534513648,-374.179396515221
"R2c.305",0.214086898282501,0.000987925150249611,0.701873602089083,0.465926039539026,-386.354502920284
"R2c.306",0.218511427297733,-0.00482183305590419,0.097925514684958,0.552455939334546,-393.49412406523
"R2c.307",0.210686010727693,0.000524124926169667,0.822005301569943,0.532316863190204,-384.729658217011
"R2c.308",0.20992275210768,0.00245603743298131,0.446159046487604,0.441278845342183,-375.577952490491
"R2c.309",0.212012980965997,0.00149410293846638,0.579290265833487,0.552599694909254,-394.273821886162
"R2c.310",0.210596660983355,0.00301631566160654,0.188689528459247,0.61625278423663,-416.10198114473
"R2c.311",0.210693838252302,0.000509048954387565,0.819970938094972,0.569998937946932,-394.704080469152
"R2c.312",0.212530597780319,0.00407964471284767,0.123097062329466,0.462554714752813,-379.638039910602
"R2c.313",0.210935731682754,0.0033118748131031,0.238210471686799,0.536989843814488,-378.534157423325
"R2c.314",0.209467409642785,-0.000498888243845817,0.847778252636101,0.447867871772542,-382.37851586954
"R2c.315",0.212549783214173,0.000247689973639799,0.911402181492097,0.512234767871183,-384.183708489283
"R2c.316",0.219337427260311,-0.00203578651017,0.404997174355807,0.517350847724237,-386.857754599228
"R2c.317",0.214902324993402,0.00134407464520673,0.661505482701166,0.495226019753877,-356.88065143325
"R2c.318",0.202570439619932,0.0041617099858203,0.0802298472370311,0.562489667187547,-401.240273045792
"R2c.319",0.212698965624694,-0.00166479894002673,0.513636184850787,0.504312593566621,-364.62960654077
"R2c.320",0.212023721462816,0.000393581396693133,0.863897989687106,0.513237997344263,-386.282351354383
"R2c.321",0.212181453888454,0.000192688371227235,0.931249693650752,0.549830665324654,-390.153400975388
"R2c.322",0.212146023062036,0.00124875531190704,0.6083122864668,0.552606867598778,-398.606091022694
"R2c.323",0.209670137089635,0.000995314332943052,0.713622903885066,0.488061703165197,-386.360586609599
"R2c.324",0.213289235099496,0.00103638277806857,0.711163834505976,0.470282467305974,-366.437339514333
"R2c.325",0.210374814808818,0.00476749684786402,0.0852300219727002,0.516762743389455,-379.241858509021
"R2c.326",0.217066691453897,-0.00771022143542223,0.000888762413099442,0.606139071122466,-400.022027778436
"R2c.327",0.211758037519849,-0.00129541896017761,0.604864544300508,0.551177643663806,-382.160122566324
"R2c.328",0.215290928470678,-0.00281160335568821,0.322491837101756,0.498190512011676,-363.702682304058
"R2c.329",0.210426016570321,0.000633147732815164,0.791898282800866,0.537330956505475,-394.290261680223
"R2c.330",0.215572304325433,-0.00115349985164484,0.713598933496928,0.439251912620954,-337.414433616716
"R2c.331",0.212284958187077,0.00492977380691214,0.0698553733106672,0.56109483516257,-384.748020378392
"R2c.332",0.216434759451054,-0.000842222107705,0.703948315580611,0.633542826770994,-395.986655157365
"R2c.333",0.217701503026851,-0.000769917619049199,0.787305399217136,0.518651948849371,-380.389000294305
"R2c.334",0.21639771185772,-0.00416138833574744,0.161900903064912,0.413046112138878,-363.89800423759
"R2c.335",0.211105601990392,0.00268427533283211,0.340014435592284,0.409161791626585,-355.061023433023
"R2c.336",0.215183961155163,-0.00100769253664915,0.765057879085907,0.354440944540975,-336.344506125707
"R2c.337",0.209232850275026,0.0063712476393545,0.0201548793803363,0.437587868559995,-367.456833549491
"R2c.338",0.216013125062514,-0.00197381516325127,0.541084129648283,0.467837396010616,-362.455527262931
"R2c.339",0.211967680530215,0.000954723284441409,0.689113712933026,0.531820374840114,-360.414051460568
"R2c.340",0.217533729458494,-0.000964324749772584,0.742917083583968,0.477806473907396,-360.079473911596
"R2c.341",0.213686490676355,0.00318369048854006,0.192134137615634,0.58631535423842,-395.432876430604
"R2c.342",0.211571317460256,0.000793502479803473,0.741446334119502,0.546536089016884,-377.862441301203
"R2c.343",0.213955296220166,-3.57593343589097e-05,0.988376285352806,0.529815702381967,-383.26909348156
"R2c.344",0.215824421727833,0.000938524198135354,0.672079497991891,0.549510199362499,-386.972380321768
"R2c.345",0.216375780396054,9.71184673522923e-05,0.968992789783206,0.598479319904846,-391.600266497347
"R2c.346",0.215067340427106,0.00459197243586141,0.128082272809012,0.435794139808058,-355.428555686166
"R2c.347",0.212398797012393,-0.000749176037212564,0.742513312363019,0.572677560577552,-415.046410324271
"R2c.348",0.214570682257759,-0.0022979906214076,0.330900739825673,0.564734102616048,-395.994774632829
"R2c.349",0.216633499300693,-0.00353669744562134,0.208716565891022,0.516762269946954,-366.978901923376
"R2c.350",0.211044850627061,0.00285690347384965,0.328796100020164,0.409907900283135,-350.372965576249
"R2c.351",0.211869122281799,0.00140163331268172,0.666065390805866,0.503408064393099,-349.309406243421
"R2c.352",0.211995004672255,-0.00156527593520962,0.590667734414379,0.424229741944945,-377.431769464552
"R2c.353",0.215154582586138,-0.000974591445128405,0.696911327159143,0.476922621750638,-381.981214885094
"R2c.354",0.217643848068008,-0.00182286270407453,0.57111387169008,0.461553404454004,-350.011596016425
"R2c.355",0.211981375609441,-0.000801287172089263,0.73948959221753,0.568972209253035,-385.289841019639
"R2c.356",0.216596611586428,0.000135652549028897,0.959583620158606,0.450282595567298,-364.168821422188
"R2c.357",0.210162712753548,0.00386187196536406,0.136041075995327,0.450766876103133,-368.586954165717
"R2c.358",0.211935737007592,-0.00116947254192693,0.62566210025097,0.581187340791892,-390.209547254458
"R2c.359",0.213320219323053,-0.000243264433225403,0.927978644283082,0.525073569460958,-376.922126702872
"R2c.360",0.210946366271926,-0.000119766987959957,0.967896206241201,0.36751995026944,-344.836999656255
"R2c.361",0.208485376965701,-4.30939606499265e-05,0.987414338587111,0.489045684356378,-375.876554427528
"R2c.362",0.220104348195695,-0.00578697917646651,0.0195073382271186,0.479799810679303,-387.254793617738
"R2c.363",0.213981584533932,0.000419974658465065,0.907880378853237,0.42109859727281,-339.337722973985
"R2c.364",0.211568610111384,-0.000126658510735417,0.962874353970608,0.502571722773896,-350.844715009101
"R2c.365",0.219473994477663,-0.00339549015971272,0.242118821027269,0.52872267602862,-378.98542306441
"R2c.366",0.213863265395611,0.00145393117668971,0.616672011649909,0.450491779042326,-362.805785278149
"R2c.367",0.214038747135891,-0.00238318119820085,0.366081439349875,0.578637102518434,-385.811728625381
"R2c.368",0.209407506149388,0.00537278194609802,0.137242657185791,0.470379916142732,-352.103332562798
"R2c.369",0.216685345222253,-0.00414883928495961,0.153845490684679,0.502343410674105,-387.432117495131
"R2c.370",0.208566498558229,0.00518554451942123,0.0795289319706848,0.396701706102758,-349.095990204871
"R2c.371",0.213299192400171,-0.000794063492265631,0.742907835792783,0.517641438101764,-383.060568324699
"R2c.372",0.213669355664734,-0.00167153125818833,0.544010199617634,0.47363778330076,-367.985874114099
"R2c.373",0.209393249498921,0.00512944496802375,0.130059625641296,0.515492433162781,-349.783535383617
"R2c.374",0.221923738703381,-0.00415473570355111,0.137252497670936,0.520321056123592,-374.435273771183
"R2c.375",0.210695954185499,0.00143939882217693,0.587275413422784,0.595702625693387,-396.295569933684
"R2c.376",0.211954907951076,-0.00141756224322881,0.59037967504317,0.551118536158301,-372.919473976
"R2c.377",0.212889148753353,0.00144024432915347,0.540468101787797,0.592196150040297,-387.539836477923
"R2c.378",0.206315426542556,0.00433944766978872,0.105882444256193,0.42620303645615,-384.093309523087
"R2c.379",0.212304622994925,0.00411588581000651,0.153916274921856,0.435244692550579,-365.175934717759
"R2c.380",0.216561112287802,-0.00311907278157597,0.268405265481237,0.511760914174598,-363.838929444382
"R2c.381",0.215751800488289,0.000971366933620098,0.706842846020831,0.486665893010265,-366.200222779658
"R2c.382",0.219398282112972,-0.00524070181569899,0.0560404273884439,0.459225307313307,-363.689472793666
"R2c.383",0.211478845736422,-0.0037259433609609,0.255690277422475,0.571551861304519,-374.862047705233
"R2c.384",0.215568381259872,0.00205764900952541,0.452504431341461,0.555397436023214,-384.443095048204
"R2c.385",0.222606240392842,-0.0064556127927123,0.0324224702051886,0.418422434505951,-342.695038853729
"R2c.386",0.214554729721652,6.55916554489471e-05,0.983693640702265,0.458964464991986,-357.022386667306
"R2c.387",0.215926695823663,-0.00163256197764821,0.536449443018136,0.568411278677661,-385.7418006786
"R2c.388",0.218817274904855,-0.00463813775532982,0.121872814587209,0.452252324861308,-372.543955103809
"R2c.389",0.215911426652529,-0.00505223854685252,0.0263233928401886,0.603279107942756,-389.023496393176
"R2c.390",0.213494633916174,-0.00177738039477863,0.545963295442799,0.509837380660634,-357.551711179491
"R2c.391",0.215031677706206,-0.00185136534073111,0.452819565169497,0.549785501009786,-398.603072417495
"R2c.392",0.207136318371308,0.0040031396919589,0.108169768573417,0.516685945196414,-383.991520524756
"R2c.393",0.212561014077279,0.000357472340598802,0.897612391001979,0.548287835769697,-372.334320844201
"R2c.394",0.213832926777549,0.00123055317419854,0.600637786130205,0.582606618615254,-384.216694393347
"R2c.395",0.20952823585837,0.0037377281201139,0.0791978003517517,0.590273223569852,-413.638790959225
"R2c.396",0.218590547991778,-0.00309199635740578,0.321583332471389,0.595134738610364,-377.740303451366
"R2c.397",0.213498934164195,0.000267326030063435,0.921298537400917,0.490163344006108,-382.580111191314
"R2c.398",0.213034526128451,-0.000320074155258745,0.897933536306493,0.531799098666926,-384.825972152266
"R2c.399",0.215212047635463,-0.00106252677096434,0.715897413152646,0.446833874152722,-355.742797686841
"R2c.400",0.207834136336745,0.000417938407845038,0.868713671360498,0.571347630820642,-400.025116835222
"R2c.401",0.215365543848808,-0.00322022604015652,0.243299143448255,0.516149292061245,-364.340599225224
"R2c.402",0.211525347816252,0.000374955977011867,0.877145114498727,0.467648143298174,-389.451837757921
"R2c.403",0.216889879690153,0.000259229460906807,0.925253426057462,0.468737154524121,-365.293882569122
"R2c.404",0.208930149510184,0.00399603911605646,0.166884995523392,0.543030539970656,-390.242692275954
"R2c.405",0.21589999486716,-0.000997590381640642,0.709206974476597,0.560462603190508,-381.846765774341
"R2c.406",0.209147580623959,0.000655715447688089,0.804448406350804,0.557362778863411,-369.407484449051
"R2c.407",0.215849714954027,-0.00026151270452329,0.9040130901003,0.534513111516282,-389.932867274631
"R2c.408",0.215767456286098,-0.000696842557160333,0.794451166803452,0.430419234171006,-361.570880061381
"R2c.409",0.209513104517376,0.000838037408478062,0.755615543843456,0.474114811137553,-376.62074886789
"R2c.410",0.213940605941214,0.00104303537555605,0.701323457273866,0.473905105949567,-362.783328131659
"R2c.411",0.212990058969241,-0.00279237683889964,0.265533292916679,0.571060526811575,-384.617983480016
"R2c.412",0.213289383314065,0.0017788203143683,0.557793304065045,0.448588049151671,-364.479234230143
"R2c.413",0.219891902674025,-0.00312049738067206,0.259376444199718,0.494335217997195,-369.240136858522
"R2c.414",0.217091340897252,-0.00250409656880458,0.402051841417828,0.495163256934381,-361.743852229066
"R2c.415",0.213690049243348,-0.00397906558585367,0.121533841237925,0.455499282231087,-375.283947920527
"R2c.416",0.213287745496485,-0.000522970400279872,0.823556990177558,0.523133564301245,-404.958132337723
"R2c.417",0.212479520308121,0.00306529182086748,0.287939988961419,0.382908214812379,-353.825274994301
"R2c.418",0.212134057789913,0.00126749405665777,0.672116743553543,0.501292334019869,-359.708816028398
"R2c.419",0.217797287760545,0.000588061799624966,0.843995619482254,0.497045098455174,-371.108918650244
"R2c.420",0.21348757146218,-0.000856671533597458,0.737131584451007,0.461044732983839,-378.835941278342
"R2c.421",0.21591565628061,-0.00339415806288962,0.206290970751365,0.577547554149236,-388.258263964546
"R2c.422",0.215318528941883,0.00132993353133715,0.588909894165832,0.511072303321045,-377.746583879727
"R2c.423",0.212209601095059,0.00134900789905737,0.597684472402965,0.530506071707199,-360.59920530759
"R2c.424",0.213207328700926,0.00106656965368939,0.669294639532739,0.50547455999622,-384.548727724481
"R2c.425",0.213422029195436,0.000408029732535357,0.895848892753368,0.49980180290388,-369.636099145926
"R2c.426",0.212341430819096,0.00305063838203354,0.265521444441172,0.43724549330386,-356.71330069212
"R2c.427",0.213528143438706,0.00560991028226732,0.0236388029366038,0.516818130105875,-372.236256720805
"R2c.428",0.213079317300589,0.000120574767814884,0.963496637997832,0.530860388583813,-378.945399549638
"R2c.429",0.218916108971658,-0.00424689090281018,0.119428862516284,0.457505889154206,-364.321205839426
"R2c.430",0.216610873129071,0.00128683149379437,0.618668968814444,0.541058594783572,-397.161082942748
"R2c.431",0.220522353538607,-0.00326341238003035,0.203766877760879,0.452401789624569,-385.846636669705
"R2c.432",0.214989015634428,-0.000293211070265579,0.908905753558008,0.593784660369531,-379.361834432409
"R2c.433",0.211421095484838,0.00250652326469823,0.326684184780723,0.525497739867957,-385.871386209686
"R2c.434",0.213954925808788,-0.000732392468919832,0.788383927508942,0.481407687013672,-370.429572316306
"R2c.435",0.213448175642471,0.00191882834242806,0.505542721198473,0.434848304950731,-375.475340416749
"R2c.436",0.214980737659739,0.00110667893047794,0.674452621771032,0.537619396887018,-364.568281006465
"R2c.437",0.215843166652897,-0.00325335405766432,0.246511562896352,0.462972709264898,-372.781018152471
"R2c.438",0.217493647540372,-0.000639385817874841,0.805095791072651,0.577516071618589,-387.972470486219
"R2c.439",0.206930537090913,0.00434393424942359,0.127763080932634,0.576834613310674,-368.455655643318
"R2c.440",0.214768322009149,8.4138926316373e-05,0.974329358012598,0.478822638052173,-382.69368673418
"R2c.441",0.212193058701147,0.00427232379062854,0.174204603132204,0.412649865157064,-357.785151502586
"R2c.442",0.213922100883678,0.00206226309824942,0.440332806306831,0.592427461855968,-395.435131830886
"R2c.443",0.214378936817594,-0.00328526829666423,0.130330402799565,0.600564633885391,-409.229441097677
"R2c.444",0.218180936665677,-0.00303056094865793,0.292056507740707,0.441729766034772,-346.523889196706
"R2c.445",0.211631325904621,0.00206485277672144,0.453369021085762,0.507903633720726,-374.826235292749
"R2c.446",0.211611838471607,0.00438367632173439,0.101774291084566,0.55056804841682,-376.555778839273
"R2c.447",0.213000904308228,0.000616514892411644,0.824467585712746,0.475267881530585,-365.025762986673
"R2c.448",0.214478085860476,-0.000431547331411855,0.874099309502543,0.402645102838989,-364.511100089966
"R2c.449",0.216571088662844,0.000626850475460606,0.852368935614705,0.575983914704083,-356.828126955493
"R2c.450",0.215496247139387,-0.00278992735224712,0.321960323579287,0.552459208520431,-360.916120883722
"R2c.451",0.216502864854275,0.00137517106633725,0.598276000729711,0.480617958983129,-368.205306344037
"R2c.452",0.212623836820382,-0.00135189060764994,0.648383369079222,0.458539261231228,-375.227933063956
"R2c.453",0.213610539814694,0.00112604458534914,0.668079478783119,0.524288658481542,-385.267202171414
"R2c.454",0.210894161220962,0.00162267393192167,0.510319286535356,0.571448529782693,-389.043825607047
"R2c.455",0.213627960938135,-0.000415933217391849,0.886618885157168,0.511409796934913,-376.954030247064
"R2c.456",0.210965449046962,0.00194016658731582,0.460640591365376,0.43774347349636,-357.640223184906
"R2c.457",0.213665012478375,0.00131598758987837,0.640140474032938,0.552978058805633,-386.166339855731
"R2c.458",0.21563864650324,1.21160401138448e-05,0.996676974018333,0.42639896025383,-355.14721236367
"R2c.459",0.210650440943307,0.00469370306233115,0.061495531892881,0.488696606565863,-396.077611345587
"R2c.460",0.218981315140625,-0.00637214495801419,0.00349191659182429,0.606183641884282,-399.964853564964
"R2c.461",0.215749948055894,-0.00102397774824892,0.702590353162829,0.512645898004543,-365.72832316988
"R2c.462",0.209432526192247,0.00274891806106528,0.369436426245442,0.487801665354013,-367.500862511105
"R2c.463",0.21823663082012,-0.00209882541397398,0.413855758807376,0.480364275126827,-363.467090855705
"R2c.464",0.214705253914409,-0.00119366588047881,0.653117424519275,0.461391893139419,-357.227548585789
"R2c.465",0.215730885730323,-0.00424117890165885,0.120206459922196,0.472336527107514,-370.785817340944
"R2c.466",0.207422909338743,0.00386147045357591,0.133366899835863,0.496318112018756,-369.414352820012
"R2c.467",0.21712867499693,-0.00348301535381849,0.183434222807651,0.51406052568792,-388.450719474349
"R2c.468",0.209255068248614,-0.00142321336515725,0.562389362613462,0.465294807936795,-355.21226174217
"R2c.469",0.213044579989878,0.000980348987580726,0.739448831375129,0.505693231458728,-372.939956659113
"R2c.470",0.212568598052049,-0.00168718248762188,0.558183927007354,0.492117139689981,-365.769874199302
"R2c.471",0.208495265413339,0.00537787081758427,0.0540473733931436,0.456113491750906,-378.088159290715
"R2c.472",0.21628891746365,0.00132213854875261,0.675064251133487,0.460246762174456,-366.276878114696
"R2c.473",0.213334615502736,-0.00335540419097577,0.238133406366999,0.493269720943752,-380.891488619834
"R2c.474",0.21211195989992,0.000374178948313983,0.898030247026024,0.476814720933432,-380.632215154902
"R2c.475",0.210608100842576,-0.000610361755359126,0.792966583882869,0.5530661645633,-385.463132995802
"R2c.476",0.209292532785264,0.000358797521200317,0.878598463812685,0.553424029039644,-389.979194947084
"R2c.477",0.214846243718461,-0.00389194827238612,0.1026779642162,0.6192426313548,-408.483638867644
"R2c.478",0.214287367478819,-0.00354253046547804,0.183025630529435,0.477109061847538,-379.37676237857
"R2c.479",0.215826241926905,-0.00238869036268007,0.46633451763006,0.504720301859944,-369.898168018148
"R2c.480",0.216138586074534,0.000726058026861582,0.806384672232297,0.458637262302255,-367.516539015751
"R2c.481",0.213435624413437,-0.00376451983752882,0.178710337080002,0.496021237076077,-371.096532652953
"R2c.482",0.212280343039039,0.00173036611906242,0.587321230721791,0.472366189525812,-355.870021642421
"R2c.483",0.212939770235222,0.000761267731414229,0.757381366173251,0.482526088637976,-369.684564065009
"R2c.484",0.213543798272946,0.00219254923961931,0.339847342394093,0.516656018041111,-384.815499637402
"R2c.485",0.21173791888056,0.00241122019459463,0.422066362040567,0.425867142110663,-364.270922380012
"R2c.486",0.212043347794417,0.000352736400187913,0.884781276112046,0.591514039837501,-402.763586021803
"R2c.487",0.216617453887918,0.000425513900705563,0.89218444783561,0.514534198327145,-375.159147778923
"R2c.488",0.214848597281651,-2.59605520647407e-05,0.992408104652307,0.534710412065852,-366.421797481734
"R2c.489",0.208832426354953,0.000583051234087393,0.844999018327788,0.481460671519612,-389.068886552125
"R2c.490",0.212303569013018,0.002584343711198,0.366653752900396,0.514387625488521,-365.730827723821
"R2c.491",0.216465259785729,-0.00361552957625973,0.236766206521106,0.500644277989915,-387.024451637149
"R2c.492",0.213398140956351,-0.00485505350528339,0.0900261997556988,0.500458356662187,-366.44828050008
"R2c.493",0.217424335671582,-0.00105387606933041,0.711340803243699,0.501742728469113,-377.640788829454
"R2c.494",0.208657836124108,0.000316262537161653,0.914116428042621,0.437094807253238,-356.694580162165
"R2c.495",0.219465437067948,-0.00202132789068881,0.547146178584236,0.422581863259852,-345.789329559511
"R2c.496",0.21515691964163,-0.00206915296905039,0.439226855933655,0.507769408760043,-380.401811684386
"R2c.497",0.215461675918342,0.000478274188424152,0.869417131818283,0.508876469434684,-373.708939034772
"R2c.498",0.221124446917932,-0.00169632639118199,0.483823072921835,0.509672224772809,-376.010603332944
"R2c.499",0.20902350522576,0.00279285172714849,0.254444391788717,0.494607476452386,-386.45645346626
"R2c.500",0.21509300528996,-0.00168734158221445,0.548890310578094,0.38743386510206,-371.084715131754
"R2c.501",0.219087609122213,-1.36430335605679e-05,0.996370853844596,0.453865754819969,-351.934042928571
"R2c.502",0.213185721333593,0.00111036797661866,0.644237969771876,0.463189272660187,-380.793172754956
"R2c.503",0.215401047939318,0.00115864745141601,0.582469883721584,0.474658402661841,-386.778479126405
"R2c.504",0.209997110763663,0.000928177703492374,0.723839576067952,0.531943658459433,-383.465557681393
"R2c.505",0.216010295096065,-0.00257865980774441,0.294497393204872,0.41729298404254,-377.485559510153
"R2c.506",0.217761415747137,-0.0039739881888931,0.242792809883494,0.516178457489731,-353.024345570344
"R2c.507",0.217257672451705,0.00108419423088006,0.66879349916289,0.55729956358221,-390.110298923925
"R2c.508",0.21637942331922,-0.00174307177185792,0.474754962159091,0.455124840914565,-387.978232459061
"R2c.509",0.220153448584897,-0.00518050992676815,0.0899005950972269,0.477225026243662,-357.064378341946
"R2c.510",0.215334411827627,0.000800864317824076,0.787671707621187,0.487791617163582,-366.804988014167
"R2c.511",0.206981106402066,0.00581431584671486,0.0333563601888142,0.442575143631479,-392.814912348908
"R2c.512",0.212775178862574,0.000971126235357308,0.745701398391279,0.455891395339673,-350.490468491941
"R2c.513",0.212183114358055,0.00503759204040152,0.0934393543605692,0.478472078973179,-367.549771679472
"R2c.514",0.205685499441322,0.00323171787906227,0.187942186080068,0.496773079168726,-382.001286537275
"R2c.515",0.216248098533574,0.00161874381535917,0.57950067510976,0.499556991136448,-379.45919530995
"R2c.516",0.211545975173305,-0.00159082917997908,0.557429116120531,0.528441216848181,-380.795765908379
"R2c.517",0.211505472729502,-0.000257596161143146,0.915182168457043,0.518780202280152,-373.640173658187
"R2c.518",0.213082846176249,0.00382870610309107,0.197225790323419,0.457566164110809,-349.126301506985
"R2c.519",0.213878733491094,0.00122573594559703,0.645293577568724,0.526506462724609,-370.583851578791
"R2c.520",0.211505129921779,0.00431403436714237,0.145991459005705,0.465727003033036,-367.51157152928
"R2c.521",0.217939015733071,-0.00327777239048639,0.243880946001457,0.410927891878462,-363.463756550982
"R2c.522",0.21476882174019,0.00129580246965847,0.652587871279454,0.418804215914676,-347.922129872068
"R2c.523",0.210718431701102,0.000739639158279908,0.804282020166559,0.446024387274553,-355.114838341377
"R2c.524",0.216673175404585,-0.00388692779887593,0.190426426035905,0.485796726991448,-366.410243836195
"R2c.525",0.210908817774226,-0.00151854682882142,0.558673062796637,0.537056255457125,-361.643964214899
"R2c.526",0.215814977902163,-0.00338228599190104,0.279709726342318,0.484011315381798,-364.806102358104
"R2c.527",0.216308422350939,-0.00148378394401599,0.569688683687578,0.524083566030118,-372.202746881672
"R2c.528",0.211506151115572,-0.00280830227311567,0.263923296857637,0.488629564733045,-390.582599030663
"R2c.529",0.21137807167882,-0.000242065806946721,0.913584369796865,0.519303793366381,-398.171138543482
"R2c.530",0.214783040049532,-2.83035485352789e-05,0.992068460047568,0.483050037411819,-382.202149719925
"R2c.531",0.213347181248065,0.000886317237274924,0.713595103223403,0.471906443619881,-381.687695559135
"R2c.532",0.214502108045365,-0.000835531205313139,0.752719983758374,0.456397905219949,-379.024314809266
"R2c.533",0.218244296308519,-0.00203723989556291,0.479985484930549,0.477402978908498,-345.265967560211
"R2c.534",0.215068159786849,0.000193059362650092,0.94275339875847,0.500292102862921,-371.804556373096
"R2c.535",0.214097841938666,-0.00174828904751475,0.520597107469838,0.52035206185752,-381.953751735559
"R2c.536",0.21068655308907,0.00213660978643578,0.380573794538474,0.493629136020977,-384.801066794028
"R2c.537",0.214635912318424,-0.000910098037614662,0.747869441824221,0.509535869729511,-361.96001509464
"R2c.538",0.21020516651912,0.00266857221053974,0.296903469011216,0.486352925635988,-363.245489345199
"R2c.539",0.220720360121527,-0.00392290611509165,0.211715026610979,0.462479359907748,-347.987183695616
"R2c.540",0.21323211405232,0.00152839313555292,0.481601968182318,0.621462086733404,-404.653805286443
"R2c.541",0.205862404526697,0.00627012256330813,0.0224084258495505,0.517335568065503,-386.308546605898
"R2c.542",0.211965392758181,0.00763287382946691,0.0145222540965299,0.383583853306256,-351.752327545825
"R2c.543",0.213270418816566,-0.00121187025998225,0.611608410795832,0.542183892086097,-408.113554743446
"R2c.544",0.216027288062601,-0.00116806123912041,0.702148201022752,0.485576757601437,-373.981786705087
"R2c.545",0.210090995772217,0.00403720456519071,0.14086557122631,0.534257960989165,-382.909024671631
"R2c.546",0.213073350797092,-0.00179013418981169,0.481116190916717,0.574230992397703,-405.010904204094
"R2c.547",0.211906651552628,0.00271058312451062,0.214515398329041,0.59321180464356,-400.429678317693
"R2c.548",0.216992161682199,-0.0046395861248634,0.0941052068778273,0.459564411514341,-366.818554032131
"R2c.549",0.215769740928667,-0.00335391607015551,0.213313954289107,0.578850020675672,-389.954652638049
"R2c.550",0.213408222536428,-0.00338656830230271,0.246998526489856,0.497533699126963,-374.11460584442
"R2c.551",0.21115121603182,0.00199118594320698,0.468334488210543,0.452607262621524,-385.51759137662
"R2c.552",0.209773285217664,0.00447273260261354,0.126150357824794,0.524338069276007,-375.524009906166
"R2c.553",0.212314285904392,0.000274657285573292,0.90846495161027,0.519202313710129,-384.025387147285
"R2c.554",0.212309399899966,-0.000229481356842284,0.943210149084911,0.491255656699209,-373.764346441864
"R2c.555",0.219816981776563,-0.0058278861465818,0.0189913168553758,0.565410723924231,-403.14882679948
"R2c.556",0.219243576530504,-0.00409744936738099,0.233692391422208,0.496089497386849,-343.351842414651
"R2c.557",0.218930552586113,-0.000561999780860958,0.85282848265377,0.427513528787774,-353.386970745274
"R2c.558",0.217519452869713,0.000924251832205885,0.746403717839448,0.402581283411972,-354.657882191368
"R2c.559",0.209426668726672,-0.000123032909512367,0.961621130148325,0.517362294759807,-378.340756362434
"R2c.560",0.219157157451502,-0.00537786840927982,0.0606066157481944,0.418045900188608,-354.978318816971
"R2c.561",0.215418630586126,-0.000135852548717564,0.962023496425602,0.481423270129186,-362.627371136935
"R2c.562",0.206768296762426,0.00271384807986151,0.290920587371311,0.565579231853679,-397.827611091295
"R2c.563",0.211109677511561,0.00211933950912106,0.482276737864808,0.478850123726124,-371.242319459326
"R2c.564",0.215262246741318,0.00141999653021978,0.579494395603314,0.535821394997746,-386.254947264821
"R2c.565",0.209245771930864,0.00283020344322052,0.34165641750876,0.442953630670921,-372.268152405932
"R2c.566",0.211296033423975,0.000460418258726321,0.853201506131612,0.560925725052866,-387.053095987149
"R2c.567",0.214172097201714,-0.000269364044418659,0.91828981456524,0.516102291550343,-378.3330550566
"R2c.568",0.215820527211737,-0.00288849974585193,0.272560714727037,0.514316933336582,-368.641319030992
"R2c.569",0.213293896806555,0.00121767795441653,0.641742376727887,0.540033184146134,-364.840732360632
"R2c.570",0.213680121488816,3.86518870782789e-05,0.98943369650372,0.439798156026486,-349.020977763513
"R2c.571",0.21035768510675,0.000980247829826313,0.697109768659467,0.574861677197759,-390.066696400843
"R2c.572",0.215098079297432,-0.00172903504872834,0.482994301062706,0.643652535867374,-406.463734469327
"R2c.573",0.21827478495242,-0.000636019373541536,0.786711165125887,0.492828359587304,-377.346496146963
"R2c.574",0.211357235413068,0.000520433950634513,0.846997486867258,0.422536471126792,-384.36335119241
"R2c.575",0.219362338736679,-0.00203990539967666,0.485115169082708,0.46665964219082,-379.098805806117
"R2c.576",0.215226812644779,-0.00300751854490309,0.274594924569997,0.491806463164642,-385.60516654833
"R2c.577",0.210473835970252,0.00108474088650712,0.70789875097315,0.513841270445501,-369.343174599555
"R2c.578",0.220585190628181,-0.00416670710954857,0.144664620321729,0.469421751046978,-369.31554269374
"R2c.579",0.214257632460272,0.000178348326599167,0.954351183377125,0.501398741434382,-354.1996597231
"R2c.580",0.217165249337754,-0.00237379124842015,0.421941724650896,0.465891748132291,-355.889124132087
"R2c.581",0.210017806843661,0.00186925302324292,0.43218091406675,0.575147617134333,-402.07362261008
"R2c.582",0.21573154224435,-0.00247468589403422,0.397318742087394,0.420896335923041,-350.066089621077
"R2c.583",0.214201507548663,0.000292327527512946,0.91178376275723,0.493075123120102,-348.118553991193
"R2c.584",0.209330234004854,0.00200473573328644,0.488233714963886,0.444827111616764,-372.239260245984
"R2c.585",0.212909413884968,-0.000794872965777056,0.772498209288169,0.502443261022546,-366.901769163418
"R2c.586",0.213892655226497,0.00183525192952615,0.562625646112253,0.471732039104207,-371.729516250015
"R2c.587",0.215502142748819,-0.0029967073710062,0.358577537540558,0.415978867565489,-357.300677658105
"R2c.588",0.215989984278517,0.000569259593162614,0.809622323543188,0.544096962164053,-382.303829538325
"R2c.589",0.219867298915134,-0.00613328126919635,0.0351223504048932,0.539066943195291,-371.160544201536
"R2c.590",0.217132632241785,-0.00269528946342443,0.370275896892191,0.424342626411219,-370.803591413988
"R2c.591",0.215421535604237,0.00248123856658129,0.377942409784801,0.488288144367859,-348.959117426407
"R2c.592",0.209072238682675,0.00436198456380885,0.144611511898599,0.523246956824826,-375.194469312434
"R2c.593",0.211108617865194,0.00472997268388662,0.0985528764321401,0.47928581249851,-372.646300422936
"R2c.594",0.203334239460864,0.00231827589528903,0.282590915111792,0.587093329159407,-406.691659751226
"R2c.595",0.213559360254896,0.00530980617289491,0.0362646306719506,0.498283211276181,-385.633215654336
"R2c.596",0.217026089546801,0.00157751784717413,0.569361652146301,0.53071781541494,-364.600970275074
"R2c.597",0.214510077665895,0.00230706790068889,0.401798576602798,0.337802835464282,-357.735771309988
"R2c.598",0.208336430365457,0.000285358514714307,0.9032454215908,0.53945572461437,-397.476489161547
"R2c.599",0.216913017750293,0.00113593535485397,0.66866641451138,0.488963901681078,-369.47155604693
"R2c.600",0.213927241072111,-0.00184561536648325,0.49470534324815,0.44354539218728,-389.43833562126
"R2c.601",0.212569387762721,-0.00192657457587166,0.454943797268708,0.41864840101997,-364.013170343972
"R2c.602",0.215272277131617,-0.00248800380050597,0.306230817647604,0.542078083637348,-390.000623345353
"R2c.603",0.211810927330697,0.00140386035275721,0.65897845394556,0.478260836980973,-358.009257652322
"R2c.604",0.208034377027898,0.00391061997944355,0.14144382757097,0.520032725813654,-377.419801588703
"R2c.605",0.221737038831791,-0.00408608524312257,0.166145786356968,0.540022749527952,-367.666210827863
"R2c.606",0.215242943257009,-0.00160835961407801,0.577001600017714,0.453873906699574,-358.970754162408
"R2c.607",0.208864096611945,0.00239860181812395,0.393318422968657,0.480128486006566,-366.915334155909
"R2c.608",0.207198428858378,0.00281461020779115,0.28043062355803,0.447022513772141,-369.506602038009
"R2c.609",0.214150761378143,0.000396393939276691,0.8837981557521,0.581030876259022,-377.820106365472
"R2c.610",0.214298913543092,0.0012801389900294,0.545532463852133,0.567112174265267,-412.937904839532
"R2c.611",0.214774950211092,-0.00329924892063726,0.20733598254228,0.553557476410118,-383.41488468999
"R2c.612",0.212567267544571,0.00153767553260564,0.524371794476453,0.505081274193717,-379.378642185579
"R2c.613",0.213217928695695,-0.0017999056939535,0.4915839461409,0.439645161311745,-371.882151663419
"R2c.614",0.211380119892345,0.0021872887523098,0.345252245818252,0.530484259656277,-396.892995045979
"R2c.615",0.209425066348191,8.46728741936077e-05,0.972782796449597,0.489468416953057,-366.180951965042
"R2c.616",0.215122142317991,-0.00138861892101144,0.58906218486398,0.567034343362349,-387.327332322789
"R2c.617",0.213362839487893,0.000692444789211153,0.761434021110479,0.52576641574866,-398.507644260758
"R2c.618",0.216287665647279,-0.00270780489390813,0.370674997209614,0.600967176515369,-374.566461506651
"R2c.619",0.21105066983532,0.000669159779524016,0.80396081448145,0.439301982281111,-372.369710065597
"R2c.620",0.213410985829375,0.000611979448008586,0.835855537575365,0.480418413368738,-364.392211187768
"R2c.621",0.21252093735377,-0.00210339424661366,0.331676233810476,0.57082125043118,-383.288026070344
"R2c.622",0.214104501930819,-0.00309804949113261,0.314039973046935,0.540520430856296,-372.126407121478
"R2c.623",0.207250925264835,0.00384355834246744,0.122714019940983,0.546532940491335,-382.343828506029
"R2c.624",0.211060952358865,0.00188411372235391,0.523875140177028,0.438105098128744,-354.077178993225
"R2c.625",0.218483623820745,-0.00617513292386577,0.0360075460373433,0.479724820369933,-374.408428850954
"R2c.626",0.213412594711703,0.00592939685226498,0.0412671496132175,0.499462671780953,-371.609272395942
"R2c.627",0.213947287768033,1.5231416847821e-06,0.999571179469066,0.403974747439294,-359.328122042687
"R2c.628",0.212144374582314,0.0012028285847208,0.641842577924861,0.561352590420395,-383.094546531987
"R2c.629",0.211751325070184,0.000604767437659862,0.822987744903684,0.493550444519879,-369.421732563994
"R2c.630",0.216460992866209,-0.0036062777749929,0.156876893155702,0.529239732215912,-395.058767865515
"R2c.631",0.217051058906896,-0.00235805967154637,0.389431742664857,0.471788161865525,-356.775358024839
"R2c.632",0.212530158275472,-0.00281653790258717,0.306736187486192,0.525622838792419,-366.407386351967
"R2c.633",0.220317292224121,-0.00527866367812633,0.0460976454442079,0.566655125945307,-385.263719899389
"R2c.634",0.213310126273447,-0.00102595262860921,0.68592085400593,0.488886683529011,-387.52335842081
"R2c.635",0.212154353543711,-0.000804811135760742,0.771671654886579,0.460334852961519,-377.3536573514
"R2c.636",0.21020909816958,0.0011731622127607,0.668224263870225,0.501032278684336,-365.331329827156
"R2c.637",0.209407610535173,0.00286149796670364,0.291294296163879,0.453723056708857,-372.985424613569
"R2c.638",0.213320002626764,2.33204000318882e-05,0.993259080465438,0.486474001690948,-364.282627932879
"R2c.639",0.214878943346587,-0.00112273455434678,0.663854240573391,0.574766923350906,-392.666373297691
"R2c.640",0.216862124269416,-0.00402609834630506,0.169573266731752,0.485946312373692,-386.648304604152
"R2c.641",0.218747090198189,-0.0033676640859453,0.200317211175064,0.511077965731026,-370.624107245986
"R2c.642",0.214505055936173,-0.000638351495766647,0.81543080718922,0.493877887255184,-379.458241314588
"R2c.643",0.21361003607436,-0.00223971464774018,0.40198010673226,0.478942682683523,-376.35565067081
"R2c.644",0.21640578649214,0.0022850409332843,0.369420350345067,0.577941221754275,-375.17550299188
"R2c.645",0.217923312181475,-0.00162843762524722,0.572908768657181,0.465828707666272,-367.280491773265
"R2c.646",0.219959707811892,-0.00585535924506988,0.0123831088853381,0.524895126513196,-378.29845172901
"R2c.647",0.213742822379933,-0.000558972502977791,0.834539908343346,0.5397648065273,-381.334633293645
"R2c.648",0.214507028610821,-0.00137223206106674,0.482721922912896,0.618301952164801,-408.25743120455
"R2c.649",0.214408697901454,0.00456606192361409,0.141254145566055,0.433991921060654,-352.984703193387
"R2c.650",0.213985636788766,-0.000385931035252051,0.892246968310634,0.512221241184721,-366.19095845055
"R2c.651",0.209231533715192,0.00137449405342112,0.57673767983614,0.584445951214956,-410.149558901564
"R2c.652",0.215375743319393,-0.00152786500284971,0.608757398624683,0.460124810974248,-361.376210369585
"R2c.653",0.210596196160711,0.000286657548381154,0.921362305305824,0.50594624705067,-370.828862545307
"R2c.654",0.21095935974309,-0.000410000800711771,0.868010339177309,0.518053976822082,-395.408098020823
"R2c.655",0.213953949378176,0.00256751953017556,0.365915286390639,0.466576446320849,-364.197570394155
"R2c.656",0.211998714590662,0.00031855639003775,0.900321629974889,0.421454933844283,-360.812333297476
"R2c.657",0.214657705510479,0.00338785999694371,0.131164417543551,0.623330027081505,-388.267561122551
"R2c.658",0.212683018363618,0.00340575580092592,0.200119889317748,0.552533821756666,-368.527178122039
"R2c.659",0.215027847144433,-0.00342784818733622,0.188993497048537,0.502607637263477,-381.356373510917
"R2c.660",0.212325363567557,-0.000904948521073106,0.73334889454432,0.545989434085803,-374.912538658734
"R2c.661",0.21621105356323,-0.000866636348773991,0.811167810250438,0.512693261746641,-364.351739826656
"R2c.662",0.217616701301908,-0.00206192687640414,0.451499335463852,0.420820990811273,-355.122806720964
"R2c.663",0.214861841867167,0.00036506173393887,0.902894304416504,0.520320871359823,-356.717362875593
"R2c.664",0.211255312585005,0.00330461205041177,0.206189264960177,0.517285245380888,-378.547714932133
"R2c.665",0.220707122132311,0.00101562556087271,0.727320969506063,0.543053408039397,-363.213249786635
"R2c.666",0.214116194240533,-0.00239973817473739,0.45435002899621,0.506301582637622,-358.179672170136
"R2c.667",0.216439667422206,-0.0010849949691853,0.726190216727896,0.494319451071435,-360.437765365041
"R2c.668",0.21059307288821,0.00201073289603331,0.482961999220046,0.618160297214689,-389.28153696042
"R2c.669",0.214370999276006,0.00269579771969421,0.359285300103762,0.4867683073959,-370.567581264211
"R2c.670",0.215093222100018,-0.00451197855156642,0.0868811234942981,0.471591631537537,-371.931200735632
"R2c.671",0.215500470550565,-0.00085197263561792,0.731300523437066,0.481010188229495,-373.515157912327
"R2c.672",0.209565764992983,0.00640271032466348,0.0220075120252102,0.442494904299443,-358.091815868608
"R2c.673",0.214885114771855,-0.000638163511317493,0.839522150061755,0.449220344431592,-349.319170311878
"R2c.674",0.213073104790273,-0.00316172051199019,0.285628022375699,0.410835521565054,-363.432003020407
"R2c.675",0.214290819591828,-0.000693168012649816,0.793101066846999,0.468966572374643,-370.682712818243
"R2c.676",0.213572109473052,0.00165974331736755,0.504377904956368,0.595179980328794,-373.409650076857
"R2c.677",0.210827615554467,0.00435364926123466,0.120687950823625,0.515504179218462,-374.270575629446
"R2c.678",0.210949169237281,0.00343303912254986,0.228982602026786,0.36014527784429,-358.813890347372
"R2c.679",0.217154559909557,0.00153852618698049,0.534818045122828,0.634376185489674,-384.983153183282
"R2c.680",0.210146578752468,-0.00510449842831805,0.0391872865002035,0.564118073438253,-392.45892566718
"R2c.681",0.208518599579967,0.00125321589488256,0.63544089710349,0.521082430177994,-357.855519245836
"R2c.682",0.212143395821569,-0.00157327246947065,0.576634382058166,0.497263972004962,-381.023411568852
"R2c.683",0.213374926549109,0.00261246633230248,0.34108849581149,0.462893448414806,-367.790961057252
"R2c.684",0.211654461196932,0.00195637687407915,0.439535322255975,0.513421830975444,-390.095945480066
"R2c.685",0.213369027212014,-0.00166188084819359,0.563928578272261,0.387391032578867,-348.160345928662
"R2c.686",0.211044921555535,0.000756667765512591,0.739671681459167,0.582998749745823,-406.601592406478
"R2c.687",0.210287422283279,-0.00155065549014341,0.592015581782085,0.440510580090118,-371.024065074287
"R2c.688",0.212089331017196,0.00309120522583343,0.247623461659493,0.527569132734061,-375.19001667028
"R2c.689",0.219682895916441,-0.00639416789365133,0.0270604530965933,0.462375557511698,-376.882103310773
"R2c.690",0.219371231445004,-0.00308179125459672,0.255533195127776,0.488891644672452,-375.069273625002
"R2c.691",0.204755576946125,0.00376124921683402,0.201178479518659,0.479195283317844,-361.954368333704
"R2c.692",0.210727829371993,0.00049727215671455,0.836763230971556,0.474403340780994,-388.599140030162
"R2c.693",0.212152231719389,0.0018194556576784,0.451243629583844,0.438034324146377,-377.666262505979
"R2c.694",0.217874155883553,0.00152438366421729,0.578066991474419,0.516212651273915,-373.901609319284
"R2c.695",0.211924629554545,0.000544121632340381,0.818345096963895,0.547899185597779,-376.540170146765
"R2c.696",0.214371739149336,0.000943144015421041,0.753573359327501,0.351494446267864,-348.850795174621
"R2c.697",0.210238770399062,0.000216178859012873,0.927076043974842,0.558436884512104,-391.621324732702
"R2c.698",0.207033768097256,0.00058438167143117,0.811602884130961,0.457548364271852,-376.427573013214
"R2c.699",0.214794889397089,-0.00212780915408036,0.41659826827555,0.499338816039413,-370.314802682431
"R2c.700",0.204111499774535,0.00605465704488166,0.024854925284457,0.507813725571126,-394.533589132685
"R2c.701",0.212468973570538,0.000923965535769593,0.728642610193828,0.506790196367269,-364.051297391053
"R2c.702",0.208559911519417,0.000395708828752379,0.864778229658009,0.435383105877238,-385.901197668027
"R2c.703",0.214756024785042,0.00296089293604688,0.319237654880657,0.479395420335866,-367.04223678798
"R2c.704",0.213653035151471,0.00107943622951303,0.678929369178734,0.524143296030353,-381.531729182465
"R2c.705",0.208535086561967,0.000661083298891785,0.789583087869376,0.597701607855245,-395.35070024297
"R2c.706",0.214902457493058,-0.0014281108678816,0.561410365315909,0.522016566993375,-402.346616797351
"R2c.707",0.213960670548441,0.00372869980109214,0.196988492454975,0.412246147727837,-362.730535231627
"R2c.708",0.212351597036435,-0.00284610898737058,0.259454068166848,0.587900083328993,-392.777111844088
"R2c.709",0.214747400747006,0.00104828766131804,0.684794762190558,0.486100204855716,-380.446742034233
"R2c.710",0.212639055512355,-0.00168420672782558,0.567022803423808,0.4079601547845,-342.622610427212
"R2c.711",0.211303826531508,-0.000877563758734426,0.704197462795444,0.454267419375899,-390.799285497027
"R2c.712",0.215167144561483,0.000359659975413076,0.884281913883567,0.447762789535806,-370.039074958019
"R2c.713",0.210016641750383,-0.000965639761711099,0.693329034616239,0.545923813878824,-390.926790568073
"R2c.714",0.218522062154131,-0.00423824794750166,0.0619548857578197,0.537227188778711,-399.65967887734
"R2c.715",0.213118379575479,-0.000452061801064841,0.864970883852086,0.506481253143754,-368.74095760452
"R2c.716",0.217798431762314,-0.00116355192147019,0.631296048713719,0.506032380109672,-378.9825677923
"R2c.717",0.219806417766764,5.29475306715385e-06,0.998390875721802,0.583302173148132,-368.571029830106
"R2c.718",0.207373057552155,0.00397467510768408,0.166326695972344,0.480096347634618,-387.585516928685
"R2c.719",0.207569434754637,0.00437195885633659,0.0483811723580888,0.601936108388221,-409.521005637459
"R2c.720",0.21093034662981,0.00340678700951953,0.236555403756446,0.462856975942222,-366.0354557303
"R2c.721",0.212914285047724,0.00531390162627495,0.075224748557888,0.445833603151493,-372.01981993808
"R2c.722",0.213166638660059,0.00184885997476746,0.553137146306114,0.432986914622541,-352.058530173517
"R2c.723",0.21723264548337,-0.00310040666428176,0.24326016278285,0.574499468909436,-376.993509415912
"R2c.724",0.213208715633739,-0.00189595170237961,0.474318846915943,0.49983718800334,-373.57319996356
"R2c.725",0.214115758696334,0.00288685026783178,0.287888792559626,0.490712025602994,-373.123771971071
"R2c.726",0.212866879399243,-0.000230671239066672,0.937397590908111,0.535904258859648,-363.452278760054
"R2c.727",0.213276112826844,0.000734987378674778,0.743340833311125,0.512094907209531,-386.284802340907
"R2c.728",0.209204494006131,-0.00063373645063144,0.787374533630595,0.471655197875153,-393.490518057344
"R2c.729",0.21610431097221,0.000946594583605872,0.682723812766881,0.517667301086635,-393.805781406752
"R2c.730",0.214867335989206,0.00088896726661534,0.72151791889906,0.551727244781052,-383.039085906214
"R2c.731",0.213597261936637,0.00024007925891719,0.919459398995036,0.55223394091801,-403.839102461233
"R2c.732",0.210737113671974,0.00253821548924982,0.316442755879819,0.501938251720523,-395.459216886655
"R2c.733",0.218104610449596,-0.00529510867946993,0.0593280229326861,0.475695944880199,-372.811261582505
"R2c.734",0.214566147659332,-0.00286609487159499,0.327919696783186,0.461801572222551,-370.107701236334
"R2c.735",0.218479312205424,-0.00151211351435379,0.601376571376046,0.477562102978437,-363.932626188855
"R2c.736",0.213270703846884,0.000672320397498985,0.779329546533556,0.495046837318558,-399.805628390167
"R2c.737",0.211374299426287,0.00158093643536397,0.587572002219543,0.561292176277565,-386.517879697414
"R2c.738",0.213188263827669,-0.00195068711142159,0.468798726303126,0.460874697374996,-368.980411811064
"R2c.739",0.210463127351697,-0.00257646558217034,0.288166689048461,0.650611148496284,-404.651922911308
"R2c.740",0.21292686695393,0.00181016526552586,0.516220417461019,0.5416634950931,-370.981377061392
"R2c.741",0.211665854835204,0.00155715823963986,0.584856405582262,0.440171541389882,-373.069638058561
"R2c.742",0.21420696005577,-0.00251366973830434,0.357551893655297,0.491718380428241,-374.398609205068
"R2c.743",0.212517074242344,-0.00183953953665928,0.482160363030244,0.560433727841153,-386.619390908957
"R2c.744",0.212686884505465,-0.00222154641219628,0.389391391136829,0.540617111282594,-374.502525733394
"R2c.745",0.210541651006626,0.00163491252619982,0.528417747173243,0.497249686967628,-377.680670317685
"R2c.746",0.215273416934955,-0.00266806989209023,0.297364881651749,0.502597776200221,-373.691313774449
"R2c.747",0.219054178219347,-0.00180146891927896,0.500711587190607,0.534729588727472,-382.472662670731
"R2c.748",0.217084297102236,0.00195759135932047,0.451070539152442,0.546758757721564,-380.428085946462
"R2c.749",0.21561943568334,-7.48451204346152e-05,0.977107602912157,0.421820169559396,-366.71232907689
"R2c.750",0.213277021718872,-0.00155181049685304,0.583598595367498,0.479735086037959,-365.585742727048
"R2c.751",0.217149664068516,-0.00143804791724695,0.577659549974279,0.548059821358385,-378.042910372347
"R2c.752",0.22137380251188,-0.00447966595925552,0.147459111569442,0.460871153458957,-358.737993749433
"R2c.753",0.207915482530086,0.00394033597432147,0.145516189425226,0.558164624070732,-381.147325835084
"R2c.754",0.210919178666542,0.0038710006602441,0.154278755494544,0.462704637461483,-362.691311177202
"R2c.755",0.207040052055683,-0.000654086603717479,0.816765618993225,0.545353612784593,-387.74970046463
"R2c.756",0.213955419354257,0.000618264732545193,0.812740600421361,0.464814363603165,-370.427434580348
"R2c.757",0.220134199411877,-0.00241063838414166,0.45849238442716,0.45499726864347,-351.709695696994
"R2c.758",0.219010011864563,-0.00435104869440315,0.102692380324735,0.563830137767321,-380.566149874963
"R2c.759",0.215952428030056,-0.0010754148836689,0.687865886056892,0.473800265109495,-362.029279559019
"R2c.760",0.212061300411282,-0.000661848224757524,0.781435856951681,0.526002555507579,-382.28622120416
"R2c.761",0.212149585161695,-0.00146699259127344,0.581684006751814,0.471589114291403,-373.012597749059
"R2c.762",0.212297873947291,-0.000984319432544183,0.715735768016994,0.516219458347718,-401.478405799086
"R2c.763",0.211816648138065,-0.000865966882333584,0.738586301765868,0.460437788427487,-380.046431146281
"R2c.764",0.215557395232587,-0.00193327755707711,0.473905500313395,0.561525135704217,-372.377147338478
"R2c.765",0.214769876684376,-0.00388160704553542,0.14204034090754,0.595642751437733,-392.034848215966
"R2c.766",0.212468586120003,0.00381819117151734,0.150126744102527,0.509284892679627,-392.236553147459
"R2c.767",0.21309903131249,0.000108159266022146,0.968967546822892,0.592529838386254,-379.475067274413
"R2c.768",0.219299078968015,-0.000130296403931237,0.964403168869204,0.484593323364418,-374.984322457398
"R2c.769",0.21684821491942,0.000124218085327309,0.966918114619366,0.45200031248538,-337.494555082456
"R2c.770",0.216099572473456,-0.00347078942700806,0.259715713682414,0.441807674385111,-360.441503520108
"R2c.771",0.212253887617644,-0.000237557503918061,0.927446391327856,0.541957062567909,-390.46055793365
"R2c.772",0.213998111414649,-0.00354665782025334,0.238785613821287,0.506952341718064,-370.90960610006
"R2c.773",0.207591367850628,0.0037306322900375,0.185832207090324,0.501523196201416,-385.391222843461
"R2c.774",0.212596423648629,-7.64610144850145e-05,0.980273685827397,0.449005664309119,-362.589859303758
"R2c.775",0.213378854979334,0.00118291758078675,0.639384957807636,0.549334505233572,-394.557073258339
"R2c.776",0.210442961137753,0.000328561889392234,0.916367668839839,0.49215148550133,-369.832048157164
"R2c.777",0.212793910252294,-0.000158479534032875,0.948616590193444,0.54725218625294,-369.459038316636
"R2c.778",0.218175662350607,-0.00463812281964524,0.063333207111396,0.574026104123586,-383.195326108233
"R2c.779",0.215301507611491,-0.000759545127290874,0.763225604559892,0.525935772428487,-375.341517061379
"R2c.780",0.213615983826087,0.000376009324401603,0.878232901252911,0.549844995710149,-392.220489469979
"R2c.781",0.21317747105675,-0.00192913507140219,0.508452086193818,0.424638264258233,-368.75811301591
"R2c.782",0.217845992746691,-0.00260763735637333,0.312034946790054,0.5253740308401,-386.344715254248
"R2c.783",0.209049353340408,-0.00154099293366874,0.55043675943966,0.495152108231227,-385.63481476675
"R2c.784",0.215805785943421,-0.0030159761150925,0.215406742312431,0.549878723389881,-383.297114401951
"R2c.785",0.210402375932969,0.00156868519712301,0.485541823081213,0.517896578343194,-385.576773069746
"R2c.786",0.217651338003075,0.00248180419458872,0.413308008716905,0.509709305991917,-353.561504913331
"R2c.787",0.207751021698179,0.0043582865602763,0.111493819122783,0.487911870516175,-392.291796391587
"R2c.788",0.221036077911626,-0.00130204037518722,0.665802930991058,0.422698304194728,-359.788339558217
"R2c.789",0.21017073070982,-0.000264737536788323,0.925347879239238,0.500186372174344,-379.03510580559
"R2c.790",0.21598944896797,-0.00104165824766375,0.665732732300611,0.562982007637704,-394.650376192069
"R2c.791",0.207844340205304,-0.00478844560841426,0.0437887287393445,0.56657640941464,-399.234086933742
"R2c.792",0.213848366870172,-0.00180414570100993,0.492047086762459,0.472991574738025,-384.254848935196
"R2c.793",0.212311067336048,3.02802678516246e-05,0.991711687562379,0.582813528866779,-381.041613694066
"R2c.794",0.21394152191526,-0.00113798461129952,0.652093015194435,0.489406615442312,-371.748408048184
"R2c.795",0.21139797797711,0.0033903830988711,0.219622466084914,0.475629603684857,-371.767156445092
"R2c.796",0.213248071611406,-0.00276018993901443,0.338578301722732,0.447680603980282,-360.38145310151
"R2c.797",0.206351989594035,0.00930949362961354,0.000369558918684715,0.586408495943694,-390.486408279614
"R2c.798",0.213433463302097,0.00128816894800813,0.65660118430678,0.444923596820551,-358.574797728282
"R2c.799",0.210609954859377,0.00121566170659071,0.681030308836914,0.394666283792298,-351.070927391714
"R2c.800",0.214969829177563,-0.0027575104880825,0.421726754445503,0.40886652431548,-342.910924499654
"R2c.801",0.209513300276883,0.00475929823901239,0.0834773158483448,0.547804779103683,-370.571746779678
"R2c.802",0.221339076788887,0.000116609095942806,0.963783428435043,0.516245195860956,-370.053215343605
"R2c.803",0.216223999693609,-0.00225444318688417,0.401702877817707,0.548489165553003,-378.859773534324
"R2c.804",0.208808407751707,0.0030596489811055,0.267451240576478,0.553970451226917,-394.572921811811
"R2c.805",0.212939337490087,-0.000904509135485937,0.73935713625321,0.45515496272114,-374.907844475123
"R2c.806",0.214514021768747,0.000583647237178955,0.841370111257932,0.495308775420627,-346.294524391658
"R2c.807",0.215529872516735,0.00221653438038221,0.331026619714709,0.5580642356681,-385.934383046339
"R2c.808",0.209387094534937,0.00270373567087365,0.184241720936216,0.63790424582786,-414.121229058892
"R2c.809",0.212301265114217,-8.15147492209599e-05,0.976634003147737,0.508552750435576,-374.368642332255
"R2c.810",0.206190192345208,0.00017349704920915,0.953468007201203,0.463375908859619,-366.059252918846
"R2c.811",0.212362493266984,-0.00145745568740328,0.595892675219868,0.404750955294615,-368.309315145605
"R2c.812",0.210062852667775,-0.00158212841118187,0.577410128848115,0.507320915629346,-369.133887735083
"R2c.813",0.217377799589309,-0.00247531345846687,0.413277295777519,0.432694578680529,-372.790548709749
"R2c.814",0.216464982484582,-0.00541588547102734,0.0779538657868591,0.528156165504985,-371.749059833148
"R2c.815",0.213505784581716,-0.000982579322928062,0.715529335499389,0.555528551418004,-393.342483283285
"R2c.816",0.21519836682763,0.00342601376869103,0.227091238131547,0.463681771661574,-361.463938675524
"R2c.817",0.219708496838955,-0.00164649650933008,0.552866004464458,0.568527222682647,-395.291110664281
"R2c.818",0.210285942456449,0.00465132239700117,0.0743249882398962,0.528124643328209,-382.161169251449
"R2c.819",0.21058933642845,0.00170586137787787,0.535574133982534,0.452255618402452,-380.841193155988
"R2c.820",0.211475205703684,0.000627066702570244,0.810239618359981,0.47244727247362,-377.470257784837
"R2c.821",0.212163197296257,0.0039824124386927,0.131354320988779,0.517453074993079,-375.505180452194
"R2c.822",0.206765327538826,0.00297267300921434,0.226627066904707,0.555759647634368,-374.648368755791
"R2c.823",0.21094663524815,0.00790341033332323,0.011105175352497,0.448978986542571,-341.036001804284
"R2c.824",0.211183032931525,0.00231761533403809,0.439581550180064,0.48738034051705,-362.197851945654
"R2c.825",0.215712220383866,0.00197025954763812,0.409915232681279,0.53493999552081,-398.080682768768
"R2c.826",0.215501004434433,-0.00163482272324554,0.526174883801174,0.398136090465087,-370.525953048387
"R2c.827",0.211157715035216,0.00147996833214512,0.492969994513209,0.539636061518634,-401.146698686959
"R2c.828",0.209995292782178,0.00115741723526285,0.738663850540426,0.394666693989815,-353.867322003552
"R2c.829",0.215614274266997,0.00191070427397028,0.509021310801709,0.419064400349241,-366.564711216645
"R2c.830",0.21106312034832,-0.00109832286532157,0.675145186744998,0.541440567817238,-386.668473029924
"R2c.831",0.214662435329469,-0.00474377287179148,0.0688618576228577,0.578587311359991,-389.978771650581
"R2c.832",0.213195927872159,0.00110845902650529,0.70790191750092,0.451447731403241,-363.664753386751
"R2c.833",0.21265430006513,0.0013533825985796,0.597118624269384,0.575980905197961,-377.875896883544
"R2c.834",0.212675934315233,0.00125735165648136,0.600767034024376,0.615877434403898,-399.128662945211
"R2c.835",0.211375440399703,-0.00133840481091677,0.594635741116295,0.495428500258437,-396.849172344797
"R2c.836",0.212461687659509,0.00139805956381701,0.681210592804063,0.465807247652672,-359.406014843744
"R2c.837",0.209057904096869,0.00349870034502422,0.167090543415113,0.420187857199199,-379.381639634134
"R2c.838",0.211451692422946,0.00225796224823455,0.422422903006332,0.453635247531744,-371.648385348631
"R2c.839",0.212664843049848,0.00169033133199165,0.54043013249918,0.499620563266658,-379.48195256211
"R2c.840",0.216118053280491,-0.000232121669647533,0.934225738669606,0.490114699165508,-360.532499774635
"R2c.841",0.218106585875262,-0.00220969564592124,0.446354789702224,0.515014772691743,-367.686645243652
"R2c.842",0.209574822018159,0.00104559580269167,0.718824420971993,0.465611692140452,-365.017681751832
"R2c.843",0.216094237137808,-0.0026695277045,0.366121219867497,0.44391101125207,-356.396552094344
"R2c.844",0.21288613459969,-0.00122017118097121,0.592582805402161,0.4589694574998,-382.154682430586
"R2c.845",0.215405916728913,-0.00376640404765054,0.1761095703191,0.429101463576664,-377.505223778082
"R2c.846",0.21627768483876,0.000116965905002301,0.967274176889543,0.452128371295207,-352.747710546467
"R2c.847",0.210649257596442,0.00104214861251071,0.680208595057224,0.470379074188023,-391.899532386466
"R2c.848",0.211796290460289,0.000243342681619742,0.93048152569025,0.530762179107228,-379.348490062068
"R2c.849",0.209851580866573,0.00402406735871524,0.154045255985725,0.531112552756397,-364.570321681118
"R2c.850",0.210862555648528,0.00021685617612152,0.928240733895858,0.49906376791504,-393.994580664216
"R2c.851",0.209594592868738,0.00107929733519177,0.675100657205259,0.557201462143512,-395.181614543343
"R2c.852",0.213829786174798,0.00616241816401958,0.00769402342701751,0.479539455219805,-381.245082401545
"R2c.853",0.212067629657716,-0.00591497286091921,0.0237117192607081,0.55417261846347,-384.84781269396
"R2c.854",0.21796905585396,-0.00249393624849556,0.412914667399508,0.540317730815119,-382.246967562444
"R2c.855",0.21415826168251,-0.00041961882748203,0.870278804544544,0.453759996440697,-364.586552399697
"R2c.856",0.213316630503536,0.000461881953565777,0.871708200977602,0.40671090957405,-372.519630131825
"R2c.857",0.212275759450947,-0.000401420192990339,0.889820482847785,0.52190823081614,-382.845636619857
"R2c.858",0.217263340803731,-0.00334097073640997,0.220967436163065,0.571026859102518,-371.208363744354
"R2c.859",0.216656814715411,-0.00131125246748175,0.55674045960668,0.472962322826839,-377.724251618677
"R2c.860",0.20782391072596,0.00233153539936011,0.363749998713956,0.457119107358831,-384.875527932935
"R2c.861",0.213719243689531,-0.00321350503641577,0.16794605324034,0.507912740433234,-381.462794859699
"R2c.862",0.212492560455711,-0.000174759559034502,0.939637416163722,0.535543596011431,-406.912411664709
"R2c.863",0.207260915287122,0.00385566973195642,0.0718953055009958,0.593398070359491,-408.329537481625
"R2c.864",0.212526983495458,0.00551616427732635,0.0628972296465597,0.438881252275268,-356.328791272559
"R2c.865",0.210303382719687,0.00204376704056603,0.452579979351961,0.548672245484483,-372.485151348491
"R2c.866",0.207673125441535,-8.03332135790575e-05,0.976821364271416,0.481346991688075,-382.941896792633
"R2c.867",0.213803574738942,0.00067692741938958,0.790850680974455,0.479235707062744,-378.017904128624
"R2c.868",0.211400406143496,0.00231896401574672,0.419066140675401,0.438759246358597,-370.364317225481
"R2c.869",0.216180778493994,-0.0031787897118921,0.308778549353667,0.441932397030436,-347.0817311459
"R2c.870",0.216506090082568,0.00110256997770007,0.697338917916469,0.502501429928487,-372.883712280835
"R2c.871",0.216626596536881,-0.00316850854182945,0.268268459966012,0.520131335781406,-361.804291475651
"R2c.872",0.210076571382562,-0.00262124091495256,0.326124203359533,0.517697277865873,-369.327692131233
"R2c.873",0.217016588883283,-0.00229727816770035,0.419906197625144,0.480040700132617,-364.031387592362
"R2c.874",0.21067885568305,-0.000977192943588768,0.729719093069319,0.490244422764032,-374.419142248283
"R2c.875",0.21566901613441,0.000173840832653486,0.94371493402876,0.502149249169609,-379.866379086558
"R2c.876",0.212466925917395,0.00171057893944939,0.515839522118643,0.537002787936424,-369.463235933245
"R2c.877",0.214287570573257,0.000689248014267363,0.77868294847207,0.49196737820391,-383.031536433883
"R2c.878",0.214299085337603,-0.000763503258822761,0.811011520954724,0.379735171094681,-351.741940129446
"R2c.879",0.21090754574745,0.000702784031860169,0.770921663195875,0.50093442451082,-400.574976575869
"R2c.880",0.211282585371328,-0.000839431361983067,0.756799875061174,0.471768323591207,-385.999050216239
"R2c.881",0.214597348150303,-0.00485110127692899,0.0712207390261553,0.519584220818919,-391.314387777933
"R2c.882",0.21624754768115,-0.00135837725651812,0.658738754116759,0.46506810483834,-365.889750371981
"R2c.883",0.210820590414252,0.000191585263222694,0.93936913806866,0.437593683861015,-385.602738980303
"R2c.884",0.213560717732414,0.00348303536393973,0.216357939878074,0.479383305698106,-369.100335746263
"R2c.885",0.213251034125955,0.000146449299121762,0.955308213806782,0.582643082601791,-370.516778369429
"R2c.886",0.214485134891224,-4.06947358454432e-05,0.988599613105072,0.567637638243876,-384.584293736264
"R2c.887",0.218401351345935,0.000330808712882566,0.907941435177817,0.472934925164182,-346.171344194182
"R2c.888",0.212975386355034,0.000966724593027779,0.686425634170728,0.490451007865165,-398.074235666946
"R2c.889",0.218389069811858,-0.00371255702523703,0.200765568141416,0.514169626074149,-361.895697650999
"R2c.890",0.214260976401459,-9.57394814998133e-05,0.968156264268529,0.521349197359167,-377.757848882608
"R2c.891",0.211633973625964,0.00153205043594825,0.554097081749738,0.524898383572664,-377.567857417028
"R2c.892",0.212920219109122,0.000454918288431507,0.874088881974773,0.452332035809133,-372.055567007557
"R2c.893",0.221513820789917,-0.0053346321225465,0.0473903168736368,0.526943510582366,-365.329879187275
"R2c.894",0.214950938974087,-0.000411107189514545,0.883381766728673,0.544676389749261,-376.434866057587
"R2c.895",0.217312234920591,0.000100665458722804,0.970848855722639,0.501985374240164,-369.222825857542
"R2c.896",0.2160216028498,0.00208975645208105,0.444224279432002,0.495826191416885,-373.409026930145
"R2c.897",0.213128865437245,-0.000963471356676882,0.714014332156747,0.500805440732491,-375.205874503668
"R2c.898",0.216374741019344,0.000267575156332889,0.926618790879125,0.509583529827581,-366.268544549731
"R2c.899",0.213149766053679,-0.00133039143400586,0.580054784123695,0.617084882070351,-420.802604805249
"R2c.900",0.208931107357848,-0.00213279322255888,0.377284225890995,0.476911142096982,-376.380216633627
"R2c.901",0.215532324180589,0.000549325252147462,0.809256836453559,0.550373473649157,-390.460560517222
"R2c.902",0.213174973169815,0.00266741378062552,0.396937447482426,0.524503515469958,-368.517803574374
"R2c.903",0.211589342942093,0.00217857253280897,0.46082461679075,0.377694459609854,-359.395864346887
"R2c.904",0.216019485162452,0.000884678966421551,0.74461413337161,0.525771505531802,-371.641007098138
"R2c.905",0.213703155690949,-0.00337620655479217,0.256103403261434,0.345977362433428,-357.637557258311
"R2c.906",0.216203597850698,-0.000718269810774701,0.804391117790342,0.47145862704563,-379.091963470468
"R2c.907",0.212424033855159,0.00108451352554686,0.655097410229018,0.596824237029354,-396.649105741116
"R2c.908",0.208391740782152,0.000302460697091324,0.921030672182009,0.440410183382845,-363.42064792384
"R2c.909",0.209377769900327,0.00214715100537633,0.438931692081765,0.47666727403249,-390.108675669297
"R2c.910",0.211854678947128,0.00117028495598218,0.649483081843297,0.499858851790719,-386.153148119266
"R2c.911",0.214416435141968,-0.000851402482776455,0.754960458603158,0.459423400715006,-373.830433656561
"R2c.912",0.211210224585811,-0.000853788475645361,0.773265218105758,0.509981787309481,-368.910662409168
"R2c.913",0.215397471120189,0.00219208102516055,0.439427000560921,0.424124452501865,-360.991750124436
"R2c.914",0.212422063432579,0.00264463252596899,0.324466212012769,0.470761677752612,-377.070261173188
"R2c.915",0.212008747750066,0.00317901279248216,0.266583210973441,0.457888181808515,-376.113857958131
"R2c.916",0.215647255777409,9.19271337047187e-05,0.969264926841656,0.596839589232087,-390.987137441675
"R2c.917",0.209338385841706,0.00115785253308667,0.635853901344465,0.557956481592321,-381.145951773072
"R2c.918",0.214372717482121,-0.000779525750462092,0.764510667896954,0.521484134968217,-376.682045548618
"R2c.919",0.217379703164647,-0.000736814524511927,0.76325965571922,0.55853190862601,-380.595431703252
"R2c.920",0.210583896895577,7.83391459467555e-05,0.977109947654415,0.499753115583961,-381.682264975425
"R2c.921",0.214769551016181,0.000608980385376817,0.799005207400109,0.580167545916706,-394.116738582173
"R2c.922",0.21503645422766,0.00256900529526197,0.442088119867429,0.468104199774596,-348.673311077299
"R2c.923",0.208665520667959,-0.00164371587506565,0.528876732350171,0.542688031641618,-398.253064718368
"R2c.924",0.210767649158311,0.00044677805308142,0.86347280307237,0.48142359299648,-370.152225670749
"R2c.925",0.211498492789917,-0.000555597041136324,0.843313029850039,0.431727554106939,-366.812562091202
"R2c.926",0.211973647164323,0.00206943656084671,0.436189231667041,0.494767416337944,-377.266998999223
"R2c.927",0.209778452225277,0.00348405813886017,0.171918248016017,0.579287736107899,-395.523749152895
"R2c.928",0.209167504955496,0.0060740705856998,0.0147856909498767,0.617421180632013,-399.35741808763
"R2c.929",0.213638520802712,-0.00265514421487707,0.260783336674904,0.519865141405329,-395.584880980067
"R2c.930",0.212828179151978,0.000686130475349415,0.768867010552103,0.508287197165593,-380.500232484535
"R2c.931",0.212193738870737,0.000151114451075051,0.950333189675928,0.523518717812974,-393.031728028929
"R2c.932",0.219312071306979,-0.00409962939335269,0.135881478730079,0.495802973288591,-369.311345882786
"R2c.933",0.21419167561319,-0.00263730196362362,0.326987263833853,0.498735396209001,-380.067815742635
"R2c.934",0.211859001460204,-0.000318384792991187,0.929958916420047,0.432236343648261,-345.634294699657
"R2c.935",0.212888344149706,-0.000788822722188691,0.788109796629142,0.464322387675858,-374.980089531975
"R2c.936",0.21015576983741,0.000172728674316468,0.950500491906059,0.484136345656513,-377.515447836477
"R2c.937",0.215803628017037,0.00153377207911279,0.525455408000788,0.611351537226144,-376.009735474106
"R2c.938",0.211922375656418,0.000657811571626744,0.811746328192822,0.472227097588762,-375.015991383677
"R2c.939",0.215082707199704,-0.00541779797064566,0.0607900296449138,0.522287201851445,-391.543777470513
"R2c.940",0.215384842796158,-0.00258792850255452,0.340353332817044,0.515404960290695,-391.64517321934
"R2c.941",0.21523331328585,-0.00234404039696404,0.384809534148117,0.508031253960182,-385.635938781851
"R2c.942",0.211920311077769,0.00306858806368486,0.183604591404526,0.527850072052681,-389.011264474004
"R2c.943",0.210594574647587,-0.00504354920184366,0.0517013088650021,0.505705194189615,-389.580916808832
"R2c.944",0.213650801680811,-0.00034741634863808,0.896389917666215,0.493878073847109,-377.064846509955
"R2c.945",0.216443712211949,0.00067522255855396,0.82304006195389,0.551307174227373,-364.957283199923
"R2c.946",0.21432138226997,-0.00353725216483462,0.206860910017033,0.554374794149128,-387.521912580667
"R2c.947",0.217155965749549,-0.00475364206998651,0.0833393449043417,0.449841199772546,-369.664478558735
"R2c.948",0.216552442376811,-0.00334791615145735,0.153434753525059,0.508184049510147,-400.593968412714
"R2c.949",0.209542953820133,0.00148358496240423,0.540519361826823,0.529985400103696,-407.278043012385
"R2c.950",0.219975960324458,-0.000146757436999198,0.958691156150945,0.424337220876794,-354.848537427151
"R2c.951",0.217880577062488,-0.001420898884783,0.56149663951435,0.524535686646601,-396.812802399691
"R2c.952",0.213829224724982,-0.00153829581959134,0.609937928877457,0.542767793110214,-377.864534653924
"R2c.953",0.213190515844571,-0.00139692554247168,0.681548431589387,0.510787575305093,-356.056094990139
"R2c.954",0.212085283949405,0.000322633488287491,0.887034590768505,0.613034514312915,-410.465212748107
"R2c.955",0.213226178003342,-0.000892509306209816,0.718930828945954,0.508844685402021,-390.970396575453
"R2c.956",0.213056183511488,0.000163295421022126,0.944889207546841,0.565018994419147,-400.58535491276
"R2c.957",0.215039839797148,0.000450643945977438,0.885321131713218,0.492336996177429,-354.371847411611
"R2c.958",0.21537822565493,0.000578334909485825,0.838798018517418,0.534070228207463,-382.322870641506
"R2c.959",0.209479397535924,0.00173847937212407,0.561544522171635,0.444097052188352,-363.483437291783
"R2c.960",0.21150839255436,0.00176588447400595,0.583754615367903,0.422351300343758,-345.239614046347
"R2c.961",0.214091466469765,0.00215573148778045,0.474081917485928,0.446385827548812,-344.976197224561
"R2c.962",0.217447906508835,-0.00102537873587548,0.727834773511276,0.547485008630847,-353.698990015303
"R2c.963",0.219289526688169,-0.00259742712410866,0.317481313532916,0.393170973062127,-366.177060929382
"R2c.964",0.218621399875195,-0.000588402669692705,0.84396113134309,0.517332617653733,-374.949012284805
"R2c.965",0.214086413220135,-0.00120275922377047,0.655707358858761,0.489215233058625,-381.765927365712
"R2c.966",0.215969025685086,-0.00314262771018729,0.219991575681859,0.456841669324195,-371.285569256621
"R2c.967",0.219016995512344,-0.00162690566587726,0.578252970539425,0.453559978819076,-342.496446087348
"R2c.968",0.21454011956202,0.000417969999887023,0.88658403883113,0.458712263404399,-362.545774783388
"R2c.969",0.214465681163207,0.000528043342144599,0.847531869190719,0.409395446058613,-353.96170218833
"R2c.970",0.210458197995094,0.00226280565814281,0.382999060746826,0.41982974067244,-369.399986094256
"R2c.971",0.216142328440329,-0.00022666983443302,0.934436398815654,0.488027959514613,-373.502072587552
"R2c.972",0.213746452537999,-0.00097589112217643,0.727928106861791,0.514949723979939,-375.636388911329
"R2c.973",0.209942718745323,0.00218380194742666,0.415332091570025,0.527041046403413,-377.249930221652
"R2c.974",0.215987339058521,0.000965031029507841,0.730476762997545,0.5314143496215,-375.33874191732
"R2c.975",0.215110373779543,-0.000595026859784131,0.828382097160487,0.564383719934329,-382.646974154528
"R2c.976",0.214027933555307,0.00328811728407172,0.293381194731922,0.54775269775369,-355.976588680923
"R2c.977",0.215259177879574,-0.00199769417095738,0.438558542309562,0.435281589882788,-370.542184206699
