"","intercept_mod","scal_mod","p_mod","r_sq_con","aic_mod"
"R2c.1",0.214401783995706,0.00378601486350477,1.36565953902506,0.580169048313268,-373.101636146792
"R2c.2",0.209759205969818,0.00379538058971379,0.339876040896807,0.591966645804655,-382.772632845906
"R2c.3",0.215830736846581,6.05871716610985e-05,0.0224926272060328,0.537244279120679,-399.82137867833
"R2c.4",0.218718050792604,-0.00991324739819818,-2.1508669773926,0.505088521419496,-367.679222568015
"R2c.5",0.219258236687196,-0.00956107578200393,-0.823468841627526,0.425593708295906,-384.272905677191
"R2c.6",0.207861131437346,0.000105941471088416,0.021936754142593,0.564729667225206,-394.814652012611
"R2c.7",0.212505106700952,0.000523475744520569,0.152612056939099,0.505928051773825,-371.62128210521
"R2c.8",0.217950175591562,-0.0095214776100962,-0.946931966564036,0.444331646785827,-381.938626709226
"R2c.9",0.217611254415276,-0.00722574694716299,-0.882341419980273,0.437877814165376,-357.14538354625
"R2c.10",0.207299170441561,0.00582732582843179,0.644443574335547,0.532273768811622,-366.095445551802
"R2c.11",0.214296237149837,-0.000893903254307618,-0.229192784034765,0.470259759431461,-367.414139910899
"R2c.12",0.213965607835288,-0.00488791693186094,-0.562736169807946,0.542018940231994,-394.369780659318
"R2c.13",0.209073386268234,0.00749857574852437,1.38192349751908,0.518675574372567,-405.04899621888
"R2c.14",0.226001860664334,-0.0189036725636198,-1.84171990132795,0.483913919814458,-389.733237618452
"R2c.15",0.208803394532292,0.00094350018369328,0.0675321112527879,0.5355861974347,-381.802437065483
"R2c.16",0.211108935167252,0.00714243180948377,0.717862134769001,0.498255597561513,-368.176246483555
"R2c.17",0.209834112300397,-0.000987420095958294,-0.0712140029692906,0.483115617721207,-388.418443389228
"R2c.18",0.220942523409772,-0.0131268268555002,-1.71818296907377,0.419971353575562,-370.588300236702
"R2c.19",0.209894105996889,0.00379877993793848,0.257564576697751,0.476866010852258,-362.955019331955
"R2c.20",0.210399986510229,0.00628579306344997,1.28403037210117,0.582163356122014,-382.970056175177
"R2c.21",0.21332467786139,0.00193398620797444,0.226585342172696,0.525039348047115,-374.885112020279
"R2c.22",0.209378953369209,0.000831095900654615,0.189653855917787,0.571580845428747,-385.160705986205
"R2c.23",0.209650288582202,0.00481395976860386,0.644209821906108,0.5509017093725,-403.815166617269
"R2c.24",0.211311063526143,0.00343133736614837,0.562417472295669,0.525447012995968,-361.596145064611
"R2c.25",0.215279941678828,0.000580148985261834,0.119015413210594,0.495622776532935,-360.167686827444
"R2c.26",0.217118871898915,-0.000973172204299513,-0.08185571187154,0.427453240036701,-353.494814391394
"R2c.27",0.213217524373851,0.00444834820370704,0.756271146695029,0.532616911711965,-375.042455660533
"R2c.28",0.21842966550702,-0.00592674892904756,-0.589188366649427,0.457351594285069,-380.838500286479
"R2c.29",0.21369445365811,0.00238328470314134,0.179650777547878,0.51037063490643,-359.289410355973
"R2c.30",0.203272927923932,0.0101163355125449,1.0599000777958,0.607532667599424,-394.610370031631
"R2c.31",0.214456491346817,0.00422475900723436,1.32716424913472,0.53614252393363,-364.579612022141
"R2c.32",0.221437171164816,-0.0156812270841381,-1.19293286730119,0.502130744116685,-387.414659814346
"R2c.33",0.211033140579732,0.00029900929631025,0.140250054104106,0.451036734552498,-388.553978784428
"R2c.34",0.217173584251888,-0.00898616051964051,-0.922193107034222,0.422466293318236,-389.412167430355
"R2c.35",0.217142309258149,-0.00742956913404287,-1.21778191622583,0.514620594039553,-390.768407435381
"R2c.36",0.214008179391078,-0.00202482796306437,-0.219166303924871,0.543036547281999,-379.764637079472
"R2c.37",0.204874423576227,0.00742032522675148,1.55595780621284,0.501996421075587,-377.362927266805
"R2c.38",0.211064100159725,0.00454359296933743,0.846226599367309,0.566222913195167,-394.745797530258
"R2c.39",0.219024202432233,-0.00745852980144142,-1.05007675362873,0.494371887465732,-388.449625040684
"R2c.40",0.217735077160341,-0.00974446815836769,-1.30291458174816,0.434699881192185,-378.183178325109
"R2c.41",0.217482766260509,-0.00131270121955792,-0.392739088953431,0.435634356963897,-354.033748928275
"R2c.42",0.20816558234068,0.00583517924744413,0.633437034123033,0.549937982602221,-381.796553879426
"R2c.43",0.207557816857488,0.00445432158381207,0.472286668139623,0.431091826854627,-376.324885070396
"R2c.44",0.220155896730601,-0.0127429741235436,-1.65500410343895,0.563446352399881,-384.194755908431
"R2c.45",0.218338578814069,-0.00389998511203979,-0.505376064355964,0.478257953809206,-393.025834805069
"R2c.46",0.222473774498245,-0.0131940809562183,-1.00629627058403,0.521658836896476,-405.740960737567
"R2c.47",0.210307604972885,0.000965971310244554,0.100163443625346,0.561608785916107,-414.292314127177
"R2c.48",0.224882802673212,-0.0195057724840908,-1.69368927917303,0.486236091303936,-380.601326476337
"R2c.49",0.219880748908441,-0.0101836532143139,-1.06720977824082,0.401713697223245,-368.284149901566
"R2c.50",0.223384989153895,-0.0130783714287442,-1.33232282288193,0.530400237684341,-405.405994355442
"R2c.51",0.212059718941229,-0.00457579310827198,-1.15599649642169,0.423970897316869,-356.969623969935
"R2c.52",0.21162218367504,0.00274856367835561,0.815872917594337,0.609448834248939,-406.898970220482
"R2c.53",0.218574355835103,-0.00597697214416382,-1.12223967822302,0.345588895083295,-357.544400583894
"R2c.54",0.207648910112193,0.00501480738030298,0.662384757983287,0.607807061371792,-385.83340128619
"R2c.55",0.21191403425157,0.00157103668394082,0.446912589380607,0.484165865957735,-362.933937834676
"R2c.56",0.21390664653666,0.00540496987827586,0.589360642154098,0.442620819669822,-361.003734092448
"R2c.57",0.201591708943289,0.0155705484427017,1.91267676490002,0.644960349497032,-401.098686245053
"R2c.58",0.213896763179754,0.00237362843903164,0.305212465362423,0.644802486055286,-413.75496655478
"R2c.59",0.208997000639986,0.00536114528065209,0.554065869745398,0.515121126798014,-388.027473668726
"R2c.60",0.208991086702352,0.00366198629159516,1.34905984293874,0.499202468442846,-376.9113149633
"R2c.61",0.207880373753194,0.00545391201069396,0.987389950263376,0.563989287970798,-383.335344565322
"R2c.62",0.213882118118001,-0.00497438079660874,-0.864824421617143,0.477756211979171,-396.536355245778
"R2c.63",0.212379318956424,-0.00436162021605936,-0.4944979442058,0.551454499622045,-387.611653472127
"R2c.64",0.214569775777217,0.00130387161474363,0.211330992634675,0.550826106250106,-374.455414625711
"R2c.65",0.213384990930158,0.000726125389298797,0.0590279608682236,0.437425560072229,-354.646995284137
"R2c.66",0.212555320390437,-0.00305963346237187,-0.414119043203378,0.510490576518434,-384.131845647652
"R2c.67",0.210522056945313,0.00659195960144235,0.572381304943962,0.553115588259654,-375.766786900623
"R2c.68",0.218063086357063,-0.00885420468335818,-0.671333818412118,0.567211521686585,-411.500070066807
"R2c.69",0.225172412932837,-0.019367495968299,-1.92267292564238,0.51757079308803,-385.507109048768
"R2c.70",0.213172834488587,0.00069887253058996,0.262843867266822,0.542541710405669,-381.197559521501
"R2c.71",0.21484468747983,-0.00280874986447051,-0.490913613464536,0.458464383501122,-360.042132006648
"R2c.72",0.211602457636946,-0.0038340275231055,-0.700643830736498,0.464619787466482,-364.553437629143
"R2c.73",0.210972478830928,-0.00342334255927993,-0.38823056543663,0.475023125810098,-377.664010053486
"R2c.74",0.207935636024173,0.00394641585739985,0.750571938158798,0.580181014780275,-395.794987312322
"R2c.75",0.218388687559202,-0.0136228667328828,-2.0882113106218,0.522506597064995,-381.820002329423
"R2c.76",0.211119982225601,0.00452182575793368,0.597710447586407,0.573414880996134,-392.2418192391
"R2c.77",0.217947413648682,-0.00525537205030724,-0.928178144477137,0.574004774759208,-405.757700889619
"R2c.78",0.220155931538216,-0.00545257700952977,-1.64996832572938,0.492499501113935,-388.530742662647
"R2c.79",0.210723219160633,-0.000784191676236136,-0.0725857704114929,0.58080808456172,-394.985797793567
"R2c.80",0.215964700172347,-0.00279352472888686,-0.352176338881757,0.507064282450813,-386.313373189603
"R2c.81",0.202070927122537,0.0130346254954288,1.52699437448371,0.577750089881985,-383.152410399661
"R2c.82",0.229155496525294,-0.0211227299194454,-1.3508432178031,0.478781505424036,-368.138301434787
"R2c.83",0.216082006713185,-0.00354569788493566,-0.347013290945673,0.532972350458425,-370.289165161407
"R2c.84",0.202290806027787,0.0174921907513677,2.00484531128013,0.630226745194632,-379.814668929461
"R2c.85",0.21175839119355,-0.00411325217430674,-0.656670499455586,0.51825819603101,-390.63936844006
"R2c.86",0.213262809464372,-1.8016281632148e-06,-0.000206077432740357,0.543053387305463,-393.815252023017
"R2c.87",0.208178087510144,0.00889735863400048,1.63632229093312,0.572853391665646,-398.603995228147
"R2c.88",0.224080279852209,-0.0133775741155718,-1.64259378006375,0.46982116479172,-388.557782614896
"R2c.89",0.213580859891973,-0.00218716203787105,-0.393258726201709,0.5794695063932,-393.302506970405
"R2c.90",0.208975649775286,0.00183410368008073,0.213546333330933,0.616713042174395,-400.81025378982
"R2c.91",0.21227985961351,0.00296504407644541,1.14539245682625,0.578449334408726,-385.28751801686
"R2c.92",0.226224941525879,-0.0153205408667231,-1.49031063885454,0.515782751143533,-398.663542332809
"R2c.93",0.208540231985596,0.00461470911384481,0.437844406408889,0.589504145099706,-394.081798232454
"R2c.94",0.212849420048334,-0.000601566640321273,-0.206459540891227,0.590582347892673,-395.07536664394
"R2c.95",0.21774383993008,-0.0068169594008259,-0.564560088168997,0.498479443746609,-394.774988616939
"R2c.96",0.20593721861014,0.00429861929937093,0.47233208031537,0.392595766876846,-385.834708268418
"R2c.97",0.212126490411938,0.0024856328330051,0.325172570523111,0.536279309950378,-373.183061861877
"R2c.98",0.212117417061256,-2.57163406003161e-05,-0.00484681500757383,0.4827731139292,-388.641435065136
"R2c.99",0.210407308116073,-0.000368322151033414,-0.0508887900077143,0.526561713621434,-390.545176978556
"R2c.100",0.223422782354408,-0.0138284770461923,-1.38648453543883,0.51815580795792,-396.726674960774
"R2c.101",0.214435332722455,-0.00187313259837967,-0.201689833441511,0.519819478720089,-375.5825196125
"R2c.102",0.21519081512909,-0.00690707540444695,-0.414483358288459,0.431395588426259,-351.664463198016
"R2c.103",0.211390121431974,-0.00176734587384505,-0.614756411002302,0.535053761472921,-400.610705796264
"R2c.104",0.216000368894258,-0.00368682630000992,-0.434116519433854,0.494757853216525,-377.282542894252
"R2c.105",0.216568519530842,-0.00570116527801571,-0.56007021346904,0.505746051444014,-389.811354488222
"R2c.106",0.206029688571289,0.00624384831677715,0.515382096430814,0.560571701881899,-389.510187882683
"R2c.107",0.221922315560777,-0.0126217779830259,-0.992610146007519,0.478457028992848,-382.958173766809
"R2c.108",0.213595374076876,-0.00223318865467639,-0.515139530331275,0.434669822005354,-361.857943855222
"R2c.109",0.208870901192361,0.00350310330338128,0.375150478439158,0.41796332236602,-379.411313083566
"R2c.110",0.216696503313288,-0.00274001939584186,-0.471304887183089,0.51089112486059,-375.06050902547
"R2c.111",0.220697738153459,-0.0129985768555507,-1.28490254190985,0.44675595437388,-377.465410961895
"R2c.112",0.212166046309483,0.00228281528173173,0.20950839506894,0.476197087230575,-379.888524559562
"R2c.113",0.214121149700503,-0.00401688805539329,-0.9901997359583,0.486209371413725,-371.792893260401
"R2c.114",0.216705925644538,0.000203833505357871,0.0305778431233996,0.541967106848368,-390.932141323535
"R2c.115",0.212481179305793,-0.00525960597522768,-0.428882258632492,0.606597166868643,-405.402081994809
"R2c.116",0.215984283125574,-0.00404749703546241,-0.568079100877828,0.473743065421096,-392.934196980549
"R2c.117",0.215537453592289,-0.00625261251710441,-0.831151903886833,0.449365138773097,-387.060392474147
"R2c.118",0.218353939842396,-0.00423305528096577,-1.26831577457833,0.48456969140113,-366.763606312332
"R2c.119",0.221231355050381,-0.0136451919148218,-1.74159654969412,0.460181414522625,-367.99820988575
"R2c.120",0.209256240295867,0.00686699311832759,0.528890491845442,0.546283482415865,-385.899123298554
"R2c.121",0.210334171651254,0.00327751786611044,0.491300812572889,0.507761521036341,-374.962458482546
"R2c.122",0.205706923895715,0.00510827233715424,1.02562218649597,0.493935846489836,-390.991545612698
"R2c.123",0.211443894761118,0.000989098439156079,0.0942027676016036,0.4681903346289,-353.174705923347
"R2c.124",0.215952114279149,-0.0046265195758387,-0.30653528197573,0.564060254933621,-389.762160714632
"R2c.125",0.204314670319918,0.00813020507224587,0.840251551601087,0.559397213241534,-377.68134983061
"R2c.126",0.21529195327329,-0.00102476486877074,-0.166229165162383,0.498762096477741,-374.353630336742
"R2c.127",0.199700192742074,0.0137411769004602,1.22107148921808,0.689617244953406,-434.036131549123
"R2c.128",0.213958787336193,-0.00526954886556371,-1.33113560890356,0.541070865555695,-398.390751249665
"R2c.129",0.216403180535875,-0.00642219244111793,-1.44464973905969,0.601166434599503,-405.25118791395
"R2c.130",0.208074423070471,0.0030769279076753,0.660478859078743,0.527232383805287,-360.453212231312
"R2c.131",0.225671338434412,-0.0206312628280026,-2.4739674659389,0.502533199175311,-399.770409559345
"R2c.132",0.214703929621192,0.00212917947223223,0.369191255148513,0.504214131903655,-369.670703732165
"R2c.133",0.214125079379904,-0.00224053159780994,-0.573096688297994,0.585236895364481,-400.770068724984
"R2c.134",0.209756705621404,0.00359122393824715,0.538821408358004,0.487923226026693,-376.52001540917
"R2c.135",0.212866860766337,-0.00377835307916649,-1.16600671348457,0.441189460805194,-379.516821735931
"R2c.136",0.216045146036391,-0.00261587021282906,-0.649098550886615,0.491490458147372,-382.266486348205
"R2c.137",0.202023605948761,0.0149503701700169,1.05343978093965,0.517643994021839,-375.111955173334
"R2c.138",0.211256747689639,0.00260395012900008,1.357917245324,0.527990576733173,-389.198109025182
"R2c.139",0.214733497178688,-0.000657828745950358,-0.107485876549703,0.45169541616806,-357.560516146205
"R2c.140",0.218556324749563,-0.00623671316706852,-1.21331042688261,0.528844493993078,-385.077920064622
"R2c.141",0.220195440599107,-0.00551099356035578,-0.680044832696427,0.508076407803054,-389.07164658538
"R2c.142",0.206959465525453,0.00941995393895715,0.764608035330894,0.557876499200892,-398.883383561484
"R2c.143",0.213012673631881,-0.00454502015764898,-0.924581624334212,0.528143611551102,-392.383658561651
"R2c.144",0.211040326505013,0.00475187386775754,1.33540249688237,0.565113552989402,-386.33083575827
"R2c.145",0.21704040565965,-0.00165693973824389,-0.314104764962255,0.468560857208802,-365.422149973044
"R2c.146",0.220901882660681,-0.00534469461741044,-0.586992029809997,0.488789680677247,-375.2041497307
"R2c.147",0.208781729475451,0.0102547599601823,0.881312974421911,0.613114563047804,-404.83468231409
"R2c.148",0.210306604723622,0.00326594536104919,0.728970953875444,0.528312980119746,-377.895221559621
"R2c.149",0.223287034218926,-0.0111585871074927,-1.97931843670973,0.481979895091802,-378.17725215883
"R2c.150",0.21865315578094,-0.00877728358740625,-0.80748373686827,0.458315406146809,-363.734661571775
"R2c.151",0.215739781121527,-0.0045616744426334,-0.433476092706326,0.571472289015464,-390.83439936975
"R2c.152",0.22057388566941,-0.00451061467134892,-0.447031281506954,0.455402401084829,-376.715928594533
"R2c.153",0.208309585932067,0.00652871072277873,1.32248146508458,0.528271731794912,-367.632117265293
"R2c.154",0.215391265138026,0.0010976801755688,0.28247731980591,0.556452662777141,-376.511132510485
"R2c.155",0.21186393996025,0.00430332112826659,0.455313599267394,0.445762004699832,-351.299283766428
"R2c.156",0.214674510820113,-0.00226983462087038,-0.290858956189016,0.53512069278824,-394.37976298893
"R2c.157",0.219268457720618,-0.0129991848421874,-0.818289058920167,0.473563404836123,-355.474829549123
"R2c.158",0.209065610784025,0.0094322633710169,1.34285561910267,0.568314873428193,-394.880297809447
"R2c.159",0.210774569607602,0.00285350215361298,0.927811473057123,0.572670061352318,-386.952107542014
"R2c.160",0.210699326902776,0.00371741142793605,1.25636399901254,0.452067196046654,-388.037178312322
"R2c.161",0.214481075565591,-0.00523566082898864,-1.20497028052747,0.517922424440066,-391.897062869676
"R2c.162",0.217133202558925,-6.5618268617704e-05,-0.0123036620447357,0.613159997404426,-392.299944399921
"R2c.163",0.218997880050055,-0.0109383202069445,-1.5914426689557,0.597755043209674,-406.586153866922
"R2c.164",0.218491684918348,-0.00655751490679274,-0.550809637253123,0.512201266631444,-389.859407125338
"R2c.165",0.20501384838843,0.00306434258015793,0.654380161013869,0.462459613019466,-378.494215006906
"R2c.166",0.198337835640658,0.017569663709101,1.36278685490527,0.577820158270994,-374.45445109824
"R2c.167",0.21198405172288,0.000784523591890209,0.0708915459490523,0.5761797647826,-397.956453598554
"R2c.168",0.219471136441458,-0.00459625472588231,-1.00992443831791,0.421838412679415,-351.694408551293
"R2c.169",0.217177514969062,-0.00551045863934789,-1.24321698918086,0.504682412180289,-354.92444514644
"R2c.170",0.231863707174417,-0.0260308996134207,-2.47058482241906,0.5976778109753,-407.448978261807
"R2c.171",0.212663395063778,-0.000860912577495186,-0.0619953016900652,0.463959755180147,-369.483337262058
"R2c.172",0.202685241639422,0.0127219695911049,1.21679148552779,0.578724238067989,-383.733029358991
"R2c.173",0.216179277869042,-0.00328822794106169,-0.21463144525962,0.471286789364673,-377.91492911271
"R2c.174",0.219019807751332,-0.00427634204564984,-0.321740291547168,0.487344718422712,-387.097372527678
"R2c.175",0.211226402785196,0.000627222829869705,0.132300971304804,0.466359136780561,-378.111265720981
"R2c.176",0.218766013795546,0.000204464138488108,0.0510376153865268,0.492703210728889,-360.202167956119
"R2c.177",0.214000725314714,0.00317888766284204,1.02037197186739,0.552757129256528,-369.6113879422
"R2c.178",0.211242821837642,-2.20162410392065e-06,-0.00056592465245907,0.519811444008196,-386.84344093078
"R2c.179",0.213297600208018,-0.00313523483341053,-0.316875808314481,0.494934351834525,-408.965043931635
"R2c.180",0.223548090388216,-0.0128552010832179,-0.990855558213314,0.421191885668349,-381.28905310673
"R2c.181",0.217853312050703,-0.00295913708904511,-0.295726660296244,0.51151093937537,-376.902001993286
"R2c.182",0.211864395582758,0.00192249832885906,0.567820023243466,0.490566516282123,-376.735147684032
"R2c.183",0.224542067602836,-0.0130851043811395,-0.924144563171852,0.566828406750113,-393.282008912337
"R2c.184",0.211547610334711,0.00320725612896778,0.265109747538749,0.573475714584887,-389.13367820182
"R2c.185",0.209364351322753,0.0070422784803133,0.995752178046173,0.531273550031185,-383.33813746049
"R2c.186",0.203091776885603,0.0108419351405376,0.839442626924181,0.638826246773682,-420.882327850566
"R2c.187",0.223331347967392,-0.0102265036135627,-1.2229560359012,0.565409457344393,-393.586797590022
"R2c.188",0.221926087243082,-0.0111452672679695,-1.18252097423855,0.494411421637677,-403.512404719872
"R2c.189",0.214655438636417,-0.00841070764589796,-0.804836058486156,0.476407494067495,-387.945474489804
"R2c.190",0.206764769325581,0.0026197740085401,0.550404662977199,0.547733335502978,-395.965402289555
"R2c.191",0.213100304494201,0.000345483616869925,0.0661006710232321,0.536937512476515,-404.865215385845
"R2c.192",0.210145290457093,0.00536531712395169,1.02605943168079,0.547281336230613,-391.927941671679
"R2c.193",0.211725186244215,0.00229880856961736,0.344531960408678,0.432985885556864,-366.046373589489
"R2c.194",0.224672784527338,-0.0153855822626825,-1.02652562767631,0.420153485588266,-356.201017021709
"R2c.195",0.208721743671334,0.00118074446905394,0.486158114416873,0.555457018050504,-411.534486123748
"R2c.196",0.212935582651762,-0.000100868814366776,-0.0253346092583465,0.539474660531904,-402.521533586477
"R2c.197",0.218927487726624,-0.00719226257594546,-0.46512590661369,0.390082487690624,-345.565466826722
"R2c.198",0.212460646651975,0.00488381015570873,0.831076509247681,0.561957924119149,-381.381993808907
"R2c.199",0.214082349332491,1.30288980086104e-05,0.00322238967391416,0.514268881290213,-380.162492144756
"R2c.200",0.210221976875312,0.00512888735663208,0.634031226228928,0.503255568212508,-383.42983925405
"R2c.201",0.210113082945452,-0.00103798281724369,-0.0993344539016837,0.526687135171853,-375.065863927806
"R2c.202",0.20959991770312,0.00356366517130795,0.311837657729081,0.481128993549836,-379.061402733885
"R2c.203",0.231221480531624,-0.0185699306382562,-1.50211309372147,0.549881543942261,-379.069232196817
"R2c.204",0.206245577931128,0.00454971437735913,0.803218642330058,0.550350973816717,-385.045553589881
"R2c.205",0.224242586116084,-0.0141081031373923,-1.60006552668727,0.468758573968823,-381.567946912387
"R2c.206",0.216428655532007,-0.000423118880007991,-0.16972903924098,0.488350349710948,-374.448821653662
"R2c.207",0.220581001574748,-0.00520383633284024,-0.345618107092891,0.456079712604909,-377.72907980694
"R2c.208",0.211444282824351,0.00439378815069071,1.17951099255972,0.500866613996279,-370.652667961403
"R2c.209",0.206834297989052,0.0123361638929892,1.69632585120025,0.554617875823413,-371.30443375216
"R2c.210",0.199502451574994,0.0122353448323518,1.04672080436429,0.654809016658981,-418.755479984692
"R2c.211",0.216104478514415,-0.00485462649044692,-0.667849714991335,0.480153872382131,-389.431643334509
"R2c.212",0.217217971596495,-0.00389682863069391,-0.563455915744537,0.463162840612938,-361.395519350565
"R2c.213",0.211530864206694,0.00196819991041444,0.309296496720248,0.509977103188022,-390.85240840914
"R2c.214",0.223096685999034,-0.0102797904876685,-0.710777260747908,0.446173619224047,-382.830651511406
"R2c.215",0.211351209572098,-0.00145594996509422,-0.408378816213169,0.438749966530511,-385.410596535892
"R2c.216",0.207065165982906,0.0138093270224258,1.62777019803673,0.621237568498149,-396.252275266645
"R2c.217",0.207967006000843,0.00622152299807966,1.25605121050558,0.646345344875505,-405.767417013197
"R2c.218",0.220315528029002,-0.0104018894588391,-1.79639097806036,0.526555978681735,-376.553447109672
"R2c.219",0.215722401070479,-0.00333791015545397,-1.05946744646662,0.427957431221821,-361.278732450559
"R2c.220",0.21400055619885,-0.00225104637952929,-0.65243660622413,0.487698520090083,-372.04428261499
"R2c.221",0.214887836492249,-0.00261228891348241,-0.360241149617837,0.458028259475953,-369.707233864349
"R2c.222",0.214988917528172,-0.00501621285927357,-0.991255981155602,0.552267841511762,-388.806940717881
"R2c.223",0.206595398302723,0.00539175102328874,0.461808384466901,0.521383223171702,-373.028764402805
"R2c.224",0.210172678952322,-0.00237385123061207,-0.611558413414326,0.440385498863964,-370.748367077843
"R2c.225",0.206205136769342,0.00679193706460547,0.764622520624743,0.557992584500484,-367.353223886482
"R2c.226",0.221236077315163,-0.012124190608534,-1.46079833967216,0.50335224455995,-370.176664890798
"R2c.227",0.21529406751947,0.00139250140474307,0.72281467653981,0.496798293860407,-395.165132658738
"R2c.228",0.219817863352113,-0.00609417080847317,-0.600216014853593,0.455831691226254,-359.772108066657
"R2c.229",0.230973625811075,-0.0279871110188736,-1.8489850191975,0.452715018797787,-362.683227547819
"R2c.230",0.214085644695479,-0.00126370896231149,-0.363444689954549,0.544210257383491,-396.995629675379
"R2c.231",0.209640700798992,0.00325752149592317,0.407106212104782,0.510661043179888,-370.849090990012
"R2c.232",0.217603664602853,-0.0044410917552631,-1.19014379444325,0.541815589000573,-386.618129452938
"R2c.233",0.208569020783194,0.0083352117557008,0.576321488011222,0.576850204075597,-366.377973552862
"R2c.234",0.220573195068776,-0.0144048397602848,-1.36840184565994,0.512888932303907,-390.772507181954
"R2c.235",0.209879076463863,0.00585815767715609,0.486029371107813,0.593632864210876,-402.426935891845
"R2c.236",0.213689840757143,-0.000108441296197598,-0.0202176569132425,0.589262941989956,-381.508415051259
"R2c.237",0.212035489811806,0.00389046050867975,1.0733119056816,0.61372151468191,-390.960337661978
"R2c.238",0.219979662937753,-0.00311482669467484,-0.302204978599795,0.489277030816947,-370.507627810524
"R2c.239",0.216964662675007,-0.00896548462915549,-0.657317988349025,0.450304864575177,-377.930461641172
"R2c.240",0.200584489914347,0.0162265180110838,1.38863766152901,0.656904847739732,-390.58847513479
"R2c.241",0.213031389554818,0.00363390839750285,0.250939695746072,0.532862279039178,-372.058717558558
"R2c.242",0.207572980021586,0.00616369078913596,1.37775961767421,0.597511195643455,-405.754776013584
"R2c.243",0.211306675724994,0.00395331768707087,0.753686266929076,0.545478112842535,-392.074866570696
"R2c.244",0.216629333756648,-0.00378093956433064,-0.303671465768216,0.460171402996857,-373.014825371123
"R2c.245",0.214620765928488,-0.00126179781633819,-0.144562980322434,0.471530028409082,-378.218678257338
"R2c.246",0.198698617404904,0.0207966425673073,1.53707518459266,0.638957862038129,-383.023236690282
"R2c.247",0.221915435464565,-0.0154089749914334,-1.2891527613978,0.442858022959445,-391.432454655542
"R2c.248",0.208614734275258,0.00941003214123488,1.45526494840269,0.517025362344621,-369.306897848825
"R2c.249",0.209649314460568,-0.00325142749765188,-1.17918478953945,0.436269798016606,-380.757956265098
"R2c.250",0.217898642299903,-0.0103851619171558,-0.673639512183684,0.514845511785848,-379.821337703984
"R2c.251",0.209068058888739,0.00127704985184359,0.182110349740909,0.560311740499494,-398.679112181086
"R2c.252",0.212235978546237,-0.00315602616071469,-0.242484847403947,0.465725893514937,-366.649221132634
"R2c.253",0.208192827548989,0.0096443901562024,1.24925294431251,0.541587357738012,-378.750101930155
"R2c.254",0.209849233839533,0.00246222139009386,0.334343474849247,0.573335821742026,-389.687252314477
"R2c.255",0.207915047954703,0.00343659740136817,0.670796465113385,0.552871959377406,-394.741351572544
"R2c.256",0.221917541590763,-0.0132423450725585,-1.05001770268798,0.415776660696984,-383.381062863578
"R2c.257",0.211619464152078,-0.00314094962395686,-0.464868305661366,0.48658640186558,-398.062789865302
"R2c.258",0.211237759438661,0.0010252784222125,0.41426459819248,0.4836743158093,-377.024038264961
"R2c.259",0.214760363096847,0.00112709231659902,0.141503259458924,0.539918221730978,-412.74528463434
"R2c.260",0.214172946699759,-0.00138309847835467,-0.626414688293815,0.591099276754305,-402.917649937374
"R2c.261",0.217782392486488,0.000879793213385927,0.144364040893968,0.447021137654818,-361.069746219123
"R2c.262",0.226138119437823,-0.0148231483062756,-1.02155278987358,0.50314122904287,-378.162923069368
"R2c.263",0.213994731508469,-0.00631233347745457,-0.553565887780218,0.564162554441663,-383.958441143898
"R2c.264",0.212157352551549,-0.00298877042098898,-0.239592742177072,0.485640291246019,-381.975854906953
"R2c.265",0.209126640204948,0.00503522657769583,0.541263194338562,0.539927241565711,-379.544138365775
"R2c.266",0.210175884438125,0.00623857307364568,0.763107820619648,0.471056541102034,-376.625902569177
"R2c.267",0.213584869486208,-0.000400652640705246,-0.0660956651547027,0.55577603310028,-404.751361540844
"R2c.268",0.20794613243204,0.00621560248613129,0.578241598879737,0.397840964728948,-360.307289575781
"R2c.269",0.218436373492858,-0.00507618896655306,-0.4347944463494,0.424743322297685,-356.97142480779
"R2c.270",0.207850621254832,0.00511468730924361,0.573822861019013,0.53965046513223,-377.973631872244
"R2c.271",0.220544258669443,-0.00706725043318013,-1.10736958041428,0.393836307702053,-363.836115708319
"R2c.272",0.213048795996702,0.000732479275965987,0.061465609059165,0.554983101716065,-379.607005605799
"R2c.273",0.216003617462794,-0.00157874658507965,-0.147365330794034,0.476912522753403,-391.530442204358
"R2c.274",0.223599427088989,-0.00751554063222402,-1.3333227943354,0.387412304383032,-357.359892130654
"R2c.275",0.227614304256593,-0.0158783148428862,-1.08984943733405,0.42014312248323,-352.506064819724
"R2c.276",0.215691577332714,-0.00555063557214758,-1.49419958853455,0.580706655806008,-416.146706305475
"R2c.277",0.221927231497549,-0.0110602300111951,-1.28650410087805,0.507401094061055,-373.770001533769
"R2c.278",0.188714023958773,0.0349811986927276,2.56573039888971,0.733576356711827,-406.348177027369
"R2c.279",0.217648922903631,-0.00475371811527678,-1.27753584552359,0.546496748872428,-390.688027819819
"R2c.280",0.209686149795702,0.00795234298305447,0.517022082199911,0.512499633337957,-375.047689145496
"R2c.281",0.210288826412898,0.00261211697138738,0.254950989645049,0.497533647525014,-369.199852174348
"R2c.282",0.21656720210572,-0.00504480669561407,-0.873286263934968,0.526551072209624,-374.977565871083
"R2c.283",0.205568868103668,0.0064071632053401,1.05652610287336,0.526567569870199,-381.980785531421
"R2c.284",0.21237168110082,0.000417176284249815,0.166011739042912,0.548736888988173,-386.045677096777
"R2c.285",0.219824249147721,-0.0134584702817853,-1.1045572997803,0.576026043392278,-412.31961070164
"R2c.286",0.223506739308954,-0.0126700802073053,-1.89857754783432,0.58203059676881,-407.718817303559
"R2c.287",0.212049686444622,-0.0028791447855947,-0.586354430714294,0.53246475568496,-388.083705804635
"R2c.288",0.214792656375397,0.000525706680188142,0.0464479708490192,0.451428778528732,-360.2744859295
"R2c.289",0.207508519986094,0.00665692854449312,0.684944774633965,0.495515226156649,-372.311976186132
"R2c.290",0.213053100709851,0.00185097723190227,0.559578211655194,0.513936192526518,-374.909919848926
"R2c.291",0.214537883103027,-0.00925646039360138,-0.799663100062272,0.534802442709019,-395.498116976092
"R2c.292",0.20837316110942,0.00504544600912979,0.907276202973114,0.560686824922862,-398.688886882291
"R2c.293",0.201758513508807,0.0120805305179763,0.919504530776374,0.637055348197773,-409.220530102822
"R2c.294",0.21566497789228,-0.000695283999634975,-0.296147471308722,0.50323701709675,-369.50979986646
"R2c.295",0.208134376590545,0.00473368994039334,0.782713751418339,0.475418462034604,-370.1342795443
"R2c.296",0.213710742457452,-0.00202059040156239,-0.189719857072262,0.498366832967483,-378.923665679768
"R2c.297",0.220809215718633,-0.0115524616403916,-1.12587564509109,0.522245442267009,-406.769368636008
"R2c.298",0.215289750275444,-0.00436097820070095,-1.28621650223554,0.534304833035277,-377.7615162811
"R2c.299",0.213272762524613,0.00146375076358993,0.161916683360227,0.43563613331228,-356.059831456555
"R2c.300",0.211970047016364,0.00169716373205277,0.16692349037897,0.551094305666931,-400.382513023998
"R2c.301",0.216750514803503,-0.00445255721054609,-1.04715880861306,0.489393962535009,-385.795785750624
"R2c.302",0.210712267990331,-0.00112249805257184,-0.213109270608342,0.505838825337789,-381.500999433525
"R2c.303",0.209344790232076,-0.000150192096236749,-0.0147521389206016,0.59623791959015,-406.14829960206
"R2c.304",0.207005387223614,0.0116014628092336,0.916763664572653,0.581041682753376,-383.964719517816
"R2c.305",0.215619479296931,-0.00808556112366055,-1.26973306477686,0.492390293919655,-395.412838311792
"R2c.306",0.219686078789708,-0.0148037661575635,-1.80927108921618,0.505396371651298,-396.242475598743
"R2c.307",0.216448421855355,-0.00441928509953324,-0.96456973301326,0.597305935852377,-407.925765241001
"R2c.308",0.212238567403258,0.000319140081062179,0.111275071646318,0.544984612533643,-396.902908454041
"R2c.309",0.21715744418962,-0.00162555916893899,-0.32248500942367,0.503952235911381,-376.502038515042
"R2c.310",0.208361327854646,0.00651608040308048,1.51429947620091,0.574449924842986,-383.382054024361
"R2c.311",0.216171324380139,-0.00283646078191424,-0.373726557004176,0.410197766046543,-371.836397286002
"R2c.312",0.214884911622018,-0.00381701401943775,-0.552892474169545,0.552905656264412,-401.102244893594
"R2c.313",0.215713008754839,-0.00361844105462192,-1.04937943471357,0.550721612832635,-391.964646590702
"R2c.314",0.211443087290286,0.00425944378401292,0.886496736223322,0.495020604701185,-365.860051149947
"R2c.315",0.216557100523965,-0.000512203000586257,-0.128042113527522,0.498633216985772,-387.170552384259
"R2c.316",0.214112389025231,-0.00291889223263549,-0.636135226825797,0.486929137950844,-384.183475878871
"R2c.317",0.21061868998257,-0.0021565974420219,-0.21806027187985,0.571541169238833,-391.009605057989
"R2c.318",0.209548008085084,-0.000405859181483742,-0.0271564252899524,0.545385631263763,-376.505148530456
"R2c.319",0.209725654119549,0.00306889291360582,0.784614010312933,0.421089871132906,-375.222619767212
"R2c.320",0.218222925633017,-0.00694321872230362,-1.4177956387749,0.59683779620177,-401.599575849897
"R2c.321",0.213538688612863,-0.00247057691520635,-0.812361828049484,0.554655141339766,-390.244180970162
"R2c.322",0.212162433619728,-0.0021395379040002,-0.231752231558153,0.526445174300922,-396.990272882701
"R2c.323",0.237242260459316,-0.0285864031580964,-1.93581043523321,0.459490587062097,-380.078940235321
"R2c.324",0.211635231122093,0.00333965098497322,1.63172993576152,0.489842024551138,-377.794455326692
"R2c.325",0.218212139935825,-0.0105204269901144,-1.00514297095289,0.61023505021717,-399.020398643152
"R2c.326",0.20836931115085,0.0038895269352653,1.38919375954713,0.527443011936601,-386.893874059195
"R2c.327",0.218242695770836,-0.0135577546183288,-1.22915105657646,0.489781596660282,-384.4105054142
"R2c.328",0.207064757041532,0.00274961893451535,0.261683488373332,0.439217362916922,-367.969735790719
"R2c.329",0.220637430274082,-0.00981762686205878,-0.783750115491739,0.432096551388827,-394.162463139264
"R2c.330",0.213596434977662,-0.000718353898203776,-0.0668069260821901,0.569309484537835,-391.016673441572
"R2c.331",0.211256047176404,0.00140615101508292,0.253997708654191,0.547586558420323,-385.218220600713
"R2c.332",0.220344849991858,-0.0141951267094172,-1.56504059802072,0.52129270698535,-399.027487471618
"R2c.333",0.214339179646096,0.00300142967720053,0.765314137362164,0.49027449714828,-369.3341251107
"R2c.334",0.20896716823495,0.00597202854429988,1.44317945636443,0.555784007510489,-379.972368871815
"R2c.335",0.217648608122737,-0.012201602782405,-1.41173869805628,0.55258600548725,-402.716020113619
"R2c.336",0.223860648064759,-0.0078702870427743,-0.492046961793131,0.529228274797603,-368.891780954164
"R2c.337",0.221326532415183,-0.00880704175324436,-1.88499229401241,0.526890441976044,-372.393674275567
"R2c.338",0.210335386210897,0.00167397794766331,0.430516396880369,0.558523501628649,-398.208732280311
"R2c.339",0.220005619962065,-0.0102868576598221,-1.8104681187834,0.497062368172791,-377.600170860747
"R2c.340",0.210555580127369,0.00243189932857435,0.681753947421036,0.548933716573843,-392.567040271942
"R2c.341",0.214384291534846,-0.00700154815009031,-0.994532103124104,0.58913536330631,-395.776360512358
"R2c.342",0.218624900944942,-0.00276124626459266,-0.368279505488132,0.431654071852449,-379.535728790638
"R2c.343",0.197770742437911,0.0201284398534304,1.44389168754355,0.668821108858144,-390.74455641332
"R2c.344",0.196284327899922,0.0189271046824759,1.8066148030364,0.642907533118937,-398.333839588741
"R2c.345",0.214100841921574,-0.00107128340736363,-0.107505795325596,0.4784773489674,-398.481148520817
"R2c.346",0.20287482530221,0.0110811013414969,1.22306786578761,0.591004122014914,-390.829374959033
"R2c.347",0.218403821995595,-0.0022293637106563,-0.391180709546698,0.586660399539752,-394.503554434716
"R2c.348",0.209537698215211,0.00337267349787124,0.304910842709111,0.579474780995942,-375.648644777549
"R2c.349",0.204618208912114,0.00706586487196767,0.543314687779938,0.582792820390418,-386.692499607744
"R2c.350",0.213399603510228,0.000957286754340954,0.144868145308357,0.50203394654996,-382.554248020395
"R2c.351",0.215179322584822,-0.00168245074645144,-0.141009503805255,0.463319905102989,-381.171245575976
"R2c.352",0.210968271559087,0.00584056012945953,0.790025095750547,0.569815851647,-387.386910666298
"R2c.353",0.212752696468178,0.00131007361368601,0.0837509430592627,0.511732418132962,-377.117328350848
"R2c.354",0.212733222351931,-0.00034414057550375,-0.147855703540742,0.434963575977412,-362.729711615551
"R2c.355",0.21697140392739,-0.00132559814121841,-0.413437507261254,0.555777925210601,-389.233396953019
"R2c.356",0.208551529227008,-0.000686278875211217,-0.0499079573890081,0.482460410609486,-397.990249679473
"R2c.357",0.211486010430199,0.00531057579735739,1.35052676721247,0.539641713336985,-372.754082517416
"R2c.358",0.208848457347089,0.00139911009783283,0.211712275577644,0.443141291296943,-387.650842296396
"R2c.359",0.210195451624308,0.00593000156402355,0.656933192939844,0.63729377744928,-402.04230915013
"R2c.360",0.224849739048552,-0.0184101403473184,-1.98953006203279,0.460697106122235,-363.05320447457
"R2c.361",0.217150428546257,-0.00666859517738469,-1.22866482215257,0.433863976363891,-376.504382863914
"R2c.362",0.20591894818114,0.00733951257134685,0.631550381257509,0.551071268902805,-387.802302045563
"R2c.363",0.214103281214695,0.00406769712058974,0.376567396429338,0.522161668727216,-366.083827773264
"R2c.364",0.215957910756304,-0.00586805084653774,-0.885645497954328,0.545057266736825,-382.332008304637
"R2c.365",0.206460775268985,0.00951206610287664,2.15709030172635,0.542658664516423,-379.932992546467
"R2c.366",0.210646369268785,0.00178132237965795,0.275877126181967,0.43982288237917,-369.651044473314
"R2c.367",0.206396684674678,0.0112206721609655,1.24258365922284,0.639918898068571,-385.617697510249
"R2c.368",0.21296475765099,-0.0039997986295493,-0.811965998749617,0.468380647609643,-396.348474830528
"R2c.369",0.224780997789473,-0.011391530620382,-1.11927415456543,0.465080131691733,-379.227844206556
"R2c.370",0.222424733466701,-0.00935446172184749,-0.935161418814865,0.417313662406584,-369.263541650024
"R2c.371",0.213309426904497,-0.00157282082757211,-0.206218019686671,0.483624473620505,-362.913235572
"R2c.372",0.209643368034693,0.00374636790806275,0.409666429127184,0.473336583191654,-377.026542324174
"R2c.373",0.219174563390172,-0.00555371486051862,-1.9077504290963,0.380669014795582,-366.673121661797
"R2c.374",0.2116185057251,0.00365315597266483,0.534348884103141,0.505815362813734,-364.499171762771
"R2c.375",0.220074144256039,-0.0081564118701133,-0.885746323810762,0.522665725692081,-384.042023423617
"R2c.376",0.233567087637375,-0.0251467079777351,-2.06800048975981,0.549269793915416,-380.650506649919
"R2c.377",0.221616987427693,-0.0111205235706128,-2.30657644252196,0.45929856437669,-390.195812729113
"R2c.378",0.236691472602631,-0.0310054386706722,-1.95766406159512,0.468825905672021,-358.706169604926
"R2c.379",0.213095983016744,-0.00248382419862235,-0.753552556495901,0.547570912295423,-369.384932764039
"R2c.380",0.216573668040916,-0.0137940234289592,-1.22122717866818,0.419586449731514,-379.438456990484
"R2c.381",0.212833267243867,0.000320046729492133,0.106841414353269,0.445286198592914,-370.417453746304
"R2c.382",0.20611558405532,0.0068839345724899,1.10294405316714,0.594306161321034,-371.936837323512
"R2c.383",0.226350767666789,-0.0209496741431347,-1.61320505047935,0.437214440533862,-391.891514138069
"R2c.384",0.213832004413947,-0.00427750251752991,-0.476289270013784,0.526818660585771,-398.265586931704
"R2c.385",0.212048620281248,0.00433118491623444,0.736084284176275,0.53213417659819,-374.186007378077
"R2c.386",0.218204640244509,0.00193857457352876,0.929640433876775,0.534236194564929,-376.429186888628
"R2c.387",0.204368480410723,0.0138128230840443,2.4951087670644,0.61940478506272,-381.853735809838
"R2c.388",0.217889401728544,-0.00317781571676511,-1.3085098118153,0.479730273083137,-368.165516853423
"R2c.389",0.21138131051813,-0.00492521256195133,-0.96759113904891,0.446682097670883,-382.238516297756
"R2c.390",0.212299765055021,-0.00137222208128334,-0.212748157982454,0.598559733387729,-392.150600184005
"R2c.391",0.212752735783657,-0.00287539596221308,-0.240681642248513,0.452191542433764,-366.359406963212
"R2c.392",0.210380025981642,0.00189251510732246,0.330268332715957,0.428795466825862,-377.004221027333
"R2c.393",0.215761964566802,-0.00259731398670916,-0.608042614522202,0.499376667663587,-378.467576767819
"R2c.394",0.208828744143763,0.000799064956086427,0.161423648573291,0.581969863162475,-394.139822587889
"R2c.395",0.213039018508746,-0.00851724801453281,-0.64370210808951,0.531057358220339,-417.036839598032
"R2c.396",0.207875996921258,0.00278026413477186,0.249099124918379,0.596747149609654,-397.394285197531
"R2c.397",0.222637058662244,-0.0111116696734845,-1.29559032732399,0.397343503917065,-360.453848303853
"R2c.398",0.214040987303931,-0.000976454550246509,-0.217403447826726,0.522631160676256,-402.326243452666
"R2c.399",0.212461972548492,0.00296950279262826,1.08511937396245,0.518860330482647,-370.655270906495
"R2c.400",0.215331598495893,-0.00496637046712029,-0.708944989772874,0.465246414705088,-362.017897912817
"R2c.401",0.219278741443064,-0.0111854988641773,-1.1104446265664,0.5364027774801,-382.210146261536
"R2c.402",0.217729842620905,-0.00502203503570753,-0.699968594935036,0.443994584753211,-375.202865055614
"R2c.403",0.213741013408925,0.00113501260156378,0.306215370914681,0.514875929911072,-379.406580570343
"R2c.404",0.224329298586809,-0.0116129806925375,-1.38999547866554,0.442002166936866,-380.001713690174
"R2c.405",0.210657022782339,-0.0024709759392442,-0.259705578662349,0.578559163904477,-405.818384193348
"R2c.406",0.210624769189852,-0.000411330522028986,-0.137218652858842,0.517362383254206,-391.772791406354
"R2c.407",0.220959667251745,-0.0142670755144909,-1.59419299440581,0.589248476007438,-405.145389147294
"R2c.408",0.228823644658898,-0.0186529534930525,-1.34985944276741,0.454252812635101,-368.348852559809
"R2c.409",0.213124137128941,-0.00182573302842309,-0.56358351083454,0.569448867101054,-410.458517957306
"R2c.410",0.212129868425639,0.000276828147389843,0.0265320726771586,0.484293013605713,-382.431751528681
"R2c.411",0.210928702500003,-0.00235034450582336,-0.327086192400535,0.481004319268533,-377.551906540366
"R2c.412",0.219034131489589,-0.00717758701064953,-0.822874972160809,0.554184793260677,-388.038529139788
"R2c.413",0.211664273662721,0.00547487868728212,0.466170115039663,0.56585861307741,-384.53496680505
"R2c.414",0.216343439738383,-0.00317892084732057,-1.24813507399009,0.445494298419682,-367.386817718688
"R2c.415",0.220859441404143,-0.0162482460147827,-1.1340834064821,0.504831981922019,-392.058496649759
"R2c.416",0.210996427921553,0.004413983062758,0.290764616535067,0.605074091559353,-385.993880076268
"R2c.417",0.211171104071666,0.00379884223532739,0.633678392200149,0.517211892506969,-363.994446702704
"R2c.418",0.212480577657822,0.00209554257754516,0.274133874014336,0.60581401759203,-400.293131408182
"R2c.419",0.207256577928667,0.00701622575796815,1.19574772582604,0.580547616491004,-385.84282197777
"R2c.420",0.216737909638296,-0.00282526969869096,-0.43724896938738,0.507798120481906,-371.004897106752
"R2c.421",0.213035194091829,-0.00037940278410057,-0.0636287138946742,0.478030648535778,-377.496277708931
"R2c.422",0.208625610466006,0.00933605484916846,0.594061050173762,0.576923516756056,-384.296615370909
"R2c.423",0.198745703768905,0.0219147790932876,1.32272269739,0.567701495113257,-362.00266645772
"R2c.424",0.217263337043228,-0.00518963173574565,-0.980837640114851,0.48884635473608,-365.272856293386
"R2c.425",0.21283085765595,-0.00480423172917016,-1.01623808010355,0.456072182441108,-365.084709881938
"R2c.426",0.218286971393805,-0.0101777920898463,-1.13635320928062,0.550858006985227,-396.611985605811
"R2c.427",0.2131920818617,-0.00300252916225986,-0.317978562654241,0.477882974677696,-371.314374665081
"R2c.428",0.218181650751265,-0.0086171355370117,-0.831929740809424,0.489242154303343,-375.677741009993
"R2c.429",0.208482327776448,0.0051707417617385,2.39948787002516,0.555092437712966,-392.259931642532
"R2c.430",0.216894127683261,-0.00299529270650046,-0.635802090692602,0.49088420210215,-389.055321117519
"R2c.431",0.217069615372067,-0.00545279009703466,-1.36899719327668,0.559140108765383,-395.007351224436
"R2c.432",0.206745306800246,0.000785155878020146,0.10318991458037,0.522398062851791,-381.893923250554
"R2c.433",0.210222746779507,0.0026239248406044,0.948890687964313,0.481946589847743,-360.040233614278
"R2c.434",0.214312893357885,-0.00656513854873451,-1.09026942364313,0.489245194166669,-390.725861440082
"R2c.435",0.210284867449466,0.0063137457431107,0.802670660788478,0.477187018575324,-371.400230349752
"R2c.436",0.211745853902005,0.00694044857705834,2.26222828319348,0.574893992329095,-390.26822362494
"R2c.437",0.216359153895209,-0.00726062162175666,-0.65670700706295,0.387954739273111,-356.411883084697
"R2c.438",0.219684902488328,-0.0120096337212522,-1.16082650420332,0.467438887714924,-387.225077895675
"R2c.439",0.215842925322004,-0.0033695293308526,-0.972316066051444,0.472317037172609,-412.202200652384
"R2c.440",0.219244010976571,-0.0128276682851939,-1.01797854194466,0.529228506271196,-405.442761430807
"R2c.441",0.214555985591605,0.000209015076365909,0.0240148379486025,0.524154175472641,-372.511651494729
"R2c.442",0.202271421366738,0.0124783277836817,1.00125086615284,0.623819452743395,-396.481952576976
"R2c.443",0.214967309057716,-0.00110844102288956,-0.0935261675250657,0.53272060215734,-365.255453321651
"R2c.444",0.211629411176057,0.00146462729159785,0.392408434432186,0.56496799638358,-397.558440390339
"R2c.445",0.213677820063482,-0.00308659831431439,-0.630958758033463,0.590009307386348,-397.830368356513
"R2c.446",0.2257253280845,-0.00969448944819317,-0.862795097493398,0.54703645885473,-391.560628410945
"R2c.447",0.217814100643313,-0.0129526283517681,-0.914493653204893,0.461809844353545,-378.692703753517
"R2c.448",0.218437115914516,-0.0064077450563548,-1.19288075349878,0.405275613992497,-363.478920667468
"R2c.449",0.214086538709537,0.00465476079398496,0.724539890858266,0.58947253307798,-395.12595505128
"R2c.450",0.219411349604679,-0.0113066989216981,-1.77040646785656,0.475838680792539,-389.783349752758
"R2c.451",0.213725694367901,-0.000526064055010094,-0.185767664494915,0.564428117595098,-385.714930692064
"R2c.452",0.213927045559817,-0.00321302992472825,-0.457745296763008,0.423459182152539,-372.366565535789
"R2c.453",0.216569936378022,-0.00232164519138278,-0.377136826470424,0.550421272871171,-403.646123326527
"R2c.454",0.213233224880995,-0.00112395864333293,-0.174286678028315,0.518986638498486,-373.086346250573
"R2c.455",0.209545142591415,-0.00149790022334534,-0.637641824460263,0.521831930262828,-360.870017948342
"R2c.456",0.209874626712408,0.000498082420640826,0.0468424263748806,0.520043994804227,-386.239817245703
"R2c.457",0.211200075602274,-0.00363289553148092,-0.587163423341963,0.535709071157437,-379.547301160793
"R2c.458",0.214523741602194,-0.00362617045733657,-0.929265087154386,0.463572760088894,-392.530605967574
"R2c.459",0.219888712795971,-0.00660438267015565,-0.686167475423011,0.433395990398941,-364.863830610271
"R2c.460",0.211214536966047,0.00237307163097457,0.360180280303067,0.549669322938612,-377.47675028534
"R2c.461",0.213759474273099,-0.00112824806775975,-0.386176824282667,0.540817247903532,-372.188449824874
"R2c.462",0.21245346026501,-0.0083215154570723,-0.92257893384523,0.439741600175831,-381.602137944571
"R2c.463",0.213147536251065,-0.0021293248678161,-0.417017394377311,0.553685936900167,-382.211771730103
"R2c.464",0.213524838928357,0.00112061362061847,0.179090218771665,0.565800643892217,-393.772366986435
"R2c.465",0.219908288102259,-0.00506986314385915,-1.41669865805517,0.424134329902996,-370.254084002809
"R2c.466",0.20522966269941,0.00948043482147873,0.872115632585841,0.587584646283487,-396.810154112715
"R2c.467",0.22945784868258,-0.0281124734644874,-1.87840591409268,0.498942790321132,-377.775920158071
"R2c.468",0.217650608995161,-0.00960250845105977,-1.10537629774705,0.449394732151749,-377.429988511188
"R2c.469",0.214580510768554,-0.000656479839262163,-0.137427547914137,0.514633612229073,-359.011765128672
"R2c.470",0.209074886092503,0.0054624101381734,0.317866519767518,0.504636641099705,-361.398039948462
"R2c.471",0.210877984770612,0.00190359576753556,0.374891934795385,0.553721715392871,-377.223569581083
"R2c.472",0.214907837752499,-0.00188944944484351,-0.157643657497691,0.482781084054772,-358.500622556099
"R2c.473",0.216499395788239,-0.00512152324367225,-0.475382762374721,0.471123620841152,-379.54078719563
"R2c.474",0.212566222226825,-0.000444527569257057,-0.0724039434576575,0.608735042457614,-408.864944542973
"R2c.475",0.217219949490133,-0.00627061373045975,-0.474292052494215,0.461820844429906,-397.476209022201
"R2c.476",0.210018091572172,0.00302953161723934,0.306939341981238,0.528765727018659,-401.118512873644
"R2c.477",0.211983479372528,-0.00272798206479025,-0.251598186250819,0.512154454535831,-376.120363617842
"R2c.478",0.218810003707558,-0.00740426961483475,-0.683230837770767,0.507434615591285,-368.70528710303
"R2c.479",0.214929673937924,-0.00330402543981411,-0.256816203304219,0.518152947172443,-416.020013401322
"R2c.480",0.214840922370117,0.000460962231374539,0.0445948669734464,0.573337344788683,-398.722602899109
"R2c.481",0.214705071165667,0.00134338858958257,0.269551967111265,0.483821587570664,-351.334581335877
"R2c.482",0.217984519877539,-0.00635831566189964,-0.96642821931613,0.45346881343096,-374.370229334315
"R2c.483",0.210815768795321,0.00169076497132436,0.320517680436864,0.562138949029649,-397.439079214305
"R2c.484",0.21882015604537,-0.00842359773615018,-1.66117059773614,0.50164376489334,-393.296546144922
"R2c.485",0.212439565233121,-0.00228646472104822,-0.366593349151681,0.446059644794604,-391.9700684474
"R2c.486",0.220073648115537,-0.0125925000239788,-1.05826696462513,0.484359873135165,-374.441004841934
"R2c.487",0.22185373926216,-0.00961479805073912,-0.797223807416616,0.513390457101953,-374.391982867667
"R2c.488",0.215497524336654,-0.00294966550916702,-0.250502096371031,0.507298700695739,-385.55301823998
"R2c.489",0.206178104291497,0.000989479697584159,0.113629325980564,0.555245437039254,-395.529425892269
"R2c.490",0.211996345486534,0.00290409488379959,0.631349149229241,0.561691220129735,-391.77162816404
"R2c.491",0.21912136478173,-0.00862523355330533,-1.86909850138244,0.535498086761587,-391.351538207192
"R2c.492",0.208573044340659,-0.00322153687650436,-1.05909548682926,0.454246238998933,-363.687873155489
"R2c.493",0.215193636780218,-0.00436364534653304,-1.22393022940584,0.501746885747102,-366.080807521679
"R2c.494",0.208450740700901,0.00441116060464372,0.278131931877239,0.581062096197642,-377.023488575465
"R2c.495",0.205885672638639,0.0127515206729694,1.27804018502879,0.621620405272243,-404.398788148747
"R2c.496",0.210776888128181,0.00823841999871064,0.76077009752954,0.646266471324528,-378.782920924909
"R2c.497",0.218485413416473,-0.00581752580849152,-0.748775147764255,0.469069956001476,-361.756070692958
"R2c.498",0.218398542301624,-0.00495376113762569,-1.4903698092494,0.509817424381752,-389.649837610029
"R2c.499",0.229263333564387,-0.0228623098730817,-2.58480606637286,0.520426644183448,-405.159383136218
"R2c.500",0.20839000084354,0.000526498078547341,0.0618748747286217,0.529902937319815,-399.539069958425
"R2c.501",0.212060871404372,0.000614866419497544,0.126208280166448,0.442534801686758,-364.669558495529
"R2c.502",0.217931901316932,-0.0115437637172951,-1.25941290611503,0.578237871915744,-408.179093304233
"R2c.503",0.213651868320066,-0.000974036296621989,-0.0663301342574201,0.511553388214197,-391.858229691097
"R2c.504",0.220507980643443,-0.00248610952886691,-0.508391573197001,0.418291252021548,-355.646490426165
"R2c.505",0.215775733474254,-0.000507449807806578,-0.090629472861281,0.504817291313355,-394.028058174053
"R2c.506",0.218991266205427,-0.0100813336858437,-0.823250298332671,0.44205969143963,-373.263964714372
"R2c.507",0.209700670692843,0.00748182877498308,0.610030913403939,0.564917202053091,-386.684711900874
"R2c.508",0.213375714923222,-0.00256002842011297,-0.816666732145446,0.487297346975633,-389.039506411009
"R2c.509",0.217953078103247,-0.00520644592395863,-0.611652569830075,0.563338910863325,-392.515802564105
"R2c.510",0.209135870975398,0.00836172701854137,0.809066843488035,0.633244139131954,-391.080663225676
"R2c.511",0.208483151513472,0.00109815374591644,0.317435173573966,0.563607127022013,-394.159948831934
"R2c.512",0.230529006014128,-0.0255452582350492,-2.31350075367157,0.55565306434283,-407.902471257412
"R2c.513",0.211222108721635,-0.00342416701244959,-0.707940947364416,0.435898745740626,-386.443949550974
"R2c.514",0.209199539706044,-0.000401486875384094,-0.0308653134284887,0.548288282549521,-379.807762035035
"R2c.515",0.214116205534843,-0.00266601021919686,-0.607438296312995,0.589229961686276,-403.956366305716
"R2c.516",0.21170742861998,0.00465014477521809,1.27389235262433,0.589304167501453,-383.654432020283
"R2c.517",0.214703919309469,-0.00170605631732023,-0.198609209996506,0.448953092426948,-352.122012469784
"R2c.518",0.208258188941932,0.00326589227692031,0.598867331604828,0.53878203724371,-388.502410235724
"R2c.519",0.228361498364051,-0.0201837239645416,-1.65645946141281,0.492691780658691,-381.400826218101
"R2c.520",0.211946183407501,-0.00219545856768273,-0.371176940163805,0.506055623316287,-384.435608045989
"R2c.521",0.213185695593999,-0.0034704022346672,-0.502996425117277,0.530571908551428,-385.101191567762
"R2c.522",0.209366971890484,0.00612036402152046,1.33734093367419,0.515468188547096,-376.424312274247
"R2c.523",0.227775408956875,-0.0224641655550069,-1.60823164037903,0.465326478931143,-388.998426958814
"R2c.524",0.210241262612252,0.00595841102976085,0.89829370680331,0.530791091305139,-374.135933578803
"R2c.525",0.213156740874094,-0.00453908440378171,-0.841685965951158,0.580831560284043,-384.764444386146
"R2c.526",0.217182902171486,-0.0130058249719584,-1.24221504784697,0.412075186430643,-359.488348139124
"R2c.527",0.2173976692556,-0.0022245642732575,-0.183659993540533,0.532755276732721,-384.798336616963
"R2c.528",0.215494684650531,0.00303696464421572,0.39966417833369,0.502226103609165,-370.439274125287
"R2c.529",0.210527895574471,-0.00107889964922963,-0.376861179367721,0.480928115109129,-394.169056811451
"R2c.530",0.218296669873699,-0.00805984142685132,-1.06156263325859,0.509589905121785,-373.702293467449
"R2c.531",0.213514231220509,-0.00495820347546388,-0.79228027723648,0.546180368249525,-387.943494874108
"R2c.532",0.217314459187488,-0.00388277278875954,-1.16307624924662,0.533449379826771,-398.558328926285
"R2c.533",0.225278084498218,-0.0201799363153012,-1.66432680173374,0.454854906522562,-374.725252855456
"R2c.534",0.225128802925083,-0.0118146814431595,-0.93127767657213,0.45315801924352,-383.034422242037
"R2c.535",0.211222103148154,0.00395513964797555,0.294093118972502,0.490058611020608,-359.250637227159
"R2c.536",0.212690608312028,0.00199090905398085,0.66150976013437,0.518210644987723,-396.871806878029
"R2c.537",0.209709838991232,0.005757664888375,0.442407715404783,0.533225963194421,-368.791435631997
"R2c.538",0.209652181904547,0.00851548886082333,1.44570411989458,0.564657626441865,-382.817705317144
"R2c.539",0.21019541766365,0.000524160431082817,0.0948136623006929,0.496586598083367,-388.280499805559
"R2c.540",0.219630968476756,-0.00619227690849651,-1.6742798229005,0.557290611996211,-396.164402410777
"R2c.541",0.209339560293005,-0.000932123849530029,-0.234834862565188,0.538891503206886,-400.338470312437
"R2c.542",0.210783189911281,0.00676434460868569,0.973361546370142,0.562609858949792,-374.432236114868
"R2c.543",0.207738062928924,0.00209138847657347,0.436394569180283,0.4608506496548,-369.497003405511
"R2c.544",0.214702040140194,-0.00113668699047184,-0.361639004560353,0.529965089092556,-396.425813773858
"R2c.545",0.226594364556312,-0.0176792117263042,-1.34164488476202,0.489394224594826,-391.461499855266
"R2c.546",0.215467779642529,-0.001717369724483,-0.737614989437692,0.537637487951794,-380.340672602559
"R2c.547",0.216120109206952,-0.00320050097195351,-0.734467892152643,0.45091621086654,-370.061411721224
"R2c.548",0.214022338954168,0.00433283198311465,0.336482773086719,0.55926732777346,-374.981009074957
"R2c.549",0.204683715174049,0.0083737269813852,0.589342735852113,0.504176562901135,-384.381522058973
"R2c.550",0.218770020059881,-0.00873085463540697,-0.838909157616092,0.549528715200626,-390.864975769622
"R2c.551",0.21438959408355,-0.00366277254115512,-0.943631211256303,0.45400315418046,-376.143491599067
"R2c.552",0.211406263371379,0.00956991062274982,1.96110608854904,0.580275654795094,-391.135167690808
"R2c.553",0.199351633382841,0.0144818546706496,1.64612844347747,0.52849937120485,-377.767134201204
"R2c.554",0.213947084946122,-0.00537500894142737,-1.15961229223692,0.526854154789757,-390.707624677506
"R2c.555",0.205750756351859,0.00264545477915504,0.190424879118338,0.54552392616977,-400.306869589026
"R2c.556",0.216951027720844,-0.00142146698335231,-0.360460170554355,0.552074627413651,-391.409151130988
"R2c.557",0.21717588379134,-0.00461100513735531,-1.2978485795224,0.491968651399051,-371.326301415771
"R2c.558",0.218032288839292,-0.00500350788013193,-0.890749269198356,0.487370643728568,-369.301441993489
"R2c.559",0.210979784562461,0.000570456033729905,0.125314712248391,0.564205017904822,-387.527308552379
"R2c.560",0.218084480318675,-0.0148098508720684,-1.40478760693245,0.526680288288543,-402.929980133869
"R2c.561",0.211881139102457,0.000834138676780313,0.132754618173637,0.583936006521779,-404.825929669027
"R2c.562",0.216433918831453,-0.00786159600037315,-0.571617504115976,0.433398174067443,-393.101408506386
"R2c.563",0.2191502006732,-0.0146822855162178,-1.32711647819982,0.508469398721694,-412.533173569931
"R2c.564",0.212743272324863,0.00054186714673485,0.124606353510418,0.524549998497166,-364.805478011118
"R2c.565",0.210167973461781,0.000598463093458508,0.14075449552561,0.522915963645443,-398.103020600609
"R2c.566",0.210936611468715,0.000512791894520895,0.0372904608091669,0.414014011894855,-373.40298464577
"R2c.567",0.216258505214541,-0.00811156520362353,-0.640001799149446,0.471440719036517,-362.273373444966
"R2c.568",0.20956093382021,0.00380342737473704,1.26367145452939,0.509492784890214,-386.869819793919
"R2c.569",0.215525260317179,-0.00516326270965174,-0.538048855001857,0.490503292114823,-383.891138916124
"R2c.570",0.20774914403818,0.0108957274324113,1.36901392241763,0.620380755782066,-380.364636198958
"R2c.571",0.205860708813287,0.0153889124203574,0.941446549089559,0.616633891008046,-367.851365427897
"R2c.572",0.217902434070878,-0.0103056323761036,-1.31683899858379,0.47847107338095,-376.718825948043
"R2c.573",0.207042276369229,0.00722161654568216,1.00844327932617,0.539585836483547,-374.564984268622
"R2c.574",0.210796045871799,0.00828766741510291,0.551456118626869,0.526980475402983,-373.105023782834
"R2c.575",0.216726609889917,-0.0070506154588279,-0.545788250190554,0.470436961387635,-396.177407281061
"R2c.576",0.210361323164665,0.00479909886944812,0.982536968751414,0.601554706122755,-383.288303193187
"R2c.577",0.211244363403586,0.00572659770301176,1.51452601468082,0.511258408018601,-363.629526410558
"R2c.578",0.214105997974387,-0.00126791365577901,-0.25331530436931,0.552721311753948,-399.730284742774
"R2c.579",0.206662317952266,0.00711462764513891,0.94741456985119,0.546058145308059,-393.189637572369
"R2c.580",0.208941626016075,0.00398979038567295,1.64041037200784,0.550650773856142,-380.963467450669
"R2c.581",0.212760480229171,-0.00296968710469352,-0.505254296587724,0.540079878076745,-394.747680139923
"R2c.582",0.213209871329492,-0.00453814807951117,-0.380249781445227,0.501514636440819,-404.739872348585
"R2c.583",0.210712685713483,0.00246752825666333,0.191753261816369,0.62548689460364,-403.620868611323
"R2c.584",0.216259639548238,0.000314111738242954,0.0673098341319237,0.477274349366393,-377.905587554459
"R2c.585",0.202830026943766,0.0122365345287962,0.920903890060825,0.612219336338718,-389.415457591575
"R2c.586",0.223289867198754,-0.00974367387652312,-0.820800216619449,0.406160761096822,-369.496710034046
"R2c.587",0.207690145463447,0.00894829246192287,2.13048602359923,0.623734449888651,-401.611662498653
"R2c.588",0.208144787163489,0.00207181416182313,0.326850809051773,0.573588906710072,-383.067795544673
"R2c.589",0.216497713916562,-0.00696672739631036,-0.839811287543324,0.536830894612819,-401.321953156127
"R2c.590",0.227321862701138,-0.0247063285089521,-2.72951162805231,0.50651948196157,-402.657761577292
"R2c.591",0.212969354381027,-0.0021798385682012,-0.265428449665108,0.517095223349672,-392.579691997339
"R2c.592",0.209991114833241,-0.000970115831785542,-0.172482309625794,0.446594487212945,-386.351816882895
"R2c.593",0.206841555665049,0.00759469231610877,1.09274854673417,0.548367313205288,-389.243128593434
"R2c.594",0.207883430526085,0.00687051878746822,1.60452525435789,0.562504508647466,-404.902581302259
"R2c.595",0.214311281939057,0.000530539660901702,0.238831442776525,0.506738239146065,-376.278420326601
"R2c.596",0.21607267875063,0.00330488539969976,1.15663301071227,0.570887437480519,-380.078423954895
"R2c.597",0.209453148909213,0.0046854852396119,1.16174217783799,0.593494825421026,-378.708874284989
"R2c.598",0.216932478322574,-0.00314065312198605,-0.745646263403705,0.519742011978714,-377.333414714329
"R2c.599",0.216022075155529,-0.000279132796257192,-0.0281119618717584,0.543790947340259,-378.613710355025
"R2c.600",0.2138486156879,-0.00291337834296115,-0.533533388854658,0.485592211224786,-366.917591597597
"R2c.601",0.217334673794633,-0.00342232504800384,-0.90810852136628,0.573791564778161,-386.97562388256
"R2c.602",0.219040866210662,-0.00709978752129565,-1.19086133473009,0.51916729769499,-383.691462938838
"R2c.603",0.20312656283345,0.00924894484133773,1.52988571876187,0.483446114861038,-360.190147983971
"R2c.604",0.208426644969603,0.00673130601126513,0.570076240782768,0.485967819691946,-375.701194403895
"R2c.605",0.215550026900567,-0.00407585184533247,-1.03077809693965,0.553633464095144,-397.785844475749
"R2c.606",0.223629146245487,-0.016226197116477,-2.04433007145127,0.445514375759576,-370.422650943202
"R2c.607",0.215433224717678,-0.003285324458646,-0.607003654412966,0.42971739028446,-353.014079997056
"R2c.608",0.216800149773351,-0.00287078953583972,-1.544397215053,0.52296244689875,-390.970831793079
"R2c.609",0.211320878624988,-0.00334605839288202,-0.524368335753413,0.448122667135722,-397.006374462245
"R2c.610",0.201979746013307,0.0184496330166805,1.35486993757368,0.5886838673643,-374.077499972176
"R2c.611",0.217520036851243,-0.00743996685405789,-1.36312460854332,0.456107157064265,-403.071111313977
"R2c.612",0.208628495785848,0.00761887094325418,1.15410203527629,0.531625860176825,-365.806688987252
"R2c.613",0.213527075826291,0.00529006376741961,0.409886114735648,0.518700353137434,-373.48343390495
"R2c.614",0.215604945378255,-0.000288864535233513,-0.0735262043186752,0.50152629215738,-385.947751006182
"R2c.615",0.230912951317157,-0.0265796755606566,-2.2366742574763,0.508192261049086,-390.728405542469
"R2c.616",0.217173619999081,-0.00811746058153242,-1.10742242545716,0.452921220697554,-388.52597503968
"R2c.617",0.210272571465758,0.00181258486703831,0.869813970554817,0.649909165103486,-407.538556392381
"R2c.618",0.210849342004887,0.00249787226772978,0.352682672864579,0.520512815208007,-374.452971369794
"R2c.619",0.226178421480669,-0.0165891991812668,-1.6816638787845,0.46737229392544,-361.088428159712
"R2c.620",0.21128170674456,-0.00385926228533103,-1.06368062433051,0.552280118468473,-401.611263877792
"R2c.621",0.212180776931759,0.000139293831671171,0.0272309171915653,0.54578685657956,-396.661519458171
"R2c.622",0.213535168762572,0.000173888141423043,0.0188667961718837,0.466775031070397,-383.07478998708
"R2c.623",0.215072438565262,-0.00282805043561983,-0.286608836932576,0.49749483603835,-378.660213166791
"R2c.624",0.215184236682196,0.00477401816960673,1.45364094501477,0.610892062229792,-409.576063978259
"R2c.625",0.211939121353527,-0.000810122829951947,-0.187519411534608,0.52525266035468,-393.122515484287
"R2c.626",0.216583819832075,-0.00314672819570533,-0.387644909535087,0.439819342161321,-371.674275097511
"R2c.627",0.21115059655948,0.00388776906648615,0.584349693374302,0.547614722453249,-386.363582656537
"R2c.628",0.213209387583892,0.00357629565295685,0.783702603898898,0.441232827631446,-359.026377404033
"R2c.629",0.221719495769779,-0.0125491425784567,-1.1051594303132,0.57179988895154,-398.76730970354
"R2c.630",0.212159660166689,-2.450778959808e-05,-0.00655236708383271,0.448268976635107,-376.240584301762
"R2c.631",0.211425981805577,0.00488019004489062,1.00072002881776,0.561409003663373,-374.594599307836
"R2c.632",0.212177344765231,-0.000218638381971877,-0.0312268301732437,0.586382576411405,-392.274107956218
"R2c.633",0.206670765688729,0.0093052278277952,0.605547555482312,0.511671176939273,-352.045653564059
"R2c.634",0.220384586215681,-0.0101903536376741,-2.03701632604578,0.503392981833122,-385.939585095995
"R2c.635",0.221513747603684,-0.00910701466836679,-0.748900128142325,0.432251940837444,-360.331571039648
"R2c.636",0.212509372146445,-0.000857399496553523,-0.2371494206478,0.511765395304803,-367.615920684505
"R2c.637",0.214874778371031,-0.00520942774841012,-1.17375521986353,0.485715982641696,-379.300094522152
"R2c.638",0.196011974069406,0.0220397621220638,1.6178717805577,0.679015875896325,-388.484637365589
"R2c.639",0.201842823797863,0.00735964171194353,0.595456298123732,0.561082733071896,-384.793747304615
"R2c.640",0.218161405767091,-0.00259761602382793,-0.444050277284534,0.481125604150606,-371.773037538611
"R2c.641",0.211056962337617,0.000281339850654894,0.0422376064461186,0.441634342008191,-392.507311285143
"R2c.642",0.212673527416467,0.00366867309764123,0.558597736563168,0.49622926436812,-372.556147146056
"R2c.643",0.210046291621299,0.00348629510292722,0.580935041573478,0.579661648978379,-380.624199181989
"R2c.644",0.218371783073723,-0.00488167657065601,-0.610526495621397,0.588672083758378,-405.327980615107
"R2c.645",0.212128840315737,0.00265011840117942,0.749985585644557,0.579060610156483,-374.416798028359
"R2c.646",0.210380887905084,-1.98275647803012e-05,-0.0040017037940918,0.529493181409138,-397.357656298877
"R2c.647",0.214518383028034,-0.00584362220909413,-0.76423213746188,0.55456590870554,-393.738884036039
"R2c.648",0.215566446271371,-0.00533234673993248,-0.63546170760634,0.567167448176973,-389.827100916862
"R2c.649",0.214261901565298,-0.00182107852090335,-0.607498420216676,0.525382369913064,-376.255646702684
"R2c.650",0.208402530924951,0.00477324109930495,0.786501815508638,0.554402311175046,-388.082855806101
"R2c.651",0.226168970587819,-0.0135916601515736,-1.29266544973273,0.476179315589173,-384.24158172585
"R2c.652",0.211826205345147,0.00223386589636884,0.396386907414707,0.483716753795999,-377.014575373109
"R2c.653",0.20690961990021,0.00834546567617635,1.26869948858451,0.571268164314013,-374.54760736429
"R2c.654",0.21540925230549,0.000306774519305917,0.0407310244002459,0.528929677449794,-384.296095610033
"R2c.655",0.203686520292219,0.00861458397458926,1.60761652156196,0.552034163385805,-380.267513545599
"R2c.656",0.211930135508831,7.22618693107062e-05,0.0136051583826726,0.464736144638931,-368.756916723299
"R2c.657",0.217567161859653,-0.00618889191200167,-1.17833216271046,0.491057003865326,-387.380690458432
"R2c.658",0.218064203508665,-0.00738740647541536,-1.17233107691449,0.533943763594777,-378.662741080934
"R2c.659",0.21059015426693,0.00269284570982373,0.452066905539645,0.544054481085477,-379.68084869362
"R2c.660",0.211158967300848,-0.000285102406371074,-0.0751109147375684,0.538507818272272,-385.128633559022
"R2c.661",0.213085047425951,0.00200185507798714,0.186656013651437,0.537936840524643,-372.351284494765
"R2c.662",0.207983947856275,0.00380685733016587,0.479967991580134,0.522183243427113,-374.25417651606
"R2c.663",0.220154374292242,-0.0133128221516678,-1.09957728442015,0.516256998884379,-410.995627707322
"R2c.664",0.210793570696511,0.000476834843513135,0.0414020043275985,0.559309111872769,-401.614788130462
"R2c.665",0.213932389556439,-0.00225564075969083,-0.663926734261574,0.47584714594769,-398.018030775904
"R2c.666",0.21348800332641,0.00651866157315867,1.13329596257109,0.561997990068238,-381.271449975178
"R2c.667",0.222033263601561,-0.00878556126952043,-0.857108667816384,0.520611049139763,-386.02195517525
"R2c.668",0.220726616118009,-0.00867412378930427,-1.2473075033684,0.460576299739711,-370.872237672856
"R2c.669",0.214357630693667,-0.000322151927856392,-0.0848596876813662,0.512723860224016,-371.313607847824
"R2c.670",0.216126073707336,0.00119894108978842,0.34667113338857,0.418445477852954,-363.217616495975
"R2c.671",0.212352634322733,-0.00345171142046842,-0.692275814227555,0.560355141962884,-400.928288874041
"R2c.672",0.222119309055411,-0.00878222937621546,-1.08287240223417,0.477394038704973,-352.461690528683
"R2c.673",0.20629642864027,0.00936387490638342,1.85671758981457,0.52594635418027,-375.802958342428
"R2c.674",0.202482972425106,0.0100691911032,1.33695527673422,0.549705166599678,-386.382227651556
"R2c.675",0.212310063398566,-0.00490145008058978,-1.66314987983525,0.590850197975056,-407.542896347911
"R2c.676",0.22025384484502,-0.00596309587050186,-0.834251304046015,0.436883946262032,-366.36606982911
"R2c.677",0.210925447698415,-0.00209358773727439,-0.333031645410986,0.610541276340947,-405.376890340992
"R2c.678",0.21397965479736,0.000886217463469439,0.12721172411382,0.502035101729513,-384.864058992349
"R2c.679",0.216167801581142,-0.00529844562537322,-0.382060592744375,0.436643815329209,-373.556156595563
"R2c.680",0.230854409530889,-0.0199216963917313,-1.37480723832012,0.402207293775752,-358.766731140612
"R2c.681",0.208126658091345,0.00652257477531335,0.749580336838325,0.534894122078975,-375.014534752627
"R2c.682",0.213233856667641,-0.00241148946094096,-0.316285957936517,0.471878579809906,-379.438919999108
"R2c.683",0.222083578353247,-0.00639555741361567,-1.10827591848083,0.512113812436703,-382.160619686016
"R2c.684",0.210023992480584,0.00368858093413379,0.31719478498582,0.547608286207674,-392.995219424819
"R2c.685",0.21496570347649,-0.00381995898396466,-0.352880466060226,0.572430578242346,-400.601373552344
"R2c.686",0.204040275934868,0.00821837346756449,1.10658858109572,0.499930062622113,-374.403242385461
"R2c.687",0.213201297641288,0.00136075904851041,0.633561392581068,0.499766332221928,-369.727398965899
"R2c.688",0.208547986607244,0.00768997595425161,0.614032824912975,0.537592314947427,-368.595871370088
"R2c.689",0.214434784472988,0.00249462429066151,0.603247567179327,0.569974745790158,-389.859947584957
"R2c.690",0.21476735846406,-0.00687739619336994,-2.26067729537563,0.56387317024368,-406.084290976971
"R2c.691",0.210882167675952,0.00248038578502331,0.989064703324717,0.597385758651931,-415.913226858936
"R2c.692",0.222433330276289,-0.0141461192914932,-2.4993435475364,0.476632062393061,-390.173770912674
"R2c.693",0.219029453297575,-0.00784726669042229,-2.12692275407498,0.470411854809914,-365.079367731566
"R2c.694",0.202657670162659,0.00845919863329353,0.626860333673691,0.584307548121383,-408.322614215993
"R2c.695",0.211648647834914,-0.00260736835048199,-0.466373475458066,0.451299817498175,-388.595803014949
"R2c.696",0.218058005959004,-0.00374188752047048,-0.376998484529108,0.40632235508862,-356.009924431466
"R2c.697",0.210637708615849,0.00321912729510027,0.227126765201853,0.571961686776126,-388.287674503421
"R2c.698",0.20940678843362,0.00339841295046846,0.231794428395272,0.46764039422477,-363.553994262698
"R2c.699",0.216581931588983,-0.00341798432672722,-0.239982545459231,0.547306024655425,-377.023086970909
"R2c.700",0.204239362425165,0.00821117971759526,1.26388749855638,0.611064500463215,-412.300945044877
"R2c.701",0.237567873548545,-0.0300339620517004,-2.1847877467679,0.484491857312218,-368.665869623739
"R2c.702",0.213106175808189,-0.000769882955993583,-0.177258598072039,0.529373707894101,-386.289766223949
"R2c.703",0.210890016120235,0.00233137237594077,0.319015680002837,0.511873702267079,-401.080218551197
"R2c.704",0.215720230898111,-0.00709763519147099,-1.65678037186586,0.483419871496353,-377.397653489708
"R2c.705",0.217994519929539,-0.00168676001723501,-0.306207029742715,0.479239174427721,-379.899786618904
"R2c.706",0.208589459803451,0.00344873655286173,0.837507280964921,0.64327852063443,-402.933169316593
"R2c.707",0.207176490551413,0.00861121207534032,1.00144451636769,0.533683131184148,-367.758845844582
"R2c.708",0.2168579230495,-0.00425826822040448,-0.67385835643871,0.459268082968784,-390.291382159177
"R2c.709",0.210813411554894,-0.0016681675136559,-0.20556138198308,0.537804837307364,-389.168515206458
"R2c.710",0.211718262822993,0.00558960520218756,0.600996658639829,0.579278532457891,-383.917361734662
"R2c.711",0.21369519726363,-0.000259750404741098,-0.0860233781373612,0.533806772098156,-382.272429153233
"R2c.712",0.210694516178412,-0.00338686177423688,-0.419546919687437,0.492105102013694,-385.312094296105
"R2c.713",0.211484699223218,0.00348503924188627,0.292248086091223,0.490428251390513,-374.179559341621
"R2c.714",0.210447055593604,-0.00225977296555203,-0.981356523774016,0.573705576889734,-391.44186401001
"R2c.715",0.215216046992918,0.00129454454374021,0.33102586724049,0.516948740681585,-380.982312172319
"R2c.716",0.211157443298024,3.64225382621989e-05,0.01275660728374,0.530504959246967,-378.883927874761
"R2c.717",0.217240219341105,-0.00421299076594851,-0.353365206308023,0.615388385008987,-412.98825353658
"R2c.718",0.220394503883479,-0.0101247613595943,-0.886616192724116,0.42389004216407,-372.132835294843
"R2c.719",0.217180162470684,-0.00873284489722789,-1.35770957859733,0.480062939913772,-380.905064539051
"R2c.720",0.204488350077417,0.0149941208184104,1.52925106532455,0.629234969061948,-386.009990760007
"R2c.721",0.209116352198002,-0.00272135312253845,-0.622444018119727,0.590364647771009,-406.644348641323
"R2c.722",0.214059091461211,-0.00357932794676295,-0.260104736655082,0.549095791600194,-392.424514103182
"R2c.723",0.207455498514246,0.0114262704902541,1.05240660201038,0.563753308833431,-388.099208051017
"R2c.724",0.217207943034509,-0.0037752270389732,-1.11080256597364,0.467862139538215,-367.08416450917
"R2c.725",0.218556810300599,-0.011235652416105,-1.58143890586467,0.480521149629019,-381.117505773735
"R2c.726",0.230346925102521,-0.0181948751510238,-1.33963154183896,0.48266929850628,-380.815365824851
"R2c.727",0.210568365046147,-0.00133980330410929,-0.202077429738918,0.499575905243221,-384.11878010375
"R2c.728",0.216072912236963,-0.00161754057023387,-0.305620747367966,0.523600167302256,-386.672840658135
"R2c.729",0.206399911518474,0.00932332895873407,1.37205164089856,0.490407267394654,-375.382111009069
"R2c.730",0.2167805236331,-0.00720796410158881,-0.615292863738908,0.516035480826747,-394.09158303628
"R2c.731",0.214565355059346,-0.00325507630100983,-1.05878157916178,0.539436854784411,-398.050852355422
"R2c.732",0.216794356194625,-0.00360902497102528,-0.390781344743619,0.496537535209906,-392.825396340055
"R2c.733",0.222993774521191,-0.0112974779683101,-1.78814514290388,0.439632055718637,-355.51191913157
"R2c.734",0.216351285711255,-0.00954527435067715,-0.751767377805316,0.364594191145479,-371.978023797145
"R2c.735",0.214060515258084,-0.00151567582287679,-0.294715323078628,0.533036157845294,-363.375566172405
"R2c.736",0.217548571985024,-0.00719474854804824,-0.993212666209017,0.504516755925704,-388.410355957565
"R2c.737",0.215464529521989,-0.00101939049689099,-0.19934379357926,0.453207984849815,-377.362998893385
"R2c.738",0.216219863819793,-0.00846251107200211,-0.750846137733219,0.566154509988025,-387.003797665427
"R2c.739",0.212752189694138,-0.00355747653717202,-0.529677685163006,0.569181774406279,-403.034668631218
"R2c.740",0.223663685591427,-0.0126520871546776,-0.999926904575784,0.533719738288805,-399.917242539468
"R2c.741",0.208293574502808,0.00288478834324638,0.488574773138236,0.493149473537843,-385.866153577291
"R2c.742",0.2126260702893,-0.00165031710247407,-0.242050265138159,0.510956434833623,-398.168468154098
"R2c.743",0.226626426109977,-0.0180608545792932,-1.33096290067175,0.556346450345471,-393.843933590512
"R2c.744",0.208050343372488,0.00401813538784079,0.48334253079746,0.57489247906018,-384.655515953035
"R2c.745",0.209680588467818,0.00143820559990928,0.129806222954676,0.583316333744168,-404.260364335824
"R2c.746",0.217979766009403,-0.00298059877562349,-0.572747259185925,0.576983454652955,-366.18997823126
"R2c.747",0.210252084879626,-0.000443493167920768,-0.134572089076531,0.465159675302956,-375.09872860661
"R2c.748",0.214560356380746,-9.29335175606594e-05,-0.0347711837197132,0.53022824169208,-393.509023336149
"R2c.749",0.212109164539222,-0.000391350971400084,-0.0816236397832341,0.54979949655944,-376.333725762048
"R2c.750",0.223992753187569,-0.0131908147332749,-0.985730187881418,0.429249846812655,-363.882943855058
"R2c.751",0.224894674267445,-0.0162033129362054,-1.40643165927643,0.437803142683371,-369.767248663772
"R2c.752",0.206331162202786,0.00785484708187623,0.49735185303082,0.541049515605621,-376.144556398538
"R2c.753",0.218938236756454,-0.00991806830932932,-0.889049616032355,0.509060677839738,-396.548182895645
"R2c.754",0.207087192789706,0.00487725015494637,1.91153153468252,0.582871856578003,-416.912118746083
"R2c.755",0.209039170710301,0.000481715177918726,0.0475142720062428,0.498182100654699,-376.319453566864
"R2c.756",0.212908568848781,-0.00301983876171586,-0.774966533488769,0.52593847695001,-391.005552990616
"R2c.757",0.21599722497375,-0.00509454875672937,-1.21246093879784,0.476005355807797,-360.068307090693
"R2c.758",0.216579992802006,-0.00366257267861449,-0.293133227365877,0.45116253922898,-371.118580024337
"R2c.759",0.224697179474016,-0.0147298600875693,-1.48313610772999,0.512678966736133,-393.731083305012
"R2c.760",0.215638416821342,-0.00861718131341933,-1.10106752463269,0.540433960274222,-379.119328969108
"R2c.761",0.214263801545901,-0.00236253880842311,-0.184729282477,0.500280198505787,-390.281644300635
"R2c.762",0.212905216623469,0.00497168423999151,1.03360573206323,0.532470997904647,-376.164917492251
"R2c.763",0.224039781507904,-0.0109239644671783,-1.36073487770135,0.524938434994309,-379.419897497238
"R2c.764",0.21060124342872,0.00348713577941855,0.415543892172391,0.554511311643067,-379.611336054517
"R2c.765",0.208892009561985,0.004830966443323,0.707302389963667,0.557050234224848,-382.292126993383
"R2c.766",0.217752684583724,-0.00761051452525199,-0.567141107546476,0.43875185335005,-343.990471142732
"R2c.767",0.207421324559442,0.00760215854257488,0.671124386985436,0.468363006674738,-371.121617563721
"R2c.768",0.21945171631323,-0.0121206493524597,-1.61923779330818,0.413417959646855,-361.251885531925
"R2c.769",0.219021673104953,-0.00401583271002804,-0.431188205410196,0.422877794407105,-371.449373724988
"R2c.770",0.210734805869671,0.00216056547149014,0.689635464349173,0.568313862433898,-387.215330966598
"R2c.771",0.214934734840056,-0.00228800568534855,-0.554218520422115,0.52808334772111,-366.31705946292
"R2c.772",0.218670717157461,-0.00943776148368279,-0.902003143203469,0.345296522810424,-373.580814800835
"R2c.773",0.21210790934746,0.00747449542463452,1.18721476249537,0.5617427157537,-387.053517372397
"R2c.774",0.213071640227871,-0.00175798739593758,-0.395786676308838,0.560736048239215,-374.20803766041
"R2c.775",0.225131577470289,-0.0138935542774417,-1.47624649721363,0.402673865187704,-376.453444120833
"R2c.776",0.213852189862542,0.00112864981552616,0.117530125521291,0.532027698298257,-400.78975067772
"R2c.777",0.225341913184439,-0.0115893743388281,-1.09808217638392,0.509439907171844,-389.001812870004
"R2c.778",0.212540122128222,0.00552847429900146,1.51289233578587,0.592913040237444,-385.14212497504
"R2c.779",0.208707366810286,0.00121013106732407,0.282898809212694,0.49156580747804,-404.569657073263
"R2c.780",0.213344707119395,0.0032358688286636,0.594587992202508,0.518362199499929,-373.299601141039
"R2c.781",0.212170253623395,-0.00251636578003836,-0.180987714473479,0.478918015525009,-384.563259027149
"R2c.782",0.212517250440793,-0.000930341803628557,-0.132424234550532,0.572530559052564,-392.986543306387
"R2c.783",0.213064921796106,-0.00204873744810317,-0.219914877889286,0.590534695072855,-390.326095441368
"R2c.784",0.205286518189289,0.00988398616695376,1.39472901606878,0.548174324205179,-362.413562909227
"R2c.785",0.207035528450226,0.00399411639502524,0.947844248419126,0.530432795548881,-373.289890530501
"R2c.786",0.221533295547114,-0.0122918542816639,-0.77642135351729,0.424909870280927,-364.271208590579
"R2c.787",0.20844906119091,0.00068894097713233,0.237195784284439,0.460924653226767,-374.734110280387
"R2c.788",0.222360215366817,-0.00941940266867488,-0.649807307539321,0.48528075983688,-384.374070373762
"R2c.789",0.2165113973193,-0.000652563249980094,-0.0511344743317201,0.403617297102468,-361.904453974832
"R2c.790",0.21723215355627,-0.00379638170792378,-0.699415928256722,0.457490076291717,-378.044034602894
"R2c.791",0.205183322471147,0.00769928245422686,0.606873927154614,0.533348908290048,-383.716114439114
"R2c.792",0.216601641908685,-0.00232957823672403,-0.55427239928471,0.549025890727403,-388.670309473151
"R2c.793",0.219833055156775,-0.00938820013819152,-1.01643428057112,0.46270030451111,-363.965030756208
"R2c.794",0.214103415243497,0.00215467546927901,0.694810387150046,0.486661897414165,-366.52378679562
"R2c.795",0.210188509947032,0.00631690712587542,0.483424170145546,0.526705605294591,-362.107686249887
"R2c.796",0.210956647393237,0.00336999663690636,0.562347694567509,0.574441732180562,-385.792578955228
"R2c.797",0.226987119388915,-0.0267933267020813,-2.15792115152827,0.449135640857467,-392.283592100933
"R2c.798",0.219460066138656,-0.00862024142708034,-1.37304922321924,0.542234624590337,-377.89560432174
"R2c.799",0.212702762173225,-0.000646010259559186,-0.134392983912379,0.433299481935909,-369.562323177759
"R2c.800",0.209505104811483,0.000182437675131926,0.0602945651336326,0.525092299340774,-390.880881849742
"R2c.801",0.216936987964343,0.000875280570288134,0.0623722231021275,0.544703622814329,-384.831422860186
"R2c.802",0.205525967682292,0.00703530532531681,1.04591475040103,0.433536583481985,-348.941962597537
"R2c.803",0.208277518872121,0.00657333188562816,0.90981877365916,0.509053075563073,-355.19717886347
"R2c.804",0.220800489557295,-0.00847417023856145,-0.92660127742594,0.489496955931732,-380.035421790834
"R2c.805",0.217608942697919,-0.00804121562240596,-0.588155046747172,0.437873584483056,-361.221617503949
"R2c.806",0.213279963770852,-0.000786501922782577,-0.297494210772729,0.547497883150299,-400.459201066039
"R2c.807",0.220017893981949,-0.00900552745417417,-0.708562995285663,0.437398698481637,-369.099987079184
"R2c.808",0.221420487786376,-0.0130587799003108,-1.71069964931895,0.417760203051447,-363.170439415891
"R2c.809",0.205388572805427,0.00811895947835315,1.61956135487035,0.511919405053154,-371.039639098745
"R2c.810",0.21022147049164,0.00585037122039996,0.41248975568189,0.597872251935275,-396.419226564357
"R2c.811",0.223811575382485,-0.0133346875564091,-1.29695339242399,0.467951444834553,-375.839639874176
"R2c.812",0.216187941991221,-0.00478250289945193,-0.517017422056991,0.508532789763107,-382.874368435732
"R2c.813",0.211440496397678,-0.00123307747220012,-0.226561660719154,0.543835213441723,-382.8649503771
"R2c.814",0.221775419753492,-0.0112056194166829,-0.796879986467764,0.427116717287416,-379.799701963444
"R2c.815",0.211743822275617,0.000417857585343585,0.0816690445908176,0.495060656589488,-400.621547001539
"R2c.816",0.205327398968964,0.00524462051903754,0.638452374213415,0.537509142979508,-395.33464922017
"R2c.817",0.230130097100826,-0.0221473799510985,-1.68628243073119,0.375281588751481,-355.691688249381
"R2c.818",0.213848399193171,0.000256201260505374,0.0569401848651564,0.478402282492538,-375.054945071235
"R2c.819",0.209102860809997,0.00344455548744317,0.92568080970164,0.53132074427479,-381.331604671948
"R2c.820",0.203102124535265,0.0138618037618263,1.22484441151102,0.568362953040491,-366.049754449511
"R2c.821",0.215271825866928,-0.0018101928040423,-0.189126856094784,0.498158454340587,-373.023138127203
"R2c.822",0.211996197993973,0.00430847647840728,0.802897831362909,0.518832247833441,-376.563262940556
"R2c.823",0.208499411130692,0.00178942478650375,0.259213060496971,0.496935850458013,-402.964074174447
"R2c.824",0.21167921738411,0.00275443956243648,0.325863403616117,0.467614467122076,-372.352018617731
"R2c.825",0.217985168239362,-0.00813022525314728,-1.1783516649098,0.486933976210474,-376.069765156693
"R2c.826",0.205347527335145,0.00674346218088362,0.477654983473931,0.575488595165971,-397.490782715932
"R2c.827",0.216453051674087,-0.00118276230093544,-0.330612482595962,0.542986634246078,-400.196254148111
"R2c.828",0.21789233079135,-0.00830725340231774,-2.15616498383461,0.430734557925768,-379.354594298891
"R2c.829",0.212493768855328,-0.000168792551551887,-0.0701255759530449,0.580448301600446,-388.490439085436
"R2c.830",0.219573073248911,-0.0108185278047605,-0.804173739115877,0.487120191493645,-377.532901753024
"R2c.831",0.211274867398213,0.00500567141085418,1.54338006571774,0.675669434788005,-385.668526357171
"R2c.832",0.212182800947264,3.50293057360594e-05,0.012280559910569,0.556559818285605,-368.376295108501
"R2c.833",0.21308118622006,0.0021530928906848,0.868309999378408,0.594899503705284,-404.757191339934
"R2c.834",0.213800391438385,0.00156825977878901,0.776492983772758,0.546538902683063,-390.509317791275
"R2c.835",0.215498011356246,-0.00192256280365347,-0.476837736397381,0.586983283102628,-371.853854133191
"R2c.836",0.210823254175593,-0.000797731589556617,-0.477181051535091,0.608835399735646,-406.22511844582
"R2c.837",0.206828576377393,0.00585799283839785,0.356848999537741,0.541835917720539,-370.769432099544
"R2c.838",0.207162089646936,0.00287120759341489,0.382693377772089,0.589476124106332,-405.396919940358
"R2c.839",0.220398225615278,-0.00525387172212849,-0.402701248049132,0.560474976572591,-389.933174181232
"R2c.840",0.204902659888088,0.00755627479836357,0.588742550336249,0.569893581649465,-400.514708633119
"R2c.841",0.215814410394989,-0.00429178156175894,-0.500706747741475,0.496994473390576,-382.352276907963
"R2c.842",0.21653860929556,-0.00459463912720622,-0.331772207891985,0.400265985840411,-364.124597840008
"R2c.843",0.206616218826443,0.00746629658123828,1.62016704502272,0.527260675814972,-384.653666882058
"R2c.844",0.233058363280512,-0.0302629624911244,-1.98123284157318,0.449743901467131,-361.766465699442
"R2c.845",0.211752185074749,0.000828255505885203,0.0861544064305678,0.543959321449811,-386.244199902086
"R2c.846",0.19980747258493,0.0240264170393987,1.60256195803809,0.602193972633439,-360.543572999177
"R2c.847",0.209579344181779,0.00323986722670931,0.488124149792477,0.433366954752888,-370.913161691783
"R2c.848",0.208448397461841,0.0090120629307841,1.61887745064173,0.52338447825701,-351.819478154033
"R2c.849",0.215848141506605,-0.00331839545978414,-0.751945345468853,0.548349942090307,-388.843520336671
"R2c.850",0.217462958280184,-0.00777545718933508,-1.08735936918402,0.483309945140446,-369.398200263655
"R2c.851",0.214138998906978,-0.00639299981675947,-1.19066107472915,0.470024630994853,-386.861132722465
"R2c.852",0.21763879755827,-0.00508042291637466,-0.711156874783126,0.547071350590452,-390.418458294693
"R2c.853",0.205015730226839,0.00436020363773987,0.484375938304241,0.61129567405659,-386.965171465822
"R2c.854",0.209432648597056,0.00720269559785334,0.578796039078337,0.495213815207065,-374.093647431298
"R2c.855",0.215756544307397,-0.001872346541609,-0.42470966259608,0.456060300527993,-371.596345517272
"R2c.856",0.214922994519785,-0.00457346341624704,-0.553175483026733,0.468614884736123,-368.969740717985
"R2c.857",0.216742059842745,-0.00519008491802852,-0.539862080049229,0.468527633697614,-393.874743394606
"R2c.858",0.207897337562096,0.00461611639951309,0.346549354350187,0.540046678873144,-375.769260742794
"R2c.859",0.216598991202578,-0.0028318204740623,-0.411643788171284,0.432740938373227,-357.934565900385
"R2c.860",0.21392493685459,-0.00442418390275084,-0.62494603215579,0.518440842131864,-381.735715289005
"R2c.861",0.211212211836486,0.00146088776182522,0.483412621132625,0.535502471468559,-380.459521327227
"R2c.862",0.211468373346408,0.00258214088018716,0.892421740446807,0.539323047460556,-371.693119438656
"R2c.863",0.218598902505668,-0.00795682711771018,-0.999001188020724,0.483474168620263,-387.644186642461
"R2c.864",0.215557871106619,-0.0018203872741242,-0.238070189308169,0.468640157471146,-378.319029084816
"R2c.865",0.22145947220289,-0.00728033432988298,-0.734720585988029,0.561023424092892,-393.99534481398
"R2c.866",0.207138143215198,0.00209625930813354,0.450244891996027,0.531368276177525,-375.806785647625
"R2c.867",0.207645041685869,0.00986486503932041,0.859037691433018,0.544900758207946,-369.361090499632
"R2c.868",0.210038169300942,0.000694954562474228,0.129336940801895,0.562344374380149,-388.269020832371
"R2c.869",0.219699896671178,-0.00999145169666982,-0.780762458639447,0.525478123664676,-383.32721699112
"R2c.870",0.211508526907678,0.00232352967323259,0.174099892530559,0.47081434821313,-391.063050368836
"R2c.871",0.217011817616128,-0.00416937038210857,-1.05665721810642,0.455946972564203,-365.401030535246
"R2c.872",0.210398132256277,0.00471336772995641,1.04949878385022,0.562394239286878,-386.264362734877
"R2c.873",0.217319671138363,-0.00272010371869197,-0.177816415742349,0.459175948178314,-365.730790126074
"R2c.874",0.213184180569298,-0.00251893803520725,-0.388925879074175,0.532925145757405,-399.037728020803
"R2c.875",0.208426277127416,0.00587830311693436,0.640757248148724,0.566980006662377,-384.028287972053
"R2c.876",0.217288913701901,-0.00786332823595124,-0.597398755923498,0.491385165204114,-386.357241972431
"R2c.877",0.216346812035681,-0.00209799225550204,-0.246005711607706,0.451877206408309,-392.012455394713
"R2c.878",0.220872187262939,-0.0124027773103418,-0.917805380095167,0.438429772235181,-364.611865250558
"R2c.879",0.216193167335788,0.00102558691252854,0.11279195387646,0.542784731595744,-384.543679727883
"R2c.880",0.205263375715931,0.00649637439300692,0.588978381445075,0.571766810374096,-375.436304113661
"R2c.881",0.206501068214485,0.0041576550248402,0.866054864099635,0.53741919609647,-370.231054491416
"R2c.882",0.213938505026156,-0.0019707134292014,-0.449728713119375,0.537124369363659,-385.291786044304
"R2c.883",0.213295713094487,0.00113032310669212,0.125506484901881,0.516665532488607,-382.348434384318
"R2c.884",0.220401201482812,-0.0103764820241975,-1.15835283059892,0.44500222880837,-386.640241185041
"R2c.885",0.20983949006332,-0.00418793622537857,-0.91831362125953,0.554099684931741,-405.596387287353
"R2c.886",0.211159263921358,0.00360613915508715,1.01540695385985,0.434030007931248,-365.41677906061
"R2c.887",0.213632988306718,-0.00335883953665431,-0.650953641314908,0.475159703968417,-384.232547451466
"R2c.888",0.219769258971105,-0.00268479491696079,-0.450036153281744,0.565565316304724,-386.563989157912
"R2c.889",0.203819984355862,0.00951338927501961,1.0247354681141,0.527844278022562,-364.160498750846
"R2c.890",0.212157837767451,-0.00263615827813175,-0.745353185772499,0.484678199382544,-376.552197372582
"R2c.891",0.209646854672691,0.00272583888632757,0.697762325942119,0.456681919622373,-379.229561070692
"R2c.892",0.218294548248392,-0.00440951236863807,-0.814274887809085,0.507747432531975,-404.733933819554
"R2c.893",0.202729606465172,0.0132239990881511,0.844447831882147,0.506872407476536,-374.883483678605
"R2c.894",0.206581638105827,0.00282613215735247,0.425791744058056,0.562963839985093,-375.530099572755
"R2c.895",0.211792319315961,-0.00246644381524916,-0.211563535170186,0.442171705999547,-388.268586462118
"R2c.896",0.206861079569263,0.00251271024306498,0.193726624762156,0.485356495309141,-375.003643856381
"R2c.897",0.221096514234535,-0.0126529133069244,-1.01724343417958,0.502580519729995,-393.351908209711
"R2c.898",0.219408770332417,-0.0117529970616637,-1.16574222264908,0.501998076371038,-382.270547384773
"R2c.899",0.20704967515153,0.00651796229928954,0.566342472461693,0.563393573541233,-368.542825831885
"R2c.900",0.215966336559086,-0.00576623759756132,-0.654069494345181,0.480637818290497,-375.114654230657
"R2c.901",0.218092224462284,-0.00813389149730361,-1.53441291865279,0.509054752872818,-386.12374187288
"R2c.902",0.210466357011391,0.00316678328190849,0.299287564779268,0.605402619847654,-407.490053388404
"R2c.903",0.215953333559164,0.000378881673781528,0.0242135941693449,0.538203306974778,-372.134138043401
"R2c.904",0.21256445581199,-0.00175715262556328,-0.251150707521325,0.482240194472821,-389.225030990503
"R2c.905",0.214875135451268,-0.00713904373983802,-0.833116164173968,0.504407616110391,-406.83943921537
"R2c.906",0.217210482156742,-0.00412826364182086,-0.28891301721441,0.451021393472406,-379.560893971125
"R2c.907",0.223323125307125,-0.0130948541245033,-1.39912032322026,0.407549224787695,-372.532812475489
"R2c.908",0.21248427518017,0.00450032969214325,1.02035328552655,0.606573023904005,-390.209480703477
"R2c.909",0.229248650992275,-0.0236475676620275,-1.47605494364657,0.405173461722578,-360.540089519858
"R2c.910",0.214048538338351,-0.0037600599229409,-1.04144757907857,0.543143629943527,-359.659012774594
"R2c.911",0.212068118005852,0.00196999658668785,0.246402200669326,0.491148021149647,-363.363410814109
"R2c.912",0.21264741217358,0.0010238860573175,0.295527358938907,0.585843444321309,-395.399215981435
"R2c.913",0.215263634046495,-0.0029628889064105,-1.03744482453662,0.428090338212549,-374.727254017614
"R2c.914",0.21531699635575,-0.00333742402167368,-0.472328825047713,0.482515016898778,-399.533097910125
"R2c.915",0.215473916194596,-0.00153690602269383,-0.223842810678215,0.528497024244748,-396.178552255613
"R2c.916",0.21677479539869,-0.0026252440889819,-0.264053186785212,0.517543559567392,-384.571207201197
"R2c.917",0.214959430480271,0.000771322100242406,0.0841868690584503,0.556778380702626,-378.411993210104
"R2c.918",0.220015515119382,-0.00514782308142342,-0.804202011585485,0.478165815559169,-388.512452823646
"R2c.919",0.219713192894609,-0.0118609119008457,-1.14088844966346,0.455955180420241,-382.572533312877
"R2c.920",0.21166422678897,-0.00201546211895158,-0.22712454242892,0.513660160109983,-412.59935166839
"R2c.921",0.217233750993649,-0.00574254190822303,-1.10177405011586,0.541428312478667,-419.520835643258
"R2c.922",0.214419824597065,0.00381858250575608,0.885198918112759,0.552967298961091,-366.879590457472
"R2c.923",0.223182231755898,-0.0126603673556727,-1.07588827724194,0.514017568591782,-405.44042622475
"R2c.924",0.217882833266379,-0.00373020513771075,-0.361439241229278,0.509534516404821,-389.949238911239
"R2c.925",0.20915489516737,0.00308837561852204,0.346651031065098,0.515010913203991,-376.62689636744
"R2c.926",0.202953183127203,0.0110511302609811,1.68946509232512,0.608082188725133,-389.469756590768
"R2c.927",0.221866064924402,-0.0126969261276406,-1.05006291772006,0.517518318617007,-394.247073656394
"R2c.928",0.21846241385306,-0.00716868388139395,-1.22098269424216,0.467250345140481,-385.802889571005
"R2c.929",0.214784429561263,-0.00285580754669344,-0.513930754234459,0.51358101848062,-379.356139460864
"R2c.930",0.231671083447597,-0.0309501747076824,-2.20122608132357,0.486797848385178,-386.456484320041
"R2c.931",0.21030440947344,0.00468391042368969,0.353790058904085,0.571286458278626,-397.706055801429
"R2c.932",0.219932052256819,-0.0038121865469015,-0.633853941224068,0.487505972834953,-378.301044808551
"R2c.933",0.210973066736674,0.00048973477374194,0.119816907271051,0.518190710557496,-381.450227023335
"R2c.934",0.219400401517369,-0.00755099534131185,-0.767604899728901,0.541649524883592,-367.393373023033
"R2c.935",0.218858626406456,-0.00532035955792626,-1.31018947786485,0.467319142915018,-380.529756495923
"R2c.936",0.216120859706561,-0.00514040976220759,-0.596706462145197,0.539922226813013,-401.247425977506
"R2c.937",0.207667894071163,0.0151378846518257,1.9850228054759,0.618082893881746,-391.618745899368
"R2c.938",0.219928548695389,-0.00874573858737222,-0.810189234969421,0.588160776733443,-395.526918533351
"R2c.939",0.204778191350015,0.0103361963056774,0.828906839424277,0.548394141734656,-372.666241435792
"R2c.940",0.214640687264775,-0.00226958560718969,-0.556972873715689,0.502064474164213,-367.79318364351
"R2c.941",0.212188104981895,-0.000736672157214523,-0.0995238337753281,0.479817785081329,-379.597347849391
"R2c.942",0.220786329777248,-0.00888209543333149,-1.27281666009683,0.610296220715409,-404.877178322044
"R2c.943",0.221548590384682,-0.00779441496142484,-1.7693699657462,0.484128644843097,-367.165091811735
"R2c.944",0.222292575748665,-0.0135853537044499,-1.76144152510208,0.498962132874135,-367.541939815134
"R2c.945",0.218341477735325,-0.00382230865020191,-0.917990546535449,0.465387685062771,-370.838474605563
"R2c.946",0.21531007631755,0.00447816778510542,0.414888851576885,0.480705394013667,-356.720867118545
"R2c.947",0.216189461101872,-0.00520421416138104,-1.01166168273214,0.483230579398591,-382.78607420495
"R2c.948",0.210236671474336,-0.00293522652692157,-0.543685642500307,0.525955476586471,-393.58283130401
"R2c.949",0.215696828577186,-0.0112303791705139,-1.10999059073863,0.540202041017419,-386.0134746699
"R2c.950",0.225481317105642,-0.0220108085247822,-2.34770165478176,0.494802504319359,-405.293703409429
"R2c.951",0.214889486002034,-0.00360701326356159,-0.386350738691151,0.521661500002515,-383.447571519699
"R2c.952",0.209999983100828,0.00495769753830128,0.435122478423264,0.622024887914864,-390.017356736102
"R2c.953",0.217716949255517,-0.00841281106581823,-1.39367874400147,0.552992206182492,-413.54448081283
"R2c.954",0.226013768665265,-0.0109648641611701,-1.49238863159433,0.445181143322736,-373.660154190481
"R2c.955",0.207317126980075,0.00348949130852383,1.39232250807156,0.537134720365301,-389.339345219851
"R2c.956",0.220773885935023,-0.000905540947421812,-0.201743356025393,0.53901485777966,-365.716385094152
"R2c.957",0.226941047953976,-0.0142817890718667,-1.3533401975271,0.503481005303102,-382.160226956776
"R2c.958",0.206661615833126,0.00376199080462305,1.07195134825247,0.57726690892438,-392.238651426833
"R2c.959",0.207371537707036,0.0110140364412805,0.770677248250646,0.565214639336491,-379.777865318464
"R2c.960",0.214384655250208,-0.00473741352165917,-1.10177786736351,0.512358657692325,-391.909234759936
"R2c.961",0.216141434026288,-0.00431598253222094,-0.49952100758991,0.460061621708327,-392.841620422429
"R2c.962",0.21406198334946,0.001972440279125,0.531730070424674,0.503518483407291,-374.070840454953
"R2c.963",0.217440742990059,-0.00811323896208895,-0.730362420468645,0.471386078595107,-367.357681066952
"R2c.964",0.210819284920007,0.00710245842556479,1.50545172444726,0.487960440959873,-362.022379408483
"R2c.965",0.2145539411874,0.00128558835187274,0.416251070328464,0.536591096474278,-379.026764305266
"R2c.966",0.210684965694697,0.00390203447715767,1.407235608028,0.586001759069858,-415.078853234174
"R2c.967",0.209538284436002,0.00388346731783823,0.315820106636801,0.433946260391974,-377.702127601454
"R2c.968",0.221250072334461,-0.00284282802459685,-0.401187134843195,0.517228281448135,-379.529610341221
"R2c.969",0.217338377045506,-0.00117560867239355,-0.102425993812642,0.519926699670295,-373.453231654189
"R2c.970",0.205920895122266,0.0071635789499218,1.11648542482887,0.427114646550636,-361.852131167905
"R2c.971",0.208441737934695,0.000603120917499268,0.122285308104901,0.59662635537723,-407.916735685866
"R2c.972",0.210385446692863,-0.000595547372116259,-0.138608208159274,0.509357547554458,-382.810269559291
"R2c.973",0.21224661116192,-0.000711266750357844,-0.053809142518626,0.563322922280731,-384.103172033137
"R2c.974",0.229753795079631,-0.0183418545727731,-1.52651331687712,0.481445136653373,-377.06191081783
"R2c.975",0.211834925547864,0.0068108330463345,1.03989391540528,0.522400791511039,-386.536875155367
"R2c.976",0.213134531587022,0.00277331925833713,0.622491560637277,0.536455459641778,-379.582987986607
"R2c.977",0.223921873292919,-0.015488169360381,-1.50141597430207,0.484615321603429,-390.180073900763
"R2c.978",0.206913248513894,0.00906059910710196,0.589705919959449,0.550719822631589,-382.423444012265
