"","intercept_mod","scal_mod","p_mod","rsq_mod","adj_rsq_mod","aic_mod"
"1.1",0.236289369536329,-0.00200009339778003,6.99626436390166e-05,0.139175722145698,0.131054738392355,-353.148898342876
"1.2",0.231965299283386,-0.00198139565033161,7.19285005990933e-05,0.138747881809844,0.130622861826918,-356.893312262813
"1.3",0.23251118601565,-0.00171670979635895,8.19387226224592e-05,0.13673425268663,0.128590236202542,-384.316190542772
"1.4",0.231262302296653,-0.00201371014157099,6.52542587412259e-05,0.140250747342612,0.13213990533641,-354.431856269216
"1.5",0.231357856100926,-0.0019280633768492,1.19054607066755e-05,0.166207278018814,0.158341308943519,-385.919246289335
"1.6",0.228677366879865,-0.00212755762850342,1.86536657620214e-06,0.193796843866334,0.186191153714129,-384.373735754589
"1.7",0.233676776162875,-0.0021326930831429,8.65413105234779e-06,0.171007694947464,0.163187012824327,-366.805845737452
"1.8",0.229058475779708,-0.00183623882140765,6.37341676988529e-05,0.140614239877982,0.132506827046642,-375.322611143131
"1.9",0.232056523312709,-0.00200689378393786,6.97726243168054e-05,0.139217704784858,0.131097117094149,-354.70250162498
"1.10",0.230049380587079,-0.00190945494391513,0.000155831961231611,0.126755782010849,0.118517629010951,-353.574901537617
"1.11",0.232558201873349,-0.00189061064781027,9.88413225125396e-05,0.133830520853573,0.125659110672946,-362.034152286114
"1.12",0.230881771546758,-0.0021007176115674,3.15884073218709e-06,0.186032428054697,0.178353488696723,-382.29413941378
"1.13",0.231153044422833,-0.00180525779185843,5.8541364238882e-06,0.176861113091075,0.169095651893821,-407.90049982399
"1.14",0.233124587929893,-0.0020554600605641,4.01867150306412e-06,0.182463424920219,0.174750815721353,-384.311354080397
"1.15",0.230310440402365,-0.00211207879849497,6.44269722412111e-06,0.175429590769535,0.167650624644719,-373.32539166268
"1.16",0.235235462198797,-0.00201022107773573,2.56962488401398e-05,0.154541243311397,0.1465652173049,-367.386260779147
"1.17",0.228894692219768,-0.00205947356290304,2.53853447850921e-06,0.189262364420949,0.181613896160769,-388.770635364168
"1.18",0.230849410056118,-0.00198894129294908,2.30254040694405e-05,0.156212809153084,0.14825255263566,-371.158286656221
"1.19",0.232155234915489,-0.00201677357884511,4.05466355780063e-05,0.147568425039066,0.139526617728113,-361.108208874445
"1.20",0.23689842987659,-0.00234922003526237,3.65765355058169e-07,0.217419546723971,0.210036712259102,-378.381745401423
"1.21",0.235139952485671,-0.00210254649552174,1.52822496133202e-05,0.162434410148886,0.154532847980479,-364.339077147375
"1.22",0.231734604377441,-0.00223616674724319,1.98804375993019e-06,0.192861245168198,0.185246728613181,-372.800997373495
"1.23",0.230781900671244,-0.0018264959430347,1.81196028535985e-05,0.159853729763193,0.151927821553411,-392.494596406569
"1.24",0.233827064281733,-0.00206612962535338,5.66243935682261e-05,0.142436729176433,0.134346509640362,-350.732622446482
"1.25",0.237630049834326,-0.00225245386985216,7.53812899439357e-06,0.173078874010584,0.16527773131257,-357.192924714264
"1.26",0.236263683583864,-0.0020280660799633,5.30164430960144e-05,0.14345001814946,0.135369357943323,-356.161752669683
"1.27",0.237122221758454,-0.00216637970444742,5.15675714125184e-06,0.178753446723526,0.171005837730352,-369.786445078241
"1.28",0.231928200679341,-0.0017929716771599,0.000104442200712947,0.132975926937342,0.124796454549959,-373.408979153976
"1.29",0.236312907138703,-0.00214602412956258,3.06124144616303e-05,0.151869863614858,0.143868635913111,-351.173816764333
"1.30",0.227228315569891,-0.00171859057534069,0.000259982205411914,0.118760291066486,0.110446708906736,-368.48464987085
"1.31",0.23666129618145,-0.00201815372619822,5.51016814217724e-05,0.142856374126313,0.134770113504863,-354.826394471774
"1.32",0.229293828036274,-0.00183428809503051,8.9420469352553e-05,0.135382179348951,0.127225407456017,-370.617986824192
"1.33",0.226996540597652,-0.00163181301826012,0.000119247064164969,0.130918345948752,0.122719462419967,-388.340523018148
"1.34",0.22860862489397,-0.00185515906469365,1.66221550338323e-05,0.161161589464089,0.153248019553373,-390.412683073801
"1.35",0.23179199155183,-0.00204835738667643,6.41206240994749e-06,0.175500860459846,0.1677225666906,-379.84276241005
"1.36",0.235091906682724,-0.00232990056610382,1.33119867170385e-06,0.198737551426213,0.191178471722687,-368.552664797857
"1.37",0.225659184253236,-0.00163316050845838,0.00041906473773752,0.111265977237886,0.102881694004281,-370.844391148722
"1.38",0.232627736950009,-0.00188536511916021,2.6155352213898e-05,0.154271290743076,0.146292718014238,-380.777617363693
"1.39",0.234013491668589,-0.00210038239559482,2.95213479492703e-06,0.187033427508239,0.179363931541336,-382.92590123288
"1.40",0.230906171644526,-0.00206600749731471,6.33950883358372e-06,0.175670998781502,0.167894310090761,-378.165042637668
"1.41",0.237911354723995,-0.00217772978488262,9.83123039959959e-06,0.169090964044735,0.161252199554591,-360.611670179889
"1.42",0.232047335594173,-0.0020521429332678,1.20662693267491e-05,0.166004883721357,0.158137005265898,-372.124870688824
"1.43",0.228456561511815,-0.00187990394369226,1.98527983421605e-05,0.158466986965738,0.150527996276735,-385.06183714625
"1.44",0.237554608173593,-0.00273957681906871,1.81686316462744e-08,0.259370943087658,0.252383876513013,-370.829454443681
"1.45",0.235473195211013,-0.00206647351945235,1.76257151096208e-06,0.194628717569907,0.187030875282831,-391.526066815455
"1.46",0.233929881562133,-0.00207305302199689,1.12492523316608e-06,0.201193627602487,0.193657718428925,-395.557142160161
"1.47",0.230872761775785,-0.00207976369537144,3.05997702736423e-07,0.219970015809145,0.212611242373382,-407.023058771561
"1.48",0.230465526766248,-0.00199863340354475,2.3923480389398e-05,0.155630308903211,0.147664557100411,-369.808153749352
"1.49",0.232331160751735,-0.00203339470571002,1.49896201491579e-05,0.162727009508811,0.154828207711724,-371.713043287712
"1.50",0.232912044047697,-0.0019367954142057,1.05011146567503e-05,0.168098879048251,0.160250755265687,-386.550715036002
"1.51",0.226290984297769,-0.00178575525108386,0.000327402305492129,0.115144935175462,0.106797245884664,-355.618026309008
"1.52",0.233332593056213,-0.00203637810212434,3.0191639404172e-06,0.186701462053898,0.179028834337426,-388.328984694615
"1.53",0.230936484362577,-0.00176179836767483,0.000226351096039366,0.120928397203273,0.112635268875002,-365.033001590973
"1.54",0.233510170062007,-0.00228575621340311,1.74356148262334e-06,0.194787779090902,0.187191437384213,-369.931154490765
"1.55",0.23439304774842,-0.0022674351576348,2.57831069669371e-06,0.189033008707647,0.181382376714323,-366.2688000018
"1.56",0.236064282939996,-0.00195228082314503,4.85059238281555e-05,0.144817185730167,0.136749423331395,-365.372026942401
"1.57",0.231981417767678,-0.00212422979476844,1.21948017487393e-06,0.200017052709157,0.19247004377245,-389.28693248583
"1.58",0.23679642457555,-0.0021772438289526,1.00751140775681e-06,0.202798264793585,0.195277493706732,-386.036344597791
"1.59",0.23000504142822,-0.00178258834071272,7.83958673837482e-05,0.137417672717581,0.129280103592275,-378.720208974377
"1.60",0.228650336662267,-0.00180103788434219,8.94009293524686e-05,0.135385562769515,0.127228822795643,-372.23184136967
"1.61",0.231774840757219,-0.00210492730029295,6.71738575128263e-06,0.174805075753989,0.167020217978084,-373.017469078601
"1.62",0.230380246434581,-0.00208230239840533,7.89892732359681e-07,0.206330859208742,0.198843414484296,-397.884006695426
"1.63",0.227749001261494,-0.00182089043918506,0.000146930595119565,0.127671823531019,0.119442312432255,-364.869361665107
"1.64",0.236769486767094,-0.00216399168280433,1.24024580153465e-05,0.165590212139548,0.157718421688035,-360.294156010418
"1.65",0.232523800659367,-0.001932366419767,0.000141594385934102,0.128247670554036,0.120023591974357,-352.729708524659
"1.66",0.228012499512822,-0.00175529816467151,0.000176031485224124,0.124855674379443,0.116599595835853,-370.134774304566
"1.67",0.237030028873136,-0.00228402425843253,1.39438746342644e-06,0.198059914512235,0.190494442007633,-372.467121682245
"1.68",0.232590762376892,-0.00213134505234667,7.5287806573088e-07,0.207026013878674,0.199545127217152,-393.493285786687
"1.69",0.231880301347436,-0.00206875334505519,1.2690155314001e-05,0.165244060745352,0.157369004714648,-369.979670350915
"1.70",0.232613673419962,-0.00195189460540928,3.63278381014891e-05,0.149251819297814,0.141225893064774,-367.214265726786
"1.71",0.232718943315316,-0.0020315724898367,5.11698030268077e-05,0.143995314924993,0.135919799028058,-356.05386256854
"1.72",0.227166022554711,-0.00182358954027381,0.000227664944375486,0.120837872946949,0.11254389061626,-357.520464008648
"1.73",0.226640237895502,-0.00181383942728493,0.000105123730842671,0.132875044444464,0.12469462033545,-370.789776936226
"1.74",0.230230812752894,-0.00199992138476576,8.34313519809861e-06,0.171557119375082,0.163741620501262,-381.642095316964
"1.75",0.228739769408484,-0.00206236382801202,1.63472494382592e-05,0.161414269244019,0.153503083104812,-367.564429361674
"1.76",0.233280037328738,-0.00194109839206889,2.40783564270915e-05,0.155532040896938,0.147565362037475,-375.749942858693
"1.77",0.235793871803764,-0.0021924816467909,5.74385097295148e-07,0.210935769687479,0.203491767514719,-389.7625337023
"1.78",0.234540828130985,-0.00188613344421781,2.86086948888498e-05,0.152903598486062,0.144912123000082,-379.092494104346
"1.79",0.233430130172411,-0.00238529705078436,1.3911750823437e-07,0.231151597447465,0.223898310630932,-384.35735605491
"1.80",0.234510212029202,-0.00206899822084313,4.65100359502398e-06,0.180290887342018,0.172557782505622,-381.323934080229
"1.81",0.228371143430443,-0.00179370521976132,0.000123832397761959,0.13033213304625,0.122127719207063,-370.572957975971
"1.82",0.237254000194661,-0.00235006881280795,2.70732233010532e-06,0.188312388034891,0.180654957733334,-359.684328634907
"1.83",0.235422358503524,-0.00220323357483943,1.22380726165447e-05,0.165791569492278,0.157921678638431,-356.604677577297
"1.84",0.236005819580048,-0.00225957033540994,1.59104971887113e-06,0.1961294012719,0.188545716378239,-373.379791315861
"1.85",0.229750327440824,-0.00213444809039174,1.81020754159275e-06,0.194237439839445,0.186635906253024,-384.451910724444
"1.86",0.231917550132835,-0.00193193293118155,2.17263505092509e-05,0.157096327065265,0.149144405622485,-378.035951466186
"1.87",0.23262134056799,-0.00194308379080488,5.66588764526317e-06,0.177349071667451,0.169588213852993,-392.22603888208
"1.88",0.235775092911486,-0.00222954032614213,5.46704973594687e-07,0.211647596806657,0.204210309984078,-386.769855646019
"1.89",0.234198888566315,-0.00228345301548936,9.17366608372895e-07,0.204160543304775,0.196652623901989,-376.163368361762
"1.90",0.230358009479463,-0.00202308511500318,1.46288901178835e-05,0.163095555283287,0.155200230333129,-373.149323430467
"1.91",0.236835255646972,-0.00240281220857023,1.15434993294553e-07,0.233777965571722,0.226549455812965,-382.044950441206
"1.92",0.236257803402165,-0.00214546160418297,1.44346549657584e-06,0.197554149979396,0.189983906111277,-385.698477263351
"1.93",0.23531958557733,-0.00243508898143252,3.86472656917789e-08,0.249018058982145,0.241933323689524,-390.553934140309
"1.94",0.236557214810716,-0.00247502743509412,3.37222975037772e-08,0.250897465682724,0.243830460641995,-386.916015230563
"1.95",0.231633020054674,-0.00188350203497328,1.9720395834551e-05,0.158568625721924,0.150630593889112,-384.994484547092
"1.96",0.222961526525827,-0.0014411595972824,0.0006123577695192,0.105289270083044,0.0968486028196763,-391.799735643608
"1.97",0.23432243994447,-0.00206553721033638,2.62716954744758e-05,0.154203623601879,0.146224412503784,-361.33003250145
"1.98",0.229985875134572,-0.00183008858499229,3.66903446102727e-05,0.149099780937507,0.141072420380314,-382.986315654392
"1.99",0.231155181929159,-0.00219897155545604,9.36110240477848e-07,0.203866747778721,0.19635605672003,-384.355386420967
"1.100",0.232084587916614,-0.00184484328781158,4.87966420535068e-05,0.144725353437714,0.13665672469656,-377.762552559029
"1.101",0.233006251045801,-0.0020084138586299,4.08250396369484e-05,0.147463502146598,0.139420704997037,-361.691447659365
"1.102",0.232074829013954,-0.00223995629661383,1.28303367887273e-05,0.165078191751803,0.157201570919272,-352.73051594541
"1.103",0.228549257862128,-0.00185587911931238,1.67445972110672e-05,0.161050370695971,0.153135751551593,-388.990720709232
"1.104",0.231997702844983,-0.00189905394568216,7.54104583640767e-05,0.138017685558865,0.129885776932062,-365.433370881987
"1.105",0.232237226221167,-0.00199867012795699,9.86838914526104e-06,0.16903421043074,0.161194910529143,-380.273419371576
"1.106",0.23089120540915,-0.002131045376928,2.14673494200212e-06,0.191731972667659,0.184106802598486,-383.123353042925
"1.107",0.233901884088391,-0.00214320610534608,2.81009855610698e-06,0.187762119770295,0.180099498258694,-379.165782705612
"1.108",0.231410532495166,-0.00197657867412025,4.2227958211923e-05,0.146945302816886,0.138897616994403,-364.099386383061
"1.109",0.225598015519291,-0.0014612146923718,0.0010251550217337,0.0971417707799351,0.0886242403155947,-379.071528407527
"1.110",0.23313329250662,-0.00187724639292413,0.000128263239656407,0.129785715786952,0.121576147067961,-360.153823750611
"1.111",0.232012867956653,-0.00212950133200924,3.73103912777297e-06,0.183565731528762,0.175863521448844,-377.570575703443
"1.112",0.233567724771777,-0.00209953522325553,2.73610422910521e-06,0.188156241501275,0.180497338119212,-383.739526450547
"1.113",0.230725823989204,-0.00198086134368708,4.19224893515567e-05,0.147056671718052,0.13901003654558,-363.794499449291
"1.114",0.238745461601335,-0.00226440978007339,4.36335175449601e-07,0.21489050026556,0.207483806871839,-385.256866225104
"1.115",0.231691470019408,-0.00232727751556315,2.24846510490647e-07,0.224358166895222,0.217040791111215,-385.514519757889
"1.116",0.232590063980602,-0.00201921259289662,2.71586308769443e-06,0.18826588305524,0.180608014027459,-392.350812740608
"1.117",0.233155345336212,-0.00227699131419116,1.30755990639523e-07,0.232024870568066,0.224779822177198,-394.658556565868
"1.118",0.2350896355606,-0.00204198568027714,3.4085708211731e-05,0.150226832380478,0.142210104384067,-359.512493209006
"1.119",0.229701799981417,-0.00184448297326936,0.000185215228377063,0.124062134557401,0.115798569789074,-358.54587887157
"1.120",0.231769575009728,-0.00181198293453197,9.49812864598023e-05,0.134447828912892,0.126282242393203,-372.440586365176
"1.121",0.233299492131084,-0.00216023886325629,3.46492951558221e-06,0.184662829803867,0.176970969707677,-374.812919072761
"1.122",0.225656426353104,-0.00171762566343999,6.37145078167329e-05,0.140618996942429,0.132511628989056,-388.962368229741
"1.123",0.2355166381585,-0.00242192917911493,1.71382585192e-06,0.195040042313563,0.187446080448596,-357.858296760469
"1.124",0.233478165185985,-0.00210879073697772,8.23695168735204e-06,0.171749343551784,0.163935658113593,-370.917134496389
"1.125",0.231947478478072,-0.00230077462181118,7.38872118327153e-07,0.207297863747912,0.199819541707798,-376.980271888003
"1.126",0.237016957063218,-0.00234061318292477,5.63963589688308e-07,0.211199725973652,0.203758213954535,-375.399668409893
"1.127",0.227252645069915,-0.00183978861101495,5.2011022722534e-06,0.1786258100033,0.170876996890123,-405.531944859864
"1.128",0.23061969260354,-0.00206656919507724,2.17318894398659e-06,0.191551755181499,0.183924884947362,-389.116359318003
"1.129",0.232401178332616,-0.00211332284561385,4.36329224780659e-06,0.181240807871955,0.173516664549992,-377.205443914783
"1.130",0.232009049932829,-0.00224744485230218,9.73283873332378e-06,0.169242268021376,0.161404930927238,-354.319758352379
"1.131",0.231177587306832,-0.0020507632276442,2.26745100606362e-06,0.19092670976554,0.183293942876535,-390.855620038957
"1.132",0.238137132246601,-0.00230138873296221,1.30928191456236e-06,0.198980007540506,0.191423215158812,-370.99402680005
"1.133",0.232173372652518,-0.00194677657755641,1.71848142574875e-05,0.160657026865786,0.152738696930557,-379.037961059408
"1.134",0.230173468866446,-0.0018622968456662,6.66084678746739e-05,0.139933898707222,0.131820067562951,-371.142722488142
"1.135",0.227328367955737,-0.00174996788766393,9.01929922804955e-05,0.13524899643626,0.127090968100753,-379.481811507503
"1.136",0.234621079553486,-0.0020768812330671,4.32925261492896e-06,0.181357254519128,0.17363420975044,-380.674264076811
"1.137",0.227999614012258,-0.00159682996359305,0.000629662336920804,0.104849426414916,0.0964046096829807,-369.306596945007
"1.138",0.227930276179865,-0.00155619226115858,0.00049913496665532,0.108513098338293,0.100102844549031,-374.977898257186
"1.139",0.235139607944045,-0.00216728676774371,1.19888096353906e-05,0.166102040555088,0.158235078673532,-360.072306195133
"1.140",0.232791359565122,-0.00188264971251398,7.18737195495431e-05,0.138759646824762,0.130634737832543,-367.834890546255
"1.141",0.237685378475679,-0.0021852583481262,1.07508330258206e-06,0.20185364637284,0.194323963791451,-384.46126335241
"1.142",0.230864399876533,-0.00178966493314524,2.88698584790741e-05,0.15276488257171,0.144772098445028,-391.210439211043
"1.143",0.23194702003837,-0.00227884622814198,2.6795604433825e-07,0.221863073715361,0.214522159316449,-388.170307485042
"1.144",0.233189542905868,-0.00194863511570232,2.58521353331682e-05,0.154449052186496,0.146472156452406,-373.056860651623
"1.145",0.23537383018404,-0.0019979011378105,4.75039957498091e-05,0.145137893414908,0.137073156560332,-360.22821744276
"1.146",0.23839587970699,-0.00219607428741444,4.52833629572259e-06,0.18068860565867,0.172959252881865,-368.809039022143
"1.147",0.234178923595792,-0.00188240273861312,1.86279963498493e-05,0.159433848574363,0.151503979221291,-385.783852520011
"1.148",0.230513332771327,-0.00181440300779527,0.000141065439745891,0.128305915594202,0.120082386496034,-365.545318029952
"1.149",0.235278819897531,-0.00207378844552043,1.20326429879549e-05,0.166046985100186,0.158179503827546,-369.967228311581
"1.150",0.234354996026641,-0.00224238698118725,6.33280274262479e-06,0.175686821354785,0.167910281933604,-360.479883732284
"1.151",0.233383080979226,-0.00212937833838942,9.4571132031107e-06,0.169674445312006,0.161841185362119,-367.27607175327
"1.152",0.236831841121387,-0.00199106547336798,1.62804537718122e-05,0.161476297393632,0.153565696425647,-375.344212599863
"1.153",0.231836318622032,-0.00200033337890307,4.95415793363396e-05,0.14449248576045,0.136421660154416,-359.382477169242
"1.154",0.237464833588181,-0.00219611177403352,6.22402341566553e-06,0.175945811577014,0.168171715459816,-364.051228349833
"1.155",0.236210708365043,-0.00230832108735695,4.26111634418319e-06,0.181593078048416,0.173872258030005,-358.4077181603
"1.156",0.234070883266597,-0.00214915492610071,1.20284598941514e-06,0.200217376048026,0.19267225695414,-386.847129006308
"1.157",0.230355866701734,-0.00199359087422468,0.000155262263219985,0.126812840324755,0.118575225610837,-344.550213071939
"1.158",0.232872153283552,-0.00178587946490188,5.63169918211259e-05,0.142520540865647,0.134431112005889,-382.647464555033
"1.159",0.232036644123921,-0.00203386395962814,1.43996879423094e-05,0.163334409606745,0.155441337999262,-370.509584510064
"1.160",0.227287072714859,-0.00147549344560492,0.000565726750607217,0.10653889790886,0.0981100195872456,-386.394309131524
"1.161",0.227515206086414,-0.00168230060098627,0.000244863088178412,0.1196983896566,0.111393657483549,-373.658032570608
"1.162",0.241411575526747,-0.00252073035797775,9.33820654149974e-08,0.236752117633481,0.229551665913042,-375.261815027089
"1.163",0.234709390048684,-0.00241681981716976,8.38820096811384e-08,0.238253293210262,0.231067003523566,-385.719129899445
"1.164",0.236247551782389,-0.00234461620263038,1.71933472158766e-07,0.228161255120697,0.220879757527496,-386.298914615248
"1.165",0.224995683498322,-0.00187379973584345,2.85414630034964e-05,0.152939510685504,0.144948373993858,-380.634631651374
"1.166",0.228887511992782,-0.0019238279958838,5.15133300638596e-05,0.143892418249555,0.135815931629268,-367.971224496041
"1.167",0.233777745910713,-0.00220354625040721,8.90268702712229e-07,0.204595907221696,0.197092095025674,-384.565225945215
"1.168",0.238649221327877,-0.002326699701845,2.90623374053457e-06,0.187265066397846,0.179597755703486,-360.37701388899
"1.169",0.237958235703844,-0.00254041907581304,8.74383252125344e-07,0.204857235104817,0.197355888266183,-353.51556049293
"1.170",0.232708544817629,-0.00190688330643281,3.55444884051679e-05,0.149585543290423,0.141562765396936,-374.878773389085
"1.171",0.230904537488587,-0.00195453728757311,4.71807485509334e-05,0.145242788272051,0.137179040991599,-365.770622407863
"1.172",0.229479713265295,-0.00186402059085131,6.79276499326794e-05,0.13963130610041,0.131514620308905,-370.959264064645
"1.173",0.232874156379357,-0.00194554688126313,3.00512671889312e-05,0.152152470662935,0.144153909065415,-372.718580033109
"1.174",0.236940653476258,-0.00215852945998581,1.49421299796137e-06,0.197048685537587,0.189473673136998,-384.063941557343
"1.175",0.231474245865241,-0.00211470763399115,2.65173229131238e-06,0.188618657746026,0.180964116781365,-381.826339749102
"1.176",0.23804155867327,-0.00196988085333438,0.000120957078764083,0.130697163610904,0.12249619345629,-349.641839540872
"1.177",0.234243993173542,-0.0018545795578791,0.00022773725139372,0.120832906011682,0.112538876823113,-352.281565367054
"1.178",0.232415000710768,-0.00216939873559125,1.0013345434817e-06,0.202887703866903,0.195367776544893,-386.264228779628
"1.179",0.227317269306325,-0.00161690902246933,7.98935691777064e-05,0.137125114669018,0.128984785562121,-399.396918287688
"1.180",0.236773723291586,-0.00227962190642879,2.89676775684146e-07,0.220752109202099,0.213400714005893,-387.68764724244
"1.181",0.237198321674019,-0.00221795156813112,4.27753269910671e-06,0.181535922110602,0.173814562885231,-367.150475745576
"1.182",0.233757440512124,-0.0021603969420988,1.53623351425271e-06,0.196642779188048,0.189063937482275,-382.005086094077
"1.183",0.239184967243622,-0.00238821050112396,3.47072181309588e-07,0.218170212531486,0.210794459819518,-376.032488366976
"1.184",0.234715007666906,-0.00217836062289659,2.96026653106342e-06,0.186992761103077,0.179322881490842,-375.009180788554
"1.185",0.233055982773362,-0.00189055888154762,4.11250967934242e-05,0.147351206834202,0.139307350294901,-374.770421528477
"1.186",0.228932722143052,-0.0018647727886377,5.34515757706294e-06,0.178218459748018,0.170465803707905,-402.325586318193
"1.187",0.235469668274928,-0.00190483416852818,6.18097291147898e-05,0.141086907203823,0.132983953498198,-367.456775276355
"1.188",0.23486446706801,-0.00213909210361586,2.58377077246278e-07,0.222381472113133,0.215045448265143,-402.483849347529
"1.189",0.228107207173082,-0.00199194947172951,1.00983472304246e-05,0.16868760733909,0.160845037597006,-380.871848389463
"1.190",0.227154145649676,-0.00192312998958811,1.15711842656904e-05,0.166636769249251,0.158774851978017,-386.145654788768
"1.191",0.232362889323979,-0.00197675178806344,2.70750602386083e-06,0.188311386290623,0.180653946538648,-396.451487543407
"1.192",0.231827262805151,-0.00187773240988013,2.90755602336337e-05,0.15265649406105,0.144662687401248,-380.201377406825
"1.193",0.231414695285824,-0.00187789192443802,6.11004954975313e-05,0.141264779110394,0.133163503441624,-370.418364689743
"1.194",0.234427732914174,-0.00206249636396684,5.07342461801708e-05,0.144126762551246,0.136052486726257,-353.125646867911
"1.195",0.228292323112832,-0.00194715123760459,1.26678181275275e-06,0.199461775229452,0.191909527825956,-405.87891486073
"1.196",0.23352589214517,-0.00212383954200364,3.76087338565623e-07,0.217021068434493,0.209634474740478,-400.187539677974
"1.197",0.231697223515757,-0.00180561279688297,0.000570488686502423,0.106406689735002,0.0979765641664637,-344.502818537904
"1.198",0.236080326940582,-0.00208320520050369,1.00404891616143e-05,0.168774075283568,0.160932321276809,-370.789065865491
"1.199",0.233471267796738,-0.00199307810340359,1.93068291329654e-05,0.15889049177185,0.150955496411207,-371.923657507211
"1.200",0.233433940030996,-0.00208628605286839,2.47180924869257e-06,0.189655181840755,0.182010419405291,-386.110777234645
"1.201",0.231468371685219,-0.00227974755422636,2.10292787719066e-06,0.192035273642756,0.184412964903537,-368.638307658097
"1.202",0.230798504926938,-0.00191444135968385,2.68844205041884e-05,0.153852061844399,0.14586953412595,-377.643254376419
"1.203",0.242915271024815,-0.00256436760744822,2.75165880570078e-07,0.221484779504793,0.214140296292574,-362.807380922555
"1.204",0.229398798417186,-0.0020600949101049,6.87898973631352e-06,0.174449320368129,0.166661106409338,-377.544427889694
"1.205",0.237755134452745,-0.00245604222668143,6.39353717595856e-08,0.242040904084997,0.234890346576365,-384.562895393497
"1.206",0.234218548680314,-0.00179946010157972,0.000138471193005586,0.128594745868563,0.120373941584304,-366.382331517608
"1.207",0.236521883725745,-0.00199923773810811,1.28567102959452e-05,0.165047185280654,0.157170271934245,-377.232853221097
"1.208",0.229970894694398,-0.001586293868495,0.0010955521873657,0.0960895929511806,0.0875621362809087,-358.936689533262
"1.209",0.232397431373538,-0.00178366074975913,0.000293380969666591,0.116866269942728,0.108534819659168,-358.230537419742
"1.210",0.226152568316623,-0.00186713941776036,8.4822187473266e-06,0.171308952593909,0.16349111252404,-396.806674444927
"1.211",0.233911853961434,-0.0022051250590464,3.80171398882215e-07,0.216866368511235,0.209478315383982,-392.327496566094
"1.212",0.233070056059546,-0.0018756013011246,0.000191756268475229,0.123520337000436,0.115251660934402,-354.330292226086
"1.213",0.23022420351193,-0.00172627919604704,0.000112074986617355,0.131881517741032,0.123691720738589,-380.320448330406
"1.214",0.23416898889844,-0.00186146326494773,4.03343163657992e-05,0.147648921515945,0.139607873605718,-378.390421517325
"1.215",0.228560334058943,-0.00190173748971123,8.48838786088529e-06,0.171298038171235,0.163480095135115,-391.625715321605
"1.216",0.23425533704938,-0.00183179699654704,6.04533800938546e-05,0.141428860506126,0.133329132775051,-376.243968390205
"1.217",0.232165419379801,-0.00205858870850873,6.47113364167763e-06,0.175363733779082,0.167584146361903,-378.334295812508
"1.218",0.234704468191359,-0.00224831486352596,5.8200426806316e-06,0.17694832972599,0.169183691327178,-360.792633040359
"1.219",0.23295091707298,-0.00202524250518708,2.56742838968719e-05,0.154554277697939,0.146578374657353,-364.462339627104
"1.220",0.231838085321879,-0.00196587199199735,4.05681627728136e-05,0.147560286692649,0.139518402604844,-365.445808627839
"1.221",0.233492163470956,-0.0020978163147215,9.4879444146175e-06,0.16962550733076,0.161791785701804,-370.311282836879
"1.222",0.234347952174979,-0.00233684307839613,5.5373941474029e-07,0.211463391820645,0.204024367215179,-375.856772780141
"1.223",0.228442101006601,-0.00186560442551592,0.000132846304020439,0.129239823599518,0.12102510495423,-361.11330561497
"1.224",0.225691508221928,-0.00172513500323241,0.000246188316538535,0.119613901183781,0.111308371949665,-367.851084445585
"1.225",0.2321726650721,-0.00222138095460161,1.00015287070831e-05,0.168832578279908,0.160991376188209,-357.113995941419
"1.226",0.235786976081334,-0.00233935750883327,1.94309199730512e-06,0.193197296689878,0.185585950432235,-363.882987788642
"1.227",0.235183669877108,-0.00203869066542571,5.71489437333183e-07,0.211008635063154,0.203565320299599,-401.881340569671
"1.228",0.235888584693833,-0.00210299707030716,3.19120804946249e-05,0.151234479141477,0.143227257246585,-355.211961769756
"1.229",0.230873282409194,-0.00196530531445775,9.19631534479419e-05,0.134948023674548,0.126787155973364,-355.410205203317
"1.230",0.232632694016547,-0.00200025320177732,6.11491763026796e-06,0.176210099754765,0.168438496922263,-384.508190300212
"1.231",0.232032406565129,-0.00209855752220788,1.44111195028531e-05,0.163322408081357,0.155429223251936,-365.14082060913
"1.232",0.235686989203797,-0.00217115421814822,2.37710793720555e-06,0.190231013064509,0.182591682999079,-377.333793308492
"1.233",0.235022585947913,-0.00213331474202893,3.98615576741153e-05,0.147829671488058,0.139790328766247,-349.056480951278
"1.234",0.230885819502371,-0.0020461702472474,9.75818047032902e-06,0.169203154506629,0.161365448417069,-375.412157670119
"1.235",0.233755167915639,-0.00203147145095309,4.10342569729068e-06,0.182153423934109,0.174437890197638,-386.681367514447
"1.236",0.236543314219103,-0.00235189086405535,1.52926011214723e-06,0.196709377773479,0.189131164356248,-364.678109635652
"1.237",0.236691612630338,-0.00227391569444758,1.26689199785328e-06,0.199460505744543,0.191908246364775,-373.326985821777
"1.238",0.237063794279632,-0.0019484822319558,7.97589348532203e-05,0.137151191229731,0.129011108128124,-359.034155002922
"1.239",0.229516035459126,-0.00187220532160444,6.2653643734348e-05,0.140877866228788,0.132772940438494,-371.190075670208
"1.240",0.234016133204341,-0.00228661655349112,1.25313924803621e-06,0.19961980261899,0.192069046039923,-373.391141170588
"1.241",0.236594129269914,-0.00215236578500809,9.43652996509208e-06,0.169707204455285,0.16187425355392,-364.903372642787
"1.242",0.22992519649248,-0.00188336929085584,1.29894356516523e-05,0.164892090400783,0.15701371389513,-389.330153009357
"1.243",0.232916017718257,-0.00195774025736744,1.06685762802803e-05,0.167860626176655,0.160010254725491,-383.408767640118
"1.244",0.230512763034065,-0.0016483183407489,0.000627361444422717,0.104907213697145,0.09646294212825,-362.511704833007
"1.245",0.233967510165007,-0.00205982788809626,6.69606569379131e-06,0.174852638439266,0.167068229367938,-378.171113299097
"1.246",0.230376674696614,-0.00177271941510752,0.000290629002185578,0.117014043855824,0.108683987665785,-360.026493869721
"1.247",0.230541851093952,-0.00200351399811911,3.00181345245202e-06,0.186786689514605,0.179114865830781,-393.034007869291
"1.248",0.23246834987529,-0.00183200194282847,0.000140647273451027,0.128352115160198,0.120129021906993,-363.862527324474
"1.249",0.224661585052878,-0.00180895282871464,4.46251175521366e-05,0.146097987010112,0.138042307642283,-381.660982612437
"1.250",0.23254875297594,-0.00220133217669397,4.12298157437803e-06,0.182082791544982,0.174366591465218,-369.314284915335
"1.251",0.228959292798791,-0.00189718263748945,2.0395679587086e-05,0.158057120175261,0.150114262818424,-382.982913431614
"1.252",0.229149927515739,-0.00194888257465322,7.61797194871571e-05,0.137860863007757,0.129727474922924,-359.776490119513
"1.253",0.235553142378912,-0.00219250543280647,1.45149922270674e-06,0.197472976200055,0.189901966541565,-380.736352370076
"1.254",0.232600197712149,-0.00219008551656454,2.44942446727264e-06,0.189789306352408,0.182145809242525,-375.629746120171
"1.255",0.226558572144429,-0.00166042440878005,0.000272911126716405,0.11799998151539,0.109679226624025,-374.680687825221
"1.256",0.230451659438129,-0.00180018814586505,5.0045581718359e-05,0.144336887386958,0.136264593871741,-382.746401436089
"1.257",0.224672240510465,-0.00152932311825456,0.000403957151174667,0.111843516707661,0.10346468195962,-386.454747811825
"1.258",0.23154772807243,-0.00210095721069315,3.23073509270884e-06,0.185699341140936,0.178017259453587,-379.199136685205
"1.259",0.234269446133415,-0.00193014053190442,1.33977911825329e-06,0.198643698570705,0.191083733462882,-409.014174604424
"1.260",0.232149912127072,-0.0018703792512516,2.9583464303522e-05,0.152392076908928,0.144395775747691,-379.398389462435
"1.261",0.238149441105746,-0.00207562891597349,1.80175808749484e-05,0.159939388232215,0.152014288121198,-364.43531012883
"1.262",0.237275074699627,-0.00217472255999543,7.28136461675368e-06,0.173598130314843,0.16580188626121,-365.704765001581
"1.263",0.232326189825546,-0.00228433514075803,2.30602957977949e-06,0.19067824875059,0.183043137889747,-367.457567386818
"1.264",0.226491707845483,-0.0016440913536822,0.000471389242734353,0.109413996229892,0.101012241477344,-368.207009235448
"1.265",0.23350251187913,-0.00219825226635751,1.96776881390862e-06,0.193011880707901,0.185398785242881,-377.140481482166
"1.266",0.232027092133243,-0.00181677329224545,5.72264285042692e-05,0.142273881057245,0.134182125218163,-378.750664274962
"1.267",0.23231288559661,-0.0019435376275715,5.92360434233218e-06,0.176684942909099,0.168917819728996,-391.850422542589
"1.268",0.228489108504865,-0.001637016724453,0.000569460862874239,0.106435132869124,0.0980052756320399,-365.765988127183
"1.269",0.237614144716648,-0.00237505135911239,1.40239705138168e-06,0.197976187727005,0.190409925347071,-363.887391992733
"1.270",0.232615488021023,-0.00223165366040675,2.15672793384514e-06,0.191663639806168,0.184037825087358,-372.94292946378
"1.271",0.236712104730069,-0.00224921146192282,1.27481670450105e-06,0.199369486077198,0.191816368021323,-376.581796906574
"1.272",0.233993144887401,-0.00210058811427589,1.79794605284517e-05,0.159971517221205,0.152046720213857,-362.419343277999
"1.273",0.229382829536467,-0.00144588417580673,0.00120162876982799,0.094624742106381,0.0860834660885166,-378.323805437201
"1.274",0.238587045658268,-0.0021376328503359,1.11633014959048e-05,0.167177719401344,0.159320905433432,-364.003341292724
"1.275",0.235557879443121,-0.00195057220145378,0.000177673896065311,0.124710794857679,0.116453349526147,-347.284961360509
"1.276",0.232007085250511,-0.00210775608272517,5.10339052086772e-07,0.212638721919431,0.205210785333766,-399.048074542109
"1.277",0.237003988396404,-0.00235479986236914,1.30588076744557e-06,0.199017990863801,0.191461556815346,-366.506791627095
"1.278",0.23104500434606,-0.00186092754536455,1.67356106378347e-05,0.16105850621244,0.153143963818218,-389.646717261835
"1.279",0.236128584527244,-0.0022494827486316,9.75801088270208e-07,0.203263277006223,0.195746892827037,-378.642312348637
"1.280",0.23393886459283,-0.00193511288149963,3.04187734652514e-05,0.151966803807436,0.143966490635808,-373.679790744882
"1.281",0.233016166938652,-0.0021801329477413,5.22441562753972e-06,0.178559137611814,0.170809695513813,-368.59584444015
"1.282",0.232191538198621,-0.00190235025983854,0.000124612345552542,0.130234560936418,0.122029226605629,-357.700330659643
"1.283",0.228094237884552,-0.00188256534433992,4.14938603020602e-05,0.147214301193565,0.139169153091618,-375.170754685285
"1.284",0.233361799927605,-0.00213848745925557,2.54052451311917e-06,0.189250805719955,0.181602228415426,-378.201750747136
"1.285",0.232586880634414,-0.00221215678857232,3.66923443462873e-07,0.217374291498859,0.209991030097905,-392.039711660645
"1.286",0.237159610734818,-0.00233241671454103,1.18915180721235e-07,0.233360458819587,0.226128010317885,-390.481587644363
"1.287",0.230951763826259,-0.002145450169664,2.89258072061339e-06,0.187334661881081,0.179668007747883,-378.26951907414
"1.288",0.235388465793771,-0.00213370064228457,1.690058308232e-05,0.160909839200782,0.152993894287582,-359.801821056668
"1.289",0.229987174036543,-0.00185427312341515,8.60659517022811e-05,0.135974004665948,0.127822816030721,-368.67103817911
"1.290",0.233791516404496,-0.00203441812456555,1.71468735942128e-05,0.16069053401788,0.15277252018786,-368.378304967235
"1.291",0.227954920690595,-0.00199712629514142,1.15859081602996e-05,0.166617595296326,0.158755497138745,-378.613480221864
"1.292",0.229275721279125,-0.0018060422124973,3.90252998764547e-05,0.148154643651582,0.140118366704898,-384.885132596128
"1.293",0.225844505999713,-0.00154285716783019,0.000638024852890033,0.104641150813499,0.0961943692173999,-376.498874766995
"1.294",0.237780671247534,-0.00230837522216882,1.28572224219734e-06,0.199245136634879,0.191690845471057,-368.66000598677
"1.295",0.231051678553253,-0.00210221250491264,6.45200240567454e-06,0.175408009059991,0.167628839334142,-373.798465901795
"1.296",0.233759526396057,-0.00220377604071785,1.8482496258987e-06,0.193932181090677,0.18632776770474,-377.252662228513
"1.297",0.233220177667444,-0.00210471457970214,5.06060292875687e-07,0.212759878714101,0.205333085117064,-399.955925160632
"1.298",0.233858265187575,-0.00224442914067304,3.23641982955893e-06,0.185673316078357,0.177990988871549,-366.684757002054
"1.299",0.233056207521762,-0.00192335386073181,0.000120876927896417,0.130707461491665,0.122506588486869,-355.813084447187
"1.300",0.233783202830471,-0.00215685924339932,5.08560471422078e-07,0.212688962103825,0.205261499482163,-394.519057591679
"1.301",0.232867260606744,-0.00195016055146844,1.45140608407294e-05,0.16321475523373,0.155320554811406,-380.588165812999
"1.302",0.228576581176615,-0.00187858348734875,5.17501244386465e-05,0.143821885002022,0.135744732973739,-372.688895582979
"1.303",0.231483764718765,-0.00232258544359678,1.3008724736429e-07,0.232097069499068,0.224852702230191,-390.694750484165
"1.304",0.234070921845855,-0.00191366713531039,5.02752723765014e-05,0.144266488657022,0.136193531002843,-369.594893550159
"1.305",0.228905321329104,-0.00195008155410059,6.85850191632896e-06,0.174493963583772,0.166706170787392,-389.726868718437
"1.306",0.229405610427266,-0.00204764301888563,4.38426514349714e-06,0.181169506249719,0.173444690270943,-384.079186985687
"1.307",0.235043760634476,-0.00222026548419344,4.66634835896603e-07,0.213926214682914,0.206510424255394,-388.77823976383
"1.308",0.231156877846398,-0.0019602115756433,9.30993561418587e-06,0.169910247391229,0.162079211989259,-383.558052111439
"1.309",0.235695671535895,-0.00200624155571345,2.32964970405296e-05,0.156034647076068,0.148072709784333,-369.043693834893
"1.310",0.235314655805796,-0.00237212554272813,1.70522513412475e-07,0.228277794813455,0.220997396651318,-382.985910501532
"1.311",0.231321182138601,-0.00174706335388754,0.000160269190062979,0.126318305676059,0.118076025540927,-372.307149031647
"1.312",0.232106820940468,-0.00203795063924438,5.06583029700319e-06,0.179018575357894,0.171273467578252,-383.684030033966
"1.313",0.236024512594166,-0.00234341328230899,1.4151906021991e-07,0.230910316646173,0.223654753595665,-387.26534782891
"1.314",0.232773252269441,-0.00191044127321684,9.32653424614666e-05,0.134730251273011,0.126567329115209,-360.449987717144
"1.315",0.23395509616031,-0.00181356035482995,5.9414097005708e-05,0.141696045003147,0.133598837880535,-377.781153475526
"1.316",0.22976632525693,-0.00180477241611955,8.82886615310559e-05,0.135579370703969,0.127424459106837,-373.60605027537
"1.317",0.231864715364245,-0.00235106050931493,4.03059410375996e-07,0.216028560771713,0.208632603797861,-377.899149194166
"1.318",0.230968299835228,-0.00219472548609637,5.87758854360813e-06,0.176801409366431,0.169035384926492,-365.993396223479
"1.319",0.228332480973004,-0.00172585829180433,9.74938322024271e-05,0.134043265047295,0.125873861887363,-381.401351453757
"1.320",0.235712181352153,-0.00230999069341301,3.66739232517957e-07,0.21738148059644,0.209998287017161,-382.44712343944
"1.321",0.234122421397173,-0.00230888159347552,2.68149217581115e-07,0.221852808136479,0.214511796892484,-384.653655557726
"1.322",0.228840901216353,-0.00183220569516509,3.39189619170335e-05,0.150301853784778,0.142285833537464,-384.029370348759
"1.323",0.238889122067745,-0.00218794993864653,2.29180943092165e-06,0.190769352289954,0.183135100896463,-376.787648690213
"1.324",0.230542577355276,-0.00176052477601859,9.41814615407322e-05,0.134578836893551,0.126414486298207,-374.853417724625
"1.325",0.234022308091122,-0.00235578902382846,7.09833770605133e-07,0.207878027586224,0.200405178789868,-372.314393829851
"1.326",0.227449965824641,-0.00175793051028524,9.84098183580615e-05,0.133898333855437,0.12572756342011,-376.362900723308
"1.327",0.224108326342449,-0.00152251211604029,0.00126096653120749,0.093860455594261,0.0853119693262823,-366.302147775365
"1.328",0.229014189120554,-0.00209122057133395,5.71590504643402e-06,0.177217880758253,0.169455785293708,-376.60920805942
"1.329",0.231934019514925,-0.00184003073008701,1.31150496993582e-05,0.164746738152696,0.156866990399419,-394.914944957809
"1.330",0.237068991160932,-0.00245453216733845,6.60706110714084e-08,0.24158356717037,0.234428695162543,-384.509841970201
"1.331",0.23035212384177,-0.00185151394283146,9.64706968463721e-05,0.134206749722749,0.126038888871077,-367.001261508446
"1.332",0.229193164728402,-0.00193566263541702,1.20592673714339e-05,0.166013640874211,0.158145845033401,-384.959893034935
"1.333",0.2342659266316,-0.00188961172003326,8.62811107438238e-05,0.135935366292611,0.127783813144428,-363.489461813027
"1.334",0.232870806082982,-0.00208222165065247,8.57998745224354e-06,0.171136893426165,0.1633174301566,-372.216380053375
"1.335",0.233879828685565,-0.00257706290058732,3.5595850777057e-09,0.281286763088335,0.274506449532564,-396.119124131844
"1.336",0.240709991725616,-0.00225484367145742,1.01233493048025e-05,0.168650393187658,0.160807472368674,-354.032957740952
"1.337",0.2380056665722,-0.00236410443690714,1.52533481370351e-06,0.196746997506149,0.189169138992056,-363.64361942898
"1.338",0.23122981994421,-0.002070002999381,2.14942946754988e-06,0.19171351649088,0.184088172306832,-388.425872273883
"1.339",0.23476400209343,-0.00224097651178178,1.92116657527776e-06,0.193363995470613,0.185754221842977,-373.146200759232
"1.340",0.230057691726377,-0.00185082641476178,3.96929467697011e-05,0.147894648971631,0.139855919244948,-378.686067044482
"1.341",0.231433931306843,-0.00224601952664489,2.09270437639785e-06,0.192106952062571,0.18448531953486,-371.964095941136
"1.342",0.236614063580866,-0.00206660989477479,2.35781697399927e-06,0.190351078561936,0.182712881189879,-388.695006852521
"1.343",0.230579156777351,-0.00195144895247766,4.89441393724453e-05,0.14467896825722,0.136609901920024,-365.637702205198
"1.344",0.227249209392799,-0.00183315502501979,4.23918329905009e-05,0.146885884152873,0.138837637776957,-381.04972168279
"1.345",0.230931405530699,-0.00182611007500234,1.40022849611016e-05,0.163757576127971,0.15586849665748,-395.672173108908
"1.346",0.227577821970863,-0.00172485610611034,0.000193367508912538,0.123389685090687,0.115119776459467,-372.273004296644
"1.347",0.240259220200886,-0.00239585998011785,1.85894677399793e-07,0.227056329794095,0.219764408377058,-380.755458952627
"1.348",0.233120351274254,-0.00219924131435312,1.6077573117571e-05,0.161666248328373,0.153757439350338,-353.970194478995
"1.349",0.230356781475386,-0.00215307401425753,3.80803943640298e-06,0.183262644177703,0.175557574783153,-374.884979910375
"1.350",0.233600359587612,-0.00199905989643604,1.02998826348531e-05,0.168390183930369,0.160544808307071,-379.465386172203
"1.351",0.233327378520013,-0.00200769011983117,9.27635329502606e-06,0.169964566469913,0.162134043512082,-379.99906820331
"1.352",0.234860293784774,-0.00207058521235798,7.1107572762153e-06,0.173953228992179,0.166160334926067,-376.109890214589
"1.353",0.23178700760541,-0.00184533688669185,0.000122920223457792,0.130447020678543,0.122243690684944,-364.755863413257
"1.354",0.230086022731566,-0.00174785768315736,0.000246777658772461,0.119576472861426,0.11127059052993,-362.967391601623
"1.355",0.238400621806022,-0.00229466089121028,4.30430855861516e-07,0.215086058441499,0.20768120993623,-381.787749077692
"1.356",0.224280190765958,-0.00164168728362024,0.000121990653694257,0.130564969797266,0.122362752531202,-390.107410177576
"1.357",0.233095777325129,-0.00186593906059943,0.000131033673110076,0.129453467495398,0.121240764358562,-360.238251186317
"1.358",0.229035544441353,-0.00203808773530484,1.26348238538769e-06,0.199499839661078,0.191947951355994,-397.756762867177
"1.359",0.23245100057544,-0.00184985935153149,9.70484154554759e-05,0.134114227831709,0.125945494132008,-367.455192449396
"1.360",0.232522960040366,-0.00212065612256226,2.37441823043372e-05,0.155744859613562,0.14778018847784,-357.0111440293
"1.361",0.228872992072804,-0.00167560930784266,0.000293855696883065,0.116840917157999,0.108509227697225,-371.681706013277
"1.362",0.229610596842949,-0.00189073579845782,3.8342396034609e-05,0.148425162669586,0.14039143778911,-375.791714086498
"1.363",0.239208979783839,-0.00229631434466563,3.14004472948154e-06,0.186120741697585,0.178442635487185,-363.033404630211
"1.364",0.231826726633863,-0.00204983210204986,2.40612980132475e-05,0.155542833756536,0.147576256716503,-364.106134100326
"1.365",0.229626933548563,-0.00172630994080344,0.000200906796292549,0.122792314844696,0.114516770645118,-370.854756039243
"1.366",0.228700970265426,-0.00168331478624739,0.000353939545374342,0.113921129853647,0.105561895229624,-367.776123796946
"1.367",0.238172994732483,-0.00245452858035661,2.57341693204986e-07,0.22243863399626,0.215103149411319,-372.838535244661
"1.368",0.224622800838077,-0.00145431068743822,0.000744713322335869,0.102198707536394,0.0937288840225865,-386.129071353345
"1.369",0.237691566391157,-0.00215563353669637,3.08263114078826e-06,0.186393762565179,0.17871823202334,-376.899105529238
"1.370",0.237010326258005,-0.00219415081804206,2.71687840881979e-06,0.188260364149649,0.180602443056721,-374.352609648281
"1.371",0.233065609578658,-0.0021405625202749,2.10113743735224e-05,0.157605108472998,0.149657986854818,-356.204758343114
"1.372",0.229434653444005,-0.00172151365766378,0.000209627051817084,0.122128439807927,0.113846632636303,-371.625408369391
"1.373",0.232844892448516,-0.00187466279117801,4.661941600166e-05,0.14542664025748,0.137364627429721,-373.388724730613
"1.374",0.234092422771592,-0.00208995442097714,2.76939144007363e-05,0.15339953339246,0.145412736537672,-357.90656040195
"1.375",0.2365773426823,-0.00228635775385849,9.33118534883877e-07,0.20391325043518,0.196402998080795,-376.161375345218
"1.376",0.239682452627927,-0.00243807568791397,9.29937506299776e-07,0.203962857192855,0.19645307282675,-362.416581315854
"1.377",0.229699153752099,-0.00166043054076443,0.000185103514360896,0.12407155142686,0.115808075496925,-380.997549818504
"1.378",0.236555853455871,-0.00217947033509975,1.97043613577797e-05,0.158580980258408,0.150643064977827,-353.499570718416
"1.379",0.235541729358229,-0.00248150429619832,5.98428514036254e-07,0.210344351529938,0.202894769940598,-361.634190301845
"1.380",0.22794247572737,-0.00219789785938078,8.47963024656917e-07,0.205302398842523,0.197805251661792,-385.76670943095
"1.381",0.23048920091449,-0.0017674772143534,0.000165046161917681,0.125860528430601,0.117613929642211,-368.146301666126
"1.382",0.234129718412607,-0.00240292118566477,1.48765583294985e-06,0.197113037998714,0.189538632696815,-360.521407279617
"1.383",0.231979410715346,-0.00202935194354908,2.86973900912028e-06,0.187451822982444,0.179786274142655,-390.629840249394
"1.384",0.232199718673524,-0.00220742507646409,3.53881873874161e-07,0.21789224610852,0.210513871071808,-392.814392089922
"1.385",0.237038016005646,-0.00232114172023204,8.54441582598478e-07,0.205191988544734,0.19769379975742,-373.349826279826
"1.386",0.236003785629987,-0.00171234444428921,0.000369682771263949,0.113237382391773,0.104871697319997,-359.626725197049
"1.387",0.233814908253487,-0.00213629176133092,8.39263975748623e-06,0.171468324042922,0.163651987477289,-367.342561519615
"1.388",0.237424135624563,-0.00224864444258801,1.57028989604104e-06,0.196321746832142,0.188739876519238,-372.33107431416
"1.389",0.223603308640095,-0.00158391668190877,0.000417181774076253,0.11133682389827,0.102953209029386,-377.983441505736
"1.390",0.233906940495435,-0.00232647387652671,1.09975378876403e-06,0.201523272712811,0.193990473398781,-370.492310734517
"1.391",0.230302383831629,-0.00199823753322837,4.06620255935203e-05,0.147524851646641,0.139482633265948,-362.81051303784
"1.392",0.22879155631584,-0.00174934652054937,9.82236722834918e-05,0.13392767841474,0.125757184814879,-379.386615920401
"1.393",0.234907282243701,-0.00216936285618542,2.94836049316231e-06,0.187052340112225,0.179383022566114,-375.574982125529
"1.394",0.230438896782751,-0.0020849663790336,4.51132413933151e-06,0.180744599905507,0.173015775376313,-379.768276663683
"1.395",0.224903468085657,-0.00178845617341598,1.14554579734917e-05,0.166788314991764,0.158927827397346,-402.657890668732
"1.396",0.230766535276422,-0.0021482618261071,2.62382457145123e-06,0.188774806368135,0.181121738503683,-379.275042672803
"1.397",0.2357597497282,-0.0021720731487858,6.49191864810286e-06,0.175315777176475,0.167535737338517,-367.101525993247
"1.398",0.233326993340799,-0.00206651842446085,6.77487025757841e-07,0.208552461641143,0.201085975430211,-400.56894552829
"1.399",0.235904895649721,-0.00227557630445734,9.97865506654024e-07,0.202938172940758,0.195418721742085,-374.232922113094
"1.400",0.233905106895887,-0.00227414371274339,5.00859305192825e-06,0.179187886308559,0.171444375802036,-359.691203087734
"1.401",0.232355250901051,-0.00212162629133499,1.60347784839682e-05,0.161706617470234,0.153798189333161,-361.795467233568
"1.402",0.232913560707953,-0.00193671471073013,3.38134057479252e-05,0.150349533326115,0.142333962885795,-372.061888595973
"1.403",0.233428752442116,-0.00198338782101224,2.39676484178901e-05,0.155602220694964,0.147636203909068,-370.109301145684
"1.404",0.234619285218301,-0.00188756325617854,3.14864484764073e-05,0.151439705727806,0.143434419932785,-378.612838134291
"1.405",0.22983490142677,-0.00210676092788666,1.61624032520883e-06,0.195899295218061,0.188313439512571,-388.543803658362
"1.406",0.227425064419693,-0.0016998797013159,0.000143338353402684,0.12805714613385,0.11983127015398,-379.141883499837
"1.407",0.232110920011257,-0.00215623912273128,3.00768417526248e-06,0.186757797694818,0.179085701446656,-377.085923594017
"1.408",0.23489912221655,-0.00195884341628213,7.0080435952327e-05,0.139149753777592,0.131028525039645,-359.948495553597
"1.409",0.231539452842414,-0.00204506567341709,1.63396749838571e-06,0.195739472212227,0.188152108742531,-393.658770215719
"1.410",0.23104988529585,-0.00193044422649127,2.31344906138306e-05,0.156140869982035,0.148179934793186,-377.603722408655
"1.411",0.230097462171475,-0.00216667731485144,2.86419647632109e-06,0.187480390571763,0.179815111237534,-376.251739941731
"1.412",0.236122639666758,-0.00226683630560167,1.61682878044477e-06,0.195893962234275,0.188308056217617,-372.706392743551
"1.413",0.234062498559216,-0.00191182626125688,6.73515494711813e-05,0.139762730963915,0.131647285029612,-365.605947435996
"1.414",0.232483260581445,-0.00188938304190139,6.00365042821674e-05,0.141535484132806,0.133436762285002,-367.775331660264
"1.415",0.229003370775759,-0.00193017387029407,2.6271292523905e-05,0.154203857453814,0.146224648561869,-376.145036149712
"1.416",0.236036844721674,-0.00223669726019083,3.73180224578166e-06,0.183562697628451,0.175860458926832,-366.932790241082
"1.417",0.233784048139799,-0.00210647894647388,2.98323008902621e-05,0.152264162362541,0.144266654460301,-355.02449378854
"1.418",0.232970568949596,-0.00194451258836142,3.11950246388428e-05,0.151581806626109,0.1435778614056,-372.07840471511
"1.419",0.229511442102502,-0.00180341590782461,0.00018383334891725,0.124179016512606,0.115916554404234,-363.109143510778
"1.420",0.23914101709217,-0.00254109342616302,1.16923658384472e-07,0.233597880079347,0.22636767140085,-372.106722601426
"1.421",0.232537362780062,-0.0020715918313311,6.82888938948971e-06,0.174558722496615,0.166771540633375,-376.259053044908
"1.422",0.235089796910616,-0.0020581273247992,9.62124269750115e-06,0.169415713343945,0.161580012526435,-374.371568315916
"1.423",0.230348059948745,-0.00169177890512913,0.000717499420628693,0.102787012953444,0.0943227394907404,-354.42735755669
"1.424",0.233618398360877,-0.00205361016302628,4.22847805922558e-05,0.146924674085436,0.138876793652279,-356.224070336716
"1.425",0.228438422187353,-0.00193986725267948,7.36201771844367e-05,0.138388861573842,0.130260454607557,-360.843445631118
"1.426",0.231141823575784,-0.00204092861181093,9.75710106631074e-06,0.169204818461663,0.161367128069792,-376.002365856348
"1.427",0.23127330393317,-0.00206353978398214,1.85980490913405e-05,0.159458266824424,0.151528627832202,-365.744984215762
"1.428",0.23115558322485,-0.00192741088909128,6.85842826068064e-05,0.139482845723132,0.13136475936203,-363.735925441555
"1.429",0.22867621969211,-0.00176068171385366,6.60260914153374e-05,0.140069372024218,0.131956818930107,-380.611364497006
"1.430",0.235415855495564,-0.00216772463729982,7.61215024685202e-07,0.206866550790085,0.199384159759802,-389.3662323901
"1.431",0.234863335452494,-0.00225981046568855,5.77465659259274e-07,0.210858647384157,0.203413917642498,-382.824374635187
"1.432",0.228032615804869,-0.00213647731454773,3.56326718904115e-06,0.184248035286912,0.176552262034902,-377.02503105748
"1.433",0.230642585314708,-0.00196755343121233,6.58021411591825e-05,0.140121782166343,0.132009723507535,-357.191689841649
"1.434",0.227979699987187,-0.00187471168437322,2.32316778018693e-05,0.156077059432736,0.148115522257573,-383.85126237893
"1.435",0.232549883542799,-0.00189565794406995,4.81612089180964e-05,0.144926781454294,0.136860052977448,-371.84517115916
"1.436",0.233531802981719,-0.00184652216778206,5.0664450167312e-05,0.144147929982399,0.136073853850158,-375.504415797402
"1.437",0.229194612965781,-0.00183235610364564,0.000228049901567206,0.120811447304863,0.112517215675663,-356.836426551534
"1.438",0.232103306071543,-0.00210907224301216,2.22532967563493e-06,0.191202787870906,0.18357262549233,-384.929042303958
"1.439",0.229581523350831,-0.00164129160441212,3.30330036334396e-05,0.150706666419362,0.142694465159167,-407.578396707032
"1.440",0.229052641911482,-0.00189963604157725,1.46420297410539e-05,0.163081974416709,0.155186521345168,-386.752157990082
"1.441",0.2377480282265,-0.0024168685517862,5.05257196303184e-07,0.212782731433756,0.205356153428414,-369.836122549065
"1.442",0.229982013539864,-0.00191720239144372,2.43630599727946e-05,0.155353014197955,0.147384646407369,-378.539073533358
"1.443",0.237172835528419,-0.00237951726745596,3.28103870327459e-06,0.185470598500896,0.177786358864112,-354.751074085533
"1.444",0.233100428939118,-0.00211727648704581,1.45250284304246e-06,0.197462866596175,0.189891761564064,-387.480051651396
"1.445",0.23472834939726,-0.00239420807405522,1.48044693787196e-07,0.230274495348179,0.22301293398354,-382.690985821994
"1.446",0.240261096825562,-0.00218299351025063,3.50407674793501e-06,0.184496331553026,0.17680290071862,-372.810629681799
"1.447",0.227142259861964,-0.0018468903237039,7.39042867482846e-05,0.138329366197729,0.130200397954311,-371.842217287062
"1.448",0.233804185589009,-0.00208239176857063,1.10830812553247e-05,0.167286401055408,0.15943061238612,-369.763087934201
"1.449",0.23976566943751,-0.00233907435477096,1.13575172425699e-07,0.23400618782365,0.226779831105005,-390.018530650539
"1.450",0.228016144295374,-0.00169077041682017,0.000153203122897001,0.12702081553362,0.118785162849975,-380.239650886333
"1.451",0.235529488262303,-0.00228218075996065,8.00199741947042e-07,0.206142993332487,0.198653776288454,-376.141546259268
"1.452",0.228843531042735,-0.0017694060584556,0.000140335583871031,0.128386639488165,0.120163871936166,-371.736796553837
"1.453",0.233379274401213,-0.00185109088689242,2.3272203348793e-05,0.156050529204046,0.148088741743707,-386.580452111721
"1.454",0.23304536291389,-0.00214304264575564,1.20754598948689e-05,0.165993396932931,0.158125410111544,-362.570711736449
"1.455",0.229708210525907,-0.00210410860950439,3.75430762227264e-05,0.148747905851811,0.140717225718337,-350.191662062584
"1.456",0.230194751260684,-0.00206100551768789,6.02778794826942e-06,0.17642451436606,0.168654934312909,-379.22440832869
"1.457",0.228629205315309,-0.00199191746200669,3.91094509892459e-05,0.148121632750282,0.140085044380001,-363.934237052732
"1.458",0.22982091353838,-0.00185054868117051,1.50304532716513e-05,0.162685844076446,0.154786653926224,-391.572301184418
"1.459",0.233322794387918,-0.00186837441844971,0.000140072669054066,0.12841582028876,0.120193328027333,-360.167061905476
"1.460",0.234822165881104,-0.00228948217956176,1.67350934907812e-06,0.195389041280246,0.187798371858361,-369.743518230305
"1.461",0.232239710342908,-0.00189226672931721,0.000151694413319189,0.12717495932758,0.11894076083067,-354.743217692356
"1.462",0.225658099464631,-0.00194668250855458,1.50994230928794e-05,0.162616562810117,0.154716719063043,-381.066391126344
"1.463",0.233775033928885,-0.00227714018962342,1.72904313066345e-06,0.194910412203392,0.187315227412858,-370.675745692175
"1.464",0.234776076475434,-0.00209742249185748,3.60129617411768e-06,0.184090643696808,0.176393385618476,-380.789918184759
"1.465",0.233124510968374,-0.00172664284746704,0.000219811879079289,0.121386829844175,0.113098026352139,-369.307546013497
"1.466",0.231603243795004,-0.00205219047807769,2.66470309899357e-06,0.188546634024595,0.180891413590865,-388.972635358207
"1.467",0.232047020542116,-0.00227200623494433,2.54285885842217e-06,0.189237258523447,0.181588553415177,-367.606950769782
"1.468",0.230791003484152,-0.00205250415761062,8.43206306448919e-06,0.171397979793145,0.163580979602514,-376.342960751258
"1.469",0.236749512233065,-0.00236890113743575,4.57888779514418e-06,0.180523434088706,0.172792523089543,-351.411595076069
"1.470",0.230930052956477,-0.00179971732526336,0.000408674834567085,0.111660899945269,0.103280342397583,-351.121751044623
"1.471",0.229514762281388,-0.00175937663526628,0.000438355835225709,0.110557800405669,0.102166836258553,-354.074995722721
"1.472",0.237087574961069,-0.00244570395155972,1.16010331480941e-06,0.200744902217122,0.193204759785208,-359.408100784041
"1.473",0.230327188851991,-0.00176323596619908,0.000157399760920158,0.126599817308331,0.118360192943315,-370.885986821274
"1.474",0.233717477490154,-0.00217202836148719,7.46174357613997e-07,0.207155503333159,0.199675838270264,-389.148795617499
"1.475",0.228821138380838,-0.00161505058067825,0.000154031382367968,0.126936830031493,0.11870038503179,-390.196335476755
"1.476",0.23019136145545,-0.00186428310679008,1.11424041459332e-05,0.167205956584317,0.159349409004924,-393.855283499929
"1.477",0.232081899455972,-0.00226784241355889,1.94989148158466e-06,0.193145976466316,0.185534146055621,-370.664258731932
"1.478",0.233532281043153,-0.00203858934515233,6.98644948878783e-05,0.139197392926513,0.131076613614499,-351.387626581283
"1.479",0.229903356655454,-0.00178350203987237,9.44071762338572e-06,0.169700533905387,0.161867520074306,-405.533372199609
"1.480",0.236763317814797,-0.0022232803407027,4.29023222380131e-07,0.215133070645487,0.207728665651577,-389.546825466189
"1.481",0.237219562665568,-0.0022932304955758,1.03753785060022e-05,0.168280243171177,0.160433830370905,-349.135207453835
"1.482",0.235733565789045,-0.00232400417344004,3.73852082935549e-07,0.217106439114592,0.209720650804353,-381.137355883333
"1.483",0.234092626281212,-0.00229029245521239,1.40116797583777e-07,0.231050706137959,0.223796467516619,-392.857979082994
"1.484",0.233369745024532,-0.00210909622600461,1.48768228252863e-06,0.197112777860105,0.189538370104068,-388.70221503148
"1.485",0.229801501671518,-0.00198412729724491,2.67215626885515e-06,0.188505404469726,0.180849795077931,-396.225333648368
"1.486",0.232056003357965,-0.00214759080108533,9.53717069794069e-06,0.169547695161209,0.161713239455183,-365.329881653642
"1.487",0.238245158893537,-0.00237025612476143,1.72673099926288e-06,0.194930035795536,0.18733503613323,-362.342879325929
"1.488",0.234532852023236,-0.00215920857615596,2.11819369196899e-06,0.191928879191387,0.184305566730928,-380.403898715812
"1.489",0.224602733395927,-0.00176848608270587,0.000110862828247299,0.132050303899068,0.12386209921887,-375.464265319349
"1.490",0.234648548147429,-0.00216095114940141,1.18303892006624e-06,0.200459498664851,0.192916663746595,-385.295602656704
"1.491",0.233817834718168,-0.00212861327689251,3.35587877462148e-06,0.185136598033147,0.177449207448554,-378.211509138411
"1.492",0.228956491561434,-0.00234799253638466,6.15448688835793e-07,0.209939664513944,0.202486265122566,-372.957621696266
"1.493",0.234507480031204,-0.00232940997472313,1.87741562272069e-06,0.193702308154887,0.186095726156348,-364.462622383171
"1.494",0.23263578267034,-0.00212192889090418,2.11141507508615e-05,0.157530930281604,0.149583108869167,-358.37532823651
"1.495",0.23468320949133,-0.00205097832807974,1.41443229409298e-06,0.197851260708734,0.190283819772024,-395.64788651264
"1.496",0.240587495469055,-0.00249820456001483,1.17488905715569e-06,0.200560284083824,0.193018399971407,-354.698869381282
"1.497",0.236241563117134,-0.00225124975793711,6.49908484438068e-06,0.175299277909819,0.167519082418402,-359.384566961176
"1.498",0.233321176910403,-0.00192187586409509,1.88195530012719e-05,0.159278568167815,0.151347233905248,-380.318636713585
"1.499",0.236125940319828,-0.00234617983717743,3.40392720703708e-08,0.250768614463826,0.243700393845561,-399.477008451221
"1.500",0.226063337019869,-0.00175298051345446,5.89999113236598e-05,0.141803814745654,0.133707624318726,-386.078999937451
"1.501",0.230588776086021,-0.00187910855482069,9.74485799086201e-05,0.134050459899909,0.125881124615945,-363.396296370618
"1.502",0.231489702425857,-0.00221274360198814,7.32497373421876e-07,0.207423279167907,0.199946140292133,-385.633154020583
"1.503",0.23091142295545,-0.00184093490241495,4.33431013707636e-05,0.146545384289229,0.138493925650448,-379.877036119899
"1.504",0.239479039179619,-0.00214506631661818,1.22985649238477e-05,0.16571716340177,0.157846570603673,-362.035806039329
"1.505",0.23495151355464,-0.00198852574752328,3.85354309267434e-06,0.183086359430302,0.175379626972097,-391.80440489822
"1.506",0.234054251564781,-0.00232548604371706,5.38788749897603e-07,0.21185770310449,0.204422398416796,-377.875619189922
"1.507",0.232737604785618,-0.00183060640787918,9.18998289019584e-05,0.134958691352532,0.12679792428982,-370.615559886696
"1.508",0.227537780509572,-0.00164175619295811,0.000259951141359851,0.118762162565721,0.110448598061624,-377.31172150029
"1.509",0.235322450017217,-0.00212775761274568,6.61416238900641e-06,0.175036754348674,0.167254082219888,-371.2086853348
"1.510",0.237346087597743,-0.00233581840108595,7.52166810159885e-07,0.207039698618284,0.199558941058079,-373.51328683661
"1.511",0.2313525879355,-0.00229759377162281,1.40902911172146e-07,0.230971833945196,0.223716851246566,-391.133570237643
"1.512",0.234666344555037,-0.00223071570543449,3.93384464549479e-07,0.216376845630236,0.208984174362596,-389.724703243614
"1.513",0.228031457599232,-0.002023901859807,2.3994590418592e-06,0.190093095898343,0.182452464727572,-392.83701282392
"1.514",0.228539945398851,-0.00198463072627232,4.99877595018888e-05,0.144354659800996,0.136282533950062,-361.721127901098
"1.515",0.233227737410062,-0.00215756726447478,1.24886303114792e-06,0.199669684640877,0.192119398646923,-385.576710883452
"1.516",0.234374063923442,-0.00203474282392864,2.47552459175971e-05,0.155109752070025,0.147139089353704,-364.23699085451
"1.517",0.233614880255002,-0.00201294931657175,8.40434302298688e-05,0.136341948078731,0.128194230607776,-351.370180836606
"1.518",0.230245192357388,-0.00209233208378352,4.08681392006576e-06,0.182213683776237,0.174498718528843,-379.831776547481
"1.519",0.237405708994096,-0.00238662432560698,4.56652868607769e-07,0.214236906701169,0.206824047330426,-373.75781335988
"1.520",0.231456840519054,-0.00215680913228191,2.05078559155731e-06,0.192404502345822,0.184785676896254,-380.902544247058
"1.521",0.230047967351609,-0.00193707346443725,4.45862446230029e-05,0.146111365267387,0.138055812109532,-368.419691536055
"1.522",0.231323042420415,-0.00187445403534261,5.60004301721011e-05,0.142607323523276,0.134518713367835,-371.665630959152
"1.523",0.233395586199384,-0.00220657487525993,5.13365540566639e-07,0.212553626469437,0.205124887096507,-389.610865472863
"1.524",0.234786430048145,-0.00210709258202488,7.86795956471699e-06,0.172436864055998,0.164629664660299,-371.210641146083
"1.525",0.234378651500751,-0.00249984873693781,1.64091196130394e-07,0.228821305400087,0.221546034696314,-372.553682165986
"1.526",0.228536815565622,-0.0020652329865431,2.94431903237502e-05,0.152464653633004,0.144469037157844,-359.907562549358
"1.527",0.23634755317659,-0.00208920696891555,9.37698564363528e-06,0.169802370095069,0.161970316982758,-371.471703396192
"1.528",0.23649389922918,-0.00196724327536445,4.97047118772769e-05,0.144441952155364,0.136370649817207,-363.327541572158
"1.529",0.227909288323841,-0.00186402745629033,1.17124726394245e-05,0.166453762814201,0.158590119067165,-392.265131775422
"1.530",0.235911553081238,-0.00234592858869278,1.70201954734147e-06,0.195141398941188,0.187548393270821,-364.392845617288
"1.531",0.231246629763193,-0.00220229689235188,2.34074878074184e-06,0.19045811925975,0.182820931705596,-374.938637407621
"1.532",0.236174861699301,-0.00226095219639701,1.22389360151473e-07,0.232955493974303,0.225719225049532,-396.233046471853
"1.533",0.230375087566084,-0.00196454202477351,3.30011029246519e-05,0.150721441631067,0.142709379759662,-369.476419569721
"1.534",0.236131838363372,-0.00197390814719345,1.33271916027093e-05,0.164504350813095,0.156622316386803,-379.627669190532
"1.535",0.235136999797587,-0.00218038099260831,1.1551343469728e-05,0.166662644691103,0.158800971527811,-359.717251844323
"1.536",0.231078539861566,-0.00174936823413337,4.64792046781759e-05,0.145472904538976,0.137411328166702,-388.377861586076
"1.537",0.234168843979364,-0.00207130487386863,2.81968937266419e-05,0.153124884252631,0.145135496368222,-360.002366702623
"1.538",0.234216848626279,-0.00198728306604887,2.2388060485027e-05,0.156639959546007,0.148683732749271,-371.397278045716
"1.539",0.229618863577312,-0.00199680283150577,6.28175722008548e-06,0.175807803922742,0.168032405846541,-385.164371396155
"1.540",0.235132299413054,-0.00203618187420107,7.47660486636185e-06,0.173201688381034,0.165401704309157,-378.864966769173
"1.541",0.229085265745638,-0.00209362381702961,9.63968513038004e-07,0.203440615971535,0.195925904801455,-394.298875930324
"1.542",0.235403871405766,-0.00208786284904226,2.30381466604509e-05,0.156204388485624,0.148244052527941,-360.405264641601
"1.543",0.226718011126931,-0.00185592629468114,9.26540056843559e-05,0.134832111798134,0.126670150588682,-366.778107485853
"1.544",0.235922899819975,-0.00230920352603132,5.96288450126848e-08,0.243010874434509,0.235869467589551,-397.400468144353
"1.545",0.234760003628991,-0.00211551921908074,2.43450105244304e-06,0.189879396507771,0.182236749305014,-383.439537247802
"1.546",0.236560970253797,-0.00227506203491155,9.17371977995525e-07,0.204160458295679,0.196652538090921,-375.240493877629
"1.547",0.233215143752278,-0.00199834835698996,2.00629385004988e-05,0.158307037836989,0.150366538193942,-371.346271176722
"1.548",0.2401734156715,-0.00240494701518783,5.9293929884977e-07,0.210477287429045,0.20302895995196,-369.609826542805
"1.549",0.228339292413346,-0.00180116695008937,3.92081941731011e-05,0.148082986952113,0.140046033998831,-385.953583168199
"1.550",0.234381894081113,-0.00219057157906445,3.16178928646768e-06,0.186018621168376,0.178339551556757,-373.01501702226
"1.551",0.230512010985383,-0.00190557751071204,2.98036599413201e-05,0.152278831517922,0.14428146200394,-376.620576771952
"1.552",0.236763706575915,-0.00200917503189335,6.61294952170247e-06,0.17503949768612,0.167256851437876,-383.169995649423
"1.553",0.224657761300907,-0.00160267482342684,0.000481131333438825,0.10909182032345,0.100687026175558,-373.019130663267
"1.554",0.228687998294696,-0.00189141948901101,3.49306152540495e-05,0.149852180358248,0.141831917908798,-376.505374393755
"1.555",0.225215088171217,-0.0017914546212304,3.96637695287943e-05,0.147905920638246,0.139867297248041,-386.949901897715
"1.556",0.237411526117183,-0.00220324031509182,1.04910633499836e-06,0.202209683166266,0.194683359422552,-382.523685689928
"1.557",0.23547061298099,-0.00222774763715324,3.07715726285319e-06,0.186420053752419,0.17874477124065,-368.887545155068
"1.558",0.231783582781493,-0.00176529484674478,0.000419074636279991,0.111265605638747,0.10288131889949,-354.590607141398
"1.559",0.232394631110102,-0.00219580429079507,2.49745908439113e-06,0.189502957024368,0.18185675850573,-374.238661754283
"1.560",0.22738969725428,-0.00202703459429636,3.72067257697664e-06,0.183607006118974,0.175905185421983,-388.232805788062
"1.561",0.233726965917351,-0.00219077687963316,4.95893494123587e-07,0.213051853306606,0.205627814186857,-391.343999467049
"1.562",0.229986678234728,-0.00195117343358014,3.56295343822358e-06,0.18424934068726,0.176553579750347,-396.940022068332
"1.563",0.229565116428049,-0.0020965803178111,3.73511265709796e-07,0.217119499997983,0.209733834903625,-403.508345172163
"1.564",0.235053644143416,-0.00228787595457788,4.96183428486106e-06,0.179327622461368,0.171585430220438,-357.867721642014
"1.565",0.229918079590223,-0.00200874608803276,2.58024531295624e-06,0.189021942489071,0.181371206097458,-393.117675788915
"1.566",0.227165210290308,-0.00160877199235484,0.000447547342259826,0.11023117803943,0.101837132549236,-373.762954907292
"1.567",0.231663791182959,-0.00211490050852807,3.1307736920364e-05,0.151526692333154,0.143522227166486,-354.120311652529
"1.568",0.227219124992735,-0.00157131057373971,0.000452102660537407,0.110071760257135,0.101676210825598,-376.898716103419
"1.569",0.233230206611928,-0.00222620951150171,9.91194084556577e-07,0.203035719142549,0.195517188191063,-381.438953912005
"1.570",0.236777181642904,-0.00227839069829763,3.52682439362311e-06,0.184400422701712,0.176706087066823,-363.270539526811
"1.571",0.239239024511721,-0.00236134712245877,3.53229586034788e-06,0.184377444781888,0.17668289237417,-355.74996573608
"1.572",0.230283323524479,-0.00199402947949162,2.56635274300852e-05,0.154560664790267,0.14658482200527,-369.185897696607
"1.573",0.232040547821133,-0.00214132579809675,7.20184060697181e-06,0.173762617963819,0.165967925680459,-368.657605614455
"1.574",0.23598841439343,-0.00202726384181444,2.01207048680742e-05,0.158263358284631,0.150322446570335,-368.78845681552
"1.575",0.230288353308344,-0.00187850138992329,1.23868098476351e-05,0.165609266050493,0.157737655352857,-391.094292646914
"1.576",0.234698478376983,-0.0021777707645644,7.34290369294909e-06,0.173472053587232,0.165674620130508,-364.472794682846
"1.577",0.234716697858901,-0.00207546201233141,2.05662619033216e-05,0.157930553294547,0.149986501910533,-362.079145611037
"1.578",0.234420898473553,-0.00217443210532072,5.72966788172833e-07,0.210971414231827,0.203527748328354,-391.494536235908
"1.579",0.231336049225446,-0.0020565342992611,1.73811018961306e-06,0.194833706562231,0.187237798133572,-392.818970356142
"1.580",0.23054485264035,-0.00198348012656505,1.93023745131283e-05,0.15889399556203,0.150959033256012,-371.260815904715
"1.581",0.232136280856584,-0.0022003819883061,7.30440802090983e-07,0.207463969048845,0.199987214039872,-386.653182896741
"1.582",0.22776623864988,-0.00179733972447392,1.56232315162562e-05,0.162100355402596,0.154195641774318,-397.865757686774
"1.583",0.234118032597247,-0.00220001416719667,1.32474419573806e-06,0.198808543848009,0.19125013388431,-381.11120346875
"1.584",0.233476810658004,-0.0017560115130955,0.000167161047809851,0.125662030096231,0.117413558682045,-370.017404458006
"1.585",0.232072661890508,-0.00214354827488886,3.30040919067565e-06,0.185383436409047,0.177698374488378,-377.418592489751
"1.586",0.235772293085049,-0.00195949717052352,2.80098670893728e-05,0.153226440261155,0.145238010452298,-372.05919831589
"1.587",0.234334666750165,-0.00220099908149293,4.66037131393016e-07,0.213944633486086,0.20652901682086,-390.207487220836
"1.588",0.230929970287898,-0.00220486681473945,4.27011160196521e-06,0.181561732927173,0.173840617200071,-368.036042211023
"1.589",0.231240371312216,-0.00197799246632908,6.33004080627641e-06,0.175693342760793,0.16791686486231,-387.548690428019
"1.590",0.229379813865484,-0.0019631886499077,4.69051205235966e-06,0.180164989215475,0.172430696660904,-392.562948689259
"1.591",0.230984070387685,-0.00202188285760626,6.39968463234705e-06,0.175529751707528,0.167751730497222,-382.834287662179
"1.592",0.223962586823369,-0.00147012232976316,0.000934376415929904,0.0986099590716972,0.090106279440298,-379.167416291119
"1.593",0.230459240499537,-0.00192953913405947,1.45501688908865e-05,0.163177172872478,0.155282617899577,-383.08977072418
"1.594",0.228461678116208,-0.00165345096502723,9.40029999426566e-05,0.13460821818221,0.126444144768834,-391.547319264111
"1.595",0.232863858778419,-0.00189681305811018,4.63977787130708e-05,0.145499835234553,0.137438512925445,-369.067621702212
"1.596",0.237574776972265,-0.00199973198690821,3.28997833366177e-05,0.150768462731191,0.14275684445507,-363.536235681535
"1.597",0.234149152292074,-0.00224864748833408,4.39668894020473e-06,0.181127427373215,0.173402214423906,-362.950468137911
"1.598",0.233733279163159,-0.00195122051328319,6.33972498878118e-05,0.140695964391688,0.132589322546327,-361.675390986639
"1.599",0.235427798910536,-0.00199166181258101,4.75677666335724e-05,0.145117282799534,0.13705235150519,-361.463416432997
"1.600",0.232633195659535,-0.00213246117286814,1.23273752900317e-05,0.165681853168842,0.15781092725534,-363.518158227771
"1.601",0.238239444200793,-0.00240558526713287,3.29682500177568e-07,0.218905153334192,0.211536334026023,-374.194414509338
"1.602",0.234513595805089,-0.00210693510627283,7.21248829423234e-06,0.173740490747665,0.165945589716982,-372.384105391763
"1.603",0.227228306710808,-0.00189319183196055,9.54903520312929e-05,0.134365012744132,0.126198644939831,-362.213102125445
"1.604",0.23068081914388,-0.00178470748244647,0.000120790409425285,0.130718585069894,0.122517817004515,-372.280469870796
"1.605",0.232965526104676,-0.00209912790247772,2.36980106591037e-06,0.190276377176776,0.18263747507467,-384.852686145185
"1.606",0.23641714319941,-0.00244925473906333,3.19637247582073e-07,0.219347282352127,0.21198263407243,-371.071833598932
"1.607",0.230604125227871,-0.00178612234834503,0.000514429873289407,0.10803748391017,0.099622743192341,-348.363517553931
"1.608",0.23640379145225,-0.00225870780926783,1.44127808656642e-07,0.230652741695926,0.223394748693058,-392.575150918854
"1.609",0.226761982504048,-0.00180414810332717,1.48855093662226e-05,0.162832470143056,0.154934663257613,-397.318300427203
"1.610",0.233174046373992,-0.00190899497859612,7.51558376038802e-05,0.138069941227878,0.129938525579084,-364.512362045851
"1.611",0.231257731567547,-0.00198556488257262,9.99998957455816e-07,0.202907114150011,0.195387369943878,-405.837012001322
"1.612",0.236559695032839,-0.00241332410237228,4.3558789106838e-07,0.214915106773309,0.207508645516453,-371.310828491053
"1.613",0.236751670932574,-0.00204156701070243,1.88659784045071e-05,0.159241169377401,0.151309482296056,-368.031040519679
"1.614",0.23251164150961,-0.00172465690320975,0.000162036975692972,0.126147344622563,0.117903451647304,-374.661223731507
"1.615",0.232905492189993,-0.00208150430021733,5.96482907462999e-06,0.176581357460693,0.168813257059378,-377.319938090205
"1.616",0.226451901378754,-0.0015499660115543,0.000595707101826642,0.10572429379299,0.0972877305268858,-376.734422884945
"1.617",0.234686347459003,-0.00241904788230824,4.23723076751627e-08,0.247746987454764,0.240650260921318,-388.469997164527
"1.618",0.231717769537219,-0.00196977063555821,4.80100811178661e-05,0.14497507419697,0.136908801312035,-363.525129454206
"1.619",0.236389263044067,-0.00225203279107221,1.0926834876512e-05,0.16750032712639,0.159646556627582,-353.457045972972
"1.620",0.23205873879967,-0.00242365053759696,8.94682845708562e-09,0.268969435923041,0.262072921167598,-401.694624387489
"1.621",0.234043313330757,-0.00225334163549796,1.56254814721826e-07,0.229512618702624,0.22224386982246,-395.296874555324
"1.622",0.23201659187904,-0.00188212062608271,2.39163368111625e-05,0.155634856595665,0.147669147695624,-382.606115764046
"1.623",0.235353293590661,-0.00230139776905448,5.86834814966877e-07,0.210626553878866,0.203179634575836,-379.093246560802
"1.624",0.238988689988112,-0.00218691782303536,1.90723587245603e-07,0.226693085958475,0.2193977377128,-399.314477516266
"1.625",0.230285856024398,-0.00190197350441619,1.64760122071138e-05,0.161295399151186,0.153383091596009,-384.600722631407
"1.626",0.232073470297919,-0.00181001840977609,0.000122920264493904,0.13044701549114,0.122243685448603,-368.851130280984
"1.627",0.234613706303252,-0.00217667714112933,1.39719400109946e-06,0.198030523100737,0.190464773318669,-382.54941455166
"1.628",0.231907195858552,-0.00170458679888661,0.000543344911827774,0.107175462756377,0.0987525897635125,-356.741136877357
"1.629",0.234708392673747,-0.0021638817412851,2.634663768672e-06,0.188713965707318,0.181060323874368,-377.617896738967
"1.630",0.229988810055362,-0.001816969352582,5.98046351351339e-05,0.141595105849961,0.133496946471187,-377.487261403479
"1.631",0.237265099140414,-0.00235929681191999,8.19957750238048e-07,0.205789431771414,0.198296879240955,-369.95283442755
"1.632",0.234167761425125,-0.00227655928802151,1.01573210303121e-06,0.202680065430104,0.195158179254916,-376.135684088803
"1.633",0.234714698649302,-0.00226812391214578,1.11133435639401e-05,0.167245311116535,0.159389134806313,-351.625911574984
"1.634",0.232407300627287,-0.00198699388240934,1.51845548604792e-05,0.162531475743604,0.154630829288355,-376.34619624352
"1.635",0.23722413035683,-0.00229991624593885,2.70388748162919e-06,0.188331131768378,0.180673878294494,-364.36731433415
"1.636",0.23387200714916,-0.00224027905270244,4.71864400058838e-06,0.180075978941997,0.172340846667865,-363.220112945747
"1.637",0.231697731218773,-0.00212873546862164,3.83158197564499e-06,0.183171180977714,0.175465248722786,-376.880877434069
"1.638",0.23368976364223,-0.00228397970221056,1.07896021239388e-06,0.201801237640717,0.194271060637328,-375.144998832717
"1.639",0.225669450398122,-0.00189170507814157,4.98180687598273e-05,0.144406933920669,0.136335301221808,-372.081826649942
"1.640",0.236054138139508,-0.00203805722651956,1.82451298526364e-05,0.159748986738737,0.151822090387216,-368.544598168726
"1.641",0.228014913171083,-0.00172892012976474,3.75813464395642e-05,0.148732299437149,0.140701472073348,-394.986574513229
"1.642",0.232667598608865,-0.00171414383113223,0.000391563274364597,0.112333531370506,0.103959319402303,-362.245159558033
"1.643",0.234749737392447,-0.0022945483925215,1.75897367012791e-06,0.194658691542809,0.187061132029062,-368.783754294919
"1.644",0.236661995871073,-0.00225689392187525,4.18389612504876e-07,0.215493196605233,0.208092189026037,-386.654871762328
"1.645",0.236765542362812,-0.00236282647767014,1.49563558569313e-06,0.197034760880986,0.189459617115712,-363.089327894037
"1.646",0.228294168207868,-0.00181051250995007,4.05903022547229e-05,0.147551921317376,0.139509958310936,-384.09492221857
"1.647",0.230408700787975,-0.00203845109289058,1.04069803092891e-05,0.168234457090895,0.160387612346469,-375.495197382009
"1.648",0.234736125131697,-0.00237363630274646,5.55979512644219e-07,0.211405215545625,0.203965642107377,-373.02648997596
"1.649",0.234267678557426,-0.00216061622674787,5.10724627450946e-06,0.17889723606881,0.171150983578893,-369.597275025738
"1.650",0.231326939771902,-0.00201984706829346,8.85281653096377e-06,0.170666784183736,0.162842885921318,-379.028666818868
"1.651",0.235334168685371,-0.00190260374911951,3.81611411861704e-05,0.148497762129706,0.140464722149797,-374.391721191378
"1.652",0.231952732916291,-0.00191314101303748,3.22047432858161e-05,0.151094927756824,0.143086389339435,-374.900992801469
"1.653",0.23191090331683,-0.00198946101449304,5.67993652813144e-05,0.142389224399196,0.134298556704848,-359.114746483027
"1.654",0.234472530387324,-0.00188749250485959,6.08762062970765e-05,0.141321454276018,0.133220713278622,-369.861803227933
"1.655",0.22720452635789,-0.00183123050656108,8.90008028350059e-05,0.13545500728269,0.127298922445734,-370.483836887558
"1.656",0.232535100595499,-0.00214021290899373,5.7185199766874e-06,0.177211053201507,0.16944889332605,-371.150892269137
"1.657",0.234080110901309,-0.00218453989368261,9.00009944363782e-07,0.204437917544438,0.196932614879762,-386.185688135096
"1.658",0.233838190173427,-0.00212272694980059,1.37844199597899e-05,0.163994620181792,0.15610777697596,-363.247263344302
"1.659",0.233125298758738,-0.00212744467982201,6.74165246324467e-06,0.174751120133788,0.166965753342597,-370.872994262263
"1.660",0.233545465976057,-0.00229264996742733,3.65749885300022e-07,0.21742015219772,0.210037323444868,-383.797135473599
"1.661",0.23514528903251,-0.00211253673580562,2.02381117930963e-05,0.158174961994714,0.150233216353155,-359.825153961379
"1.662",0.229959648193498,-0.00201576309027101,2.96206042430035e-05,0.152372917842493,0.144376435935347,-364.863582459118
"1.663",0.230407505881315,-0.00198643804374466,2.34412986015155e-06,0.190436854381255,0.18279946621504,-397.420543157812
"1.664",0.232075660438464,-0.00218652038310165,4.23141199802195e-07,0.215331175395736,0.207928639314564,-393.261777941056
"1.665",0.228417024155568,-0.00162434355837701,0.000117902678112998,0.13109444910779,0.122897226929562,-392.009183980947
"1.666",0.237704304192013,-0.00206924777636577,1.06629300412118e-05,0.167868599007619,0.160018302771841,-371.471713637866
"1.667",0.238165620278007,-0.0022800150275779,8.70105709362593e-07,0.204928402887888,0.197427727443434,-377.452961852225
"1.668",0.236073352233516,-0.00222306541568533,3.12783114194838e-06,0.186178407234691,0.178500845038792,-369.982853188042
"1.669",0.233156269732606,-0.00188304400194584,0.000125418036588959,0.13013440037117,0.121928121129389,-359.295022350258
"1.670",0.236720893793101,-0.00204440973287558,1.31508106643872e-05,0.164705608950752,0.156825473186137,-371.073206503275
"1.671",0.231169034627794,-0.00215000415044885,7.43800351487987e-07,0.207201634614523,0.199722404752396,-391.459938379961
"1.672",0.240373833724841,-0.0024837911962066,2.49687734740496e-06,0.18950639237572,0.181860226266056,-348.213210251046
"1.673",0.229610406863654,-0.00180945380472021,0.000102665521226896,0.133242008215132,0.125065046028482,-370.890481250343
"1.674",0.22843298568729,-0.00199022386466897,7.03358793788314e-06,0.174116614873221,0.166325262183346,-384.927350205104
"1.675",0.230582925845896,-0.00226246697224455,1.85961236064078e-07,0.227051260257705,0.219759291014853,-392.302325384913
"1.676",0.236517231898576,-0.0021074014089094,1.05568634605804e-05,0.168019150072525,0.160170274129813,-367.921422183379
"1.677",0.230964709741759,-0.00217553593892952,1.5280802229385e-06,0.196720675728053,0.189142568895299,-381.930392688548
"1.678",0.234194783961179,-0.00197803545987445,1.01706521093543e-05,0.168580232927743,0.160736650219514,-382.148395142027
"1.679",0.232275317546093,-0.00204541002730435,9.63135992721602e-06,0.16939990735268,0.161564057422044,-375.688294937875
"1.680",0.237643389038946,-0.00210167315657059,1.84573417890908e-05,0.159573517788503,0.151644966069526,-362.091746570387
"1.681",0.232548794488998,-0.00209098834076412,1.14110579279489e-05,0.166846858727972,0.158986923432953,-368.684928967509
"1.682",0.230810206560857,-0.00197052997412239,1.81999242258015e-05,0.15978662536528,0.151860084095141,-376.028085189003
"1.683",0.237358399733522,-0.00203070155429222,1.64934473032603e-05,0.161279374052024,0.153366915316666,-370.665727068179
"1.684",0.232705067744657,-0.00206803047255366,3.15753563012498e-06,0.18603854337353,0.178359661707242,-385.555471028106
"1.685",0.231817183379803,-0.00196705060042015,1.48593148286974e-05,0.162859118849322,0.154961563366769,-378.949970521439
"1.686",0.228166258007668,-0.00194193262121002,2.50473172290641e-05,0.154931046320907,0.146958697701293,-375.041328784738
"1.687",0.232620966938608,-0.0018920528190451,6.56027324758232e-05,0.14016859746111,0.132056980456026,-364.512048826303
"1.688",0.234461483175018,-0.00208144081209635,2.34293609715741e-05,0.155948074629866,0.147985320616941,-361.314693326826
"1.689",0.237364457631587,-0.0022092866431655,1.08349124406328e-06,0.201740220846535,0.194209468213012,-381.228622567655
"1.690",0.232849336750033,-0.00241721496076825,7.62182356861086e-09,0.271125367157502,0.264249191375968,-403.639343546659
"1.691",0.231096121931479,-0.00194519434248903,1.98489832319922e-06,0.192884515194679,0.185270218168213,-401.81648995519
"1.692",0.231603300107134,-0.0020134490268914,6.16451896752627e-06,0.176089378490005,0.168316636777647,-383.994565931914
"1.693",0.234783502322242,-0.00221440732191238,5.21112471479515e-06,0.178597111436115,0.170848027581739,-364.446627052393
"1.694",0.226381097790872,-0.00181160658020956,1.54254953509906e-05,0.162293187853764,0.154390293399554,-396.357193339415
"1.695",0.226130143096856,-0.00166087700636271,0.000133996606754202,0.129105734393513,0.120889750755716,-385.991753819783
"1.696",0.236235068396107,-0.00215440291213059,1.0600709174184e-05,0.167956735367012,0.160107270606323,-363.096611291305
"1.697",0.231632230773188,-0.0018977953319934,7.33877928559934e-05,0.138437694071273,0.130309747788926,-366.183453415241
"1.698",0.231398570135224,-0.00202695153923518,2.97184891038087e-05,0.152322536169428,0.144325578963479,-363.998991272331
"1.699",0.235989794406136,-0.00221742656526543,7.28749406175353e-06,0.173585525754996,0.16578916279042,-361.337409700605
"1.700",0.228112752189061,-0.00179973274018712,2.53012180287225e-05,0.154777358316649,0.146803559810202,-391.629604164345
"1.701",0.239013203435813,-0.00227618830562178,5.4319491943239e-06,0.177978227120911,0.170223304735259,-359.098481541219
"1.702",0.232083926618807,-0.00200749371633234,1.43229699075523e-05,0.163415196682365,0.155522887217104,-374.188828465431
"1.703",0.231233471230088,-0.00195940292137775,2.48466786251542e-06,0.189578675965867,0.181933191776866,-399.507815114691
"1.704",0.229493984697071,-0.00192393315601983,4.5407096255903e-05,0.145831282541966,0.137773087094249,-369.048917442684
"1.705",0.236556554489862,-0.00199589458908317,1.18719218101067e-05,0.166249829803578,0.158384262160215,-378.376524520635
"1.706",0.231556965239593,-0.00213155542309288,5.25631952481091e-06,0.178468371277331,0.170718072893155,-372.835028423106
"1.707",0.233327806699435,-0.00209573990266604,1.63534812134182e-05,0.161408495014828,0.15349725440176,-363.934049074758
"1.708",0.233506651457342,-0.00204628026608837,1.82964113607543e-06,0.194080718983742,0.186477706898683,-393.39678011142
"1.709",0.227919993660574,-0.00185559054551404,7.22035624537031e-05,0.138688941835751,0.130563365815333,-371.212599884686
"1.710",0.235872638069461,-0.00213161221107338,8.85373542656662e-06,0.170665225102967,0.16284131213224,-367.560601055134
"1.711",0.235009392320884,-0.00222147228268266,1.19811459846857e-06,0.200274853994354,0.192730277145244,-378.311877656947
"1.712",0.226670626573284,-0.00186395019953696,4.54882960434999e-05,0.14580384861745,0.137745394359124,-376.44944329469
"1.713",0.232395930107856,-0.00190681348013818,5.80043056299543e-05,0.142065956003939,0.133972238607749,-368.216188927295
"1.714",0.227374978226498,-0.0018526730709364,7.83583510743375e-05,0.137425071776004,0.129287572453136,-368.369489772252
"1.715",0.234972525470323,-0.00194901748765277,2.4807296443364e-05,0.155077752779819,0.147106788183402,-373.591204437353
"1.716",0.230059814699787,-0.00185572828334561,9.71583870452092e-05,0.134096677524877,0.125927778256244,-365.499856909068
"1.717",0.236916347371154,-0.00233676685414776,1.04700168148899e-07,0.235148515749524,0.227932935709425,-391.163501017524
"1.718",0.230375969630794,-0.00173478539989272,0.000266031510695775,0.118399997668087,0.110083016514012,-366.189677971774
"1.719",0.230543643778869,-0.00200088508534804,1.25591344641824e-05,0.165400732284815,0.157527154287502,-377.205114239042
"1.720",0.234158865756657,-0.00198544116501533,3.60483288439682e-05,0.149370073978832,0.141345263355991,-365.868338148356
"1.721",0.228524316340214,-0.00215237910860281,7.9607487477435e-07,0.206217889770558,0.198729379296695,-390.083494679515
"1.722",0.230222372687835,-0.00184759885581256,7.17758912824161e-05,0.138780678900416,0.130655968324004,-372.270444172797
"1.723",0.233933314344891,-0.00193178175193405,1.70347146665331e-05,0.160790016093341,0.152872940773466,-381.220317594577
"1.724",0.234102555311171,-0.00199496077340715,3.17758552424823e-05,0.151299867271686,0.143293262245947,-365.406455847178
"1.725",0.232039843462666,-0.00216514785800628,2.67563077739957e-06,0.188486222830571,0.180830432479916,-377.210887930275
"1.726",0.239516080316295,-0.00218846350370155,3.38783556118623e-06,0.184996209689549,0.17730749468662,-372.562237027866
"1.727",0.231047944991252,-0.00221818659950418,8.22735677093808e-07,0.205740395666317,0.198247380531093,-383.763723226863
"1.728",0.235277547976411,-0.00205426850993647,7.28828018002772e-06,0.173583909941459,0.165787531733359,-377.75795409392
"1.729",0.229347277123633,-0.00173430503451341,0.00015103486342133,0.127242822008417,0.119009263725478,-374.747890136566
"1.730",0.232351766207705,-0.00213085193022986,2.23946804292226e-06,0.19110955034015,0.183478508362226,-382.717801063701
"1.731",0.232235214275634,-0.00207339990561505,1.63084464773704e-06,0.195767502624142,0.188180403592294,-390.929453270896
"1.732",0.231033880255019,-0.00167983726284167,0.000173330525164986,0.125096863532784,0.116843060358565,-379.656046452256
"1.733",0.236142532825782,-0.00219748190329366,1.46896300596789e-05,0.163032876069186,0.155136959805688,-354.978956753952
"1.734",0.227154418945253,-0.00177727024708241,9.64179952127541e-05,0.134215217152878,0.126047436182622,-376.349714374741
"1.735",0.235213779649767,-0.00225014720494359,1.40534641943892e-05,0.163702419212409,0.155812819393658,-350.230748808806
"1.736",0.232312016698973,-0.00201987146759583,9.13130937109998e-06,0.170201422493691,0.16237313402665,-378.948171966553
"1.737",0.234435891009322,-0.00203258290995514,6.67856618819223e-06,0.174891789569097,0.16710774984805,-380.87692949916
"1.738",0.232951743933349,-0.00232289358787069,1.63461386522442e-06,0.195733677075005,0.188146258934203,-367.341380314163
"1.739",0.232520163808766,-0.00227218352359204,1.72403578393993e-07,0.2281226350733,0.220840773140029,-392.911105489869
"1.740",0.236747840364311,-0.00225739129484881,4.31249974561891e-07,0.215058771075686,0.207653665142438,-386.275526915878
"1.741",0.229669928738159,-0.00202510090719914,3.37358054463645e-06,0.185058671055005,0.17737054531024,-388.943258190793
"1.742",0.228693610451113,-0.00174618206342221,6.65765087751812e-05,0.139941302683474,0.131827541388035,-385.394301243595
"1.743",0.235794064141301,-0.00223422763351649,1.62383792150313e-06,0.195830587170172,0.188244083275551,-375.829248394047
"1.744",0.232900066135688,-0.00225826865122698,1.48916897458028e-06,0.19709816316814,0.189523617537651,-374.225257990128
"1.745",0.229550667239001,-0.00191667211501974,1.70693432767486e-05,0.160759232633007,0.15284186690313,-382.949721331145
"1.746",0.240552637260698,-0.0025086838689281,1.88534694251224e-06,0.193640405316244,0.186033239328661,-348.871522846903
"1.747",0.228403985805217,-0.00189362047822653,3.85171768171075e-05,0.148355476480468,0.140321094183114,-373.665569683288
"1.748",0.232092223241526,-0.00174079428686809,8.47859913775875e-05,0.136205852431695,0.128056851039541,-381.189608045586
"1.749",0.232316847775982,-0.00204437916890387,3.60728874454887e-05,0.149359647527731,0.141334738542144,-359.198745245154
"1.750",0.234413201736414,-0.00203113028781801,3.41221893526093e-05,0.150210467327482,0.142193584943779,-361.795593581116
"1.751",0.237568067760316,-0.00243449108137057,2.7691749478078e-07,0.221394346818606,0.214049010467838,-373.826227220919
"1.752",0.233221178124506,-0.00222574832827986,1.56778626616574e-06,0.19634511267701,0.188763462796604,-376.982825871469
"1.753",0.228754770648757,-0.00165585904888674,0.000239446260471891,0.120048506155409,0.111747076968196,-377.86991331014
"1.754",0.228505927445495,-0.00193810586635668,1.02343332088239e-06,0.202570186627219,0.195047263859552,-409.190900175996
"1.755",0.226271833740088,-0.00170987969205908,0.000412241918027408,0.111524203607708,0.103142356471931,-361.827677842251
"1.756",0.232213806440797,-0.00222654373297488,5.09968714828568e-07,0.2126491687429,0.205221330712173,-387.196504344105
"1.757",0.234482331149702,-0.00230185153572682,3.97553300396731e-06,0.182623693094647,0.174912595859691,-359.293029171427
"1.758",0.231836732109203,-0.00180273515935792,0.000170564993425354,0.12534770259446,0.117096265826483,-364.928250751973
"1.759",0.232053351579123,-0.00177844790198527,8.25415881063996e-05,0.136620873872198,0.128475787776653,-378.506455066941
"1.760",0.230526374776797,-0.00214113823073579,1.42416492853091e-05,0.163501297736974,0.155609800545813,-361.073385499604
"1.761",0.232245841081067,-0.00200535861377178,6.44827468928057e-06,0.17541665114801,0.167637562951293,-384.582306566115
"1.762",0.235462948335757,-0.00203636978589749,1.83534341302053e-05,0.15965918449699,0.151731440954508,-368.147241074414
"1.763",0.241171956857784,-0.00257388735830802,5.57369425264806e-08,0.243948669394471,0.236816109671777,-375.506959787505
"1.764",0.234306807170563,-0.00219993780196785,3.80353452178066e-06,0.183280209341547,0.17557530565609,-369.958885418082
"1.765",0.231846606623046,-0.00203496498783268,1.72048712229051e-05,0.160639343105568,0.152720846342413,-369.568087892197
"1.766",0.233467577199627,-0.00214577469935033,7.62697696405519e-05,0.137842607665442,0.129709047360399,-338.944703229196
"1.767",0.229716591407413,-0.00176454623926941,0.000154441286451871,0.126895430860985,0.11865859530307,-370.938778735883
"1.768",0.232556479283545,-0.00222880455741329,4.79531382545504e-06,0.179836022538156,0.172098626524365,-364.699797225086
"1.769",0.232125733502866,-0.00160605170307299,0.000675142544666228,0.103748257024465,0.0952930519020546,-366.796388609254
"1.770",0.230646868530427,-0.00191219810284614,4.86584637794965e-05,0.144768933731806,0.136700716125503,-368.407025570266
"1.771",0.237875752658172,-0.00256335810767918,2.67766672610877e-07,0.221873144346022,0.21453232495306,-362.044805161789
"1.772",0.231497310781926,-0.0020419783217133,3.75045015706835e-06,0.183488749164555,0.175785812835918,-386.479240104432
"1.773",0.235653028925821,-0.00189267848801044,3.70145495964391e-05,0.148965057487488,0.140936425954351,-375.615119156691
"1.774",0.235256528169123,-0.00237906699238414,1.73810626318309e-06,0.194833739693738,0.187237831577641,-361.021002130046
"1.775",0.23476309853494,-0.00203332848756392,7.11695164619529e-06,0.173940189907818,0.166147172831477,-380.37499846886
"1.776",0.233378788564576,-0.00192815077667347,6.90499435943029e-06,0.174392844335697,0.166604097584147,-392.132992852615
"1.777",0.240403344897716,-0.00241936066941723,6.52221124733675e-08,0.241763537758627,0.234610363586539,-387.672298680552
"1.778",0.234600050611059,-0.00190995660508366,7.70965610224998e-05,0.137675985579988,0.129540853368478,-362.807939414207
"1.779",0.224313694519537,-0.00147590464721237,0.000423891370516752,0.111085805954288,0.102699822991592,-392.921108140497
"1.780",0.238255915696217,-0.00238361337895535,2.80201237765392e-07,0.221226319665715,0.213879398153127,-377.78762878467
"1.781",0.22857712406022,-0.00181640188837881,5.8704241965527e-05,0.141881205037026,0.133785744707187,-378.653876520626
"1.782",0.230898952115603,-0.00192313741250163,4.727506697651e-05,0.145212108468659,0.137148071756099,-369.053631383759
"1.783",0.236292831234767,-0.00255374910368259,5.60225939930627e-08,0.243877680887004,0.23674445146141,-377.056548534902
"1.784",0.230392495464806,-0.00187683515443826,0.000280005662540675,0.117597793621679,0.109273244504903,-347.974919215395
"1.785",0.229256926682686,-0.00201497662892491,2.88195323606681e-05,0.152791516484761,0.144798983621409,-364.675769716508
"1.786",0.232804868467377,-0.00202761191345881,2.88797997763969e-05,0.152759626794168,0.144766793084679,-364.310832152886
"1.787",0.226699883813981,-0.0018460012329343,5.68422221888228e-05,0.142377610796429,0.134286833539791,-373.533100214879
"1.788",0.237435525362388,-0.00222932092162792,1.02887815923108e-06,0.202492991350523,0.194969340325528,-380.784702186994
"1.789",0.23559774067376,-0.00203845601945607,1.70835725917565e-05,0.160746601189797,0.152829116295361,-369.671572373552
"1.790",0.232532817584013,-0.00182597584068474,7.21727452840329e-05,0.138695534262567,0.130570020434856,-374.37383831181
"1.791",0.228115283178402,-0.0017751795901985,0.000111371142143138,0.131979303033415,0.123790428533731,-374.601666577294
"1.792",0.235901828867233,-0.00214032780488846,3.88619779862953e-06,0.182961112040075,0.175253198002717,-375.47655978933
"1.793",0.231908971846105,-0.00187468575907971,0.000172399841609038,0.125180833505655,0.116927822500992,-356.186893150808
"1.794",0.236055950467833,-0.00216332453100188,5.41977682954148e-06,0.178011690282774,0.170257083587329,-368.097324688699
"1.795",0.233343226907734,-0.00190285951283263,0.000213418887116021,0.121848251720764,0.113563801265299,-349.542567784242
"1.796",0.232863124194252,-0.00202954981954172,2.1964249470785e-05,0.156930693514048,0.148977209490595,-367.097608888531
"1.797",0.227969070614884,-0.00196198322295404,4.21627755467458e-06,0.181750303523448,0.174030966764235,-393.835674765699
"1.798",0.235101141012025,-0.00222560629515724,5.22512069341114e-06,0.1785571258092,0.170807664731928,-364.234600053837
"1.799",0.231238094621448,-0.00196316672306727,2.2091190495457e-05,0.156843035527479,0.148888724541889,-373.846299999273
"1.800",0.230166772371362,-0.00208206218669623,2.20410471130792e-06,0.191343860214472,0.183715028707061,-386.816190996015
"1.801",0.23801107562126,-0.00208115595050942,8.11305984686093e-06,0.171976737299629,0.164165197085475,-373.979979756847
"1.802",0.226078526987978,-0.00165709321738678,0.00131075610990079,0.0932462611221616,0.0846919805667102,-346.71034078665
"1.803",0.232659269495131,-0.00206603395216244,6.82817328978873e-05,0.139551075005477,0.131433632316849,-348.402875362769
"1.804",0.236112929451019,-0.00221250924081065,2.41157130673751e-06,0.190018885102125,0.182377553829504,-373.872970217619
"1.805",0.231364898076719,-0.00194779576322051,9.6563234727426e-05,0.134191892965697,0.126023891955939,-356.570139108106
"1.806",0.23265785638847,-0.00201461094478159,3.19614176903912e-06,0.185858690659725,0.178178112269722,-389.84214861837
"1.807",0.235094392656083,-0.00220779155496108,3.05959547584302e-06,0.186504715619297,0.178830231804385,-371.833645322655
"1.808",0.234966785525453,-0.00239327400598666,7.02862158936536e-07,0.208020791904706,0.200549289941543,-368.970356174797
"1.809",0.228069714475988,-0.00176673057383854,0.000227647315614471,0.12083908414382,0.112545113239517,-364.117111155868
"1.810",0.235950475514633,-0.00223083586183758,5.66869567820791e-07,0.211125643660917,0.203683432752058,-386.321428440856
"1.811",0.234390982053165,-0.00206324887171615,1.69238302728625e-05,0.160889004853544,0.152972863389898,-367.23633709754
"1.812",0.231449214848337,-0.0018659206211635,7.77144521787605e-05,0.13755261163304,0.129416315516371,-368.935397621067
"1.813",0.232644466687622,-0.00226338437593891,1.27847033702821e-06,0.199327709561409,0.19177419738746,-375.062212030217
"1.814",0.232462718196807,-0.00189265405251495,2.54883771778615e-05,0.154665040800829,0.146690182695177,-380.814805893031
"1.815",0.229126103899171,-0.0017478158483998,3.19107798363812e-05,0.151235102153885,0.143227886136469,-394.862115850931
"1.816",0.225937915702287,-0.00170624674118139,0.000108133982430251,0.132437055394757,0.124252499313576,-383.48126318754
"1.817",0.23547439224379,-0.0021730616997941,1.21739530450031e-05,0.165870834148754,0.158001691074686,-359.923803473706
"1.818",0.233698859535896,-0.00203178415976421,1.03673317502302e-05,0.168291923627853,0.160445621020568,-375.322789869326
"1.819",0.230408362213128,-0.00200735494734395,1.69208983361829e-05,0.160891630926153,0.152975514236777,-371.852601171598
"1.820",0.232024713722165,-0.00197044382634219,9.44787650398961e-05,0.134530011868151,0.126365200659359,-354.440449954512
"1.821",0.236856515983105,-0.00237264751765805,4.2722279428234e-07,0.215193423178487,0.207789587548096,-375.52621793054
"1.822",0.236564196319189,-0.00228758690837788,6.75764926301359e-07,0.208589250827163,0.201123111684023,-378.612119249328
"1.823",0.228318427564378,-0.00193855393016113,1.57440481578206e-06,0.196283422746413,0.18870119088553,-406.415829136833
"1.824",0.23257800618853,-0.00198025052987998,2.20669772225677e-05,0.156859717364346,0.148905563754575,-372.520008645158
