"rho","p_value"
-0.224091441987633,0.0197290402239218
-0.186848478194345,0.0528334134855594
-0.208378598877711,0.0304527391955473
-0.213595567708931,0.026445765442664
-0.161611689245509,0.0947259539178752
-0.15664723123443,0.105448434882329
-0.221937953483787,0.0209725926098979
-0.189163954771489,0.0499122795773154
-0.222705014654405,0.0205221368324956
-0.309540150652419,0.00111469424105102
-0.251891453978658,0.00854300896712392
-0.238198697429865,0.0130474703316294
-0.222743129495181,0.0204999725219946
-0.284246189442419,0.00286978167533199
-0.259924156672209,0.00659485577313242
-0.222867002727703,0.0204280805774202
-0.10728374807436,0.269096729745485
-0.290130167987221,0.00232036696440122
-0.198297223492448,0.0396609885473553
-0.20165132948074,0.0363682040662356
-0.188887622175863,0.0502537191111552
-0.283622058924712,0.00293444051347195
-0.222404860283294,0.0206974017708527
-0.217807257614684,0.0235470955463783
-0.243510953363026,0.0110997459531608
-0.193104076436712,0.0452489117514773
-0.179139751647391,0.0635893544286492
-0.18270348925995,0.0584138235009391
-0.219984567894015,0.022158245366732
-0.145679685801124,0.132486400571986
-0.220732571644245,0.0216976069786725
-0.179878226687426,0.062487278855585
-0.154341283367479,0.110741346008091
-0.185385821179564,0.0547502073887855
-0.265884364898562,0.00541505908413834
-0.234630195462209,0.0145174617490411
-0.224677457664565,0.0194018312310826
-0.187653654205739,0.0518020547099822
-0.145074612703804,0.134119355553504
-0.175985748573173,0.0684757759376446
-0.247360552281406,0.0098521864443256
-0.151439791113403,0.117692375424756
-0.210965643695384,0.0284057293568711
-0.161421115041629,0.0951210190735054
-0.26576049166604,0.00543752836576924
-0.175928576312009,0.0685670823379848
-0.206587201361237,0.0319422516718556
-0.228870090149929,0.0171942914607795
-0.18340384945921,0.0574384134552117
-0.269162241205301,0.00484973366057225
-0.2200083896695,0.0221434471233693
-0.177920076742557,0.0654441777283148
-0.166585675966782,0.0848656447112173
-0.223443489694441,0.0200963513775908
-0.241033488712583,0.0119739264000311
-0.241714791491455,0.011727724539082
-0.183494372206053,0.0573133200630505
-0.20297105584261,0.0351371297229876
-0.268395180034684,0.00497708747052636
-0.183170396059457,0.0577620558171578
-0.186881828680024,0.0527903611808976
-0.141101140552902,0.145226446902448
-0.183537251401926,0.0572541432982284
-0.287609824140905,0.00254288163491993
-0.179020642769965,0.0637685820575373
-0.269443338156025,0.00480379635248982
-0.232128909036281,0.0156317673133498
-0.180530943335716,0.0615261975704273
-0.232419534697198,0.0154985978009872
-0.244892616341158,0.0106369183997288
-0.252877675483738,0.00827926348814014
-0.214195876451154,0.0260148954257757
-0.179673359418255,0.0627914435441817
-0.197220479240525,0.0407695333396459
-0.282821647268415,0.00301927855698097
-0.182651081353883,0.0584873555095624
-0.218436152487488,0.0231384924913133
-0.340327413289266,0.000313562785504259
-0.223329145172113,0.0201617779784938
-0.2212804724804,0.0213654318681097
-0.123210987163648,0.203944573905156
-0.230232695707673,0.0165252471700278
-0.262134817437219,0.00613303142722174
-0.161778441673904,0.0943813361354481
-0.205982128263917,0.0324590691304245
-0.287771812214203,0.0025280216088784
-0.154717667420143,0.109863573099516
-0.105954493002296,0.275108307081545
-0.238227283560447,0.0130362390872937
-0.260805562365154,0.00640715181982258
-0.215205919731719,0.0253034391795255
-0.211832756323039,0.0277463070864878
-0.189354528975369,0.0496779229634678
-0.270658248705761,0.00460968627234913
-0.249161478508074,0.00931209077318732
-0.165971074159269,0.0860377726032278
-0.256460470516686,0.00738055049935451
-0.349713192830366,0.000207347349186651
-0.18682465641886,0.0528641828371507
-0.181650566783512,0.0599057424540908
-0.211546895017219,0.0279622463175831
-0.20381434669478,0.0343689958922318
-0.224191493444671,0.0196728412927626
-0.250795652306347,0.00884471888636241
-0.207892634657816,0.0308508762237181
-0.155622894888574,0.107774667870925
-0.186996173202352,0.0526429726455404
-0.245774022034103,0.0103505837225086
-0.244239899692868,0.0108534129539736
-0.111219105384486,0.25182298177101
-0.205100722570971,0.0332245361270887
-0.218450445552779,0.0231292770426874
-0.14140605927911,0.144350250035154
-0.147351974440173,0.128052213916843
-0.132215618296988,0.172557172890256
-0.211032344666743,0.0283545363588585
-0.146113242114951,0.131325696679142
-0.16585672963694,0.086257258713569
-0.309254289346599,0.0011272058188928
-0.1636937124229,0.0904937963657045
-0.303665700817812,0.00139898015219066
-0.205696266958097,0.0327056802176097
-0.242748656547505,0.0113625723684559
-0.207573422866317,0.0311147875863836
-0.287404956871734,0.00256178795162515
-0.226850003588799,0.0182292198347437
-0.269352815409182,0.00481854717437169
-0.15262135117746,0.114822079348762
-0.156404249124482,0.105996654188514
-0.156952149960638,0.104763613989429
-0.285870834530498,0.00270744093172014
-0.226873825364284,0.018216709008643
-0.168429481389323,0.0814255019990266
-0.179487549569472,0.0630683563612064
-0.217507103243572,0.023744276584205
-0.181903077603654,0.059545142386035
-0.248918496398127,0.00938340689873505
-0.233891720422173,0.0148390310451521
-0.276627985642308,0.00375395818249073
-0.155065465342224,0.109057293565479
-0.186333927843868,0.0535013226978231
-0.229375111790212,0.0169436413018916
-0.273769372584105,0.00414415317578755
-0.222462032544458,0.0206639191467261
-0.137685097948349,0.155318790175829
-0.147733122847933,0.127057675320964
-0.172245729822024,0.0746597420659298
-0.240904851124964,0.0120209155981975
-0.226054356287599,0.0186513631017264
-0.187367792899918,0.0521662998639824
-0.276232544169257,0.00380589586902411
-0.2873001410596,0.00257150986737393
-0.242558082343625,0.0114291238303075
-0.198640257059432,0.0393131648251101
-0.284355769609651,0.00285856259678581
-0.206106001496439,0.032352692990848
-0.206625316202013,0.0319099303784518
-0.197025140681548,0.0409733895156843
-0.292779149421155,0.00210558194941457
-0.262287276800323,0.00610226637628112
-0.15613744523905,0.106601184273289
-0.198082827513083,0.0398796829588651
-0.147895110921231,0.126636795116127
-0.212199611665509,0.0274712632861493
-0.202280224353544,0.0357771087268291
-0.174823245929504,0.0703518097749284
-0.235759347620199,0.0140374840481521
-0.307682052164587,0.00119833606531744
-0.267423251594894,0.00514273208696103
-0.254978756081517,0.0077411968038446
-0.177686623342804,0.0658041678339695
-0.235816519881363,0.0140135529921794
-0.135341035240623,0.162541803191499
-0.207001700254676,0.0315922389583216
-0.281949770285663,0.003114195349091
-0.239184918934945,0.0126648313823679
-0.233158009737234,0.0151646350268232
-0.263811870431365,0.00580207054337426
-0.139428851913853,0.150103376480533
-0.21175176228639,0.0278073454724443
-0.196882210028637,0.0411230913715432
-0.282821647268415,0.00301927855698097
-0.223391081788374,0.0201263158626067
-0.195300444136432,0.0428105024316633
-0.266184519269673,0.005360956612171
-0.251877160913367,0.00854688518373659
-0.213204890590977,0.0267294254136623
-0.196234257735445,0.0418074803312017
-0.146889831995763,0.129266082403637
-0.198001833476434,0.0399625629032152
-0.147780766398903,0.126933775788243
-0.241190712430785,0.0119167132018238
-0.253754316821587,0.00805087915439431
-0.306695830659507,0.00124501574099035
-0.141372708793431,0.144445889072839
-0.215344086029532,0.0252074200627188
-0.148919447267087,0.124000077962074
-0.22718350844559,0.018054741421327
-0.265412693743958,0.00550105932158279
-0.181107430302454,0.0606874238764424
-0.213090546068649,0.0268129362233031
-0.214962937621772,0.0254730573206868
-0.218941174127771,0.0228147800102675
-0.175471198222697,0.0693010897757724
-0.219293736404949,0.0225910978501687
-0.256531935843141,0.00736353786841567
-0.260600695095983,0.00645035246136064
-0.219784464979941,0.0222828856840835
-0.167295564876236,0.0835276751337663
-0.22901302080284,0.0171230295061956
-0.257470513797251,0.00714330220820181
-0.185633567644609,0.0544215752503299
-0.15777638339242,0.102929872945694
-0.251839046072591,0.00855722934014178
-0.263988151569954,0.00576822118078226
-0.177057728469999,0.0667819475746286
-0.197020376326451,0.04097837223402
-0.19461914135756,0.043554885656791
-0.250357331637422,0.00896800572267124
-0.293365165098087,0.00206056541084171
-0.21372420529655,0.0263529280264772
-0.221151834892781,0.0214430261034558
-0.257117951520073,0.00722533727973797
-0.190702841467822,0.048045709825306
-0.268347536483714,0.00498509508950819
-0.149009970013931,0.123769112012703
-0.23563071003258,0.0140914589599914
-0.238679897294663,0.0128595310270008
-0.276223015459063,0.00380715528223407
-0.307229438430372,0.00121955756400318
-0.195915045943945,0.0421481211871852
-0.223986626175499,0.0197880634628338
-0.192775335935019,0.0456236217449459
-0.27379319435959,0.00414075705984678
-0.146885067640666,0.129278642231285
-0.175776116948905,0.0688110483887073
-0.239223033775722,0.0126502420123671
-0.216478002542619,0.0244310814201698
-0.221442460553699,0.0212680635818173
-0.242224577486835,0.0115464098334236
-0.126931948494409,0.19051135090145
-0.205434227427762,0.0329331279652266
-0.22376270148594,0.019914667926833
-0.248985197369485,0.00936378225660039
-0.141834851237841,0.143124863716278
-0.282492906766722,0.00305475700831516
-0.231309439959596,0.0160126190290908
-0.210346277532774,0.0288848524513028
-0.205529514529702,0.0328502657315941
-0.244049325488988,0.0109173468548806
-0.328154486016418,0.0005260519111764
-0.219060283005196,0.0227390004882586
-0.203437962642116,0.0347100696766203
-0.317558560280679,0.00081136744751301
-0.193151719987682,0.0451948187246157
-0.170597262958461,0.077524554672293
-0.250447854384265,0.00894242107199535
-0.129561872507956,0.181412239698975
-0.2661416400738,0.0053686559606091
-0.182136531003407,0.0592133385643809
-0.142816308387824,0.140349724199048
-0.182746368455823,0.0583537172668385
-0.215301206833659,0.0252371857738742
-0.0513835697211997,0.597409693092199
-0.163345914500819,0.0911901455970524
-0.191284092789656,0.0473559025294429
-0.163255391753976,0.0913720819065391
-0.180392777037903,0.061728625148373
-0.181007378845417,0.0608323225780379
-0.263807106076268,0.00580298783594856
-0.213833785463781,0.026274063391786
-0.270677306126149,0.00460669801080064
-0.207906927723107,0.0308391037433923
-0.270658248705761,0.00460968627234913
-0.287057158949652,0.00259417505932682
-0.230061178924181,0.0166082029916533
-0.160296727238736,0.0974784508618196
-0.258261396743354,0.00696226903335238
-0.22638786114439,0.0184734014137693
-0.101256838876649,0.297073322318596
-0.224777509121602,0.0193464359780634
-0.175947633732397,0.0685366359175065
-0.179149280357585,0.0635750339576477
-0.204600465285786,0.03366572492295
-0.251319731367017,0.00869927171253671
-0.184137560144149,0.0564309156741631
-0.0732281378409679,0.451350241533102
-0.276213486748869,0.00380841506871877
-0.229122600970071,0.0170685684510323
-0.18992625158701,0.048980305677653
-0.227011991662098,0.0181442922583106
-0.247327201795727,0.00986244240695595
-0.192618112216818,0.0458037398944057
-0.1350599382899,0.163424479091994
-0.257613444450161,0.00711028024424355
-0.198787952067439,0.0391641955887477
-0.218007360528758,0.0234164211220969
-0.154045893351465,0.111434046624973
-0.16467993392798,0.0885421322736471
-0.139533667725987,0.149794128704841
-0.235211446784043,0.014268632277341
-0.220823094391088,0.0216424222312685
-0.157233246911361,0.104135382804507
-0.189054374604258,0.0500474478951005
-0.182155588423795,0.0591863194510424
-0.170330459073028,0.0779964153670499
-0.188882857820766,0.0502596228796476
-0.274231515028515,0.00407871120879369
-0.185595452803832,0.0544720281994228
-0.134240469213215,0.166018027627465
-0.236788448321152,0.0136121221587889
-0.179678123773352,0.062784356266797
-0.298429674566204,0.00170631367257743
-0.176600350380687,0.0675004408991292
-0.274140992281672,0.00409145644869091
-0.244463824382427,0.0107787099917477
-0.113586989867698,0.241804842432528
-0.248423003468038,0.00953032565481607
-0.229127365325168,0.0170662039813792
-0.171774058667421,0.0754705968197421
-0.26744707337038,0.00513861417042823
-0.18275113281092,0.058347041923743
-0.204648108836756,0.0336234952446044
-0.241457516316217,0.011820170776148
-0.062017610297715,0.523720728699441
-0.173746501677581,0.0721263220330383
-0.181912606313848,0.0595315696710091
-0.292669569253924,0.00211409767835051
-0.184490122421327,0.0559519770219059
-0.251572242187159,0.00862994786918318
-0.201660858190934,0.0363591872409308
-0.212418771999971,0.0273080602714627
-0.261648853217324,0.00623201597389052
-0.17336535326982,0.0727630603662681
-0.160263376753056,0.097549071280154
-0.235178096298364,0.0142828084219895
-0.226392625499487,0.018470869753876
-0.200445947641197,0.0375240806371398
-0.279267438366049,0.00342325386406461
-0.236721747349794,0.0136393477455205
-0.295251849716501,0.00192148325928465
-0.141491817670857,0.144104540781311
-0.248237193619255,0.00958593927669486
-0.294446673705107,0.00197976499505893
-0.22474892299102,0.0193622492743288
-0.109942258218489,0.257341918977194
-0.169434760314791,0.0795974005788774
-0.201851432394814,0.0361792447522393
-0.269781607367912,0.00474903069481352
-0.191107811651067,0.0475642336040662
-0.178077300460758,0.0652026386478692
-0.304285066980423,0.00136616977100801
-0.21827416441419,0.0232431540876257
-0.0991033503728024,0.307518583618292
-0.25928573308921,0.00673384205824576
-0.13520286894281,0.162975216754951
-0.210555909157042,0.028721925626139
-0.139957695329621,0.148547969043272
-0.258451970947234,0.0069192586445725
-0.197806494917456,0.040163042616005
-0.27416004970206,0.00408877028335833
-0.23399177187921,0.0147951044208543
-0.172807923723471,0.0737024485376812
-0.185690739905773,0.0543459678870987
-0.222128527687667,0.0208598925120853
-0.2166685767465,0.0243026299698443
-0.234801712245701,0.0144436473558699
-0.233682088797905,0.0149314352514188
-0.199488312266699,0.0384642111284836
-0.349846594773082,0.000206112694374478
-0.22460599233811,0.0194414828606379
-0.174961412227317,0.0701266851673434
-0.189283063648914,0.0497656998611307
-0.251877160913367,0.00854688518373659
-0.276999605339875,0.00370572899742597
-0.19931203112811,0.0386394029938497
-0.193385173387436,0.0449305391056821
-0.223962804400014,0.0198014990114302
-0.31574334098872,0.00087252616364614
-0.24783222343601,0.00970813767246312
-0.209512515390798,0.0295406418811682
-0.205105486926068,0.0332203578891626
-0.279877275818466,0.00335066667939592
-0.149252952123878,0.123150787334648
-0.185023730192192,0.055233448896791
-0.192999260624578,0.0453681058015578
-0.153574222196861,0.112547115420641
-0.24347283852225,0.0111127597236329
-0.217883487296236,0.0234972414454617
-0.249628385307581,0.00917638899647393
-0.156961678670832,0.104742269557624
-0.150906183342539,0.119006692964971
-0.165580397041314,0.086789524249012
-0.173646450220544,0.0722930288191195
-0.24215311216038,0.0115716790828467
-0.234058472850568,0.0147658827973264
-0.136898979357344,0.157713868863793
-0.226683251160404,0.0183170034326317
-0.305280817195697,0.00131488476156184
-0.27143960294167,0.00448857649735465
-0.183203746545136,0.0577157299164951
-0.221861723802235,0.0210178188778932
-0.200307781343384,0.0376585196403923
-0.215596596849673,0.0250327400101339
-0.237269648185949,0.0134171074143358
-0.209669739108999,0.0294160218849632
-0.257808783009138,0.00706536872520022
-0.22968003051642,0.0167938408432401
-0.0838097705114162,0.388489235709174
-0.208383363232808,0.0304488575300915
-0.254750067036861,0.00779822431216401
-0.147961811892589,0.126463802803888
-0.275556005745482,0.003896247279136
-0.219217506723397,0.0226393017055199
-0.183846934483232,0.0568282413005754
-0.248418239112941,0.00953174809464063
-0.208407185008293,0.0304294554865602
-0.182312812141996,0.0589637964248145
-0.186514973337554,0.0532655294323069
-0.182136531003407,0.0592133385643809
-0.182708253615047,0.0584071425281014
-0.193661505983062,0.044619379865904
-0.181550515326475,0.0600491146585614
-0.167119283737647,0.0838583405477309
-0.147699772362254,0.127144460180017
-0.118365638029994,0.222437390939979
-0.285099009004783,0.00278350397728279
-0.191069696810291,0.0476093778822069
-0.214334042748967,0.0259165782580052
-0.15322642427478,0.113373383056763
-0.225130071398781,0.019152318160577
-0.228012506232469,0.0176272715857726
-0.207440020923601,0.0312256434098161
-0.224625049758498,0.0194309022747667
-0.160649289515914,0.0967343535109614
-0.204571879155204,0.0336910841864085
-0.275417839447669,0.00391493376207274
-0.262239633249353,0.00611186570370243
-0.268571461173273,0.00494755888113694
-0.172626878229785,0.0740096434689132
-0.217859665520751,0.0235128111429685
-0.317787249325335,0.000803947046842122
-0.12172927272848,0.209478635869327
-0.0946629714223937,0.329803530029017
-0.261982358074115,0.00616393409019666
-0.187544074038508,0.0519414333165177
-0.268571461173273,0.00494755888113694
-0.231757289338715,0.0158034945170837
-0.182041243901467,0.0593485855363263
-0.212304427477643,0.0273931064837905
-0.257732553327586,0.00708286521143843
-0.270967931787066,0.00456134079612992
-0.265965358935211,0.00540041234362738
-0.248623106382113,0.00947075142534455
-0.206063122300566,0.0323894821332481
-0.199388260809662,0.0385635624967447
-0.295513889246836,0.00190285351799338
-0.282392855309684,0.00306562894097456
-0.303060627720492,0.0014317233648865
-0.227526542012574,0.0178767839343546
-0.289134417771947,0.00240608848048007
-0.19986946067446,0.0380876921791763
-0.204762453359084,0.0335223262007424
-0.278038234751022,0.00357386553783748
-0.226406918564778,0.0184632765699752
-0.277852424902239,0.00359714219068677
-0.224515469591267,0.0194918084305406
-0.162078596045015,0.0937635213005808
-0.208835976967023,0.0300820048191887
-0.232024093224147,0.0156800385584703
-0.209931778639334,0.0292093125895843
-0.170911710394863,0.0769713788787459
-0.228922498055997,0.0171681323572046
-0.243001167367647,0.0112749141844144
-0.239775698966974,0.0124403382312179
-0.162073831689918,0.0937733028499787
-0.156899742054571,0.10488106921914
-0.299306315904052,0.0016509308644932
-0.145236600777103,0.133680689992074
-0.196987025840772,0.0410132654351323
-0.21798830310837,0.0234288395154274
-0.0349941881875022,0.719184652665673
-0.247284322599854,0.00987564242190517
-0.187405907740694,0.0521176121873977
-0.240094910758473,0.0123204912242827
-0.217164069676588,0.0239713537066992
-0.272030382973698,0.00439890076479141
-0.255836339998978,0.00753061085468751
-0.190526560329233,0.0482565510289122
-0.199621714209415,0.0383320763115084
-0.18458064516817,0.0558295461918868
-0.28496084270697,0.00279732145187751
-0.138456923474064,0.152993842853898
-0.216582818354753,0.0243603615371507
-0.236640753313145,0.0136724711207528
-0.248823209296187,0.00941150483842643
-0.264945786944452,0.0055873855088966
-0.162983823513446,0.0919196170378386
-0.245616798315902,0.0104011586218711
-0.256241310182224,0.00743293948852892
-0.248099027321442,0.00962747769760902
-0.273898010171724,0.004125843702567
-0.285842248399916,0.00271022435419976
-0.28871515452341,0.0024430287910705
-0.223124277902941,0.0202794589085915
-0.212514059101911,0.0272373600818786
-0.229718145357196,0.0167751966099116
-0.257699202841907,0.00709053197478573
-0.244387594700875,0.0108040900456288
-0.122329581470702,0.207223760542751
-0.20804509402092,0.0307254989757197
-0.289291641490148,0.00239236631314857
-0.209536337166283,0.0295217313404715
-0.238460736960201,0.0129448323278681
-0.188482651992618,0.0507575890193334
-0.317072596060784,0.000827344212232859
-0.17899682099448,0.0638044768924579
-0.160820806299406,0.0963739831355062
-0.175628421940898,0.0690480605313281
-0.194847830402216,0.0433038302609645
-0.125831382467001,0.194415861518089
-0.276742330164636,0.00373905887862181
-0.189378350750854,0.0496486924562515
-0.20508642950568,0.0332370735007351
-0.288781855494768,0.00243711791253415
-0.210894178368929,0.0284606660755349
-0.296123726699253,0.00186012852668085
-0.164179676642795,0.0895278855159072
-0.261463043368541,0.00627023606743513
-0.164174912287698,0.0895373153469172
-0.280186958899771,0.00331433753335377
-0.300330652249909,0.00158828603778128
-0.306314682251747,0.0012634952806371
-0.180340369131836,0.0618055500374238
-0.159453436386566,0.099276546606608
-0.140424602129127,0.147184838765582
-0.1767385166785,0.0672827381542839
-0.233758318479457,0.0148977760662831
-0.251019576995906,0.00878231329993852
-0.147628307035799,0.1273305808395
-0.178548971615362,0.0644823669328897
-0.254221223621093,0.00793152364329233
-0.30809178670293,0.00117941559763216
-0.267347021913342,0.00515592918174092
-0.172769808882695,0.0737670356000557
-0.253816253437848,0.00803495563464924
-0.170149413579342,0.078317917336963
-0.0955443771153397,0.325299973216107
-0.215224977152107,0.0252901766408239
-0.224386832003648,0.0195635166730404
-0.148033277219044,0.126278655235469
-0.158448157461098,0.101454012816918
-0.175818996144778,0.0687423619776308
-0.248742215259538,0.00943544622696501
-0.1942379929498,0.0439760039514143
-0.206310868765611,0.0321774093754315
-0.283002692762101,0.00299989830684502
-0.317792013680432,0.000803793117380829
-0.241557567773254,0.0117841440366542
-0.124907097578182,0.19773942938168
-0.246074176405215,0.0102546303835783
-0.213171540105298,0.0267537598298847
-0.191079225520485,0.0475980884852161
-0.220832623101282,0.021636620322262
-0.17373220861229,0.0721501182701397
-0.238536966641753,0.0129151065124555
-0.228984434672258,0.0171372614285879
-0.278871996892998,0.0034710730973971
-0.25413070087425,0.00795454117304304
-0.172950854376381,0.0734606528958012
-0.152340254226737,0.115499960844744
-0.282531021607498,0.00305062444535125
-0.123010884249574,0.204685751540856
-0.276332595626294,0.00379269454274161
-0.176719459258112,0.0673127322103013
-0.198964233206029,0.0389870124627315
-0.276022912544989,0.00383368933350777
-0.25201532721118,0.00850947993664478
-0.28055381424224,0.00327175932652539
-0.199950454711109,0.0380080811937539
-0.193475696134279,0.0448284095707383
-0.210841770462862,0.0285010103184807
-0.272254307663258,0.00436533133962862
-0.289810956195721,0.00234754195752521
-0.24783222343601,0.00970813767246312
-0.224915675419415,0.0192701617748636
-0.283345726329085,0.00296348434267671
-0.229694323581711,0.0167868471555096
-0.316615217971472,0.000842643434541799
-0.222647842393241,0.02055542192255
-0.209817434117006,0.0292993609926553
-0.22559221384319,0.0189004099239434
-0.177572278820476,0.0659810756098933
-0.257632501870549,0.00710588753837021
-0.271911274096273,0.00441685064562028
-0.191846286691103,0.0466965420619205
-0.242786771388281,0.0113493028468981
-0.238146289523798,0.0130680828576595
-0.274884231676804,0.00398785784502289
-0.310759825557253,0.00106272104773761
-0.296862201739289,0.00180955512342047
-0.115187813180292,0.235190711388535
-0.241848193434171,0.0116800388136813
-0.181464756934729,0.0601722282400768
-0.300673685816893,0.00156779447280639
-0.128318375827638,0.185674100189628
-0.222881295792994,0.0204197993185629
-0.269081247168652,0.00486304233639889
-0.235354377436953,0.0142080158696722
-0.29663827704973,0.00182475709716239
-0.281582914943194,0.00315492829039679
-0.261472572078735,0.00626827101479263
-0.239728055416004,0.012458312850052
-0.236159553448347,0.013870710740025
-0.144498125737067,0.135689394062661
-0.218822065250346,0.0228907757090089
-0.129399884434658,0.181963334236207
-0.235492543734767,0.0141496330225825
-0.196977497130578,0.0410232394778398
-0.25600785678247,0.00748910652837877
-0.328454640387529,0.000519515207404587
-0.215134454405264,0.0253532265568509
-0.18828731343364,0.0510021194073962
-0.180697695764111,0.0612826102477951
-0.149171958087229,0.123356630791927
-0.221128013117296,0.0214574219184776
-0.135731712358577,0.161320928064304
-0.206730132014147,0.031821189294169
-0.260395827826812,0.00649381121543582
-0.185528751832474,0.0545604134088947
-0.212323484898031,0.0273789164923285
-0.272983253993099,0.00425763189794454
-0.192127383641826,0.04636972863978
-0.313156296171046,0.000966985458057897
-0.155175045509455,0.108804218238709
-0.193904488093009,0.0443472569218833
-0.27326911529892,0.00421604945608265
-0.255883983549948,0.00751906153142251
-0.0933718311911053,0.336472124913485
-0.21358127464364,0.0264560978835424
-0.279862982753175,0.00335235200575736
-0.223638828253418,0.0199850034303564
-0.257108422809879,0.00722756596365292
-0.147094699264935,0.128726893127426
-0.23849408744588,0.0129318199503702
-0.208974143264836,0.0299707669416252
-0.254149758294638,0.00794969048297213
-0.219922631277754,0.0221967604845832
-0.132420485566159,0.171887058379527
-0.186686490121047,0.0530429363079912
-0.236531173145914,0.0137173965656443
-0.242329393298969,0.0115094355825346
-0.214634197120078,0.0257040835078476
-0.260910378177289,0.00638514855507812
-0.28224039594658,0.00308226258699222
-0.216025388808404,0.0247384800112907
-0.158829305868858,0.100624062095866
-0.268371358259199,0.00498108984568459
-0.283531536177869,0.00294392654629358
-0.22427248748132,0.0196274479114108
-0.201217773166912,0.0367804614009449
-0.338369263344397,0.000341267307613128
-0.185662153775191,0.0543837607630715
-0.248646928157598,0.00946368110893521
-0.241305056953113,0.0118752538109455
-0.230246988772964,0.0165183504060473
-0.244987903443098,0.0106056321217708
-0.201203480101621,0.0367941188379998
-0.231790639824394,0.0157880165799464
-0.172798395013277,0.0737185910285643
-0.214753305997503,0.0256201728364253
-0.249571213046417,0.00919291151814282
-0.246207578347931,0.0102122355810446
-0.305795367546173,0.00128907543743586
-0.250614606812661,0.00889545961990494
-0.189559396244541,0.0494270049845255
-0.180669109633529,0.0613243120740391
-0.232691102937728,0.0153750512993901
-0.193909252448106,0.0443419350091749
-0.246307629804968,0.0101805404873484
-0.208616816632561,0.0302591684710586
-0.231995507093565,0.0156932258565482
-0.166595204676976,0.0848475729207909
-0.202227816447477,0.035826056212826
-0.206153645047409,0.0323118575621744
-0.239651825734452,0.0124871193973584
-0.223624535188127,0.019993132802846
-0.19368056340345,0.0445979868258124
-0.152249731479894,0.115718920690852
-0.271606355370065,0.00446310086663719
-0.161859435710553,0.0942143081847423
-0.232248017913706,0.015577070110595
-0.261882306617078,0.00618428900063965
-0.198544969957492,0.0394095254655173
-0.12379700284058,0.201785062169952
-0.261753669029458,0.00621054725189411
-0.167581426182056,0.082993674356434
-0.166947766954155,0.0841810709598235
-0.146970826032412,0.129052708245199
-0.131110287914483,0.176205930517867
-0.246703071278019,0.0100561127145013
-0.178553735970459,0.0644751246218065
-0.185657389420094,0.0543900616765936
-0.200860446534637,0.0371231769466569
-0.199878989384654,0.0380783189319855
-0.280377533103651,0.0032921572931084
-0.228469884321781,0.0173951908322992
-0.233686853153002,0.0149293296191531
-0.189025788473676,0.0500827589015049
-0.184304312572544,0.056203973021852
-0.31217960337616,0.00100500995904548
-0.172927032600896,0.0735009076981142
-0.157671567580286,0.103161659261915
-0.228565171423721,0.0173471745199002
-0.161564045694539,0.0948245984873108
-0.206968349768997,0.0316202804399467
-0.210250990430834,0.0289591689769876
-0.209040844236194,0.0299171907628837
-0.247884631342077,0.00969224705042768
-0.211746997931293,0.0278109395170779
-0.178925355668025,0.0639122601091324
-0.100747052881269,0.299524598493155
-0.183637302858963,0.05711625896888
-0.253587564393192,0.00809388867590137
-0.152983442164833,0.113953428101804
-0.212085267143181,0.0275567414374332
-0.186052830893145,0.0538691249837758
-0.180259375095187,0.0619245877783929
-0.266532317191755,0.00529886862923865
-0.145365238364722,0.133333118095839
-0.144417131700418,0.135911094397325
-0.11900882596809,0.219916688184178
-0.207163688327974,0.0314563363467583
-0.297643555975198,0.00175740429010068
-0.180797747221148,0.0611368361210779
-0.240218783990996,0.0122742556789735
-0.212742748146567,0.0270683146359229
-0.313108652620076,0.000968809405138528
-0.14430278717809,0.136224552351812
-0.152659466018236,0.114730401261048
-0.168462831875002,0.0813643200885739
-0.172150442720084,0.07482298314562
-0.208006979180144,0.0307568027852189
-0.30269853673312,0.00145164923002244
-0.298215278586838,0.00172011222541248
-0.377456032560227,5.64909503967702e-05
-0.16918224949465,0.0800534693579412
-0.227993448812081,0.0176369993983501
-0.213147718329813,0.026771153099638
-0.266174990559479,0.00536266672860272
-0.197029905036645,0.040968407303404
-0.194852594757313,0.0432986127840348
-0.239842399938332,0.0124152118006852
-0.202689958891887,0.0353963630472606
-0.237617446108031,0.0132776757141991
-0.194623905712657,0.0435496430018904
-0.225411168349504,0.0189987532635509
-0.15411735867792,0.111266149466386
-0.162254877183605,0.0934021707351358
-0.23709336704736,0.0134882641127546
-0.263101981521911,0.00594017654793995
-0.203838168470265,0.0343475042646793
-0.112329200122089,0.24709137749783
-0.292845850392514,0.00210041365655133
-0.154612851608009,0.110107469863562
-0.261601209666354,0.0062417962368179
-0.332918841113423,0.000430703351430309
-0.194723957169694,0.0434396685687109
-0.17842509838284,0.064670899453838
-0.240404593839779,0.0122051864794494
-0.123982812689363,0.201103782961817
-0.196724986310436,0.0412882906885561
-0.225068134782519,0.0191862979187529
-0.223467311469926,0.0200827438489727
-0.241314585663307,0.0118718045596107
-0.173870374910103,0.0719203532785193
-0.131377091799915,0.17532004753492
-0.193947367288882,0.0442993788304614
-0.175771352593808,0.0688186836424495
-0.268966902646324,0.0048818865010614
-0.188944794437027,0.0501829185689764
-0.189749970448421,0.0491945347310602
-0.0856773977094422,0.377967423834022
-0.194928824438865,0.0432152043352795
-0.133644924826089,0.167921934729375
-0.11554037545747,0.233751156543186
-0.236183375223832,0.0138608383635466
-0.323594998188584,0.00063509856249522
-0.257842133494817,0.00705772604915451
-0.203928691217108,0.0342659392874544
-0.18138376289808,0.0602886915197834
-0.179335090206368,0.0632963093221241
-0.174594556884848,0.0707257138382625
-0.196177085474281,0.0418683212048855
-0.285737432587782,0.0027204523000757
-0.129938256560619,0.180136471936544
-0.207787818845682,0.0309373240090015
-0.212966672836127,0.0269036567798814
-0.342538074054276,0.00028478810816073
-0.293827307542497,0.00202568036764139
-0.277323581486471,0.0036641368826425
-0.233715439283584,0.014916701240124
-0.199855167609169,0.0381017556762848
-0.197511104901442,0.0404678038098837
-0.225106249623295,0.0191653811567543
-0.213895722080043,0.0262295767269354
-0.171945575450913,0.0751749245859626
-0.182870241688346,0.0581803614687302
-0.243148862375654,0.0112239172510263
-0.245607269605708,0.0104042307215838
-0.198506855116716,0.0394481250264447
-0.181903077603654,0.059545142386035
-0.227078692633456,0.018109421477
-0.231933570477304,0.0157218313326761
-0.154012542865786,0.111512466048192
-0.236974258169935,0.0135365288383979
-0.2505526701964,0.00891287703592443
-0.232005035803759,0.0156888290223218
-0.168257964605831,0.0817407333719003
-0.209231418440075,0.0297645629564419
-0.202823360834603,0.0352731371867089
-0.194318986986449,0.0438862339223773
-0.223967568755111,0.0197988112737629
-0.19396642470927,0.0442781134856885
-0.250000005005147,0.00906962805262013
-0.235178096298364,0.0142828084219895
-0.166071125616306,0.085846087331134
-0.236526408790817,0.0137193527577246
-0.129623809124217,0.181201850099253
-0.244306600664226,0.0108311137156653
-0.274693657472924,0.00401419531298271
-0.266913465599515,0.00523156295883266
-0.263073395391329,0.00594579851709938
-0.280925433939807,0.00322912958611277
-0.276327831271197,0.00379332224601047
-0.238246340980835,0.0130287562746343
-0.231595301265416,0.0158788603372735
-0.213609860774222,0.0264354364386445
-0.23004688585889,0.0166151322200773
-0.281520978326933,0.0031618523180229
-0.224615521048304,0.0194361919476333
-0.189102018155228,0.0499886419384132
-0.286290097779035,0.00266691214505411
-0.197411053444405,0.0405714665625511
-0.195219450099783,0.0428984364610448
-0.177138722506648,0.0666553636948149
-0.12357307815102,0.202608293051509
-0.174832774639698,0.0703362651987168
-0.23545442889399,0.0141657177559868
-0.214286399197997,0.0259504448954865
-0.278690951399311,0.00349316554678773
-0.168153148793697,0.0819338547108165
-0.225454047545377,0.0189754216494568
-0.261034251409811,0.00635923112699201
-0.237112424467748,0.0134805556829314
-0.167524253920892,0.0831002557955637
-0.184871270829088,0.0554379647485219
-0.24679835837996,0.0100263304741905
-0.185333413273497,0.0548199343597871
-0.190107297080696,0.0487610906846484
-0.313732783137784,0.000945162771580412
-0.2787100088197,0.00349083410079176
-0.23746022238983,0.0133405493269706
-0.249671264503454,0.00916401425684586
-0.157900256624942,0.102656470244898
-0.225635093039063,0.0188771824590265
-0.229270295978078,0.0169954015019746
-0.223100456127456,0.0202931809987414
-0.237388757063375,0.0133692138901652
-0.332642508517797,0.000435766521545813
-0.268061675177893,0.00503338241337191
-0.177052964114902,0.0667893997574347
-0.166261699820186,0.0854819137046888
-0.30589541900321,0.00128411080771895
-0.207697296098839,0.0310121483301632
-0.270410502240717,0.00464869143677549
-0.184694989690498,0.0556752112260573
-0.221027961660259,0.0215179749606676
-0.200083856653825,0.0378772613343704
-0.245764493323909,0.010353642715696
-0.153216895564586,0.113396086643765
-0.313337341664732,0.000960083011108309
-0.174785131088728,0.0704140158652142
-0.324614570179343,0.000609054998226101
-0.250771830530862,0.0088513807039811
-0.150067656845466,0.121094924536577
-0.256741567467409,0.00731383403256848
-0.182069830032049,0.0593079849384305
-0.187910929380977,0.0514760299593969
-0.210417742859229,0.0288292213239692
-0.138109125551983,0.154038253135659
-0.305004484600071,0.00132893848791244
-0.195376673817984,0.0427278782640099
-0.208407185008293,0.0304294554865602
-0.27365026370668,0.0041611711515685
-0.27487470296661,0.0039891710362826
-0.116264557432215,0.230813571243319
-0.260391063471715,0.0064948249657247
-0.267218384325723,0.00517826769708813
-0.156804454952631,0.105094888166964
-0.163546017414893,0.0907889893956035
-0.249423518038409,0.00923571589941839
-0.273254822233629,0.00421811992247938
-0.27454119810982,0.00403537724588512
-0.146456275681936,0.130412857282535
-0.166819129366535,0.0844237684493975
-0.265022016626004,0.00557320965915862
-0.199955219066206,0.0380034025421607
-0.131515258097728,0.174862576142422
-0.256022149847761,0.00748565697907626
-0.205391348231889,0.0329704734754875
-0.280387061813845,0.00329105178783711
-0.125431176638852,0.19584993747493
-0.228631872395079,0.0173136313116226
-0.241490866801896,0.0118081511792669
-0.291831042756851,0.00218029908542977
-0.244911673761546,0.0106306546796406
-0.297738843077138,0.00175113850564378
-0.162459744452776,0.0929836075237669
-0.163703241133094,0.0904747778228904
-0.218402802001809,0.0231600074279474
-0.204843447395733,0.0334508201973485
-0.235778405040587,0.0140295030819136
-0.226263987911868,0.0185393297238722
-0.271625412790453,0.00446019760483178
-0.20653479345517,0.0319867386170822
-0.168062626046854,0.082100934748494
-0.253921069249982,0.00800807145474677
-0.171259508316944,0.0763632312309504
-0.179868697977232,0.0625013993645836
-0.193051668530645,0.045308476208355
-0.263364021052246,0.00588886145845628
-0.165204012988651,0.0875187077278957
-0.135603074770958,0.161722167337314
-0.16533265057627,0.0872689470595719
-0.234025122364889,0.0147804873356788
-0.140457952614806,0.147087834275229
-0.248766037035023,0.00942839908967924
-0.164722813123853,0.0884580419887595
-0.25750386428293,0.00713558496886833
-0.189302121069302,0.0497422801619123
-0.230590022339948,0.0163535740443936
-0.133749740638223,0.167585680368445
-0.231018814298679,0.0161496069415987
-0.256355654704552,0.00740556522743896
-0.218493324748652,0.0231016495447137
-0.125207251949293,0.19665566360312
-0.186567381243621,0.0531974334104551
-0.180740574959984,0.0612201009160738
-0.211170510964556,0.0282487429349177
-0.30091666792684,0.00155342511095059
-0.227950569616208,0.0176589039366885
-0.201637036415449,0.0363817328263521
-0.217006845958387,0.0240760495692425
-0.243820636444331,0.0109945028371662
-0.213157247040007,0.026764194637017
-0.245416695401828,0.0104658400686359
-0.269395694605055,0.00481155491446734
-0.247679764072906,0.00975449516482924
-0.170220878905797,0.0781908818721168
-0.202613729210335,0.0354669402578059
-0.221990361389854,0.0209415480647096
-0.244044561133891,0.010918949420573
-0.259104687595524,0.00677372551500477
-0.208874091807799,0.0300512836280209
-0.295971267336149,0.00187072754296669
-0.254559492832981,0.00784603032550881
-0.214872414874929,0.0255364958521433
-0.280296539067002,0.00330156755864018
-0.261744140319264,0.00621249623799325
-0.235030401290357,0.014345735809658
-0.266413208314329,0.00532005917748383
-0.20179426013365,0.036233148757272
-0.170016011636626,0.0785554932490787
-0.207192274458556,0.0314324049222688
-0.158800719738276,0.10068612279507
-0.171916989320331,0.0752241384458653
-0.245364287495761,0.0104828386292479
-0.223796051971619,0.0198957678797154
-0.259881277476335,0.00660411038367749
-0.215782406698457,0.0249048625959223
-0.175042406263966,0.0699949867297354
-0.224148614248797,0.01969690965127
-0.232457649537974,0.015481206154781
-0.24385398693001,0.0109832212613361
-0.193451874358794,0.0448552670339836
-0.255455191591218,0.00762357130427809
-0.217683384382162,0.0236283014410804
-0.22869380901134,0.017282534268914
-0.224968083325482,0.0192412980243249
-0.182956000080092,0.0580605931794861
-0.195357616397596,0.0427485218356312
-0.242824886229057,0.0113360468888118
-0.151759002904902,0.116911516477929
-0.28130181799247,0.00318646248766985
-0.294213220305354,0.00199695981486522
-0.234997050804678,0.0143599785355182
-0.215572775074188,0.025049175006985
-0.205915427292559,0.0325164708222589
-0.225334938667952,0.0190402927430982
